{
    "in_shape": [
        null,
        null,
        1
    ],
    "layers": [
        {
            "type": "lstm",
            "activation": "",
            "shape": [
                null,
                null,
                40
            ],
            "weights": [
                [
                    [
                        0.0028892606496810913,
                        -0.08347385376691818,
                        0.0024141676258295774,
                        0.0002830970042850822,
                        0.04906937852501869,
                        0.005531258415430784,
                        0.000530131917912513,
                        0.0004836199223063886,
                        0.0019964962266385555,
                        0.018993733450770378,
                        0.0005918326787650585,
                        0.024024229496717453,
                        0.0056078070774674416,
                        0.004121074918657541,
                        0.003492396790534258,
                        -0.028152255341410637,
                        0.03495565801858902,
                        0.00015192535647656769,
                        0.001675073173828423,
                        0.0008623390458524227,
                        0.25581154227256775,
                        0.0014485627179965377,
                        0.051772452890872955,
                        -0.04035545513033867,
                        -0.0032905819825828075,
                        0.008285311050713062,
                        -0.013874671421945095,
                        0.002498302375897765,
                        0.0008677763398736715,
                        -9.804946603253484e-05,
                        -0.025466131046414375,
                        0.003213111776858568,
                        0.0016699704574421048,
                        0.03323599696159363,
                        -0.0017741586780175567,
                        0.00045465503353625536,
                        -0.001780211110599339,
                        0.031876854598522186,
                        0.00022098844056017697,
                        0.0003871422668453306,
                        0.0017436783527955413,
                        -0.0640692338347435,
                        0.002161172451451421,
                        0.0004380824975669384,
                        -0.055963702499866486,
                        0.005282049532979727,
                        0.00034010034869425,
                        0.0002583430614322424,
                        0.0016609781887382269,
                        0.0419318713247776,
                        0.0005734570440836251,
                        0.03634417802095413,
                        0.0030314328614622355,
                        0.0030329348519444466,
                        0.024632273241877556,
                        -0.07303386181592941,
                        -0.04616464674472809,
                        -1.1988845471933018e-05,
                        0.0012326240539550781,
                        0.05995837226510048,
                        -0.07454310357570648,
                        0.005031992681324482,
                        0.05387680232524872,
                        -0.10832767188549042,
                        -0.08538123220205307,
                        0.0035259362775832415,
                        -0.04231315851211548,
                        0.0019022793276235461,
                        0.0005898536182940006,
                        -3.7681786579923937e-06,
                        -0.004398600663989782,
                        0.018008746206760406,
                        0.0012067124480381608,
                        0.05581178516149521,
                        -0.028503108769655228,
                        0.0002348394918954,
                        0.02347739413380623,
                        0.034340765327215195,
                        0.00011982100841123611,
                        0.0002965320891235024,
                        -0.007120933849364519,
                        0.0834001675248146,
                        -0.010354381054639816,
                        0.015499396249651909,
                        -0.012927329167723656,
                        0.04429344832897186,
                        0.0005435371422208846,
                        -0.00019979552598670125,
                        -0.016029588878154755,
                        -0.14226000010967255,
                        -0.004936165176331997,
                        0.002574256621301174,
                        -0.0020703577902168036,
                        -0.05887402594089508,
                        -0.12353657931089401,
                        4.595151424407959,
                        -1.9884756803512573,
                        0.010078624822199345,
                        -0.002111779758706689,
                        0.20672845840454102,
                        0.3480212092399597,
                        -0.029029538854956627,
                        0.37204429507255554,
                        0.018322885036468506,
                        0.2506121098995209,
                        -0.23684190213680267,
                        0.035021282732486725,
                        0.006397373508661985,
                        -0.0026535377837717533,
                        -0.007439037319272757,
                        -0.12382260710000992,
                        0.19989028573036194,
                        -0.008985750377178192,
                        0.20749886333942413,
                        -0.040968362241983414,
                        -0.00258261407725513,
                        -0.08668683469295502,
                        -0.014261559583246708,
                        0.011215447448194027,
                        0.018824053928256035,
                        0.0035506878048181534,
                        -0.07790569216012955,
                        0.002444614889100194,
                        0.0003232515591662377,
                        0.11829130351543427,
                        0.006208776496350765,
                        0.0005689972313120961,
                        0.0004933535237796605,
                        0.00207912502810359,
                        0.01620296575129032,
                        0.0007383438642136753,
                        0.020912598818540573,
                        0.005723488051444292,
                        0.004675818607211113,
                        0.007755132857710123,
                        0.0016831276006996632,
                        0.011969045735895634,
                        0.00017228015349246562,
                        0.0017995741218328476,
                        -0.04911072179675102,
                        0.16580051183700562,
                        0.003326882142573595,
                        0.052024245262145996,
                        -0.034805648028850555,
                        -0.0624675527215004,
                        0.013145223259925842,
                        0.03983123600482941,
                        0.002699903678148985,
                        0.0009601187775842845,
                        -0.00010857577581191435,
                        -0.027181198820471764,
                        0.009865420870482922,
                        0.0018762085819616914,
                        0.04971279203891754,
                        -0.0015397996176034212,
                        0.00047225289745256305,
                        -0.0004561483219731599,
                        0.016384247690439224,
                        0.00024283396487589926,
                        0.0004123385588172823
                    ]
                ],
                [
                    [
                        0.0047851502895355225,
                        0.03693695366382599,
                        -9.363691788166761e-05,
                        -4.962696766597219e-05,
                        -0.001169795636087656,
                        -0.0007429338875226676,
                        0.01183182094246149,
                        0.013589323498308659,
                        0.0005056112422607839,
                        0.002896371530368924,
                        0.0001902055082609877,
                        -0.0028974611777812243,
                        0.00980210117995739,
                        -0.0002750414714682847,
                        -0.0069634257815778255,
                        -0.0079115629196167,
                        -0.0065962024964392185,
                        8.559929483453743e-06,
                        0.002741167787462473,
                        -0.023076819255948067,
                        0.06544194370508194,
                        -0.0019301793072372675,
                        -0.003617699956521392,
                        -0.013961216434836388,
                        -0.012473542243242264,
                        -0.006114541087299585,
                        -0.0015709300059825182,
                        0.0034636380150914192,
                        0.0074779316782951355,
                        5.294838956615422e-06,
                        0.00019916250312235206,
                        -0.003906711004674435,
                        0.008522319607436657,
                        -0.0005360248615033925,
                        -0.004383007064461708,
                        1.7803658920456655e-05,
                        -0.0016639857785776258,
                        -0.0014037282671779394,
                        0.0026971164625138044,
                        -1.3120976291247644e-05,
                        0.007156697101891041,
                        0.03532734513282776,
                        -7.241849380079657e-05,
                        7.406749500660226e-05,
                        0.00018968032964039594,
                        -0.0007385013159364462,
                        0.011663948185741901,
                        0.016485394909977913,
                        0.00027544869226403534,
                        0.001432699733413756,
                        0.00020541396224871278,
                        0.0040984200313687325,
                        0.015947112813591957,
                        -8.92453026608564e-05,
                        -0.0056176199577748775,
                        0.0309295617043972,
                        0.03833618387579918,
                        1.1330474080750719e-05,
                        0.0022263070568442345,
                        -0.10912851989269257,
                        0.10008182376623154,
                        -0.0014087496092543006,
                        -0.006556943990290165,
                        -0.015630947425961494,
                        -0.0018543865298852324,
                        -0.0037287226878106594,
                        -0.004406327847391367,
                        0.003218536265194416,
                        0.008321858011186123,
                        9.259287594431953e-07,
                        0.0015643781516700983,
                        -0.0034743875730782747,
                        0.01098025031387806,
                        -0.002097577787935734,
                        0.0008204432087950408,
                        5.385542863223236e-06,
                        -0.002607091097161174,
                        -0.0014708503149449825,
                        0.0008631907985545695,
                        -9.676828085503075e-06,
                        -0.04158345237374306,
                        0.12457279860973358,
                        -0.03345838934183121,
                        -0.014748030342161655,
                        0.006490663625299931,
                        0.016422385349869728,
                        -0.05070146918296814,
                        -0.04446350038051605,
                        -0.03221721947193146,
                        -0.01010510977357626,
                        0.005193314980715513,
                        0.07207431644201279,
                        -0.07698334008455276,
                        -0.0056439959444105625,
                        -0.02010544389486313,
                        -0.06268174201250076,
                        -0.07858004420995712,
                        0.050541460514068604,
                        -0.04805491864681244,
                        -0.13524945080280304,
                        0.06083722040057182,
                        0.007719472981989384,
                        0.019969966262578964,
                        -0.06330741196870804,
                        0.005023469217121601,
                        0.0905442163348198,
                        0.008365629240870476,
                        -0.04795386642217636,
                        0.047221288084983826,
                        -0.0345160998404026,
                        -0.010447347536683083,
                        0.008733507245779037,
                        0.03366967663168907,
                        0.041455622762441635,
                        -0.11173780262470245,
                        0.08516866713762283,
                        0.02202306129038334,
                        -0.010713559575378895,
                        0.05207402631640434,
                        0.02109915018081665,
                        0.0020313761197030544,
                        0.014144603163003922,
                        -0.00012175536539871246,
                        -4.0249829908134416e-05,
                        0.008235594257712364,
                        -0.0007537245401181281,
                        0.013696826063096523,
                        0.01617901213467121,
                        0.000529880344402045,
                        0.00634195888414979,
                        0.0002381841477472335,
                        -0.0045331199653446674,
                        0.01063419971615076,
                        -0.00045404661796055734,
                        -0.00911544170230627,
                        -0.013300069607794285,
                        -0.011802633292973042,
                        8.716095180716366e-06,
                        0.0032352947164326906,
                        -0.054320111870765686,
                        -0.045568667352199554,
                        -0.002441342920064926,
                        -0.004134857561439276,
                        -0.020697494968771935,
                        0.0006445672479458153,
                        -0.007080491632223129,
                        -0.010524329729378223,
                        0.004013705067336559,
                        0.009096566587686539,
                        5.6714088714215904e-06,
                        0.0011978805996477604,
                        -0.003970043733716011,
                        0.011404033750295639,
                        -0.0009062772151082754,
                        -0.004532863385975361,
                        3.6762664876732742e-06,
                        -0.002191966399550438,
                        0.006603837013244629,
                        0.0031087996903806925,
                        -2.8735674277413636e-05
                    ],
                    [
                        -0.002214668784290552,
                        0.31170618534088135,
                        -0.00165190186817199,
                        -0.0006078528240323067,
                        -0.018516436219215393,
                        -0.007630496751517057,
                        0.00035178125835955143,
                        0.0003280729870311916,
                        -0.001190986018627882,
                        -0.06679222732782364,
                        6.464179023168981e-05,
                        0.0036586772184818983,
                        -0.0015177690656855702,
                        -0.0003755397628992796,
                        -0.02724951133131981,
                        -0.10247865319252014,
                        -0.02867945283651352,
                        0.00035637273686006665,
                        -0.0011773064034059644,
                        -0.05868423730134964,
                        -0.06568291783332825,
                        -0.018056677654385567,
                        -0.035304468125104904,
                        0.00454771937802434,
                        0.13600613176822662,
                        -0.019352611154317856,
                        -0.0006841782014816999,
                        -0.001826793304644525,
                        -8.75900877872482e-05,
                        5.497431266121566e-05,
                        -0.0209727194160223,
                        -0.03016371838748455,
                        -0.0008401031955145299,
                        -0.02570956014096737,
                        -0.02031398005783558,
                        -0.00023082582629285753,
                        -0.010050867684185505,
                        0.017340686172246933,
                        -0.00019273973884992301,
                        -0.000266622198978439,
                        -0.0022742629516869783,
                        0.33439263701438904,
                        -0.0014160596765577793,
                        -0.0008491754997521639,
                        -0.026834435760974884,
                        -0.006953272968530655,
                        0.000641585560515523,
                        0.001453507225960493,
                        -0.0011215064441785216,
                        -0.08296170830726624,
                        1.0465596460562665e-05,
                        -0.06490710377693176,
                        0.0022714168298989534,
                        -5.202965985517949e-05,
                        -0.021996423602104187,
                        -0.2462850660085678,
                        0.0005940767587162554,
                        0.00045145786134526134,
                        -0.001114755286835134,
                        -0.20339874923229218,
                        -0.06229119747877121,
                        -0.015433210879564285,
                        -0.05607851222157478,
                        0.14333991706371307,
                        0.025642622262239456,
                        -0.008661850355565548,
                        0.0012206786777824163,
                        -0.0015872938092797995,
                        8.965255983639508e-05,
                        5.229976522969082e-05,
                        -0.01178144570440054,
                        -0.02405370958149433,
                        -0.00035355499130673707,
                        -0.04498940333724022,
                        0.05130912363529205,
                        -0.0002613801334518939,
                        -0.009567572735249996,
                        -0.014567050151526928,
                        -0.00017991842469200492,
                        -0.0002502668648958206,
                        0.038050517439842224,
                        0.18100643157958984,
                        -0.013433429412543774,
                        -0.02676904760301113,
                        -0.056790366768836975,
                        0.007984008640050888,
                        0.009345603175461292,
                        0.007153723388910294,
                        -0.029025305062532425,
                        0.04973256587982178,
                        0.03862813860177994,
                        -0.05168033391237259,
                        -0.04314091056585312,
                        0.013780017383396626,
                        -0.026341674849390984,
                        0.20911996066570282,
                        -0.17798343300819397,
                        0.030717993155121803,
                        -0.02979176864027977,
                        -0.5667787790298462,
                        -0.34955623745918274,
                        -0.03849212825298309,
                        -0.0727212131023407,
                        -0.11675155907869339,
                        0.09254730492830276,
                        0.17794610559940338,
                        -0.08025018870830536,
                        -0.03644144535064697,
                        -0.0005603559548035264,
                        -0.001428095856681466,
                        0.038718078285455704,
                        -0.006229262799024582,
                        0.0107023436576128,
                        -0.28896409273147583,
                        -0.10574033111333847,
                        0.06829716265201569,
                        -0.011713380925357342,
                        0.04496113210916519,
                        0.021904245018959045,
                        0.023570194840431213,
                        -0.013318140059709549,
                        0.24662993848323822,
                        -0.001994574209675193,
                        -0.0006687301793135703,
                        0.02108905091881752,
                        -0.00853902380913496,
                        0.0006299892556853592,
                        0.0006055163685232401,
                        -0.0017422125674784184,
                        -0.12366025894880295,
                        0.00013390059757512063,
                        -0.004686729982495308,
                        -0.001163499429821968,
                        -0.0016021108021959662,
                        -0.03593119978904724,
                        -0.10486279428005219,
                        -0.016062522307038307,
                        0.0003509159723762423,
                        -0.0018391454359516501,
                        -0.11683515459299088,
                        0.33578115701675415,
                        -0.02273697964847088,
                        -0.038119494915008545,
                        0.012187712825834751,
                        0.05913996323943138,
                        -0.01607746072113514,
                        0.017115043476223946,
                        -0.0027493853121995926,
                        3.40968654199969e-05,
                        5.917980524827726e-05,
                        -0.01850171945989132,
                        -0.03049558773636818,
                        -0.0010442557977512479,
                        -0.033693213015794754,
                        -0.019680434837937355,
                        -0.0003726836876012385,
                        -0.010783554054796696,
                        -0.0032697285059839487,
                        -0.0003213296295143664,
                        -0.000372498034266755
                    ],
                    [
                        0.00026123778661713004,
                        0.012929796241223812,
                        -0.00018553988775238395,
                        0.0007508840062655509,
                        0.001900971750728786,
                        0.0013933561276644468,
                        0.00015417378745041788,
                        0.00010436058073537424,
                        -0.0005873157060705125,
                        0.002819189103320241,
                        0.0008394126780331135,
                        0.008348757401108742,
                        -0.00048103139852173626,
                        -0.00015477740089409053,
                        0.0013378768926486373,
                        -0.01317506842315197,
                        0.014734799973666668,
                        0.00011492748308228329,
                        -0.0007103448733687401,
                        -0.006555978208780289,
                        -0.018871525302529335,
                        -0.0007850611582398415,
                        0.00022660414106212556,
                        0.01785958558320999,
                        0.0026943644043058157,
                        0.01043277233839035,
                        -0.0016295103123411536,
                        -0.0010996607597917318,
                        0.00017624831525608897,
                        -4.241032002028078e-06,
                        -0.0008929356117732823,
                        0.005981964059174061,
                        -0.0005879725213162601,
                        -0.0035531301982700825,
                        0.005192974582314491,
                        -5.256487202132121e-05,
                        -0.0009108527447097003,
                        -0.004946663975715637,
                        5.279664037516341e-06,
                        -9.989593672798946e-05,
                        4.4511638407129794e-05,
                        0.00609807251021266,
                        -0.00020828611741308123,
                        0.0007741926237940788,
                        -0.005321758799254894,
                        0.0011326808016747236,
                        0.00011351965804351494,
                        7.179522071965039e-05,
                        -0.0005060380208306015,
                        0.003790464485064149,
                        0.0007187658920884132,
                        -0.004256155341863632,
                        -0.0003565241931937635,
                        -0.00010910686978604645,
                        0.0014063860289752483,
                        0.004555373918265104,
                        0.0007694477681070566,
                        0.00013131072046235204,
                        -0.0006195397581905127,
                        -0.021553635597229004,
                        -0.0530502088367939,
                        -0.0006287878495641053,
                        0.0032951508183032274,
                        0.02700711414217949,
                        -0.0018148572416976094,
                        0.008611883036792278,
                        0.0009751757024787366,
                        -0.0010254334192723036,
                        0.00014879685477353632,
                        -7.3663832154124975e-06,
                        0.0015874531818553805,
                        0.008383136242628098,
                        -0.00048644281923770905,
                        -0.0055651539005339146,
                        0.0026192343793809414,
                        3.571674824343063e-05,
                        0.002135837683454156,
                        -0.0001779068261384964,
                        9.337212395621464e-05,
                        -8.279000758193433e-05,
                        0.02324835956096649,
                        0.06130686029791832,
                        -0.024749459698796272,
                        0.006093673873692751,
                        0.018677514046430588,
                        -0.0024398339446634054,
                        -0.0006720899255014956,
                        0.0015455333050340414,
                        -0.02154526673257351,
                        -0.02546483464539051,
                        -0.002072913572192192,
                        -0.016007982194423676,
                        -0.0008521332638338208,
                        0.0014051176840439439,
                        0.005955824162811041,
                        0.011729066260159016,
                        0.00667451461777091,
                        0.007205837871879339,
                        -0.01675092987716198,
                        0.09480542689561844,
                        -0.016394363716244698,
                        -0.006894117221236229,
                        -0.008528168313205242,
                        0.0031304301228374243,
                        0.0023006433621048927,
                        0.02633085660636425,
                        -0.013349737040698528,
                        -0.01897459663450718,
                        0.0027427051682025194,
                        -0.0024145820643752813,
                        0.02059393748641014,
                        -0.03921368345618248,
                        0.008941436186432838,
                        -0.0134933115914464,
                        0.023029515519738197,
                        0.011108570732176304,
                        0.05399481952190399,
                        -0.00980771891772747,
                        0.009155883453786373,
                        0.01758381724357605,
                        0.00014162110164761543,
                        0.010577068664133549,
                        -0.0001895256427815184,
                        0.0007608314044773579,
                        0.00427443441003561,
                        0.0014868114376440644,
                        0.00015934272960294038,
                        0.00010083038796437904,
                        -0.0006068056100048125,
                        0.0058199879713356495,
                        0.0008552452200092375,
                        0.0027971204835921526,
                        -0.0004791628452949226,
                        -9.908808715408668e-05,
                        0.0014063636772334576,
                        -0.0075533133931458,
                        0.013870827853679657,
                        0.00011306314263492823,
                        -0.0007218270911835134,
                        -0.012890764512121677,
                        0.04304004833102226,
                        -0.0008974120137281716,
                        0.0005839561345055699,
                        0.026119370013475418,
                        -0.00018727974384091794,
                        0.01033844891935587,
                        -0.003041884396225214,
                        -0.001117972657084465,
                        0.0001617042435100302,
                        -6.517851488752058e-06,
                        -0.00202019396238029,
                        0.005928902421146631,
                        -0.0005974306259304285,
                        -0.0032294467091560364,
                        0.0056328135542571545,
                        -5.8441433793632314e-05,
                        -0.0004904080997221172,
                        -0.0026277871802449226,
                        2.1119010398251703e-06,
                        -0.0001045486715156585
                    ],
                    [
                        0.00024511574883945286,
                        0.07383257150650024,
                        -0.00011538544640643522,
                        -8.896795043256134e-05,
                        -0.005207946989685297,
                        -0.0012473278911784291,
                        0.00010183161066379398,
                        6.969559763092548e-05,
                        -0.0005222404142841697,
                        -0.012113851495087147,
                        0.00022519906633533537,
                        -0.003909748513251543,
                        -0.00036538191488943994,
                        -0.0002299974294146523,
                        -0.006541974376887083,
                        -0.041893742978572845,
                        -0.007673215586692095,
                        0.00017824876704253256,
                        -0.00047070704749785364,
                        -0.017063574865460396,
                        0.1059066578745842,
                        -0.004212630447000265,
                        -0.01542458962649107,
                        -0.017512278631329536,
                        -0.02336631342768669,
                        -0.012265383265912533,
                        0.0053428360261023045,
                        -0.0011379285715520382,
                        6.168483378132805e-05,
                        1.9880571926478297e-05,
                        -0.0027606820221990347,
                        -0.0034873289987444878,
                        -0.00043479615123942494,
                        -0.015307228080928326,
                        -0.004541045520454645,
                        0.00014658689906354994,
                        -0.00791905540972948,
                        0.0036489644553512335,
                        3.276285497122444e-05,
                        4.898083716398105e-05,
                        9.567411325406283e-06,
                        0.06301499158143997,
                        -0.00013188713637646288,
                        -0.00019662259728647768,
                        -0.02783120423555374,
                        -0.0013280186103656888,
                        0.00010122879757545888,
                        6.294088234426454e-05,
                        -0.00029909046133980155,
                        -0.010619649663567543,
                        0.00016616187349427491,
                        -0.024693235754966736,
                        -0.0003116086299996823,
                        -0.0001284188765566796,
                        0.0009298368240706623,
                        -0.0667446032166481,
                        0.02395949885249138,
                        0.0001644593576202169,
                        -0.00017104920698329806,
                        -0.06416703015565872,
                        -0.036205049604177475,
                        -0.003313053399324417,
                        -0.018260132521390915,
                        0.02249031327664852,
                        -0.02329406701028347,
                        -0.005895076785236597,
                        0.0037041993346065283,
                        -0.0008295211009681225,
                        7.845700747566298e-05,
                        6.9025900302222e-06,
                        -0.00034418681752867997,
                        -0.002553806873038411,
                        -0.0003787757596001029,
                        -0.021051719784736633,
                        0.012381529435515404,
                        0.00014131948410067707,
                        -0.00822344422340393,
                        -0.013561764732003212,
                        7.376724533969536e-05,
                        9.998466703109443e-05,
                        0.010660011321306229,
                        0.08429273217916489,
                        -0.011107174679636955,
                        -0.02231503836810589,
                        0.012663118541240692,
                        -0.00860186293721199,
                        -0.003813141956925392,
                        0.0029684274923056364,
                        -0.005679834168404341,
                        0.004095619078725576,
                        0.02445526234805584,
                        0.017081093043088913,
                        -0.00039844546699896455,
                        0.004941463936120272,
                        0.019148340448737144,
                        -0.004813170060515404,
                        0.035025645047426224,
                        0.00896560586988926,
                        -0.009497820399701595,
                        -0.02922726795077324,
                        0.04924634471535683,
                        -0.02505689673125744,
                        0.02830786071717739,
                        0.07821402698755264,
                        -0.053018148988485336,
                        -0.016679421067237854,
                        -0.025148142129182816,
                        -0.008065423928201199,
                        0.006116741802543402,
                        -0.0012186174280941486,
                        0.011241399683058262,
                        -0.009365144185721874,
                        0.004639267455786467,
                        -0.06249421462416649,
                        0.004285656381398439,
                        0.010756573639810085,
                        -0.027035284787416458,
                        -0.015297562815248966,
                        0.005025953054428101,
                        0.007142934482544661,
                        -9.073994442587718e-05,
                        0.06146742403507233,
                        -0.00023006866103969514,
                        -0.00011055453796871006,
                        0.02338666468858719,
                        -0.0013048126129433513,
                        7.54213469917886e-05,
                        4.9823236622614786e-05,
                        -0.0005955287488177419,
                        -0.017905639484524727,
                        0.00016485537344124168,
                        -0.008997817523777485,
                        -0.00046391465002670884,
                        -0.0005118262488394976,
                        -0.010061929002404213,
                        -0.04347357153892517,
                        -0.013881146907806396,
                        0.00018675696628633887,
                        -0.0005639141309075058,
                        -0.023941051214933395,
                        0.058288101106882095,
                        -0.004736554343253374,
                        -0.01521374098956585,
                        -0.025196531787514687,
                        0.0017907217843458056,
                        -0.013180955313146114,
                        0.002000587759539485,
                        -0.0012693494791164994,
                        2.3007794879958965e-05,
                        2.081896673189476e-05,
                        -0.002634804928675294,
                        -0.004305399022996426,
                        -0.00050577730871737,
                        -0.01707032322883606,
                        -0.005735249724239111,
                        0.00015506704221479595,
                        -0.008965902961790562,
                        0.0010622678091749549,
                        2.117770054610446e-05,
                        3.675320476759225e-05
                    ],
                    [
                        0.003149930853396654,
                        0.09353248029947281,
                        0.001977336360141635,
                        0.0025401231832802296,
                        -0.08903958648443222,
                        0.0098703783005476,
                        0.0011197704588994384,
                        0.0017933901399374008,
                        0.004011639393866062,
                        0.00938332173973322,
                        0.002463971497491002,
                        -0.12550979852676392,
                        0.004903755616396666,
                        0.006447832565754652,
                        0.04234682396054268,
                        0.00877468567341566,
                        0.20770733058452606,
                        7.557382195955142e-05,
                        0.0047921487130224705,
                        0.005126260686665773,
                        0.048200201243162155,
                        0.02634965442121029,
                        0.07387256622314453,
                        -0.015756754204630852,
                        -0.034279964864254,
                        0.02563624083995819,
                        -0.05810714140534401,
                        0.006360788829624653,
                        0.0013074894668534398,
                        -0.0002346239925827831,
                        -0.01795959286391735,
                        -0.09322154521942139,
                        0.003096353029832244,
                        0.06782359629869461,
                        -0.28271982073783875,
                        0.0011889270972460508,
                        0.02991228550672531,
                        0.039447810500860214,
                        0.0009152002166956663,
                        0.0008202606695704162,
                        0.008588109165430069,
                        0.07039067149162292,
                        0.0017031346214935184,
                        0.0013111296575516462,
                        -0.04040803015232086,
                        0.006702224258333445,
                        0.0007782319444231689,
                        0.0015446196775883436,
                        0.003302483120933175,
                        0.03952815383672714,
                        0.0026508888695389032,
                        -0.020749233663082123,
                        0.012139741331338882,
                        0.0027583749033510685,
                        -0.06606128811836243,
                        -0.22070476412773132,
                        0.14602701365947723,
                        -0.00027584400959312916,
                        0.004061763174831867,
                        0.06686709076166153,
                        -0.442696213722229,
                        0.006949940696358681,
                        -0.05024366453289986,
                        -0.3177134394645691,
                        -0.030171077698469162,
                        -0.09643916040658951,
                        -0.017444755882024765,
                        0.00514410762116313,
                        0.0011452657636255026,
                        -0.00022546073887497187,
                        -0.08071685582399368,
                        -0.10487350076436996,
                        0.0024927707854658365,
                        0.06953487545251846,
                        -0.03839266300201416,
                        0.0009138764580711722,
                        -0.07722166925668716,
                        -0.29351386427879333,
                        0.0006979038007557392,
                        0.0005962395807728171,
                        0.006579689681529999,
                        -0.07599849253892899,
                        -0.009112484753131866,
                        -0.04691275954246521,
                        -0.276925265789032,
                        -0.06443403661251068,
                        -0.006221968214958906,
                        -0.003334135515615344,
                        0.0034440387971699238,
                        -0.022732485085725784,
                        0.04061458259820938,
                        0.050787970423698425,
                        -0.00918826088309288,
                        0.05419827252626419,
                        0.06986494362354279,
                        0.0032685319893062115,
                        -0.08522187918424606,
                        -0.0007292935624718666,
                        3.308895611553453e-05,
                        0.001991911791265011,
                        -0.19124753773212433,
                        0.021237635985016823,
                        0.32621532678604126,
                        -0.3370759189128876,
                        -0.34115156531333923,
                        0.09756983071565628,
                        0.013384548015892506,
                        -0.00251253810711205,
                        0.0006819801055826247,
                        -0.006255188025534153,
                        0.08637875318527222,
                        -0.20663975179195404,
                        -0.003831650363281369,
                        0.044653501361608505,
                        0.13742561638355255,
                        0.0025914059951901436,
                        -0.07407164573669434,
                        -0.3382035195827484,
                        -0.007439170032739639,
                        -0.0008022770052775741,
                        0.008723068051040173,
                        0.03746537119150162,
                        0.002093816176056862,
                        0.0023424196988344193,
                        -0.08714715391397476,
                        0.010707172565162182,
                        0.0017403874080628157,
                        0.0034813976380974054,
                        0.004118575714528561,
                        0.08523207902908325,
                        0.00336127495393157,
                        0.2056370973587036,
                        0.008385454304516315,
                        0.01343470811843872,
                        -0.019413011148571968,
                        -0.0035420984495431185,
                        -0.06912706047296524,
                        0.00016484677325934172,
                        0.004831079859286547,
                        0.0058674803003668785,
                        -0.08437053859233856,
                        0.021660873666405678,
                        0.018384410068392754,
                        -0.0686228945851326,
                        -0.022691022604703903,
                        -0.026603801175951958,
                        -0.029492149129509926,
                        0.006409535184502602,
                        0.0015687604900449514,
                        -0.0002069928013952449,
                        -0.0479135736823082,
                        -0.07552444189786911,
                        0.003250774461776018,
                        0.07235029339790344,
                        -0.2906753420829773,
                        0.0012832966167479753,
                        -0.0010452615097165108,
                        -0.2043382078409195,
                        0.0009696465567685664,
                        0.0008706677472218871
                    ],
                    [
                        0.0004247368487995118,
                        -0.09837054461240768,
                        -0.0008074846118688583,
                        -0.0013741926522925496,
                        0.004548035562038422,
                        0.0007304450264200568,
                        -0.00019368036009836942,
                        -0.00015300752420444041,
                        0.0007896824390627444,
                        0.008951302617788315,
                        -0.0009873847011476755,
                        0.0007579102530144155,
                        0.0017019814113155007,
                        0.0005934343207627535,
                        0.006752091459929943,
                        0.06376537680625916,
                        -0.006238182540982962,
                        -0.0002485121658537537,
                        0.001030831946991384,
                        0.021575594320893288,
                        -0.007354709319770336,
                        0.0049193440936505795,
                        0.010123110376298428,
                        0.008616405539214611,
                        0.03870924562215805,
                        -0.007981302216649055,
                        0.009577258490025997,
                        0.003373415907844901,
                        -0.0001287442573811859,
                        -2.7201618649996817e-05,
                        0.0043685040436685085,
                        0.00556583609431982,
                        0.001523685990832746,
                        0.012522287666797638,
                        0.01399306021630764,
                        -0.0003809418994933367,
                        0.0006494882400147617,
                        -0.01064385287463665,
                        -0.00011214416736038402,
                        -0.00031275945366360247,
                        0.0007391598774120212,
                        -0.06616275757551193,
                        -0.0008018341031856835,
                        -0.0008010813617147505,
                        0.00567846093326807,
                        0.0010339505970478058,
                        -0.00016969886200968176,
                        -0.00011255640856688842,
                        -0.00048611644888296723,
                        0.013218075968325138,
                        -0.0005141225410625339,
                        0.01768503710627556,
                        0.001245879102498293,
                        0.0005276816664263606,
                        0.007153799291700125,
                        0.05666894465684891,
                        -0.07216396927833557,
                        -0.00024283651146106422,
                        0.00024374198983423412,
                        0.09983473271131516,
                        0.06962684541940689,
                        0.005238656420260668,
                        0.017066078260540962,
                        0.006438822019845247,
                        0.012747682631015778,
                        -0.0017489894526079297,
                        0.0081236083060503,
                        0.0020599691197276115,
                        -0.00014668032235931605,
                        -1.1160161193402018e-05,
                        0.005502596963196993,
                        0.00629019271582365,
                        0.0012659014901146293,
                        0.02407171204686165,
                        -0.0006057031569071114,
                        -0.0003291558532509953,
                        0.00423808628693223,
                        0.01422621589154005,
                        -0.00019992001762147993,
                        -9.418914851266891e-05,
                        -0.02086164988577366,
                        -0.27804383635520935,
                        0.020190734416246414,
                        0.008808594197034836,
                        -0.02104753814637661,
                        -0.025616033002734184,
                        0.007568916771560907,
                        -0.0010312144877389073,
                        0.0205832589417696,
                        0.00929818581789732,
                        -0.012041484005749226,
                        0.04902965575456619,
                        0.006236428860574961,
                        -0.017542671412229538,
                        -0.02171456627547741,
                        0.08585775643587112,
                        0.027712669223546982,
                        -0.020439952611923218,
                        0.029050474986433983,
                        -0.09022647887468338,
                        -0.16455446183681488,
                        0.019805777817964554,
                        -0.020382585003972054,
                        0.022438017651438713,
                        0.062378816306591034,
                        -0.012329692021012306,
                        0.029293589293956757,
                        0.024868689477443695,
                        -0.014011580497026443,
                        0.0007739397115074098,
                        -0.017172295600175858,
                        -0.023559877648949623,
                        -0.0185159370303154,
                        0.002548774005845189,
                        0.019845331087708473,
                        -0.024578923359513283,
                        0.017332399263978004,
                        0.014337008818984032,
                        -0.01749385893344879,
                        -0.019367452710866928,
                        0.0006614000885747373,
                        -0.0797966942191124,
                        -0.0007974947220645845,
                        -0.0013759955763816833,
                        -0.02960502728819847,
                        0.0005033820052631199,
                        -0.00017456374189350754,
                        -0.00013837039296049625,
                        0.0008747859974391758,
                        -0.0008407579152844846,
                        -0.0009948433144018054,
                        0.00727909104898572,
                        0.0017364730592817068,
                        0.0007356358109973371,
                        0.011140811257064342,
                        0.06475956737995148,
                        0.011378543451428413,
                        -0.0002482298295944929,
                        0.0011862862156704068,
                        0.02490173652768135,
                        -0.1906580924987793,
                        0.006035264115780592,
                        0.012681333348155022,
                        -0.010630322620272636,
                        0.0006706072599627078,
                        -0.0059761409647762775,
                        0.03462589904665947,
                        0.0035173820797353983,
                        -8.869886369211599e-05,
                        -2.653382944117766e-05,
                        0.00802084244787693,
                        0.005709018092602491,
                        0.0016150373267009854,
                        0.013292938470840454,
                        0.014122582972049713,
                        -0.0003850022330880165,
                        0.0014101029373705387,
                        -0.006920576095581055,
                        -9.703919931780547e-05,
                        -0.0003282745601609349
                    ],
                    [
                        0.0004004536021966487,
                        0.02449689619243145,
                        4.214889031572966e-06,
                        0.0004149649466853589,
                        -0.00019631098257377744,
                        0.0007300521829165518,
                        0.000712016480974853,
                        0.0011812528828158975,
                        -0.00014790802379138768,
                        0.004635808058083057,
                        0.00046997235040180385,
                        -0.003588565392419696,
                        0.0018531534587964416,
                        7.665495650144294e-05,
                        -0.004503591917455196,
                        -0.009303790517151356,
                        -0.0009416817338205874,
                        4.038533370476216e-05,
                        -0.00016433851851616055,
                        -0.0002957351098302752,
                        0.011241276748478413,
                        -0.0009782621636986732,
                        -0.0015671345172449946,
                        -0.00726811308413744,
                        -0.010357881896197796,
                        -0.0019258829997852445,
                        0.003279749071225524,
                        -0.0002467644226271659,
                        0.00017320598999504,
                        4.140963483223459e-06,
                        -0.0010151945753023028,
                        0.0006741537945345044,
                        3.9665021176915616e-05,
                        -0.0017414491157978773,
                        -0.0013129092985764146,
                        -2.0555728042381816e-05,
                        -0.002013787627220154,
                        -0.004458455368876457,
                        -3.309529711259529e-05,
                        -1.4208239008439705e-05,
                        0.0037775435484945774,
                        0.034897275269031525,
                        -1.783304105629213e-05,
                        0.0003732490004040301,
                        -0.0022876220755279064,
                        0.0006405483582057059,
                        0.0005229762755334377,
                        0.0015601110644638538,
                        -0.0001292064698645845,
                        0.004046619404107332,
                        0.0003873522218782455,
                        -0.0039887879975140095,
                        0.007627835031598806,
                        7.281647413037717e-05,
                        -0.003414020175114274,
                        0.03170179948210716,
                        0.022859061136841774,
                        2.3613514713360928e-05,
                        -0.0001397763699060306,
                        -0.017321286723017693,
                        0.033804383128881454,
                        -0.0007878863252699375,
                        -0.0032300809398293495,
                        -0.0016829841770231724,
                        -0.005814834497869015,
                        -0.0011844357941299677,
                        -0.0004484852834139019,
                        -0.00019753589003812522,
                        0.00015625471132807434,
                        2.36186565416574e-06,
                        -0.0009127598605118692,
                        0.0007516382029280066,
                        0.0002272822748636827,
                        -0.003763380693271756,
                        0.001791098271496594,
                        -1.8907863704953343e-05,
                        -0.0013340320438146591,
                        -0.005640043411403894,
                        -2.8733569706673734e-05,
                        -1.073476505553117e-05,
                        -0.014402134343981743,
                        0.05277353897690773,
                        -0.004132063128054142,
                        -0.005292508751153946,
                        0.004432269372045994,
                        0.007242309395223856,
                        -0.04089946299791336,
                        -0.030527980998158455,
                        -0.010062947869300842,
                        7.711892249062657e-05,
                        0.006640888284891844,
                        -0.0006942120380699635,
                        -0.044112417846918106,
                        0.00146756530739367,
                        0.006084407214075327,
                        -0.01657463051378727,
                        -0.03846558928489685,
                        0.006148342043161392,
                        -0.03413569554686546,
                        -0.019156726077198982,
                        -0.012867518700659275,
                        -0.006307870149612427,
                        0.001137500163167715,
                        0.006080816965550184,
                        0.001793818548321724,
                        0.015027319081127644,
                        0.0067119537852704525,
                        -0.022231880575418472,
                        0.038795437663793564,
                        -0.0017199547728523612,
                        -0.013063104823231697,
                        0.006517005153000355,
                        0.020298657938838005,
                        -0.0011045063147321343,
                        -0.034030962735414505,
                        0.027204779908061028,
                        0.02405238337814808,
                        0.01682712696492672,
                        0.02406427077949047,
                        0.005797590594738722,
                        0.007066784426569939,
                        0.01138756051659584,
                        9.245775800081901e-06,
                        0.00039978488348424435,
                        0.0017630162183195353,
                        0.0007333786925300956,
                        0.0014523740392178297,
                        0.002830774523317814,
                        -0.00015686801634728909,
                        0.007084383629262447,
                        0.00047415881999768317,
                        -0.00028677491354756057,
                        0.004585948772728443,
                        4.514414831646718e-05,
                        -0.005328727886080742,
                        -0.010388161055743694,
                        -0.00524289533495903,
                        3.934064443456009e-05,
                        -0.00017672051035333425,
                        -0.0008079922408796847,
                        -0.037026580423116684,
                        -0.001115659368224442,
                        -0.0008998468983918428,
                        -0.01225054357200861,
                        -0.0007006420055404305,
                        -0.0024230133276432753,
                        -0.0011793725425377488,
                        -0.0002643183106556535,
                        0.0004094008181709796,
                        4.397953034640523e-06,
                        -2.6841596991289407e-05,
                        0.0008534871158190072,
                        0.0002866588765755296,
                        -0.0019541261717677116,
                        -0.0015511543024331331,
                        -2.3075370336300693e-05,
                        -0.001763234962709248,
                        -0.0010682574938982725,
                        -3.485527486191131e-05,
                        -1.5518877262366004e-05
                    ],
                    [
                        0.0016632361803203821,
                        0.026473622769117355,
                        -1.2757697732013185e-05,
                        0.0003047492355108261,
                        -0.00018102773174177855,
                        0.0007871145498938859,
                        0.002217061584815383,
                        0.0037699099630117416,
                        -6.62371312500909e-05,
                        0.006551173981279135,
                        0.00039429435855709016,
                        -0.007444346789270639,
                        0.00450923852622509,
                        0.00013834859419148415,
                        -0.00507289869710803,
                        -0.008514747023582458,
                        -0.0006874701357446611,
                        3.6335663025965914e-05,
                        -2.8743825168930925e-05,
                        0.0016240084078162909,
                        0.009557275101542473,
                        -0.0006966404616832733,
                        -0.0011753892758861184,
                        -0.00969761237502098,
                        -0.008724713698029518,
                        -0.0039040257688611746,
                        0.0018281798111274838,
                        -4.6428216592175886e-05,
                        0.0008625166374258697,
                        3.8133125599415507e-06,
                        -0.00153206882532686,
                        0.0008272311533801258,
                        0.0007181683322414756,
                        -0.0012876755790784955,
                        0.0004659941478166729,
                        -6.479013336502248e-06,
                        -0.0008681812323629856,
                        -0.0059986356645822525,
                        1.4966208254918456e-05,
                        -4.129942681174725e-06,
                        0.007246760651469231,
                        0.03503037244081497,
                        -1.5771915059303865e-05,
                        0.0002903873973991722,
                        -4.64669528810191e-06,
                        0.0006248748395591974,
                        0.0018082699971273541,
                        0.004581378307193518,
                        -5.493627759278752e-05,
                        0.006052365060895681,
                        0.00027576254797168076,
                        -0.0039834314957261086,
                        0.012456044554710388,
                        0.00011785347305703908,
                        -0.0035925705451518297,
                        0.03664258122444153,
                        0.02717219479382038,
                        3.3803302358137444e-05,
                        -2.8460761313908733e-05,
                        -0.02421986497938633,
                        0.03365274891257286,
                        -0.00046922394540160894,
                        -0.001952773192897439,
                        -0.005924064200371504,
                        -0.007949348539113998,
                        -0.0029686170164495707,
                        -0.001092107966542244,
                        -2.352330193389207e-05,
                        0.0008202148019336164,
                        2.46105742007785e-06,
                        -0.0009700747323222458,
                        0.001497156685218215,
                        0.0012790911132469773,
                        -0.0026091081090271473,
                        0.0026966652367264032,
                        -5.218196292844368e-06,
                        2.7070527721662074e-05,
                        -0.0032798247411847115,
                        -1.1509726391523145e-05,
                        -2.441920287310495e-06,
                        -0.032108549028635025,
                        0.07759569585323334,
                        -0.0049211811274290085,
                        -0.003944252151995897,
                        0.0026784942019730806,
                        0.0037273853085935116,
                        -0.048608895391225815,
                        -0.05276314169168472,
                        -0.02033008448779583,
                        -0.0015444211894646287,
                        0.004322797060012817,
                        0.04101528227329254,
                        -0.06390506029129028,
                        0.00035413121804594994,
                        0.00646269740536809,
                        -0.024505766108632088,
                        -0.046771854162216187,
                        0.00987525936216116,
                        -0.04717550799250603,
                        -0.03317495808005333,
                        0.007359156385064125,
                        -0.0026740729808807373,
                        0.004640732426196337,
                        0.0006681588129140437,
                        0.01328135747462511,
                        -0.008181057870388031,
                        0.008313300088047981,
                        -0.041417814791202545,
                        0.04895411431789398,
                        -0.0037151509895920753,
                        -0.026226921007037163,
                        0.010965459980070591,
                        0.035456471145153046,
                        0.012966252863407135,
                        -0.05539580434560776,
                        0.04207664728164673,
                        0.021712305024266243,
                        0.01879778876900673,
                        0.03566157817840576,
                        0.008631786331534386,
                        0.010651475749909878,
                        0.010370854288339615,
                        -8.711959708307404e-06,
                        0.00028656513313762844,
                        -0.0011083586141467094,
                        0.0007620338583365083,
                        0.003647593315690756,
                        0.007175977807492018,
                        -6.717729411320761e-05,
                        0.010606222786009312,
                        0.00040596522740088403,
                        -0.0017855067271739244,
                        0.008312052115797997,
                        0.00012362048437353224,
                        -0.005749836564064026,
                        -0.008320393040776253,
                        -0.002705667167901993,
                        3.531366019160487e-05,
                        -1.1234864359721541e-05,
                        -0.007422995753586292,
                        -0.07308301329612732,
                        -0.0007595578208565712,
                        -0.000609188515227288,
                        -0.020678717643022537,
                        -0.0035226931795477867,
                        -0.004598767962306738,
                        -0.0006542416522279382,
                        -2.3761853299220093e-05,
                        0.0015338101657107472,
                        3.997246039944002e-06,
                        -0.0004714747192338109,
                        0.0010423382045701146,
                        0.001541817095130682,
                        -0.0012618913315236568,
                        0.00030063153826631606,
                        -7.165637271100422e-06,
                        -0.0008354219608008862,
                        -0.001468036905862391,
                        2.9331771656870842e-05,
                        -4.4443795559345745e-06
                    ],
                    [
                        -0.00025942406500689685,
                        0.022186746820807457,
                        -0.00015816396626178175,
                        0.0005442436668090522,
                        0.0003109862154815346,
                        0.0013541590888053179,
                        1.1475391147541814e-05,
                        3.4020595194306225e-05,
                        -0.0006755044450983405,
                        0.0022664370480924845,
                        0.0006237350753508508,
                        0.005275043658912182,
                        -0.0006405096501111984,
                        -0.0001841885969042778,
                        0.0009950919775292277,
                        -0.023407530039548874,
                        0.006891211029142141,
                        0.00011860736412927508,
                        -0.000806891534011811,
                        -0.01635723188519478,
                        -0.008356314152479172,
                        -9.572577982908115e-05,
                        -0.000844117603264749,
                        0.016451900824904442,
                        -0.004886779468506575,
                        0.008765916340053082,
                        -0.0020954888314008713,
                        -0.0013048440450802445,
                        -7.59115137043409e-05,
                        -1.1996572538919281e-05,
                        0.00020802594372071326,
                        0.005003392696380615,
                        -0.0006002471200190485,
                        -0.00395557563751936,
                        0.0005517875542864203,
                        -4.736860500997864e-05,
                        -0.00020635270630009472,
                        -0.003956817090511322,
                        -9.506566857453436e-05,
                        -6.71037269057706e-05,
                        -0.0003540925099514425,
                        0.013180267065763474,
                        -0.00020177927217446268,
                        0.0005772077129222453,
                        0.00024528050562366843,
                        0.0010873890714719892,
                        4.6012519305804744e-06,
                        2.4526943889213726e-05,
                        -0.0005999571294523776,
                        0.0016861094627529383,
                        0.0005553252412937582,
                        -0.002935203956440091,
                        0.0001657567627262324,
                        -0.00014008146536070853,
                        -8.129782509058714e-05,
                        -0.0031002270989120007,
                        0.00386466970667243,
                        7.092188025126234e-05,
                        -0.0006928830407559872,
                        -0.04379338398575783,
                        -0.007790205534547567,
                        -0.0002577763516455889,
                        0.0022683455608785152,
                        0.02130809798836708,
                        -0.0010092369047924876,
                        0.005860208999365568,
                        0.0013208334567025304,
                        -0.0010997086064890027,
                        -6.535595457535237e-05,
                        -2.875720156225725e-06,
                        0.00017831294098868966,
                        0.005658104550093412,
                        -0.00047850512783043087,
                        -0.004647210240364075,
                        0.0011354127200320363,
                        -2.148880776076112e-05,
                        0.0007714102976024151,
                        -0.0020781895145773888,
                        -7.453968282788992e-05,
                        -4.795392305823043e-05,
                        0.01991729438304901,
                        0.0013257055543363094,
                        -0.017765171825885773,
                        0.011692266911268234,
                        0.006417942699044943,
                        -0.006879642140120268,
                        -0.001844216836616397,
                        -0.0003671762242447585,
                        -0.024458326399326324,
                        -0.012388135306537151,
                        -0.008184289559721947,
                        -0.0025243526324629784,
                        -0.03452147915959358,
                        0.010626211762428284,
                        0.004531476646661758,
                        0.013756457716226578,
                        0.009898417629301548,
                        0.0036119488067924976,
                        -0.021850228309631348,
                        0.06499573588371277,
                        -0.020969748497009277,
                        -0.0066084908321499825,
                        -0.0128084821626544,
                        -0.008609362877905369,
                        0.010282865725457668,
                        -0.027215443551540375,
                        -0.0023053137119859457,
                        -0.027937868610024452,
                        0.004705998580902815,
                        -0.0017934588249772787,
                        -0.014029511250555515,
                        -0.03700236603617668,
                        0.015209241770207882,
                        -0.01314587239176035,
                        0.02207057736814022,
                        0.015953943133354187,
                        0.04388795793056488,
                        -0.002993443049490452,
                        0.010149541310966015,
                        0.014806768856942654,
                        0.0009113511769101024,
                        0.017124991863965988,
                        -0.00015835667727515101,
                        0.0005502412095665932,
                        -0.0022473051212728024,
                        0.001430511474609375,
                        1.907332807604689e-05,
                        6.327127630356699e-05,
                        -0.0006716582574881613,
                        0.008330236189067364,
                        0.0006328569143079221,
                        0.0027662611100822687,
                        -0.00035374905564822257,
                        -0.0002482518320903182,
                        0.000942867889534682,
                        -0.01979900151491165,
                        0.005472515244036913,
                        0.00011761142377508804,
                        -0.0008099413244053721,
                        -0.0034700746182352304,
                        0.02319316752254963,
                        -0.00016549536667298526,
                        -0.000646338565275073,
                        0.026905978098511696,
                        -0.0008271177066490054,
                        0.008882108144462109,
                        -0.0034914470743387938,
                        -0.0013027635868638754,
                        -7.091875158948824e-05,
                        -1.2887098819192033e-05,
                        -0.0004908041446469724,
                        0.005072523839771748,
                        -0.0005923668504692614,
                        -0.00365295447409153,
                        0.000772698491346091,
                        -5.039183088229038e-05,
                        -3.573755384422839e-05,
                        -0.004590336699038744,
                        -9.726659482112154e-05,
                        -6.91464520059526e-05
                    ],
                    [
                        -0.027607057243585587,
                        -0.19974103569984436,
                        -0.007061576936393976,
                        -0.011244687251746655,
                        0.31555795669555664,
                        -0.02599240280687809,
                        -0.0031976778991520405,
                        -0.0035053363535553217,
                        -0.0071242693811655045,
                        0.04252582788467407,
                        -0.0147925466299057,
                        -0.5192930102348328,
                        -0.06038307026028633,
                        -0.06043342500925064,
                        0.07841429114341736,
                        0.32680124044418335,
                        0.3471578359603882,
                        -0.009310695342719555,
                        -0.004780902061611414,
                        0.09486275911331177,
                        -1.295148253440857,
                        -0.02377452328801155,
                        0.18344704806804657,
                        0.21480147540569305,
                        -0.66724693775177,
                        0.0780920460820198,
                        0.25254401564598083,
                        -0.018038300797343254,
                        -0.004142194986343384,
                        -0.006743843201547861,
                        -0.02765888161957264,
                        -0.018776629120111465,
                        -0.008974475786089897,
                        0.20866759121418,
                        0.13489015400409698,
                        -0.0058432151563465595,
                        0.004201523028314114,
                        -0.04744155704975128,
                        -0.003239263780415058,
                        -0.0025339615531265736,
                        -0.01901037059724331,
                        0.04263093322515488,
                        -0.00516035920009017,
                        -0.010041494853794575,
                        0.16561360657215118,
                        -0.017513087019324303,
                        -0.0020912589970976114,
                        -0.002112588146701455,
                        -0.003200855106115341,
                        0.1414606273174286,
                        -0.01175504270941019,
                        0.5925869941711426,
                        -0.015326797030866146,
                        -0.04556648060679436,
                        -0.047988250851631165,
                        0.2332320660352707,
                        0.12575730681419373,
                        -0.008851652033627033,
                        -0.0021164845675230026,
                        0.2707521319389343,
                        1.198525309562683,
                        -0.0208878293633461,
                        0.06360841542482376,
                        -0.24164435267448425,
                        0.960436999797821,
                        -0.0524335615336895,
                        0.1431894600391388,
                        -0.002698787720873952,
                        -0.003127011004835367,
                        -0.007116576656699181,
                        0.036528486758470535,
                        -0.01964104175567627,
                        -0.0027668660040944815,
                        -0.01958022639155388,
                        -0.19636964797973633,
                        -0.005862732883542776,
                        0.07497785985469818,
                        0.24234025180339813,
                        -0.0030558037105947733,
                        -0.0023031749296933413,
                        -0.030698059126734734,
                        -0.08796095103025436,
                        0.008303302340209484,
                        0.10695543140172958,
                        0.002535628154873848,
                        0.11271797865629196,
                        -0.005016419570893049,
                        -0.013965332880616188,
                        0.0071587031707167625,
                        0.19941210746765137,
                        -0.02281220257282257,
                        -0.05291935056447983,
                        -0.008674178272485733,
                        -0.07588305324316025,
                        -0.14731143414974213,
                        -0.08682029694318771,
                        -0.08376006036996841,
                        -0.0014616549015045166,
                        -0.009615062735974789,
                        -0.06163299083709717,
                        0.024018025025725365,
                        0.051922209560871124,
                        0.024104615673422813,
                        -0.3980874717235565,
                        -0.17432649433612823,
                        -0.09654788672924042,
                        -0.2807150185108185,
                        -0.005153869278728962,
                        0.001999723957851529,
                        -0.009139460511505604,
                        -0.025764329358935356,
                        -0.009263812564313412,
                        0.010001610033214092,
                        0.15781114995479584,
                        -0.3017785847187042,
                        -0.008460406213998795,
                        0.05104251950979233,
                        0.0678110271692276,
                        0.02610451728105545,
                        -0.020484451204538345,
                        -0.03503069281578064,
                        -0.11111084371805191,
                        -0.007333835121244192,
                        -0.011127084493637085,
                        -0.040876444429159164,
                        -0.025951622053980827,
                        -0.003261145669966936,
                        -0.003594439709559083,
                        -0.007394828833639622,
                        0.15759363770484924,
                        -0.015186581760644913,
                        0.024295303970575333,
                        -0.06126486882567406,
                        -0.1128719374537468,
                        0.06747692823410034,
                        0.39892882108688354,
                        0.32497790455818176,
                        -0.009353583678603172,
                        -0.004914498887956142,
                        0.29413899779319763,
                        0.2485976219177246,
                        -0.03087824396789074,
                        0.2184736132621765,
                        0.25850534439086914,
                        0.09053575992584229,
                        0.07518834620714188,
                        -0.1509067863225937,
                        -0.018605411052703857,
                        -0.004219705704599619,
                        -0.006745106540620327,
                        -0.0238620787858963,
                        -0.012224430218338966,
                        -0.009073574095964432,
                        0.22631941735744476,
                        0.12900379300117493,
                        -0.005878116469830275,
                        0.03229711577296257,
                        0.011368902400135994,
                        -0.003253674367442727,
                        -0.0025601633824408054
                    ],
                    [
                        -0.00023803712974768132,
                        -0.08333607017993927,
                        0.00011252491094637662,
                        -0.0001978852233150974,
                        0.001405136426910758,
                        0.0017981320852413774,
                        -0.00015294560580514371,
                        -0.00011023379920516163,
                        0.000644282961729914,
                        0.020183011889457703,
                        -0.0002671992697287351,
                        -0.00793458055704832,
                        0.0004966635024175048,
                        0.0003071829560212791,
                        0.0037399164866656065,
                        0.04536984860897064,
                        -0.004180361516773701,
                        -0.00012190700363134965,
                        0.0005671110702678561,
                        0.02504875138401985,
                        -0.04282112419605255,
                        0.0037768313195556402,
                        0.011686809360980988,
                        0.017263073474168777,
                        0.029697159305214882,
                        0.0035368797834962606,
                        0.0038880903739482164,
                        0.0013605662388727069,
                        -0.000149378422065638,
                        1.249205888598226e-05,
                        0.005743467714637518,
                        0.007216657046228647,
                        0.0005317534087225795,
                        0.010633553378283978,
                        0.011236326768994331,
                        -0.00015031547809485346,
                        0.009148728102445602,
                        -0.010960986837744713,
                        -9.170764678856358e-05,
                        -1.6140253137564287e-05,
                        2.8861890314146876e-05,
                        -0.06898858398199081,
                        0.00018220942001789808,
                        -3.960739923059009e-05,
                        0.025017406791448593,
                        0.0018742237007245421,
                        -0.00011698398884618655,
                        -8.783226076047868e-05,
                        0.0004342813044786453,
                        0.018409132957458496,
                        -0.00016420792962890118,
                        0.014445536769926548,
                        0.0004151661414653063,
                        0.00019225585856474936,
                        -0.002586949849501252,
                        0.09654190391302109,
                        -0.030992142856121063,
                        -6.928022048668936e-05,
                        -0.00016518075426574796,
                        0.07301780581474304,
                        0.01446602027863264,
                        0.0032334874849766493,
                        0.016592850908637047,
                        -0.004535878077149391,
                        0.013563450425863266,
                        0.002648645546287298,
                        0.0006198010523803532,
                        0.00085381546523422,
                        -0.00013614626368507743,
                        2.6055411581182852e-05,
                        0.003137232968583703,
                        0.00598901929333806,
                        0.00016781986050773412,
                        0.01832427829504013,
                        -0.0037727232556790113,
                        -0.00012885367323178798,
                        0.008812177926301956,
                        0.012962148524820805,
                        3.0579423082599533e-07,
                        -8.359171624761075e-05,
                        -0.0122717609629035,
                        -0.09662183374166489,
                        0.013423031195998192,
                        0.013149210251867771,
                        -0.034055329859256744,
                        0.002781030721962452,
                        0.003343102289363742,
                        -0.00463293818756938,
                        0.008623231202363968,
                        0.00045419621164910495,
                        -0.02280653454363346,
                        0.03977265954017639,
                        0.002095402916893363,
                        -0.004746867343783379,
                        -0.027206681668758392,
                        0.048183079808950424,
                        0.0741339847445488,
                        -0.00835324078798294,
                        0.011198632419109344,
                        0.009010205045342445,
                        -0.010015269741415977,
                        0.016379710286855698,
                        -0.014921337366104126,
                        -0.030972206965088844,
                        0.024446407333016396,
                        0.008976729586720467,
                        0.04846351593732834,
                        0.01012158952653408,
                        -0.004673140123486519,
                        0.00178466213401407,
                        0.005978866945952177,
                        0.016716357320547104,
                        -0.004482171963900328,
                        0.09051424264907837,
                        -0.043309736996889114,
                        -0.009710165672004223,
                        -0.014165105298161507,
                        -0.005039618816226721,
                        -0.00514470087364316,
                        -0.00819837674498558,
                        4.448906736342906e-07,
                        -0.06693660467863083,
                        0.00028182219830341637,
                        -0.00021702154481317848,
                        -0.035265661776065826,
                        0.001774202915839851,
                        -0.00014163578453008085,
                        -0.00010041719360742718,
                        0.0007487363764084876,
                        0.02478022500872612,
                        -0.0002239695895696059,
                        0.011233048513531685,
                        0.0005945592420175672,
                        0.0006238502101041377,
                        0.00714424392208457,
                        0.044140249490737915,
                        0.007237256970256567,
                        -0.00014147533511277288,
                        0.0006948013906367123,
                        0.03810746222734451,
                        -0.0748000368475914,
                        0.004997112788259983,
                        0.013611028902232647,
                        0.011790781281888485,
                        -0.0044210683554410934,
                        0.005317050497978926,
                        0.017968865111470222,
                        0.0015509160002693534,
                        -0.00012246512051206082,
                        9.685529221314937e-06,
                        0.00704227527603507,
                        0.007207322400063276,
                        0.0006454199901781976,
                        0.011683495715260506,
                        0.01255839690566063,
                        -0.00015778758097440004,
                        0.0091407997533679,
                        -0.003700396977365017,
                        -0.0001000113261397928,
                        7.1988933996181e-06
                    ],
                    [
                        -0.0017055390635505319,
                        -0.20670507848262787,
                        -0.0009744866983965039,
                        0.0031125599052757025,
                        -0.020447757095098495,
                        0.0003996575251221657,
                        9.225108806276694e-05,
                        3.0506655093631707e-05,
                        -0.0005771644646301866,
                        -0.01983005180954933,
                        -0.001322349184192717,
                        -0.1417643129825592,
                        0.00044519768562167883,
                        0.0007807942456565797,
                        0.03159802407026291,
                        0.07940029352903366,
                        0.027741137892007828,
                        -2.586048867669888e-05,
                        -0.00020747599774040282,
                        0.024137653410434723,
                        -0.12626172602176666,
                        0.009141515009105206,
                        0.03324659541249275,
                        0.00995208602398634,
                        0.1709693968296051,
                        0.00012063130998285487,
                        0.03169218450784683,
                        -0.0005901047261431813,
                        0.0002233613486168906,
                        -1.570771200931631e-05,
                        -0.05990440025925636,
                        -0.02798103541135788,
                        0.00018861859280150384,
                        0.027108635753393173,
                        -0.07857061177492142,
                        -2.3177122784545645e-05,
                        -0.031208273023366928,
                        -0.10540272295475006,
                        -0.00010525221296120435,
                        -0.00016896783199626952,
                        -0.0003752729098778218,
                        -0.2229268103837967,
                        -0.0009484029724262655,
                        0.001876783324405551,
                        -0.07612597197294235,
                        -0.0012086646165698767,
                        0.00013979407958686352,
                        7.006846135482192e-05,
                        -0.0005329964333213866,
                        -0.019826123490929604,
                        -0.002133207628503442,
                        -0.03162401169538498,
                        0.0007488871342502534,
                        0.00017913788906298578,
                        -0.014528806321322918,
                        0.0397939495742321,
                        0.03736042603850365,
                        -2.0718887753901072e-05,
                        -0.00012787162268068641,
                        0.11470677703619003,
                        0.22322353720664978,
                        0.0010313831735402346,
                        -0.08285006135702133,
                        -0.04608572646975517,
                        -0.01854458637535572,
                        -0.045945242047309875,
                        -0.1551261842250824,
                        -0.0004484308301471174,
                        0.00027326191775500774,
                        5.566004983847961e-05,
                        -0.09427914768457413,
                        -0.03333921357989311,
                        0.00021154482965357602,
                        -0.009413273073732853,
                        -0.041521426290273666,
                        2.851720819307957e-05,
                        -0.04345681890845299,
                        -0.06137222424149513,
                        -8.352540316991508e-05,
                        -0.00015955504204612225,
                        0.062029559165239334,
                        0.12214650213718414,
                        -0.008684419095516205,
                        -0.012021766975522041,
                        -0.040989093482494354,
                        -0.03559013083577156,
                        0.012339597567915916,
                        0.026420259848237038,
                        -0.001018297509290278,
                        -0.08048101514577866,
                        0.00972726009786129,
                        0.4616283178329468,
                        0.06889661401510239,
                        0.017864583060145378,
                        -0.09179923683404922,
                        -0.03696366026997566,
                        -0.15340356528759003,
                        -0.006025781389325857,
                        0.0008632060489617288,
                        0.1740972399711609,
                        0.10964516550302505,
                        -0.07119157910346985,
                        0.01630854606628418,
                        0.008331350050866604,
                        0.513467013835907,
                        0.03091404400765896,
                        0.28655150532722473,
                        0.006784922908991575,
                        -0.01477788295596838,
                        -6.144697545096278e-05,
                        0.14160898327827454,
                        -0.060374170541763306,
                        -0.021234463900327682,
                        0.011465067975223064,
                        -0.1705479919910431,
                        -0.00873839296400547,
                        -0.11846517026424408,
                        -0.3340400159358978,
                        -0.0017952449852600694,
                        0.00038853511796332896,
                        -0.0002671100664883852,
                        -0.13791170716285706,
                        -0.0007531194714829326,
                        0.0031127468682825565,
                        0.006532232742756605,
                        0.0009759647073224187,
                        0.0001079758076230064,
                        1.8664066374185495e-05,
                        -0.0004318001156207174,
                        0.07510799914598465,
                        -0.0011631958186626434,
                        -0.12538190186023712,
                        0.0006729405140504241,
                        0.0013504037633538246,
                        0.03639792650938034,
                        0.031032148748636246,
                        0.04059620201587677,
                        -3.154861769871786e-05,
                        -6.403734732884914e-05,
                        0.0625641718506813,
                        -0.2615736722946167,
                        0.010575641877949238,
                        0.03224794194102287,
                        -0.24982161819934845,
                        0.047510258853435516,
                        4.1371327824890614e-05,
                        0.14715933799743652,
                        -0.00040275868377648294,
                        0.0002724696241784841,
                        -2.8122803996666335e-05,
                        -0.05430351197719574,
                        -0.02634735032916069,
                        0.00026310101384297013,
                        0.028313852846622467,
                        -0.08520283550024033,
                        -2.1302014374668943e-08,
                        -0.034114886075258255,
