{
    "in_shape": [
        null,
        null,
        1
    ],
    "layers": [
        {
            "type": "lstm",
            "activation": "",
            "shape": [
                null,
                null,
                12
            ],
            "weights": [
                [
                    [
                        0.047866132110357285,
                        -0.13136650621891022,
                        -0.1050257459282875,
                        0.014287613332271576,
                        0.0009299323428422213,
                        -0.1090550497174263,
                        0.7504925727844238,
                        -0.127472922205925,
                        0.01198053453117609,
                        0.16382843255996704,
                        0.5000753998756409,
                        -0.042189184576272964,
                        -0.1865827739238739,
                        0.06444721668958664,
                        0.2960963547229767,
                        -0.32310760021209717,
                        0.31346645951271057,
                        0.14051099121570587,
                        0.2016863226890564,
                        -0.07759306579828262,
                        -0.059876032173633575,
                        -0.17687146365642548,
                        0.5439144968986511,
                        -0.2892542779445648,
                        -0.49841248989105225,
                        0.9816161394119263,
                        -1.0567500591278076,
                        0.14557704329490662,
                        -0.7211557626724243,
                        -0.5235579609870911,
                        -0.6211576461791992,
                        -2.50333309173584,
                        -0.11395891010761261,
                        -0.16340932250022888,
                        1.535927653312683,
                        0.3101731240749359,
                        -0.1777704656124115,
                        -0.19374537467956543,
                        0.23562024533748627,
                        -0.18437522649765015,
                        -0.0775199681520462,
                        -0.07194793224334717,
                        0.030022716149687767,
                        -0.019449371844530106,
                        -0.03500725328922272,
                        0.056999169290065765,
                        0.09983173757791519,
                        -0.13884565234184265
                    ]
                ],
                [
                    [
                        -0.09956301748752594,
                        0.37365275621414185,
                        0.6620946526527405,
                        0.18614442646503448,
                        -0.17618441581726074,
                        -0.24829119443893433,
                        0.13107317686080933,
                        -0.9398322701454163,
                        -0.19068707525730133,
                        1.411971926689148,
                        0.29157307744026184,
                        -0.37521177530288696,
                        0.20282766222953796,
                        -0.1488967388868332,
                        -0.38224002718925476,
                        0.6230320930480957,
                        -0.057426851242780685,
                        -0.20350459218025208,
                        -0.28748807311058044,
                        0.016062414273619652,
                        0.18386059999465942,
                        -0.1824660301208496,
                        -0.4631443917751312,
                        0.16821885108947754,
                        0.4442614018917084,
                        0.42325177788734436,
                        0.40079471468925476,
                        0.3902714252471924,
                        -0.16921541094779968,
                        -0.03574428707361221,
                        -0.16959179937839508,
                        -0.08166228979825974,
                        0.051053136587142944,
                        -0.24264001846313477,
                        0.2949848473072052,
                        -0.19896602630615234,
                        -0.10003117471933365,
                        1.289542317390442,
                        0.32459351420402527,
                        0.5514782071113586,
                        0.04387890547513962,
                        -0.17102013528347015,
                        0.14461813867092133,
                        -0.493774950504303,
                        0.015493632294237614,
                        1.285461664199829,
                        0.048488397151231766,
                        0.009314368478953838
                    ],
                    [
                        -0.027061570435762405,
                        0.10264555364847183,
                        0.30633240938186646,
                        -0.3446643352508545,
                        0.14520373940467834,
                        0.1109495609998703,
                        -0.5143473148345947,
                        0.14198704063892365,
                        0.15739868581295013,
                        0.16302703320980072,
                        0.2847993075847626,
                        0.13110798597335815,
                        -0.04558616876602173,
                        0.5151137113571167,
                        0.05202937871217728,
                        0.008729079738259315,
                        0.1294485330581665,
                        -0.10283505171537399,
                        0.434162974357605,
                        -0.027764827013015747,
                        -0.05226655676960945,
                        0.11793595552444458,
                        -0.2132086157798767,
                        0.42773130536079407,
                        0.5030295848846436,
                        -0.11111151427030563,
                        -0.717491626739502,
                        0.3464699685573578,
                        0.00902252271771431,
                        -0.07789364457130432,
                        -0.1930990219116211,
                        0.09947989135980606,
                        -0.14007322490215302,
                        1.3497803211212158,
                        0.12734928727149963,
                        -0.39660757780075073,
                        0.507688581943512,
                        0.444941908121109,
                        0.12134959548711777,
                        -0.3372790813446045,
                        -0.05357564240694046,
                        0.06597727537155151,
                        -0.3403911888599396,
                        -0.34921228885650635,
                        -0.10589975118637085,
                        0.5517807006835938,
                        0.06507711857557297,
                        0.04273895546793938
                    ],
                    [
                        0.22419364750385284,
                        0.11333855986595154,
                        0.2806735932826996,
                        -0.7722682356834412,
                        -0.13206923007965088,
                        -0.2359929233789444,
                        0.1803007274866104,
                        -0.3283659517765045,
                        0.0646945983171463,
                        0.03542278707027435,
                        -0.31549710035324097,
                        -0.45738956332206726,
                        -0.4956779479980469,
                        0.31286683678627014,
                        0.637171745300293,
                        -0.3033792972564697,
                        0.019699929282069206,
                        -0.02496248111128807,
                        -0.12025995552539825,
                        -0.009310396388173103,
                        -0.07168317586183548,
                        0.24385486543178558,
                        0.36143022775650024,
                        0.20430828630924225,
                        -0.2263396829366684,
                        1.8271561861038208,
                        -0.36976808309555054,
                        0.9655786156654358,
                        -0.09148579090833664,
                        -0.1130836233496666,
                        -0.85042804479599,
                        0.21722999215126038,
                        0.015207784250378609,
                        0.5176226496696472,
                        0.23352959752082825,
                        -1.0539348125457764,
                        -0.9713661670684814,
                        -0.11123313009738922,
                        -0.20297351479530334,
                        -0.18158061802387238,
                        -0.13391798734664917,
                        -0.20974846184253693,
                        0.6120473146438599,
                        0.08570867031812668,
                        0.12673760950565338,
                        0.08851565420627594,
                        -0.9796152710914612,
                        0.1470034271478653
                    ],
                    [
                        0.4036210775375366,
                        -0.27203574776649475,
                        0.013004522770643234,
                        0.7729622721672058,
                        0.06598722189664841,
                        0.05867508053779602,
                        0.274301141500473,
                        -0.0009065764606930315,
                        0.026989568024873734,
                        0.43420904874801636,
                        -0.10236839205026627,
                        0.21725356578826904,
                        0.19653403759002686,
                        -0.8051429390907288,
                        0.169123113155365,
                        0.1359570324420929,
                        -0.09032886475324631,
                        0.018966160714626312,
                        1.0258773565292358,
                        -0.027615899220108986,
                        -0.03204115852713585,
                        -1.0430384874343872,
                        -0.25425776839256287,
                        0.0014040477108210325,
                        -0.05595558509230614,
                        -2.0016708374023438,
                        -0.8551279306411743,
                        1.2499898672103882,
                        -0.04591228440403938,
                        -0.043823085725307465,
                        0.31102025508880615,
                        0.12837855517864227,
                        -0.14792880415916443,
                        0.014127731323242188,
                        0.3137911260128021,
                        -0.7183536291122437,
                        0.2567692995071411,
                        -0.06397782266139984,
                        0.3038834035396576,
                        0.254045307636261,
                        -0.0006378470570780337,
                        -0.0024691398721188307,
                        0.19160525500774384,
                        -0.12935857474803925,
                        -0.01964147947728634,
                        0.40732353925704956,
                        0.6015992760658264,
                        -0.24269510805606842
                    ],
                    [
                        0.019744066521525383,
                        0.06943412125110626,
                        0.16243262588977814,
                        -0.0022982838563621044,
                        0.03032108023762703,
                        0.015357163734734058,
                        -0.11496192961931229,
                        -0.5907833576202393,
                        0.09295224398374557,
                        -0.20795175433158875,
                        0.35345780849456787,
                        0.06376148760318756,
                        0.24205522239208221,
                        0.242829367518425,
                        0.18248750269412994,
                        0.05809742584824562,
                        -0.007198518607765436,
                        0.07142515480518341,
                        -0.34581229090690613,
                        -0.09180823713541031,
                        0.030633533373475075,
                        0.002116493647918105,
                        0.07691866159439087,
                        -0.05388848856091499,
                        0.2877270579338074,
                        -0.14120404422283173,
                        0.1174347773194313,
                        0.23637978732585907,
                        -0.6002246141433716,
                        -0.22092460095882416,
                        0.2248767614364624,
                        -1.3446767330169678,
                        -0.6538271307945251,
                        0.015484401024878025,
                        0.8871365189552307,
                        -0.39547884464263916,
                        0.02476629987359047,
                        -0.2522008419036865,
                        -0.11075344681739807,
                        0.18891501426696777,
                        0.007139853201806545,
                        0.015414055436849594,
                        0.26036569476127625,
                        0.5695940256118774,
                        0.05731826275587082,
                        -0.10590025782585144,
                        0.020599329844117165,
                        0.11046642810106277
                    ],
                    [
                        0.3550814390182495,
                        -0.020886171609163284,
                        0.00319212069734931,
                        -0.6151553988456726,
                        0.02028987929224968,
                        0.0510304756462574,
                        0.837041974067688,
                        0.31043368577957153,
                        0.03780754655599594,
                        0.28996697068214417,
                        -0.13186131417751312,
                        0.22261574864387512,
                        -0.32722094655036926,
                        -0.08349748700857162,
                        -0.37062039971351624,
                        -0.005466409958899021,
                        -0.08466518670320511,
                        0.023109983652830124,
                        0.6836835145950317,
                        -0.020655522122979164,
                        0.13912592828273773,
                        0.22659458220005035,
                        -0.2354363203048706,
                        -0.10957343131303787,
                        -0.2241397351026535,
                        1.171311378479004,
                        -1.265595555305481,
                        -0.3251824378967285,
                        0.5410053133964539,
                        0.06595268845558167,
                        -0.5418891906738281,
                        0.5640684366226196,
                        -0.6000094413757324,
                        -0.23331646621227264,
                        -0.4144805669784546,
                        0.46599000692367554,
                        -0.4151470959186554,
                        0.18673312664031982,
                        -0.03570975363254547,
                        -0.17039798200130463,
                        -0.06811287999153137,
                        0.09675141423940659,
                        0.10876655578613281,
                        -0.35936352610588074,
                        0.08014118671417236,
                        0.32633307576179504,
                        -0.6812132596969604,
                        0.12979593873023987
                    ],
                    [
                        -0.1293475478887558,
                        -0.14505387842655182,
                        -0.6277307271957397,
                        0.25617554783821106,
                        0.09303417801856995,
                        0.06851823627948761,
                        -0.14334800839424133,
                        -0.14386703073978424,
                        -0.19555187225341797,
                        -0.4169405400753021,
                        -0.16336247324943542,
                        -0.10907099395990372,
                        -0.43739935755729675,
                        -0.12914231419563293,
                        -1.0818334817886353,
                        0.3088430166244507,
                        0.06231226399540901,
                        -0.18642424046993256,
                        -0.15573568642139435,
                        -0.14146465063095093,
                        -0.18803778290748596,
                        0.2058875560760498,
                        0.2731265723705292,
                        -0.24665459990501404,
                        -0.016478033736348152,
                        1.2944982051849365,
                        -0.594325840473175,
                        0.3877720832824707,
                        -0.07079771906137466,
                        0.1664576381444931,
                        0.37167420983314514,
                        0.22329343855381012,
                        0.08559615910053253,
                        -0.16462184488773346,
                        0.06272481381893158,
                        -0.7863269448280334,
                        -0.0659996047616005,
                        -0.05637788772583008,
                        -0.47685688734054565,
                        0.05594717338681221,
                        0.014570850878953934,
                        0.05609562247991562,
                        0.01631215400993824,
                        0.09584330022335052,
                        -0.11582218110561371,
                        -0.47475895285606384,
                        -0.021316615864634514,
                        -0.012969260104000568
                    ],
                    [
                        0.6785675883293152,
                        -0.10501878708600998,
                        0.359360009431839,
                        0.03424452990293503,
                        -0.010135354474186897,
                        -0.049350958317518234,
                        0.6440799832344055,
                        -0.8420253396034241,
                        0.06750953942537308,
                        0.03873242810368538,
                        -0.012140757404267788,
                        0.09439664334058762,
                        0.2311873584985733,
                        -0.038113124668598175,
                        0.06631271541118622,
                        -0.28256139159202576,
                        0.22311967611312866,
                        -0.09600137174129486,
                        -0.08997295051813126,
                        0.11552796512842178,
                        0.13550329208374023,
                        0.0999186635017395,
                        -0.019078582525253296,
                        -0.1611560583114624,
                        0.006601941771805286,
                        0.4903965890407562,
                        -0.7875142693519592,
                        -0.19746211171150208,
                        0.7134893536567688,
                        -0.9404932856559753,
                        -0.3081078827381134,
                        1.6147830486297607,
                        0.47448915243148804,
                        -0.2359500229358673,
                        0.1793575882911682,
                        0.41705507040023804,
                        -0.09085407853126526,
                        -0.0893164649605751,
                        -0.2599918842315674,
                        -0.049194034188985825,
                        0.41109874844551086,
                        -0.044743116945028305,
                        0.14807410538196564,
                        0.6902225017547607,
                        0.07269908487796783,
                        0.07112549990415573,
                        -0.05469898879528046,
                        -0.0621216781437397
                    ],
                    [
                        -0.211061492562294,
                        0.0699683278799057,
                        0.2628653645515442,
                        -0.12704360485076904,
                        0.23843015730381012,
                        0.012116080150008202,
                        -0.10216695815324783,
                        -0.3615228533744812,
                        0.013538958504796028,
                        0.12549401819705963,
                        -0.01935281604528427,
                        0.003214367898181081,
                        -0.06011996045708656,
                        -0.18829478323459625,
                        0.2287321835756302,
                        -0.05425259843468666,
                        0.09226053208112717,
                        -0.03132762014865875,
                        0.01834516040980816,
                        0.04533927142620087,
                        0.06637322902679443,
                        0.03713669627904892,
                        0.026126667857170105,
                        0.04849237948656082,
                        0.08701670169830322,
                        0.08842287957668304,
                        -0.15791061520576477,
                        -0.24680033326148987,
                        -0.04055916145443916,
                        1.780099868774414,
                        0.03505907952785492,
                        -0.6585062742233276,
                        -0.05648522824048996,
                        0.19742895662784576,
                        0.4491884410381317,
                        0.32461342215538025,
                        -0.10042516887187958,
                        0.20516425371170044,
                        0.04459470883011818,
                        0.09507407248020172,
                        0.031343914568424225,
                        -0.006364820990711451,
                        0.10488450527191162,
                        0.10559778660535812,
                        0.012746765278279781,
                        0.16684216260910034,
                        0.2108958512544632,
                        0.06023569777607918
                    ],
                    [
                        0.07238791137933731,
                        -0.005126532632857561,
                        -0.07911286503076553,
                        -0.2612064778804779,
                        -0.06245119124650955,
                        0.04065840318799019,
                        0.2973668575286865,
                        0.3044895827770233,
                        -0.20710453391075134,
                        -0.20365747809410095,
                        -0.23205602169036865,
                        -0.12825436890125275,
                        0.1765245944261551,
                        0.2827025353908539,
                        -0.1294243037700653,
                        0.36043810844421387,
                        -0.29114508628845215,
                        0.04151352122426033,
                        0.6175505518913269,
                        0.05390966683626175,
                        0.0955057144165039,
                        -0.2673051059246063,
                        -0.3393036127090454,
                        -0.4423888921737671,
                        -0.36439836025238037,
                        -0.021935313940048218,
                        0.8136383891105652,
                        -0.1253441870212555,
                        -0.05540873482823372,
                        0.24351097643375397,
                        0.2913729250431061,
                        -0.09293515980243683,
                        0.1577240377664566,
                        -0.564218282699585,
                        0.026859650388360023,
                        0.2080117166042328,
                        0.1681048721075058,
                        0.9811749458312988,
                        -0.20673488080501556,
                        -0.059133268892765045,
                        -0.2604577839374542,
                        0.042704448103904724,
                        0.30138716101646423,
                        -0.17014740407466888,
                        -0.09974757581949234,
                        -0.006361217238008976,
                        -0.38685423135757446,
                        -0.06298863887786865
                    ],
                    [
                        -0.25045710802078247,
                        0.3197079598903656,
                        -0.07984954118728638,
                        0.4298053979873657,
                        0.11915399134159088,
                        -0.005492019467055798,
                        -0.9464470148086548,
                        0.21254286170005798,
                        0.00958817545324564,
                        0.5559156537055969,
                        0.1622902899980545,
                        -0.008626295253634453,
                        0.33802586793899536,
                        0.3757839500904083,
                        0.16960376501083374,
                        -0.2414628267288208,
                        0.22702829539775848,
                        0.2524769902229309,
                        -0.5604347586631775,
                        -0.014404465444386005,
                        -0.20750218629837036,
                        -0.03370504826307297,
                        -0.024599602445960045,
                        0.37833690643310547,
                        0.0026475926861166954,
                        -0.3166464567184448,
                        0.6830921769142151,
                        -0.6214016675949097,
                        0.1808566451072693,
                        0.3461156189441681,
                        0.040922489017248154,
                        0.29334795475006104,
                        -0.18509384989738464,
                        -0.18355979025363922,
                        0.19334658980369568,
                        -0.09120763838291168,
                        -0.02272513136267662,
                        0.24174092710018158,
                        0.0041641551069915295,
                        0.2667962610721588,
                        0.33721110224723816,
                        0.05884397402405739,
                        -0.3587518632411957,
                        0.07325424253940582,
                        0.03048354759812355,
                        0.20400173962116241,
                        0.2837607264518738,
                        0.00015844532754272223
                    ],
                    [
                        0.3230959177017212,
                        -0.026571504771709442,
                        -0.5750061273574829,
                        0.0015812779311090708,
                        -0.1383497416973114,
                        0.015990974381566048,
                        -0.4871397614479065,
                        0.21526530385017395,
                        -0.18040116131305695,
                        -0.48301830887794495,
                        -0.1721278578042984,
                        -0.3413260579109192,
                        0.43143904209136963,
                        0.4637974202632904,
                        -0.035520583391189575,
                        0.2863171696662903,
                        0.161148339509964,
                        -0.08626919984817505,
                        -0.24910840392112732,
                        -0.13421189785003662,
                        0.174220472574234,
                        -0.17511780560016632,
                        -0.2518061399459839,
                        0.019065530970692635,
                        -0.219290629029274,
                        0.21417275071144104,
                        0.2990308701992035,
                        1.5176209211349487,
                        0.0494670607149601,
                        -0.027517609298229218,
                        -0.20150314271450043,
                        0.20832784473896027,
                        -0.171511709690094,
                        0.4424658417701721,
                        0.6708081960678101,
                        0.09541041404008865,
                        0.09082271158695221,
                        -0.1150064691901207,
                        -0.4117606580257416,
                        -0.21256987750530243,
                        -0.04704122617840767,
                        0.0027257255278527737,
                        -0.40221431851387024,
                        -0.05765668675303459,
                        0.03765774518251419,
                        -0.08416184037923813,
                        -0.47687605023384094,
                        -0.19527532160282135
                    ]
                ],
                [
                    -3.5599896907806396,
                    2.346510887145996,
                    0.9653974771499634,
                    0.8836534023284912,
                    -0.7431579828262329,
                    1.4638761281967163,
                    -3.104952812194824,
                    1.415311574935913,
                    0.0440300889313221,
                    -0.23148390650749207,
                    -1.17489492893219,
                    -0.3001965284347534,
                    4.543242454528809,
                    0.9662033319473267,
                    0.1148073822259903,
                    -0.15915986895561218,
                    2.16872501373291,
                    -0.16306479275226593,
                    3.885178565979004,
                    -1.825512170791626,
                    0.8109177947044373,
                    -0.40950822830200195,
                    2.2753984928131104,
                    0.799148440361023,
                    -0.04618719220161438,
                    0.16644473373889923,
                    -0.19895988702774048,
                    0.06182190775871277,
                    -0.005555838346481323,
                    -0.015844710171222687,
                    -0.045140549540519714,
                    -0.010418042540550232,
                    0.09606213122606277,
                    -0.04161762818694115,
                    0.043982818722724915,
                    -0.014533363282680511,
                    0.901849627494812,
                    -0.8444516062736511,
                    1.3649009466171265,
                    1.6055364608764648,
                    0.9917490482330322,
                    1.7426798343658447,
                    0.6628543138504028,
                    1.3471148014068604,
                    1.3909173011779785,
                    0.19021344184875488,
                    0.07052040845155716,
                    1.3299472332000732
                ]
            ]
        },
        {
            "type": "dense",
            "activation": "",
            "shape": [
                null,
                null,
                1
            ],
            "weights": [
                [
                    [
                        0.28057751059532166
                    ],
                    [
                        -1.2076494693756104
                    ],
                    [
                        -0.15533186495304108
                    ],
                    [
                        -0.13925541937351227
                    ],
                    [
                        -0.005548063199967146
                    ],
                    [
                        -0.04991549253463745
                    ],
                    [
                        0.036406129598617554
                    ],
                    [
                        0.013948953710496426
                    ],
                    [
                        -0.11035271733999252
                    ],
                    [
                        1.170208215713501
                    ],
                    [
                        0.0376305989921093
                    ],
                    [
                        -0.011035654693841934
                    ]
                ],
                [
                    0.05020424723625183
                ]
            ]
        }
    ]
}