{
    "in_shape": [
        null,
        null,
        1
    ],
    "layers": [
        {
            "type": "lstm",
            "activation": "",
            "shape": [
                null,
                null,
                12
            ],
            "weights": [
                [
                    [
                        0.20894062519073486,
                        0.06338080018758774,
                        -0.5875027775764465,
                        -0.00019479500770103186,
                        0.0010193714406341314,
                        0.0008194437250494957,
                        0.06080636382102966,
                        0.07322029769420624,
                        0.1506115198135376,
                        0.22015662491321564,
                        -0.03597761318087578,
                        0.09261369705200195,
                        0.17948392033576965,
                        -0.06918269395828247,
                        -0.151114821434021,
                        -0.00015871239884290844,
                        0.0010642751585692167,
                        0.0006835298845544457,
                        0.04449140280485153,
                        0.19424837827682495,
                        0.07361097633838654,
                        0.12287246435880661,
                        -0.03818356990814209,
                        0.12812000513076782,
                        -0.46857136487960815,
                        0.20140889286994934,
                        0.8407874703407288,
                        -0.042212218046188354,
                        0.007243597414344549,
                        0.04050217568874359,
                        -0.12884224951267242,
                        -0.550324022769928,
                        0.2580224275588989,
                        -0.39349156618118286,
                        -0.020491650328040123,
                        -0.7224903702735901,
                        0.22887009382247925,
                        0.05727076902985573,
                        -0.38334420323371887,
                        0.0011751677375286818,
                        0.0009548689122311771,
                        0.001275041257031262,
                        0.01221468672156334,
                        0.031013645231723785,
                        0.004425602965056896,
                        0.24842795729637146,
                        -0.03786930441856384,
                        0.0864144116640091
                    ]
                ],
                [
                    [
                        -0.004709523171186447,
                        -0.0015595918521285057,
                        -0.03896467015147209,
                        0.0021794778294861317,
                        0.00023816297471057624,
                        9.395080269314349e-05,
                        -0.013508518226444721,
                        -0.04536227136850357,
                        -0.34228307008743286,
                        -0.05118165537714958,
                        0.012066966854035854,
                        -0.0070412298664450645,
                        0.0990041196346283,
                        -0.3872188329696655,
                        -0.09938980638980865,
                        0.002115365117788315,
                        0.00023797657922841609,
                        0.0002733045257627964,
                        -0.45848265290260315,
                        0.0777290090918541,
                        -0.22778362035751343,
                        -0.036852870136499405,
                        0.015893008559942245,
                        0.07380076497793198,
                        -1.2093532085418701,
                        -0.5791820883750916,
                        0.2335098534822464,
                        0.045172542333602905,
                        0.038176339119672775,
                        0.01700141280889511,
                        -0.37884455919265747,
                        -1.48822820186615,
                        0.5128932595252991,
                        0.12315649539232254,
                        -0.24617506563663483,
                        0.1069478839635849,
                        0.005565507337450981,
                        -0.004925360903143883,
                        -0.043303634971380234,
                        0.00227006571367383,
                        0.00031391781521961093,
                        4.992246613255702e-05,
                        -0.3444196283817291,
                        0.04373551532626152,
                        0.026133781298995018,
                        -0.06135101988911629,
                        0.010007369332015514,
                        0.008806884288787842
                    ],
                    [
                        0.002082277089357376,
                        0.0466918908059597,
                        -0.41612276434898376,
                        0.0012216245522722602,
                        0.00014337895845528692,
                        0.00016655084618832916,
                        -0.0961265116930008,
                        0.07756736129522324,
                        0.18048450350761414,
                        -0.005627449136227369,
                        0.008947697468101978,
                        0.005211512092500925,
                        0.00943909864872694,
                        0.09195733815431595,
                        -0.38045263290405273,
                        0.0012511861277744174,
                        0.00013762440357822925,
                        0.0001906066172523424,
                        -0.007013682276010513,
                        -0.027748072519898415,
                        0.21022382378578186,
                        -0.0030508721247315407,
                        0.009861095808446407,
                        0.005348688922822475,
                        0.4355447292327881,
                        0.7968549728393555,
                        0.6282756924629211,
                        -0.0021463159937411547,
                        -0.012073745019733906,
                        -0.014914040453732014,
                        -0.697680652141571,
                        -0.15466785430908203,
                        -0.07118863612413406,
                        -0.029370803385972977,
                        0.0690581426024437,
                        0.9269108772277832,
                        0.0015152288833633065,
                        0.17638473212718964,
                        -0.39693471789360046,
                        0.0012226285180076957,
                        0.00014310661936178803,
                        0.00017260208551306278,
                        -0.036792315542697906,
                        0.03686310723423958,
                        0.16877053678035736,
                        -0.00524373771622777,
                        0.008831452578306198,
                        0.002550404751673341
                    ],
                    [
                        -0.010165867395699024,
                        -0.1903771162033081,
                        -0.291980117559433,
                        0.0036263212095946074,
                        -6.36667464277707e-05,
                        0.00019911689742002636,
                        -0.339530348777771,
                        -0.6001967787742615,
                        -0.3331076502799988,
                        -0.010666171088814735,
                        0.002500275382772088,
                        0.015201716683804989,
                        0.01063910499215126,
                        -0.2318536788225174,
                        -0.32189667224884033,
                        0.005300978664308786,
                        4.3216903577558696e-05,
                        0.00012393553333822638,
                        -0.18487271666526794,
                        0.17744719982147217,
                        -0.4266703426837921,
                        -0.0014323770301416516,
                        0.005400739144533873,
                        0.10141630470752716,
                        0.4469771385192871,
                        0.3354129493236542,
                        0.170442596077919,
                        0.06276239454746246,
                        -0.013540479354560375,
                        -0.03925744816660881,
                        0.2785123884677887,
                        0.9957844018936157,
                        -0.24876411259174347,
                        0.6212063431739807,
                        -0.0448046512901783,
                        0.2338724583387375,
                        -0.012942698784172535,
                        -0.03741569072008133,
                        -0.3091088533401489,
                        0.0032407022081315517,
                        -7.255264790728688e-05,
                        0.00027452383073978126,
                        -0.39335736632347107,
                        -0.1338140368461609,
                        -0.37350332736968994,
                        -0.00789383240044117,
                        6.455487164203078e-05,
                        0.020080959424376488
                    ],
                    [
                        -0.004798320587724447,
                        -0.003753919154405594,
                        -0.010278575122356415,
                        0.00167846551630646,
                        9.795085497898981e-05,
                        0.0003163253131788224,
                        -0.04595337435603142,
                        -0.012913373298943043,
                        0.0023606049362570047,
                        -0.0013942294754087925,
                        0.004145447630435228,
                        -0.0050916969776153564,
                        0.011229286901652813,
                        -0.0954054594039917,
                        -0.012005948461592197,
                        0.001836958690546453,
                        0.0001310309744440019,
                        0.00022505874221678823,
                        -0.07694730162620544,
                        -0.006668280344456434,
                        0.006324147339910269,
                        -0.0014150714268907905,
                        0.004946197383105755,
                        0.006494123954325914,
                        -0.03800005093216896,
                        -0.029374314472079277,
                        0.09939613193273544,
                        -0.005611541215330362,
                        0.008338836021721363,
                        0.016388293355703354,
                        -0.075987309217453,
                        -0.21855765581130981,
                        0.025226110592484474,
                        -0.08404124528169632,
                        0.008748996071517467,
                        -0.021406127139925957,
                        -0.004334340337663889,
                        -0.06408637762069702,
                        -0.008208172395825386,
                        0.0016549971187487245,
                        0.00010042721260106191,
                        0.0002507080789655447,
                        -0.08570663630962372,
                        -0.020850224420428276,
                        0.024612799286842346,
                        -0.0014497506199404597,
                        0.003930500242859125,
                        -0.004200779367238283
                    ],
                    [
                        -0.001386557356454432,
                        0.029422642663121223,
                        -0.00764519302174449,
                        0.0006847474724054337,
                        1.936965600179974e-05,
                        0.00013837797450833023,
                        0.006012796424329281,
                        0.0019472551066428423,
                        0.00016411446267738938,
                        -0.0005879745585843921,
                        0.0009577819146215916,
                        -0.003056897083297372,
                        -0.0006060938467271626,
                        0.020307287573814392,
                        -0.005906599573791027,
                        0.0007078974158503115,
                        1.2789416359737515e-05,
                        0.00012320911628194153,
                        0.003790035843849182,
                        0.002423851517960429,
                        -0.002716709626838565,
                        -0.0008926346781663597,
                        0.0009944047778844833,
                        4.094195901416242e-05,
                        0.029340898618102074,
                        0.016584930941462517,
                        -0.02333851531147957,
                        0.0042802332900464535,
                        -0.007490983698517084,
                        -0.002477468689903617,
                        0.007028830703347921,
                        0.038023997098207474,
                        -0.02663244679570198,
                        -0.0021227546967566013,
                        -0.0037915525026619434,
                        0.01718180626630783,
                        -0.0008973950170911849,
                        0.018923567607998848,
                        -0.006847693119198084,
                        0.0007010023691691458,
                        1.9486507881083526e-05,
                        0.00014641018060501665,
                        0.0038147030863910913,
                        -0.004282685462385416,
                        -0.006694605108350515,
                        -0.0006941021420061588,
                        0.0009941726457327604,
                        -0.002438046270981431
                    ],
                    [
                        -0.002120787277817726,
                        0.00545564666390419,
                        0.00841589830815792,
                        -0.0008845613338053226,
                        -8.217626600526273e-05,
                        -0.00017268370720557868,
                        0.019999179989099503,
                        0.007356459740549326,
                        -0.0052174837328493595,
                        0.0005880655371583998,
                        -0.002781389746814966,
                        -0.0029848176054656506,
                        -0.005238047335296869,
                        0.0446256622672081,
                        0.010556514374911785,
                        -0.0008921218104660511,
                        -4.7272311348933727e-05,
                        -0.00010980567458318546,
                        0.037447188049554825,
                        0.004345477093011141,
                        -0.01672235317528248,
                        0.001094128587283194,
                        -0.0033943059388548136,
                        -0.002553794765844941,
                        0.021287377923727036,
                        0.009954391047358513,
                        -0.0739901214838028,
                        0.010036790743470192,
                        -0.004999906290322542,
                        -0.012211224064230919,
                        0.027441397309303284,
                        0.09191135317087173,
                        -0.018145818263292313,
                        0.03840900585055351,
                        -0.01866491325199604,
                        0.04402686655521393,
                        -0.00175479578319937,
                        0.03681020811200142,
                        0.007574991788715124,
                        -0.0008711690898053348,
                        -8.410818554693833e-05,
                        -0.00016104102542158216,
                        0.05099128931760788,
                        0.005659093149006367,
                        -0.027878442779183388,
                        0.0005321085918694735,
                        -0.0027302009984850883,
                        -0.0027673502918332815
                    ],
                    [
                        0.009121008217334747,
                        0.10014799237251282,
                        0.42842769622802734,
                        -0.0005882164696231484,
                        -4.695888128480874e-05,
                        0.0001505575201008469,
                        -0.2519150674343109,
                        0.21692149341106415,
                        -0.06838966906070709,
                        0.018779272213578224,
                        -0.02022695355117321,
                        -0.0033022835850715637,
                        -0.00959754642099142,
                        -0.12513896822929382,
                        0.3967592716217041,
                        -0.0005274114664644003,
                        -5.599785436061211e-05,
                        0.00014655607810709625,
                        -0.39372172951698303,
                        0.17132554948329926,
                        -0.06860936433076859,
                        0.01017050351947546,
                        -0.020481141284108162,
                        -0.03681744262576103,
                        0.3847086727619171,
                        0.3897736966609955,
                        -0.46225807070732117,
                        0.0594029538333416,
                        0.014141338877379894,
                        -0.0249461866915226,
                        0.6689714193344116,
                        -0.49178799986839294,
                        0.23915591835975647,
                        -0.0012814196525141597,
                        -0.14892305433750153,
                        0.9658495783805847,
                        0.007855596952140331,
                        -0.060151226818561554,
                        0.41348132491111755,
                        -0.0006150178960524499,
                        -4.8269856051774696e-05,
                        0.00014969997573643923,
                        -0.5500962138175964,
                        0.08928214758634567,
                        -0.07324746996164322,
                        0.018929537385702133,
                        -0.020328238606452942,
                        -0.0036993820685893297
                    ],
                    [
                        -0.019844161346554756,
                        0.2344241589307785,
                        0.1467817723751068,
                        -0.0009115599095821381,
                        0.00039468955947086215,
                        -0.0009155446896329522,
                        0.392113596200943,
                        -0.1174342930316925,
                        0.07251545786857605,
                        -0.041420456022024155,
                        -0.005506682209670544,
                        0.04158322513103485,
                        0.03486272320151329,
                        -0.4539046883583069,
                        0.013822618871927261,
                        -0.002086131600663066,
                        0.0003272182075306773,
                        -0.0007935945759527385,
                        -0.45744359493255615,
                        -0.16890820860862732,
                        -0.3243328928947449,
                        -0.011941528879106045,
                        -0.009481634944677353,
                        0.06954964250326157,
                        0.8264970183372498,
                        -0.6440607309341431,
                        -0.36826759576797485,
                        0.07028144598007202,
                        -0.02420235052704811,
                        -0.032370828092098236,
                        -0.28762194514274597,
                        0.31365489959716797,
                        0.11035455018281937,
                        0.06557246297597885,
                        -0.002845099661499262,
                        1.0885634422302246,
                        -0.02422390505671501,
                        0.05363733321428299,
                        0.09307058155536652,
                        -0.0015765479765832424,
                        0.00037456571590155363,
                        -0.000781836046371609,
                        0.32301685214042664,
                        -0.18745844066143036,
                        -0.10337698459625244,
                        -0.03920042887330055,
                        -0.00777141097933054,
                        0.030030304566025734
                    ],
                    [
                        -0.0019370518857613206,
                        0.09083931148052216,
                        -0.44282224774360657,
                        0.0072828722186386585,
                        0.00044065434485673904,
                        0.0011010236339643598,
                        -0.004737869370728731,
                        0.14541587233543396,
                        0.16807164251804352,
                        -0.024074938148260117,
                        0.013106824830174446,
                        0.0050553446635603905,
                        0.08233113586902618,
                        -0.08078314363956451,
                        -0.395843505859375,
                        0.007046177983283997,
                        0.0004137310606893152,
                        0.0012503437465056777,
                        -0.19573327898979187,
                        0.08278927206993103,
                        0.1631717085838318,
                        0.01241107564419508,
                        0.017502520233392715,
                        0.11232371628284454,
                        0.30789244174957275,
                        0.09359588474035263,
                        0.43581196665763855,
                        0.09641007333993912,
                        -0.011354011483490467,
                        -0.0735890120267868,
                        -0.1367122083902359,
                        0.0646117627620697,
                        0.8255152702331543,
                        0.24596793949604034,
                        -0.19123050570487976,
                        0.4612305760383606,
                        -0.004490766208618879,
                        -0.028386998921632767,
                        -0.42034003138542175,
                        0.0073420703411102295,
                        0.0004479316994547844,
                        0.001042925869114697,
                        -0.3287546634674072,
                        0.0870872363448143,
                        0.20961683988571167,
                        -0.02500508725643158,
                        0.01261879876255989,
                        -0.0005579955759458244
                    ],
                    [
                        -0.030064184218645096,
                        0.05205898359417915,
                        -0.10916531831026077,
                        0.0019750427454710007,
                        0.00020444387337192893,
                        0.0003008050553034991,
                        0.1159738078713417,
                        -0.22789134085178375,
                        -0.19575653970241547,
                        -0.029255710542201996,
                        0.01209186390042305,
                        -0.05491580069065094,
                        0.04967242106795311,
                        -0.32256755232810974,
                        -0.10771964490413666,
                        0.0018566815415397286,
                        0.00019274120859336108,
                        0.00040255385101772845,
                        -0.2299487143754959,
                        0.01857861876487732,
                        -0.2107217162847519,
                        -0.019085170701146126,
                        0.014023223891854286,
                        0.03401026129722595,
                        -0.15561576187610626,
                        -0.11890916526317596,
                        0.29425039887428284,
                        0.002403876045718789,
                        0.021846681833267212,
                        0.03254426270723343,
                        -0.15287601947784424,
                        -0.7094557285308838,
                        0.19788075983524323,
                        -0.14790278673171997,
                        -0.12677225470542908,
                        -0.5006560683250427,
                        -0.02148902416229248,
                        -0.0677090436220169,
                        -0.09797963500022888,
                        0.0014530380722135305,
                        0.0002251625555800274,
                        0.000203264644369483,
                        -0.14860376715660095,
                        -0.10399635881185532,
                        -0.021994654089212418,
                        -0.034020714461803436,
                        0.011143097653985023,
                        -0.04235454276204109
                    ],
                    [
                        0.0026059113442897797,
                        -0.037780724465847015,
                        0.013684502802789211,
                        -0.0029322088230401278,
                        -6.005292379995808e-05,
                        -0.0005977541441097856,
                        0.06991958618164062,
                        -0.012769227847456932,
                        -0.0019854269921779633,
                        0.0006170000415295362,
                        -0.00677836686372757,
                        0.005580269265919924,
                        -0.0133378766477108,
                        0.16667403280735016,
                        0.013005238026380539,
                        -0.003137346589937806,
                        -7.950021245051175e-05,
                        -0.0005673104315064847,
                        0.11365269869565964,
                        -0.02184862643480301,
                        0.005027112551033497,
                        -0.0006999449688009918,
                        -0.007763669826090336,
                        -0.009128029458224773,
                        -0.027595916762948036,
                        -0.06714925915002823,
                        -0.15162305533885956,
                        -0.02079462632536888,
                        -0.0154193677008152,
                        -0.013083063066005707,
                        0.11383844912052155,
                        0.18392294645309448,
                        0.044388990849256516,
                        0.11200109869241714,
                        0.03582025691866875,
                        -0.08682351559400558,
                        0.0019385365303605795,
                        0.09536290168762207,
                        0.009173301048576832,
                        -0.0028871004469692707,
                        -6.55355688650161e-05,
                        -0.0005103591829538345,
                        0.17296691238880157,
                        0.03126544877886772,
                        -0.03270344063639641,
                        0.000937674893066287,
                        -0.006541186477988958,
                        0.004311778116971254
                    ],
                    [
                        -0.002961704507470131,
                        -0.013401459902524948,
                        0.06709744036197662,
                        0.0015203143702819943,
                        0.00013579826918430626,
                        0.00012577387678902596,
                        -0.0779307633638382,
                        0.011851878836750984,
                        -0.24196156859397888,
                        -0.04323378577828407,
                        0.00984711293131113,
                        -0.005215979181230068,
                        0.07895489037036896,
                        -0.1952681541442871,
                        -0.003205695888027549,
                        0.0019471198320388794,
                        0.00011972173524554819,
                        0.0002661728940438479,
                        -0.3035832643508911,
                        0.0376664437353611,
                        -0.07721640169620514,
                        -0.029284745454788208,
                        0.012521620839834213,
                        0.04435194283723831,
                        1.2662439346313477,
                        -0.23083646595478058,
                        -0.3974286615848541,
                        0.08085513859987259,
                        0.008513232693076134,
                        -0.010809618048369884,
                        -0.10936298966407776,
                        -1.1291897296905518,
                        0.4628419876098633,
                        0.2478225976228714,
                        -0.1598796248435974,
                        -0.9335206747055054,
                        0.0063690077513456345,
                        0.02229895628988743,
                        0.0569484680891037,
                        0.0003085205680690706,
                        0.0002007952134590596,
                        -0.00026532134506851435,
                        -0.26454922556877136,
                        0.017285112291574478,
                        0.10191389173269272,
                        -0.05202935263514519,
                        0.008507510647177696,
                        0.0020428835414350033
                    ]
                ],
                [
                    1.630760669708252,
                    -3.666926383972168,
                    -0.16663441061973572,
                    -0.04365888983011246,
                    -0.018318558111786842,
                    -0.024540910497307777,
                    -3.661893844604492,
                    -1.2902029752731323,
                    -1.020001769065857,
                    0.2916164994239807,
                    -0.05522306263446808,
                    1.3292373418807983,
                    -1.0075490474700928,
                    4.827304363250732,
                    -0.21029198169708252,
                    -0.01516841258853674,
                    -0.015542473644018173,
                    -0.024742793291807175,
                    4.6839141845703125,
                    2.221813201904297,
                    2.131122589111328,
                    -0.2548303008079529,
                    0.07067350298166275,
                    -0.956158459186554,
                    0.019917771220207214,
                    -0.05108390748500824,
                    0.11339759826660156,
                    0.007594551891088486,
                    5.99399209022522e-05,
                    -0.003345601260662079,
                    -0.032472409307956696,
                    -0.08069261908531189,
                    0.01913471519947052,
                    -0.01781243085861206,
                    -0.0060696080327034,
                    0.04800309240818024,
                    1.8027806282043457,
                    -1.129025936126709,
                    0.17088279128074646,
                    -0.04361709579825401,
                    -0.01831556297838688,
                    -0.02453668601810932,
                    -0.5837391018867493,
                    0.5683901906013489,
                    -0.3774186372756958,
                    0.3235566020011902,
                    -0.05405627563595772,
                    1.5413572788238525
                ]
            ]
        },
        {
            "type": "dense",
            "activation": "",
            "shape": [
                null,
                null,
                1
            ],
            "weights": [
                [
                    [
                        -1.1432069540023804
                    ],
                    [
                        -0.5078114867210388
                    ],
                    [
                        0.6140620708465576
                    ],
                    [
                        -0.06640101969242096
                    ],
                    [
                        0.044317323714494705
                    ],
                    [
                        0.032946232706308365
                    ],
                    [
                        0.5851879715919495
                    ],
                    [
                        -0.6897481083869934
                    ],
                    [
                        0.3075273036956787
                    ],
                    [
                        -0.34652993083000183
                    ],
                    [
                        -0.1267581433057785
                    ],
                    [
                        -0.7433187365531921
                    ]
                ],
                [
                    -0.06746048480272293
                ]
            ]
        }
    ]
}