{
    "in_shape": [
        null,
        null,
        1
    ],
    "layers": [
        {
            "type": "lstm",
            "activation": "",
            "shape": [
                null,
                null,
                12
            ],
            "weights": [
                [
                    [
                        -0.23346102237701416,
                        -0.03764708340167999,
                        -0.07860975712537766,
                        -0.6973536610603333,
                        0.16471931338310242,
                        -0.2611146569252014,
                        0.6608648300170898,
                        -0.21459947526454926,
                        -0.2118719518184662,
                        -0.034837041050195694,
                        0.08073695749044418,
                        0.264270156621933,
                        -0.02397937700152397,
                        0.6166560053825378,
                        0.1135527491569519,
                        -0.26062923669815063,
                        0.43636688590049744,
                        0.01547402236610651,
                        0.21105119585990906,
                        -0.09335082024335861,
                        0.2633912265300751,
                        0.0037536448799073696,
                        -0.08546418696641922,
                        -0.11060015857219696,
                        -0.22117643058300018,
                        2.323841094970703,
                        0.07037527114152908,
                        -0.5951892137527466,
                        0.691023051738739,
                        0.27473053336143494,
                        0.8239147663116455,
                        0.2667444944381714,
                        0.016133751720190048,
                        -1.2625492811203003,
                        -0.5092795491218567,
                        0.7161905765533447,
                        -0.5285176038742065,
                        0.12286131829023361,
                        0.19587044417858124,
                        0.4118042290210724,
                        0.04306136816740036,
                        -0.4066410958766937,
                        0.18443386256694794,
                        0.35188737511634827,
                        0.22275595366954803,
                        0.026661649346351624,
                        0.05175553262233734,
                        0.30083343386650085
                    ]
                ],
                [
                    [
                        0.20438306033611298,
                        -0.3272026479244232,
                        0.07941106706857681,
                        -0.03671761229634285,
                        0.28677788376808167,
                        -0.004121625795960426,
                        -0.26752689480781555,
                        -0.23569712042808533,
                        0.04597824439406395,
                        0.10858073085546494,
                        0.1757829338312149,
                        0.12026343494653702,
                        0.18534080684185028,
                        0.3491654098033905,
                        -0.7186465859413147,
                        0.1626497209072113,
                        0.2565169632434845,
                        0.3040749430656433,
                        -0.013711988925933838,
                        -0.4414446949958801,
                        0.21367624402046204,
                        0.4963960647583008,
                        -0.27153488993644714,
                        0.2399701625108719,
                        0.4478940963745117,
                        -0.2706034481525421,
                        0.3836626708507538,
                        -0.23561784625053406,
                        0.2204539030790329,
                        -0.17059075832366943,
                        0.2718524634838104,
                        -0.12698599696159363,
                        0.19311577081680298,
                        0.539221465587616,
                        -0.12301158905029297,
                        0.1263238936662674,
                        -0.008499140851199627,
                        0.023702720180153847,
                        0.22952933609485626,
                        0.051950760185718536,
                        0.1449480950832367,
                        0.09096996486186981,
                        -0.042757708579301834,
                        0.15648524463176727,
                        0.2818893492221832,
                        0.10517192631959915,
                        0.00986566673964262,
                        0.40330076217651367
                    ],
                    [
                        0.08298531174659729,
                        1.2867969274520874,
                        0.143610879778862,
                        0.2562447488307953,
                        -0.20231574773788452,
                        0.0013182088732719421,
                        -0.20469017326831818,
                        -0.2498154491186142,
                        -0.5016289353370667,
                        0.32456469535827637,
                        0.03724430873990059,
                        -0.23580977320671082,
                        0.0577751025557518,
                        -0.299120157957077,
                        -0.44514063000679016,
                        -0.594319760799408,
                        0.30658239126205444,
                        -0.2546469569206238,
                        0.47599002718925476,
                        0.09886154532432556,
                        -0.17372992634773254,
                        0.29482612013816833,
                        -0.18386703729629517,
                        0.09927957504987717,
                        0.23880702257156372,
                        0.6851444244384766,
                        -0.01679006591439247,
                        -0.24599209427833557,
                        -0.6823518872261047,
                        0.04647797718644142,
                        0.062093961983919144,
                        0.08146250993013382,
                        0.20618963241577148,
                        1.729339599609375,
                        0.550938069820404,
                        -0.586204469203949,
                        -0.07186571508646011,
                        0.5334595441818237,
                        -0.17837145924568176,
                        0.36139047145843506,
                        0.10424938797950745,
                        -0.0450277179479599,
                        0.6075031161308289,
                        0.03463280573487282,
                        0.35817572474479675,
                        0.3083672523498535,
                        0.2481910139322281,
                        -0.2679896950721741
                    ],
                    [
                        -0.2065090388059616,
                        -0.016460230574011803,
                        0.38443443179130554,
                        0.05595099553465843,
                        -0.17109264433383942,
                        1.3373984098434448,
                        0.09282005578279495,
                        -0.07931447774171829,
                        -0.4494674801826477,
                        -0.1123543456196785,
                        1.0737355947494507,
                        0.8828616738319397,
                        0.043666619807481766,
                        0.1853628158569336,
                        -0.030318016186356544,
                        0.1323906034231186,
                        -0.09908425807952881,
                        -0.32016992568969727,
                        -0.048349134624004364,
                        0.1702934056520462,
                        -0.05206085741519928,
                        0.16733784973621368,
                        -1.501915693283081,
                        0.7750064730644226,
                        -0.22132755815982819,
                        -0.08472470194101334,
                        -1.0723295211791992,
                        0.0927472710609436,
                        -0.19021962583065033,
                        -1.5845909118652344,
                        0.02281205728650093,
                        -0.2349460870027542,
                        0.05224986374378204,
                        0.056670114398002625,
                        -0.9188404083251953,
                        0.48570945858955383,
                        -0.07325893640518188,
                        0.04038926959037781,
                        0.7412955164909363,
                        0.33292487263679504,
                        0.1891050785779953,
                        -1.5979373455047607,
                        0.20218157768249512,
                        0.016690293326973915,
                        0.38966596126556396,
                        -0.19584789872169495,
                        0.17280250787734985,
                        -1.3822753429412842
                    ],
                    [
                        -0.2501344084739685,
                        -0.6767157912254333,
                        -0.008267047815024853,
                        -1.002455234527588,
                        0.2785871624946594,
                        0.2967239320278168,
                        -0.02519979700446129,
                        -0.2826950252056122,
                        0.9742354154586792,
                        -0.2498728483915329,
                        -0.15782423317432404,
                        0.32818517088890076,
                        0.15756607055664062,
                        0.37076395750045776,
                        0.4773559868335724,
                        -0.1820686012506485,
                        0.5525143146514893,
                        -0.10691546648740768,
                        0.26090380549430847,
                        0.45135441422462463,
                        0.3268766403198242,
                        -0.5818923711776733,
                        0.004538195673376322,
                        -0.059375640004873276,
                        0.12490196526050568,
                        0.8909618854522705,
                        -0.4808359444141388,
                        0.10314305871725082,
                        1.1243901252746582,
                        -0.2773939371109009,
                        0.41220465302467346,
                        -0.019869770854711533,
                        0.3768532872200012,
                        0.8397219181060791,
                        -0.029674148187041283,
                        0.4348938763141632,
                        0.021189887076616287,
                        0.4758552610874176,
                        -0.13275925815105438,
                        0.18152515590190887,
                        0.03375597670674324,
                        -0.03601851686835289,
                        0.013761118985712528,
                        -1.1514378786087036,
                        -0.7222834229469299,
                        -0.1971682757139206,
                        0.1431770771741867,
                        0.5699357390403748
                    ],
                    [
                        0.24605217576026917,
                        -0.24106138944625854,
                        0.08194666355848312,
                        0.1080775335431099,
                        0.49664369225502014,
                        0.24189449846744537,
                        0.16480880975723267,
                        0.1469041407108307,
                        0.19518613815307617,
                        -0.025068694725632668,
                        0.05713142827153206,
                        -0.032023679465055466,
                        -0.3418596386909485,
                        -0.29116523265838623,
                        -0.3243182301521301,
                        -0.7464427947998047,
                        0.5426649451255798,
                        0.29139503836631775,
                        0.4907115399837494,
                        0.11659205704927444,
                        0.06060976907610893,
                        -0.18787232041358948,
                        0.20245033502578735,
                        0.00743875652551651,
                        0.431796133518219,
                        0.05449574440717697,
                        -0.1018381416797638,
                        -0.18209324777126312,
                        0.4669158160686493,
                        0.4689529836177826,
                        -0.6751075983047485,
                        -0.25281164050102234,
                        -1.599217176437378,
                        -0.23950643837451935,
                        0.06836526840925217,
                        -0.4122466444969177,
                        0.2777295410633087,
                        0.4476863443851471,
                        -0.09029993414878845,
                        -0.36050814390182495,
                        0.25575610995292664,
                        0.18242019414901733,
                        0.008886167779564857,
                        -0.586132287979126,
                        -0.1525249481201172,
                        -0.3236692249774933,
                        0.5482316017150879,
                        -0.02444513328373432
                    ],
                    [
                        -0.3018685579299927,
                        0.07780245691537857,
                        -0.1743556261062622,
                        0.1128966212272644,
                        0.5752979516983032,
                        -0.47920429706573486,
                        0.04577111452817917,
                        -0.05834636837244034,
                        0.29381439089775085,
                        0.3945337235927582,
                        0.7377079725265503,
                        -0.26128995418548584,
                        0.47395721077919006,
                        0.09316737204790115,
                        -0.05328981950879097,
                        0.08281151205301285,
                        -0.17024506628513336,
                        -0.8460507392883301,
                        -0.25727662444114685,
                        0.28702598810195923,
                        0.040554873645305634,
                        0.09096580743789673,
                        -0.4288783371448517,
                        0.8095370531082153,
                        -0.10330265760421753,
                        -0.06417595595121384,
                        -0.6335315704345703,
                        0.05447104945778847,
                        -0.2249075174331665,
                        -0.7547235488891602,
                        -0.053164903074502945,
                        -0.1866174191236496,
                        -0.24159029126167297,
                        0.05745464563369751,
                        -1.1441028118133545,
                        -0.3597438335418701,
                        -0.023640107363462448,
                        0.015698904171586037,
                        -0.19746588170528412,
                        0.3869248926639557,
                        0.022643404081463814,
                        -1.502399206161499,
                        0.010158647783100605,
                        0.09346792846918106,
                        -0.09258781373500824,
                        0.3672630488872528,
                        -2.2287518978118896,
                        0.5689342021942139
                    ],
                    [
                        -0.2911622226238251,
                        -0.029681093990802765,
                        0.09994558990001678,
                        -0.07953978329896927,
                        -0.14777332544326782,
                        0.4488910138607025,
                        -0.06676853448152542,
                        0.017869016155600548,
                        0.49779635667800903,
                        -0.08397915959358215,
                        0.012040541507303715,
                        -0.2719442546367645,
                        0.10126173496246338,
                        -0.18356864154338837,
                        0.3711715340614319,
                        0.1411632001399994,
                        -0.45761582255363464,
                        0.5551308393478394,
                        -0.12790775299072266,
                        -0.06235405057668686,
                        -0.21725383400917053,
                        -0.41273361444473267,
                        -0.31099510192871094,
                        -0.1647077053785324,
                        -0.5438750982284546,
                        -0.5278090834617615,
                        -0.33831897377967834,
                        0.2906881272792816,
                        0.20799271762371063,
                        -0.4547540247440338,
                        0.024748792871832848,
                        -0.19172394275665283,
                        -0.6296977996826172,
                        0.5762249827384949,
                        0.03178805485367775,
                        -0.06469493359327316,
                        0.33765071630477905,
                        -0.24628521502017975,
                        0.0381610244512558,
                        -0.37022915482521057,
                        -0.04005896672606468,
                        0.4387003183364868,
                        0.01575244963169098,
                        0.37108802795410156,
                        -0.2666184902191162,
                        -0.0513879768550396,
                        0.25594598054885864,
                        -0.2667970359325409
                    ],
                    [
                        -0.029831845313310623,
                        0.40569591522216797,
                        0.0925091952085495,
                        -0.5167980194091797,
                        -0.3758488893508911,
                        -0.3744001090526581,
                        -0.7306913733482361,
                        0.40253376960754395,
                        -0.9767120480537415,
                        0.22815284132957458,
                        0.2034413367509842,
                        -0.09346254169940948,
                        -0.24710305035114288,
                        0.2464781254529953,
                        -0.9329096674919128,
                        1.0999259948730469,
                        0.021571366116404533,
                        0.2819875478744507,
                        -0.0629657730460167,
                        -0.46093493700027466,
                        -0.1535530537366867,
                        0.37351474165916443,
                        0.32445237040519714,
                        0.0398237407207489,
                        0.4651389718055725,
                        0.9106186032295227,
                        -0.6955034136772156,
                        -0.49692976474761963,
                        0.8783822655677795,
                        -0.4991763234138489,
                        -0.07639501243829727,
                        0.5894904136657715,
                        -0.4085925817489624,
                        0.22116394340991974,
                        0.2162187099456787,
                        0.2957555055618286,
                        -0.06193690747022629,
                        -0.3852602541446686,
                        0.1472696214914322,
                        0.09927163273096085,
                        0.0200827494263649,
                        0.0038858558982610703,
                        -0.18097145855426788,
                        -0.45092958211898804,
                        0.7387832999229431,
                        0.15340930223464966,
                        -0.3410683274269104,
                        -0.45750871300697327
                    ],
                    [
                        0.05800982564687729,
                        0.006895479746162891,
                        0.21855659782886505,
                        -0.09938709437847137,
                        -0.2519555389881134,
                        0.27652233839035034,
                        -0.0642845630645752,
                        0.03133382648229599,
                        0.5629370808601379,
                        0.022716499865055084,
                        0.09981270134449005,
                        0.4858776926994324,
                        0.554158627986908,
                        0.18711429834365845,
                        -0.03872080147266388,
                        0.03990761935710907,
                        -0.1624329835176468,
                        -0.1534852534532547,
                        -0.36303314566612244,
                        0.5064082145690918,
                        -0.32841527462005615,
                        0.05707287788391113,
                        0.3266969323158264,
                        -0.0659242495894432,
                        0.12640337646007538,
                        -0.02192153036594391,
                        -0.5252796411514282,
                        -0.06507774442434311,
                        0.4685475826263428,
                        0.3928877115249634,
                        0.121383897960186,
                        0.29643866419792175,
                        1.9041978120803833,
                        -0.11344153434038162,
                        0.2197914719581604,
                        -0.5296785831451416,
                        0.0811336413025856,
                        -0.18493181467056274,
                        0.337084025144577,
                        -0.06659556180238724,
                        -0.1087389588356018,
                        -0.15238676965236664,
                        0.23051725327968597,
                        0.10617046803236008,
                        -0.48019710183143616,
                        -0.118337482213974,
                        0.5503735542297363,
                        0.22110843658447266
                    ],
                    [
                        -1.179905652999878,
                        0.37143969535827637,
                        -0.12172776460647583,
                        -0.5144129395484924,
                        0.21178346872329712,
                        -0.18455417454242706,
                        -1.2794281244277954,
                        -0.24730341136455536,
                        0.29418572783470154,
                        0.09655994176864624,
                        0.07863912731409073,
                        0.6204404234886169,
                        -0.41439342498779297,
                        0.37526780366897583,
                        0.006010270677506924,
                        -0.3966291844844818,
                        -0.260066956281662,
                        -0.461044579744339,
                        0.04879233241081238,
                        0.14601503312587738,
                        0.4476514458656311,
                        -0.24902339279651642,
                        -0.10109862685203552,
                        -0.18365904688835144,
                        -0.853299081325531,
                        -0.36880332231521606,
                        -0.14435160160064697,
                        -0.5211063027381897,
                        1.2424393892288208,
                        -0.5528792142868042,
                        -0.7897516489028931,
                        -0.3408709764480591,
                        0.137430801987648,
                        -0.06846581399440765,
                        -0.4386291801929474,
                        0.9405984282493591,
                        -0.3590748608112335,
                        0.14308632910251617,
                        0.13262400031089783,
                        -0.011757900007069111,
                        -0.023801496252417564,
                        -0.5162053108215332,
                        -0.3088376224040985,
                        0.5829958915710449,
                        0.12915575504302979,
                        0.13426141440868378,
                        -0.11240167170763016,
                        0.3694126605987549
                    ],
                    [
                        0.07196897268295288,
                        -0.0002076614910038188,
                        -0.2319476306438446,
                        -0.18556644022464752,
                        -0.24841664731502533,
                        0.6013897657394409,
                        -0.3522268533706665,
                        0.17153626680374146,
                        -0.03492088243365288,
                        -0.10774321109056473,
                        1.3601683378219604,
                        0.4729158878326416,
                        0.02845422551035881,
                        -0.00044103534310124815,
                        0.3301006853580475,
                        -0.005037760362029076,
                        0.08862476050853729,
                        -0.9915211796760559,
                        -0.0222165510058403,
                        0.2832547724246979,
                        -0.0205675158649683,
                        0.05163347348570824,
                        -0.13062450289726257,
                        -0.3650102913379669,
                        0.04538574814796448,
                        0.09118425846099854,
                        2.4451005458831787,
                        -0.10160094499588013,
                        0.4492798447608948,
                        1.243417739868164,
                        0.05577274411916733,
                        0.13567402958869934,
                        0.25483813881874084,
                        -0.11168935149908066,
                        0.8276073336601257,
                        -0.8337624073028564,
                        -0.14514601230621338,
                        -0.06227709725499153,
                        0.0212582778185606,
                        -0.20986329019069672,
                        -0.056529730558395386,
                        0.18502305448055267,
                        -0.12604233622550964,
                        0.23687225580215454,
                        0.23228640854358673,
                        -0.019842499867081642,
                        -0.8732594847679138,
                        0.6841146945953369
                    ],
                    [
                        0.3103240430355072,
                        -0.2649577558040619,
                        -0.3437960147857666,
                        0.10780555754899979,
                        -0.16191144287586212,
                        -0.13917845487594604,
                        0.4224376082420349,
                        0.003209296613931656,
                        -0.20428508520126343,
                        -0.013974512927234173,
                        1.8493785858154297,
                        -0.611509382724762,
                        -0.3770274519920349,
                        0.0022980475332587957,
                        -0.0698361024260521,
                        -0.08896064013242722,
                        0.12216208875179291,
                        0.10142940282821655,
                        0.02272154577076435,
                        0.10531344264745712,
                        -0.1545809805393219,
                        -0.15569233894348145,
                        0.5428547263145447,
                        -0.8039571642875671,
                        -0.041175078600645065,
                        -0.026073483750224113,
                        -1.8964922428131104,
                        0.05542880296707153,
                        -0.17443051934242249,
                        0.30286476016044617,
                        -0.012773515656590462,
                        -0.3147641122341156,
                        0.06896575540304184,
                        0.006709767039865255,
                        1.0625290870666504,
                        1.2763957977294922,
                        0.1098690778017044,
                        0.221287801861763,
                        -0.5615041851997375,
                        -0.041995055973529816,
                        -0.10921593755483627,
                        0.8507426381111145,
                        -0.052218999713659286,
                        -0.30834102630615234,
                        -0.08764565736055374,
                        0.06917466968297958,
                        -0.9911585450172424,
                        1.1086223125457764
                    ]
                ],
                [
                    -3.4648280143737793,
                    0.5182963609695435,
                    2.226962089538574,
                    -0.7944368124008179,
                    0.804089367389679,
                    0.2827851176261902,
                    -1.7387479543685913,
                    -4.032986640930176,
                    0.6848928332328796,
                    1.6247605085372925,
                    0.6892154216766357,
                    0.3473961353302002,
                    4.175332546234131,
                    -0.6073914766311646,
                    0.028511131182312965,
                    2.0968432426452637,
                    -0.10445316135883331,
                    0.7085937857627869,
                    2.0612361431121826,
                    4.830291271209717,
                    -0.5985954999923706,
                    -0.10695821046829224,
                    0.5426837205886841,
                    0.738632321357727,
                    0.04431552439928055,
                    0.007873713970184326,
                    0.16870325803756714,
                    0.13118450343608856,
                    -0.14853201806545258,
                    0.31504157185554504,
                    0.04963614046573639,
                    0.03577122837305069,
                    -0.040673449635505676,
                    -0.42909467220306396,
                    -0.0070162005722522736,
                    -0.0030083060264587402,
                    0.35370081663131714,
                    1.531543493270874,
                    1.938311219215393,
                    1.654076337814331,
                    1.5457990169525146,
                    0.6941356658935547,
                    0.8151991367340088,
                    1.012650489807129,
                    1.100975751876831,
                    1.9248688220977783,
                    0.7256250977516174,
                    1.4010624885559082
                ]
            ]
        },
        {
            "type": "dense",
            "activation": "",
            "shape": [
                null,
                null,
                1
            ],
            "weights": [
                [
                    [
                        0.052214279770851135
                    ],
                    [
                        0.032644081860780716
                    ],
                    [
                        -0.4753721356391907
                    ],
                    [
                        -0.08335892856121063
                    ],
                    [
                        -0.019664429128170013
                    ],
                    [
                        -0.3534245789051056
                    ],
                    [
                        -0.0895991176366806
                    ],
                    [
                        -0.12858960032463074
                    ],
                    [
                        -0.07919945567846298
                    ],
                    [
                        -0.05599713325500488
                    ],
                    [
                        0.012176449410617352
                    ],
                    [
                        -0.3423534035682678
                    ]
                ],
                [
                    0.02002345584332943
                ]
            ]
        }
    ]
}