{
    "in_shape": [
        null,
        null,
        1
    ],
    "layers": [
        {
            "type": "lstm",
            "activation": "",
            "shape": [
                null,
                null,
                20
            ],
            "weights": [
                [
                    [
                        -0.03481778874993324,
                        0.011643869802355766,
                        0.04826152324676514,
                        0.015514738857746124,
                        -0.04293782263994217,
                        0.03401796147227287,
                        -0.03019746020436287,
                        -0.020328860729932785,
                        -0.03996695205569267,
                        0.016408195719122887,
                        -0.0040092249400913715,
                        -0.07904805988073349,
                        0.03554513305425644,
                        -0.01743321865797043,
                        -0.01685512065887451,
                        -0.026726191863417625,
                        0.03794707730412483,
                        -0.019383836537599564,
                        -0.012121494859457016,
                        -0.21892762184143066,
                        -0.06284273415803909,
                        0.008260923437774181,
                        -0.02418087236583233,
                        0.02337612956762314,
                        -0.027709418907761574,
                        0.10790904611349106,
                        -0.15648625791072845,
                        0.019708257168531418,
                        -0.007295857183635235,
                        0.029671335592865944,
                        0.025334710255265236,
                        0.08699551969766617,
                        -0.027865368872880936,
                        -0.03885646536946297,
                        0.05480402708053589,
                        0.020201189443469048,
                        0.07575653493404388,
                        -0.038606442511081696,
                        -0.08837428689002991,
                        0.25601884722709656,
                        -0.05219629779458046,
                        -0.019151674583554268,
                        0.1415845900774002,
                        0.26325178146362305,
                        0.8191733956336975,
                        -1.763152837753296,
                        0.28518977761268616,
                        0.5741101503372192,
                        -3.3579742908477783,
                        -0.09540973603725433,
                        -0.04821312427520752,
                        0.008544390089809895,
                        -2.0151824951171875,
                        -0.02608734928071499,
                        -0.10581926256418228,
                        -0.13925078511238098,
                        0.11013588309288025,
                        0.02066902071237564,
                        -0.33966508507728577,
                        0.3903723359107971,
                        -0.019832948222756386,
                        0.02490920014679432,
                        0.11541405320167542,
                        0.12052078545093536,
                        -0.07767894864082336,
                        0.040185071527957916,
                        0.11502864956855774,
                        -0.01803404837846756,
                        -0.03796381503343582,
                        0.01443327497690916,
                        0.09308457374572754,
                        -0.003094783518463373,
                        0.07279571890830994,
                        -0.010326172225177288,
                        -0.017465651035308838,
                        0.00631415331736207,
                        0.018709389492869377,
                        -0.0730990320444107,
                        -0.08474412560462952,
                        0.12146551162004471
                    ]
                ],
                [
                    [
                        -0.4413917064666748,
                        0.014972081407904625,
                        0.3378773629665375,
                        0.003860997734591365,
                        0.37508341670036316,
                        0.1657482087612152,
                        0.06100165843963623,
                        0.1348971128463745,
                        0.30709943175315857,
                        0.01303256954997778,
                        -0.22144341468811035,
                        -0.21943101286888123,
                        0.21784506738185883,
                        0.02372998371720314,
                        -0.05437492951750755,
                        0.09857146441936493,
                        0.30714449286460876,
                        0.15794117748737335,
                        -0.13511767983436584,
                        -0.35469314455986023,
                        0.5817432403564453,
                        0.05662854388356209,
                        -0.022663582116365433,
                        0.09032685309648514,
                        0.26350533962249756,
                        0.11094663292169571,
                        0.5196502208709717,
                        -0.026185980066657066,
                        0.02644764445722103,
                        0.05656522884964943,
                        0.17131704092025757,
                        0.2529245913028717,
                        0.297712117433548,
                        0.034820638597011566,
                        0.17705175280570984,
                        -0.14727550745010376,
                        0.2488126903772354,
                        -0.03228086605668068,
                        0.14330033957958221,
                        0.4096638858318329,
                        0.43183329701423645,
                        -0.11679291725158691,
                        0.47719600796699524,
                        0.011441062204539776,
                        -0.15861298143863678,
                        0.1326536387205124,
                        -0.29256755113601685,
                        -0.19476982951164246,
                        0.020481165498495102,
                        0.04638570174574852,
                        -0.14673766493797302,
                        -0.07875870913267136,
                        0.019346464425325394,
                        -0.6969860792160034,
                        0.23028869926929474,
                        0.6757012009620667,
                        0.0794062465429306,
                        -0.08544456958770752,
                        0.7978388667106628,
                        0.3519707918167114,
                        0.16514167189598083,
                        0.14721332490444183,
                        0.4138132333755493,
                        0.24842382967472076,
                        0.9875879287719727,
                        0.17071302235126495,
                        0.14598625898361206,
                        0.13611246645450592,
                        0.2872680127620697,
                        0.1177094429731369,
                        0.05671647936105728,
                        0.019297704100608826,
                        0.22011692821979523,
                        0.04002011939883232,
                        0.09731010347604752,
                        0.10815879702568054,
                        0.41840845346450806,
                        0.18030643463134766,
                        0.16211016476154327,
                        -0.02560657449066639
                    ],
                    [
                        0.6371680498123169,
                        -0.1729252189397812,
                        -0.5115483999252319,
                        -0.15134018659591675,
                        -0.5261496305465698,
                        -0.38707154989242554,
                        -0.346108078956604,
                        -0.36366409063339233,
                        -0.44313839077949524,
                        -0.10687846690416336,
                        0.461783230304718,
                        0.9852375388145447,
                        -0.44359341263771057,
                        -0.09099181741476059,
                        0.1312015950679779,
                        -0.23153521120548248,
                        -0.2336844503879547,
                        -0.31514063477516174,
                        0.009382081218063831,
                        0.4549012780189514,
                        -0.8780838847160339,
                        -0.3501458764076233,
                        0.16512586176395416,
                        -0.27292656898498535,
                        0.08080149441957474,
                        -0.036525774747133255,
                        -0.136323019862175,
                        0.23748888075351715,
                        0.2705400586128235,
                        -0.3281635642051697,
                        -0.6729524731636047,
                        -1.0254069566726685,
                        0.1257399022579193,
                        -0.2822897732257843,
                        -0.46019965410232544,
                        -0.028591040521860123,
                        -0.06618989259004593,
                        0.024811070412397385,
                        -0.1322491317987442,
                        -1.0557022094726562,
                        0.07487618923187256,
                        0.2012764811515808,
                        0.12667372822761536,
                        0.23217885196208954,
                        0.30185824632644653,
                        -0.015223609283566475,
                        0.12748673558235168,
                        -0.20073051750659943,
                        0.03220123052597046,
                        0.3384237587451935,
                        -0.12569308280944824,
                        -0.1172018051147461,
                        -0.3031391203403473,
                        0.2333277314901352,
                        -0.1449025571346283,
                        -0.14671660959720612,
                        -0.024598024785518646,
                        -0.16798809170722961,
                        0.09751001000404358,
                        -0.3847658634185791,
                        -0.4059573709964752,
                        -0.5239766240119934,
                        -0.3234684467315674,
                        -0.1715344935655594,
                        -0.2956811785697937,
                        -0.40036138892173767,
                        -0.46873193979263306,
                        -0.3623019754886627,
                        -0.45783647894859314,
                        -0.5246771574020386,
                        -0.23684832453727722,
                        -0.174461230635643,
                        -0.4538640081882477,
                        -0.30879640579223633,
                        -0.25257107615470886,
                        -0.2510340213775635,
                        -0.21125096082687378,
                        -0.20103409886360168,
                        -0.023821868002414703,
                        -0.6044992804527283
                    ],
                    [
                        -0.24488602578639984,
                        -0.022754179313778877,
                        0.05610465258359909,
                        0.014066130854189396,
                        -0.027345312759280205,
                        -0.008052869699895382,
                        -0.02321907877922058,
                        -0.1065969467163086,
                        0.004804304335266352,
                        0.0021102356258779764,
                        -0.14113271236419678,
                        -0.13643182814121246,
                        0.01439708098769188,
                        0.007165810093283653,
                        -0.0745072066783905,
                        0.025839606299996376,
                        0.2505151927471161,
                        -0.198194220662117,
                        -0.12834446132183075,
                        0.13222655653953552,
                        -0.21245965361595154,
                        -0.012240068055689335,
                        -0.17301516234874725,
                        -0.08235196769237518,
                        0.07838872820138931,
                        0.028258714824914932,
                        0.049358438700437546,
                        0.03835542872548103,
                        0.07074825465679169,
                        0.015039794147014618,
                        -0.18955019116401672,
                        -0.011620108038187027,
                        -0.1230875551700592,
                        0.20648913085460663,
                        -0.060436636209487915,
                        0.23231275379657745,
                        0.06523213535547256,
                        0.044190019369125366,
                        -0.1953248679637909,
                        0.009542442858219147,
                        -0.0483424998819828,
                        0.04018286243081093,
                        0.744300127029419,
                        -0.04339638352394104,
                        0.09082058072090149,
                        -0.025922954082489014,
                        0.08221360296010971,
                        -0.03584720566868782,
                        -0.01589745283126831,
                        0.002744551980867982,
                        -0.28987136483192444,
                        -0.6181574463844299,
                        0.1293342411518097,
                        -0.1475527435541153,
                        0.4556772708892822,
                        -0.29519185423851013,
                        0.7371661067008972,
                        1.3973097801208496,
                        0.14133413136005402,
                        -0.03073037788271904,
                        0.011055094189941883,
                        0.07460334897041321,
                        -0.5637847781181335,
                        0.03198222070932388,
                        -0.24239379167556763,
                        -0.011479360982775688,
                        -0.04273945838212967,
                        -0.10710830241441727,
                        0.020229870453476906,
                        -0.026721909642219543,
                        -0.16343475878238678,
                        -0.0020195753313601017,
                        -0.003140389220789075,
                        0.19090427458286285,
                        -0.04438149183988571,
                        0.23471447825431824,
                        0.13093110918998718,
                        -0.1847665011882782,
                        0.036889415234327316,
                        -0.06748974323272705
                    ],
                    [
                        0.3717489242553711,
                        -0.10511060804128647,
                        -0.36604735255241394,
                        0.0807429701089859,
                        -0.4280165135860443,
                        -0.27590465545654297,
                        -0.23736172914505005,
                        -0.25455278158187866,
                        -0.40319329500198364,
                        -0.07807103544473648,
                        0.27808526158332825,
                        0.6787543296813965,
                        -0.3361222445964813,
                        -0.09096302837133408,
                        0.07000554352998734,
                        -0.1741875857114792,
                        -0.20384334027767181,
                        -0.20379316806793213,
                        0.06901075690984726,
                        0.36856621503829956,
                        -0.15266939997673035,
                        -0.23251032829284668,
                        0.04830119013786316,
                        0.22532951831817627,
                        -0.058122746646404266,
                        0.05147898942232132,
                        0.07698020339012146,
                        0.1938662827014923,
                        0.035450804978609085,
                        -0.20991668105125427,
                        -0.2719859480857849,
                        -0.3878828287124634,
                        -0.026986079290509224,
                        -0.2030879706144333,
                        -0.17924046516418457,
                        -0.029874010011553764,
                        -0.005237260367721319,
                        0.028941228985786438,
                        0.00528557738289237,
                        -0.5093656778335571,
                        -0.058707717806100845,
                        0.04843495041131973,
                        0.12421049922704697,
                        -0.018440280109643936,
                        -0.11272334307432175,
                        0.19401712715625763,
                        0.11961468309164047,
                        0.08710838854312897,
                        0.4237114191055298,
                        0.1873636394739151,
                        0.14049682021141052,
                        -0.17806777358055115,
                        0.014447095803916454,
                        -0.08590371906757355,
                        0.03037552535533905,
                        -0.2179047167301178,
                        -0.11524013429880142,
                        -0.234763965010643,
                        0.013867279514670372,
                        0.09675297886133194,
                        -0.2093416303396225,
                        -0.3149544894695282,
                        -0.12435350567102432,
                        0.025673015043139458,
                        -0.4110493063926697,
                        -0.26624831557273865,
                        -0.23294930160045624,
                        -0.24559657275676727,
                        -0.40315625071525574,
                        -0.35318127274513245,
                        -0.1791551262140274,
                        -0.000796455075033009,
                        -0.3262631893157959,
                        -0.2593662142753601,
                        -0.183090478181839,
                        -0.1767185777425766,
                        -0.2108897864818573,
                        -0.0032858983613550663,
                        -0.0717826634645462,
                        -0.18923784792423248
                    ],
                    [
                        -0.28368866443634033,
                        0.011162796057760715,
                        -0.07816828787326813,
                        0.015719007700681686,
                        0.06544056534767151,
                        0.034379199147224426,
                        0.08922162652015686,
                        0.023686939850449562,
                        -0.014178864657878876,
                        -0.016711609438061714,
                        -0.03455020487308502,
                        0.010481307283043861,
                        0.04697287082672119,
                        -0.015995651483535767,
                        -0.01907293312251568,
                        -0.02808857336640358,
                        0.03348815441131592,
                        -0.07723520696163177,
                        0.30488234758377075,
                        0.5096936225891113,
                        -0.07285147905349731,
                        -0.022464683279395103,
                        -0.06507118046283722,
                        -0.06413069367408752,
                        0.19835960865020752,
                        0.22935518622398376,
                        -0.17015312612056732,
                        0.006666840985417366,
                        0.15411736071109772,
                        -0.06311257928609848,
                        0.03140807896852493,
                        -0.1122431755065918,
                        0.04303651675581932,
                        -0.05148260295391083,
                        0.04407723620533943,
                        -0.18721315264701843,
                        0.11498710513114929,
                        0.008819368667900562,
                        0.13511884212493896,
                        -0.45690208673477173,
                        0.15916648507118225,
                        -0.026461683213710785,
                        -3.399475574493408,
                        -0.13666574656963348,
                        0.45781150460243225,
                        0.17982198297977448,
                        0.7498519420623779,
                        -0.9932956099510193,
                        -0.2549580931663513,
                        -0.14502157270908356,
                        -0.024355513975024223,
                        0.009769454598426819,
                        0.6787724494934082,
                        -0.16721214354038239,
                        -0.013303997926414013,
                        -0.49071401357650757,
                        -1.4231071472167969,
                        -1.140141248703003,
                        0.020010823383927345,
                        0.3420462906360626,
                        -0.02610633336007595,
                        0.02579282782971859,
                        0.17009589076042175,
                        -0.38437873125076294,
                        0.39481186866760254,
                        0.03793378174304962,
                        0.014762074686586857,
                        0.030202927067875862,
                        -0.002294627483934164,
                        -0.05722509324550629,
                        -0.1169222891330719,
                        -0.05269836634397507,
                        0.068672314286232,
                        0.11449534446001053,
                        -0.04703459143638611,
                        -0.06346940994262695,
                        0.07243776321411133,
                        0.10966141521930695,
                        -0.29452574253082275,
                        -0.16608381271362305
                    ],
                    [
                        0.06685820966959,
                        0.016897354274988174,
                        -0.0027402215637266636,
                        0.06955181807279587,
                        -0.015472928062081337,
                        0.02422724850475788,
                        -0.06004216521978378,
                        -0.04836861789226532,
                        -0.08277223259210587,
                        0.012559783644974232,
                        0.04927893728017807,
                        0.0035659356508404016,
                        0.024189958348870277,
                        0.02667834423482418,
                        -0.02171291783452034,
                        -0.04215109348297119,
                        -0.03989539295434952,
                        0.0034840027801692486,
                        0.09227284789085388,
                        0.4687475562095642,
                        0.05813250690698624,
                        0.03905198723077774,
                        0.10997563600540161,
                        0.0957595705986023,
                        -0.2150847613811493,
                        0.195097416639328,
                        0.28862014412879944,
                        0.03158102557063103,
                        -0.18142414093017578,
                        0.04332881048321724,
                        0.09889955073595047,
                        0.036927010864019394,
                        -0.00039079648558981717,
                        0.04756586626172066,
                        0.09521612524986267,
                        -0.007333215791732073,
                        -0.1361035704612732,
                        -0.027754349634051323,
                        0.14976394176483154,
                        0.012921062298119068,
                        -0.04678751155734062,
                        -0.00859129149466753,
                        -0.40036648511886597,
                        0.0762573853135109,
                        -1.7747862339019775,
                        -0.2785700857639313,
                        -0.49871721863746643,
                        0.3902926445007324,
                        -0.23801064491271973,
                        0.04292353242635727,
                        0.1433885246515274,
                        -0.00977136380970478,
                        0.5234010815620422,
                        -0.040370747447013855,
                        0.1607542634010315,
                        0.4082573652267456,
                        0.016680559143424034,
                        0.09766505658626556,
                        0.3938293159008026,
                        0.21145527064800262,
                        0.014547634869813919,
                        0.054238900542259216,
                        0.06901990622282028,
                        0.04355471581220627,
                        -0.027469690889120102,
                        0.04374867305159569,
                        -0.010711335577070713,
                        -0.06075640767812729,
                        -0.08965729922056198,
                        0.0031531518325209618,
                        -0.05692566558718681,
                        0.00865915510803461,
                        0.02532871812582016,
                        0.04768729954957962,
                        0.010411834344267845,
                        -0.04270495846867561,
                        -0.11878185719251633,
                        0.0816679522395134,
                        -0.08724295347929001,
                        0.10018479079008102
                    ],
                    [
                        0.7086567878723145,
                        -0.1128002256155014,
                        -0.382790207862854,
                        0.00873151421546936,
                        -0.4543638825416565,
                        -0.21532675623893738,
                        -0.19496792554855347,
                        -0.32148852944374084,
                        -0.49937182664871216,
                        -0.04294288158416748,
                        0.4054959714412689,
                        0.461735337972641,
                        -0.2811213433742523,
                        -0.03211531043052673,
                        0.09658745676279068,
                        -0.22839972376823425,
                        -0.2510107755661011,
                        -0.23501835763454437,
                        -0.01730397902429104,
                        1.6939728260040283,
                        -0.6713665127754211,
                        -0.23469799757003784,
                        -0.1717834621667862,
                        -0.17545442283153534,
                        -0.3830372393131256,
                        0.35173627734184265,
                        0.12845493853092194,
                        0.11464335769414902,
                        -0.09704187512397766,
                        -0.16301381587982178,
                        -0.3569317162036896,
                        -0.8716765642166138,
                        0.09476499259471893,
                        -0.14364588260650635,
                        -0.15691758692264557,
                        -0.1254848837852478,
                        0.06793083250522614,
                        -0.03846655413508415,
                        -0.19869330525398254,
                        -0.7705249786376953,
                        0.0686429888010025,
                        0.17587217688560486,
                        -0.14124464988708496,
                        0.2500442564487457,
                        -0.2537814974784851,
                        0.47071585059165955,
                        -0.25785958766937256,
                        0.1262243092060089,
                        -0.27695217728614807,
                        0.0605400875210762,
                        -0.1309926062822342,
                        0.12021610885858536,
                        0.41571611166000366,
                        0.0036977827548980713,
                        0.1579231321811676,
                        0.43319401144981384,
                        0.0017767640529200435,
                        0.023684479296207428,
                        0.0183585025370121,
                        0.336571604013443,
                        -0.2860381305217743,
                        -0.3395380675792694,
                        -0.19742123782634735,
                        -0.0544620044529438,
                        -0.2962287366390228,
                        -0.21145203709602356,
                        -0.3653401732444763,
                        -0.33426451683044434,
                        -0.4794544577598572,
                        -0.2969270944595337,
                        -0.2193346470594406,
                        -0.16428270936012268,
                        -0.25788891315460205,
                        -0.17076371610164642,
                        -0.1578364074230194,
                        -0.2886522710323334,
                        -0.18914008140563965,
                        -0.061875686049461365,
                        -0.31206852197647095,
                        -0.1455073207616806
                    ],
                    [
                        0.040174394845962524,
                        0.0008092286880128086,
                        -0.0795777440071106,
                        0.07217704504728317,
                        -0.0164580587297678,
                        0.033773209899663925,
                        0.10324025899171829,
                        0.018336713314056396,
                        0.04233340546488762,
                        0.023989921435713768,
                        -0.15798728168010712,
                        -0.24419337511062622,
                        -0.0378652885556221,
                        0.012165465392172337,
                        -0.17343971133232117,
                        0.047593917697668076,
                        -0.0042302897199988365,
                        -0.034291379153728485,
                        -0.01725245639681816,
                        -0.6954138278961182,
                        0.017661673948168755,
                        0.02878827229142189,
                        0.171766996383667,
                        0.13175255060195923,
                        -0.14490239322185516,
                        0.003993129823356867,
                        -0.05380532890558243,
                        -0.09022746980190277,
                        -0.15732166171073914,
                        0.07421157509088516,
                        0.15033088624477386,
                        0.32693102955818176,
                        -0.001422082306817174,
                        0.042472779750823975,
                        0.16928426921367645,
                        0.05068887025117874,
                        0.0078063840046525,
                        -0.18919827044010162,
                        0.06805336475372314,
                        0.2470380663871765,
                        0.21810317039489746,
                        -0.15677239000797272,
                        1.1278622150421143,
                        0.02863728441298008,
                        0.6839354038238525,
                        0.4917888939380646,
                        -0.08968881517648697,
                        -0.8931013345718384,
                        -0.28606244921684265,
                        0.07512975484132767,
                        -0.042055532336235046,
                        -0.33130115270614624,
                        0.3315492868423462,
                        -0.05548839643597603,
                        -0.2995355725288391,
                        -0.2150171548128128,
                        0.30934321880340576,
                        0.16334319114685059,
                        -0.09818544238805771,
                        -0.3485356271266937,
                        0.038195040076971054,
                        0.016130277886986732,
                        -0.3585262596607208,
                        -0.039819471538066864,
                        -0.24454344809055328,
                        0.037278976291418076,
                        0.09120498597621918,
                        0.002792950253933668,
                        0.048674434423446655,
                        0.09216790646314621,
                        0.13613831996917725,
                        0.010356673039495945,
                        -0.03248465061187744,
                        0.025739824399352074,
                        -0.010136580094695091,
                        -0.016671637073159218,
                        0.029368821531534195,
                        -0.3795085549354553,
                        0.5181690454483032,
                        0.24509675800800323
                    ],
                    [
                        0.021181698888540268,
                        0.0012565430952236056,
                        0.03230162709951401,
                        -0.06634338200092316,
                        -0.008538370952010155,
                        -0.09655725955963135,
                        -0.13759614527225494,
                        -0.08336455374956131,
                        -0.018767256289720535,
                        0.01096315961331129,
                        0.022644883021712303,
                        -0.039975713938474655,
                        -0.04173441231250763,
                        0.029049526900053024,
                        0.029594259336590767,
                        0.0004908852279186249,
                        -0.050956737250089645,
                        0.017428910359740257,
                        -0.12989017367362976,
                        -0.17112524807453156,
                        0.0714552253484726,
                        0.029494978487491608,
                        0.016866065561771393,
                        -0.07894308120012283,
                        -0.09968175739049911,
                        -0.14160676300525665,
                        0.23186583817005157,
                        0.02385620027780533,
                        -0.04288358613848686,
                        0.019760914146900177,
                        -0.035676706582307816,
                        0.05319603905081749,
                        0.0008820584043860435,
                        0.04519740119576454,
                        -0.10334064811468124,
                        0.0870891809463501,
                        -0.046781353652477264,
                        -0.006532079074531794,
                        -0.047322314232587814,
                        -0.1226998046040535,
                        -0.11965569108724594,
                        -0.01933056302368641,
                        0.2490004003047943,
                        0.10667159408330917,
                        -3.126253128051758,
                        0.0013208873569965363,
                        -0.6016881465911865,
                        -0.8762625455856323,
                        -0.7308323979377747,
                        0.06880955398082733,
                        0.020331960171461105,
                        -0.051624882966279984,
                        1.434755563735962,
                        0.15878015756607056,
                        0.22237783670425415,
                        0.20598948001861572,
                        0.29190412163734436,
                        0.18453703820705414,
                        0.24121622741222382,
                        -0.1306285560131073,
                        0.01739013008773327,
                        -0.017941150814294815,
                        0.1335379034280777,
                        0.08472852408885956,
                        -0.3233450651168823,
                        -0.08431769162416458,
                        -0.05815942957997322,
                        -0.11961310356855392,
                        -0.07115977257490158,
                        -0.06936972588300705,
                        -0.023980410769581795,
                        0.005773328710347414,
                        -0.01816597394645214,
                        -0.00670289620757103,
                        0.0013623079285025597,
                        0.009380134753882885,
                        -0.06808333098888397,
                        -0.17676196992397308,
                        0.26145991683006287,
                        -0.15128536522388458
                    ],
                    [
                        0.6964976787567139,
                        -0.13696543872356415,
                        -0.5232563018798828,
                        -0.20051968097686768,
                        -0.5192382335662842,
                        -0.389679878950119,
                        -0.31536105275154114,
                        -0.35977742075920105,
                        -0.43791934847831726,
                        -0.151326522231102,
                        0.5536391735076904,
                        0.936945378780365,
                        -0.4418148994445801,
                        -0.10131963342428207,
                        0.10019013285636902,
                        -0.2161725014448166,
                        -0.23000288009643555,
                        -0.37724897265434265,
                        0.010959375649690628,
                        0.48073580861091614,
                        -0.7878106236457825,
                        -0.3392011225223541,
                        0.17763939499855042,
                        -0.33085307478904724,
                        0.06253217905759811,
                        -0.030852261930704117,
                        -0.08862673491239548,
                        0.237230122089386,
                        0.25790902972221375,
                        -0.4149320721626282,
                        -0.6305397748947144,
                        -1.0479460954666138,
                        0.11335441470146179,
                        -0.30999985337257385,
                        -0.4842148423194885,
                        -0.015881091356277466,
                        -0.02390184998512268,
                        -0.019637586548924446,
                        -0.10016737133264542,
                        -1.0074394941329956,
                        -0.2512800097465515,
                        0.1779133677482605,
                        0.0320107601583004,
                        0.3457663655281067,
                        0.2904219925403595,
                        -0.1265484094619751,
                        0.003713129321113229,
                        0.14121855795383453,
                        0.08953285962343216,
                        0.319497674703598,
                        -0.15912380814552307,
                        0.11285576969385147,
                        -0.3056063950061798,
                        0.25962409377098083,
                        0.021044207736849785,
                        -0.026368392631411552,
                        -0.07187648862600327,
                        -0.14477236568927765,
                        0.19416964054107666,
                        -0.08053919672966003,
                        -0.35976365208625793,
                        -0.530532956123352,
                        -0.3039090037345886,
                        -0.3314574658870697,
                        -0.2907359004020691,
                        -0.4008387327194214,
                        -0.41934558749198914,
                        -0.3566874861717224,
                        -0.4548094570636749,
                        -0.6621739864349365,
                        -0.2399829626083374,
                        -0.19523265957832336,
                        -0.4539434313774109,
                        -0.32443633675575256,
                        -0.2634618878364563,
                        -0.2330344319343567,
                        -0.21429291367530823,
                        -0.21607758104801178,
                        -0.03528163954615593,
                        -0.6041632890701294
                    ],
                    [
                        -0.39016178250312805,
                        0.0659383237361908,
                        0.20168159902095795,
                        0.013932248577475548,
                        0.13500656187534332,
                        0.195868119597435,
                        0.1493844836950302,
                        0.21417823433876038,
                        0.13857559859752655,
                        0.057637982070446014,
                        0.036372799426317215,
                        -0.1685611456632614,
                        0.17223471403121948,
                        0.03690529614686966,
                        0.09697117656469345,
                        0.10137028247117996,
                        -0.02954705059528351,
                        0.21712170541286469,
                        0.008884081616997719,
                        -0.1310322880744934,
                        0.08796726167201996,
                        0.14629985392093658,
                        -0.03124312497675419,
                        0.04684048891067505,
                        -0.14162686467170715,
                        0.007936907932162285,
                        -0.11359518021345139,
                        -0.10361707955598831,
                        -0.09934470802545547,
                        0.15527378022670746,
                        0.2333756536245346,
                        0.5283365249633789,
                        -0.1787281334400177,
                        0.11710672080516815,
                        0.16820302605628967,
                        0.10394171625375748,
                        -0.2656066417694092,
                        0.17516931891441345,
                        0.02768816240131855,
                        0.2536662220954895,
                        -0.21013155579566956,
                        -0.18883518874645233,
                        -0.1736043244600296,
                        -0.09632349014282227,
                        0.14270898699760437,
                        0.14722178876399994,
                        0.07256098091602325,
                        -0.33570200204849243,
                        0.0873095840215683,
                        -0.1719854325056076,
                        0.20733921229839325,
                        0.22947601974010468,
                        -0.16533440351486206,
                        0.16423718631267548,
                        0.5891302227973938,
                        -0.0053229969926178455,
                        0.08614592254161835,
                        0.03969540074467659,
                        -0.0318477526307106,
                        0.010018873028457165,
                        0.1412571370601654,
                        0.20105163753032684,
                        0.07709339261054993,
                        0.1980338841676712,
                        -0.2777216136455536,
                        0.20394213497638702,
                        0.1618724763393402,
                        0.22023546695709229,
                        0.1514662653207779,
                        0.1833389401435852,
                        0.24891304969787598,
                        0.09598179161548615,
                        0.17941050231456757,
                        0.13162346184253693,
                        0.1489255428314209,
                        0.09496194869279861,
                        -0.04782040789723396,
                        0.24400834739208221,
                        -0.11135967820882797,
                        0.29500335454940796
                    ],
                    [
                        -0.031886935234069824,
                        -0.02163594774901867,
                        0.04044072702527046,
                        0.022203655913472176,
                        0.042631845921278,
                        0.039047274738550186,
                        -0.014196040108799934,
                        0.03181567043066025,
                        0.015884099528193474,
                        -0.028281820937991142,
                        -0.0054025533609092236,
                        -0.05849194899201393,
                        0.03946319594979286,
                        -0.009066748432815075,
                        0.023691901937127113,
                        -0.043208714574575424,
                        0.07830776274204254,
                        0.03051077574491501,
                        0.06097838282585144,
                        0.17379601299762726,
                        0.11585458368062973,
                        -0.04399419575929642,
                        -0.0739891454577446,
                        0.06638463586568832,
                        0.06742772459983826,
                        -0.013456744141876698,
                        0.3068123459815979,
                        0.013988319784402847,
                        0.06116775423288345,
                        -0.06423749029636383,
                        -0.11841098964214325,
                        -0.05063583329319954,
                        0.0832439437508583,
                        -0.035267990082502365,
                        -0.025257635861635208,
                        -0.14188826084136963,
                        0.0065719494596123695,
                        0.04876074194908142,
                        0.27702054381370544,
                        -0.1780652403831482,
                        0.22271212935447693,
                        0.07887773215770721,
                        0.3306003212928772,
                        -0.22614194452762604,
                        -0.13836398720741272,
                        0.13834023475646973,
                        0.053976695984601974,
                        0.005239582620561123,
                        0.21648724377155304,
                        0.15375013649463654,
                        -0.007836065255105495,
                        0.18620048463344574,
                        0.12304466217756271,
                        -0.07768836617469788,
                        -0.1055491492152214,
                        -0.10006481409072876,
                        0.1129952147603035,
                        0.15584157407283783,
                        0.09402946382761002,
                        0.04842843487858772,
                        0.0163394957780838,
                        -0.030491914600133896,
                        0.09650982171297073,
                        -0.10495910048484802,
                        0.3256320357322693,
                        0.03231179341673851,
                        -0.08324269950389862,
                        0.03612399846315384,
                        0.011962712742388248,
                        -0.025397121906280518,
                        -0.011498525738716125,
                        0.1201620101928711,
                        0.02748270146548748,
                        -0.0052856863476336,
                        0.004195004235953093,
                        -0.05778604745864868,
                        0.07858433574438095,
                        0.13557687401771545,
                        0.15870089828968048,
                        -0.029766395688056946
                    ],
                    [
                        0.2047945261001587,
                        0.016059517860412598,
                        -0.01951623149216175,
                        0.02594742365181446,
                        0.03964591026306152,
                        -0.028521914035081863,
                        -0.04283609986305237,
                        -0.039688438177108765,
                        -0.0378555953502655,
                        0.007608350832015276,
                        -0.14289911091327667,
                        -0.03197071701288223,
                        0.021636301651597023,
                        0.02123614400625229,
                        -0.0862608551979065,
                        0.0068357703275978565,
                        -0.0453825406730175,
                        -0.04411452263593674,
                        0.06864579021930695,
                        0.609978437423706,
                        0.12943167984485626,
                        0.0462898351252079,
                        -0.22974050045013428,
                        0.020013881847262383,
                        -0.16342639923095703,
                        -0.02113337256014347,
                        0.23231342434883118,
                        0.05544188246130943,
                        -0.05826353654265404,
                        0.022474568337202072,
                        0.09879165142774582,
                        0.15782514214515686,
                        -0.05748637393116951,
                        0.05233992636203766,
                        0.03631782904267311,
                        0.11055640876293182,
                        0.011772877536714077,
                        -0.07728368043899536,
                        0.07698838412761688,
                        -0.4288851320743561,
                        -0.10873790830373764,
                        0.027275325730443,
                        -0.014388288371264935,
                        0.09198445081710815,
                        -1.7880926132202148,
                        -0.700446605682373,
                        -1.2084665298461914,
                        1.0320661067962646,
                        0.25449103116989136,
                        -0.022366946563124657,
                        -0.08807878196239471,
                        0.16298437118530273,
                        -0.636163592338562,
                        -0.02358013018965721,
                        -0.09456147998571396,
                        0.617262601852417,
                        -0.16976067423820496,
                        -0.26767194271087646,
                        -0.1505206823348999,
                        0.16074061393737793,
                        0.014098766259849072,
                        -0.017254631966352463,
                        0.36188575625419617,
                        0.08954697847366333,
                        -0.0016890211263671517,
                        0.003186475718393922,
                        -0.0922345370054245,
                        -0.03695669770240784,
                        -0.0581132173538208,
                        -0.019018854945898056,
                        -0.15132400393486023,
                        0.19820788502693176,
                        0.044162631034851074,
                        0.0386541411280632,
                        -0.04375529661774635,
                        0.03567945957183838,
                        -0.09399963170289993,
                        0.053980227559804916,
                        -0.26566609740257263,
                        -0.08117318898439407
                    ],
                    [
                        0.1573725789785385,
                        -0.0838627964258194,
                        -0.46084585785865784,
                        -0.08236995339393616,
                        -0.49718397855758667,
                        -0.3073279559612274,
                        -0.08674731105566025,
                        -0.2097659558057785,
                        -0.47787362337112427,
                        -0.07207730412483215,
                        0.38140052556991577,
                        0.4005517065525055,
                        -0.3405114710330963,
                        -0.001062449417077005,
                        0.29173722863197327,
                        -0.1533835530281067,
                        -0.29962724447250366,
                        -0.0920209139585495,
                        0.1352168470621109,
                        0.1718030869960785,
                        -0.050428230315446854,
                        -0.18682320415973663,
                        0.013128800317645073,
                        -0.10279873013496399,
                        -0.05723979324102402,
                        -0.024965353310108185,
                        -0.07301048934459686,
                        0.17115448415279388,
                        0.16032618284225464,
                        -0.18694265186786652,
                        -0.026092611253261566,
                        -0.48960012197494507,
                        0.033893901854753494,
                        0.005140466149896383,
                        -0.18366967141628265,
                        0.13940557837486267,
                        -0.005922538228332996,
                        0.36394619941711426,
                        0.11806631833314896,
                        -0.21448031067848206,
                        0.21156232059001923,
                        0.057640425860881805,
                        0.2023327499628067,
                        0.040926314890384674,
                        0.12572625279426575,
                        -0.07705248892307281,
                        0.3219235837459564,
                        0.021731803193688393,
                        -0.039043962955474854,
                        0.042899515479803085,
                        0.10796305537223816,
                        -0.03783274069428444,
                        0.346334844827652,
                        0.04749998450279236,
                        0.009875467047095299,
                        -0.2260611206293106,
                        0.21947810053825378,
                        0.15657563507556915,
                        -0.10908691585063934,
                        0.04296551272273064,
                        -0.20953842997550964,
                        -0.2080012708902359,
                        -0.3965030908584595,
                        0.010910827666521072,
                        -0.8102404475212097,
                        -0.3128804862499237,
                        -0.17288121581077576,
                        -0.189240500330925,
                        -0.43810176849365234,
                        -0.2656499147415161,
                        -0.07404951006174088,
                        0.0005044727004133165,
                        -0.3532733619213104,
                        -0.19311292469501495,
                        -0.12909899652004242,
                        -0.2162645310163498,
                        -0.27619585394859314,
                        0.21999657154083252,
                        -0.3164770007133484,
                        -0.2103174924850464
                    ],
                    [
                        -0.05096246302127838,
                        0.006900971755385399,
                        0.022115696221590042,
                        0.05639725178480148,
                        0.012920443899929523,
                        0.0017390944994986057,
                        -0.02287374436855316,
                        -0.027091750875115395,
                        -0.006665240973234177,
                        0.014787886291742325,
                        0.023119643330574036,
                        -0.13542963564395905,
                        0.01635701023042202,
                        0.007433051709085703,
                        0.020111704245209694,
                        0.06335865706205368,
                        0.04401940852403641,
                        -0.09673246741294861,
                        -0.20051036775112152,
                        -0.010780983604490757,
                        -0.2779683768749237,
                        0.026092935353517532,
                        0.04521767795085907,
                        0.08868449181318283,
                        0.04870252311229706,
                        0.05441717058420181,
                        -0.022523343563079834,
                        -0.055248621851205826,
                        -0.011472297832369804,
                        0.02047853358089924,
                        -0.32196149230003357,
                        -0.07353001832962036,
                        -0.04514172673225403,
                        0.05663265287876129,
                        -0.11780930310487747,
                        0.08222365379333496,
                        0.09132644534111023,
                        -0.24639491736888885,
                        -0.3258552849292755,
                        -0.154348224401474,
                        -0.29807692766189575,
                        0.028063705191016197,
                        0.2986656427383423,
                        0.03942850977182388,
                        0.01789810135960579,
                        -0.15136782824993134,
                        -0.015478734858334064,
                        0.05501076951622963,
                        0.09508554637432098,
                        -0.146382138133049,
                        -0.15412814915180206,
                        0.8509117364883423,
                        -0.03871816024184227,
                        0.11483776569366455,
                        -0.21545559167861938,
                        -0.1480530947446823,
                        -0.05253195762634277,
                        -0.14454852044582367,
                        0.08642342686653137,
                        -0.10643427819013596,
                        -0.03666231781244278,
                        0.005126669071614742,
                        0.1078798770904541,
                        0.1134134978055954,
                        0.009074173867702484,
                        0.004601268097758293,
                        -0.05612402781844139,
                        -0.028895368799567223,
                        -0.007377390284091234,
                        -0.01972159743309021,
                        -0.010980809107422829,
                        -0.1625230461359024,
                        0.02408755011856556,
                        0.05543263256549835,
                        0.010796889662742615,
                        0.05954328551888466,
                        0.09545017778873444,
                        -0.2249283790588379,
                        -0.1478848159313202,
                        -0.03774961829185486
                    ],
                    [
                        -0.112688347697258,
                        -0.004331396427005529,
                        0.019609741866588593,
                        -0.058043915778398514,
                        -0.0317159928381443,
                        -0.0169745534658432,
                        -0.18168848752975464,
                        -0.05893366038799286,
                        0.0015601254999637604,
                        -0.002367970999330282,
                        0.08665818721055984,
                        0.06693591922521591,
                        -0.047544147819280624,
                        -0.0012296077329665422,
                        -0.03606770560145378,
                        -0.0444050095975399,
                        -0.03224627673625946,
                        0.08263648301362991,
                        -0.2850619852542877,
                        0.21717990934848785,
                        -0.15840482711791992,
                        -0.005549171473830938,
                        -0.10191548615694046,
                        -0.12350817769765854,
                        -0.1170712560415268,
                        0.021125799044966698,
                        -0.07841618359088898,
                        0.08853451162576675,
                        -0.035484135150909424,
                        -0.009957419708371162,
                        0.06197923421859741,
                        -0.31482645869255066,
                        0.20195427536964417,
                        -0.011658399365842342,
                        0.0641670674085617,
                        -0.092467300593853,
                        -0.04627802595496178,
                        0.16760258376598358,
                        -0.13943210244178772,
                        -0.31313231587409973,
                        0.192031130194664,
                        0.1094629317522049,
                        1.096805214881897,
                        0.07320789992809296,
                        -0.02592088095843792,
                        -0.233228400349617,
                        -0.3705363869667053,
                        -0.10939768701791763,
                        0.10233625024557114,
                        -0.03447540104389191,
                        0.0807599276304245,
                        -0.14351370930671692,
                        -0.3013918101787567,
                        -0.19635924696922302,
                        -0.04993072524666786,
                        -0.2667717933654785,
                        0.6142402291297913,
                        0.7468314170837402,
                        0.1567734032869339,
                        -0.4043146073818207,
                        -0.10929909348487854,
                        -0.0722372829914093,
                        -0.04535001888871193,
                        -0.10668778419494629,
                        0.30020269751548767,
                        -0.013974708504974842,
                        -0.21358175575733185,
                        -0.05836353078484535,
                        -0.005614033900201321,
                        -0.03136198967695236,
                        -0.006426372565329075,
                        0.028890809044241905,
                        -0.06801854819059372,
                        -0.13586829602718353,
                        -0.0036284837406128645,
                        -0.0289914533495903,
                        0.03624541684985161,
                        0.1754591464996338,
                        -0.03527083992958069,
                        -0.213898167014122
                    ],
                    [
                        0.707824170589447,
                        -0.015839237719774246,
                        -0.12400218099355698,
                        0.02904590778052807,
                        -0.1337704062461853,
                        -0.1695752888917923,
                        -0.025989172980189323,
                        -0.18533575534820557,
                        -0.21381790935993195,
                        0.017048733308911324,
                        -0.010714873671531677,
                        0.20249873399734497,
                        -0.1368897259235382,
                        0.043830469250679016,
                        -0.029044780880212784,
                        -0.011562573723495007,
                        -0.08631575852632523,
                        -0.23585475981235504,
                        0.017907490953803062,
                        0.07728853821754456,
                        -1.442831039428711,
                        0.0024441881105303764,
                        0.3049462139606476,
                        0.005366275552660227,
                        -0.05121278390288353,
                        -0.01658514328300953,
                        -0.03747694566845894,
                        0.15135854482650757,
                        -0.14767996966838837,
                        0.05893271043896675,
                        -0.009845823049545288,
                        -0.12593820691108704,
                        0.17137910425662994,
                        0.22157910466194153,
                        0.09844248741865158,
                        0.2943628132343292,
                        -0.2552919387817383,
                        -0.10438252240419388,
                        0.05248410999774933,
                        -0.12757039070129395,
                        -0.11388731747865677,
                        0.022843407467007637,
                        0.384134978055954,
                        0.05537242442369461,
                        0.0850951224565506,
                        0.06168747320771217,
                        -0.04844518378376961,
                        -0.028320539742708206,
                        -0.015000926330685616,
                        -0.013705086894333363,
                        0.05820351466536522,
                        -0.00351154082454741,
                        -0.01290290616452694,
                        -0.11726868152618408,
                        -0.06269821524620056,
                        0.05656300112605095,
                        0.26729056239128113,
                        -0.14453208446502686,
                        -0.12755431234836578,
                        -0.020954640582203865,
                        -0.3619460165500641,
                        -0.18372569978237152,
                        -0.10774079710245132,
                        0.01097124069929123,
                        -0.30470341444015503,
                        -0.1647624671459198,
                        -0.061435528099536896,
                        -0.1847703605890274,
                        -0.2163834571838379,
                        -0.0678301602602005,
                        -0.0558898001909256,
                        0.061167217791080475,
                        -0.12266261875629425,
                        0.06075248494744301,
                        0.02295362763106823,
                        0.11112839728593826,
                        -0.2499609738588333,
                        -0.48320600390434265,
                        -0.055828288197517395,
                        -0.04892202094197273
                    ],
                    [
                        -1.0450183153152466,
                        -0.004599899984896183,
                        0.09655214101076126,
                        0.01977548561990261,
                        0.08134283125400543,
                        0.11178196966648102,
                        0.11207792162895203,
                        0.14928942918777466,
                        0.09029437601566315,
                        -0.004403232596814632,
                        0.2008282095193863,
                        -0.07605254650115967,
                        0.10534534603357315,
                        0.002855714876204729,
                        0.05232963338494301,
                        0.12200342863798141,
                        0.24831581115722656,
                        0.11497487127780914,
                        0.12798085808753967,
                        -0.14201800525188446,
                        0.7409330010414124,
                        0.02370387315750122,
                        -0.7097163796424866,
                        0.06727085262537003,
                        -0.026393873617053032,
                        -0.04401285946369171,
                        -0.05885843560099602,
                        -0.1119290366768837,
                        -0.17563819885253906,
                        0.03490360826253891,
                        0.18102727830410004,
                        0.13277028501033783,
                        -0.41692396998405457,
                        0.09796019643545151,
                        -0.019140763208270073,
                        0.05703255906701088,
                        0.2593551278114319,
                        -0.06423565000295639,
                        0.07662428915500641,
                        0.1381792575120926,
                        -0.38537314534187317,
                        0.015594723634421825,
                        0.31163376569747925,
                        0.0544457882642746,
                        0.11389751732349396,
                        0.1370166838169098,
                        0.04586564749479294,
                        -0.23049026727676392,
                        -0.07022257894277573,
                        0.012489036656916142,
                        -0.015266140922904015,
                        0.05469983443617821,
                        0.006197480019181967,
                        0.09523006528615952,
                        -0.17320306599140167,
                        0.031701669096946716,
                        -0.4977705478668213,
                        0.23680385947227478,
                        -0.1004331037402153,
                        -0.08087775111198425,
                        0.24213989078998566,
                        -0.002955639734864235,
                        -0.43108806014060974,
                        0.0009246710105799139,
                        0.03654365614056587,
                        0.12797799706459045,
                        0.12362012267112732,
                        0.14394941926002502,
                        0.0944475457072258,
                        0.01653939113020897,
                        -0.1204221174120903,
                        0.02793845161795616,
                        0.08682982623577118,
                        0.08933449536561966,
                        0.06436122953891754,
                        0.12153202295303345,
                        0.25352755188941956,
                        0.1522844284772873,
                        0.4645548462867737,
                        -0.08795461803674698
                    ],
                    [
                        0.04910318925976753,
                        -0.04443338140845299,
                        -0.1551618129014969,
                        -0.06689117848873138,
                        -0.11664929986000061,
                        -0.11030693352222443,
                        -0.1221463680267334,
                        -0.13843315839767456,
                        -0.13227735459804535,
                        -0.03897156938910484,
                        -0.08753260970115662,
                        0.03493066132068634,
                        -0.12100140005350113,
                        -0.01406577043235302,
                        0.2370874136686325,
                        -0.051132477819919586,
                        0.011591292917728424,
                        -0.03470788896083832,
                        0.24598394334316254,
                        0.4155767858028412,
                        -0.2080160230398178,
                        -0.08829652518033981,
                        0.04875137284398079,
                        -0.07179100811481476,
                        0.0524158738553524,
                        0.13324734568595886,
                        0.1616418957710266,
                        0.09426909685134888,
                        0.09042157977819443,
                        -0.10266605019569397,
                        -0.3727611005306244,
                        -0.16275851428508759,
                        0.2624914050102234,
                        -0.06493277102708817,
                        0.05011095479130745,
                        -0.05643698573112488,
                        0.11425060033798218,
                        0.027547767385840416,
                        0.5369656085968018,
                        -0.17175130546092987,
                        0.2627783715724945,
                        0.025491556152701378,
                        0.5228700637817383,
                        0.13033002614974976,
                        -0.0469176359474659,
                        0.04273156821727753,
                        -0.12717413902282715,
                        0.1335974931716919,
                        -0.00018815483781509101,
                        -0.03063935413956642,
                        -0.18295855820178986,
                        0.70815509557724,
                        -0.16052217781543732,
                        0.0004171359178144485,
                        -0.23082798719406128,
                        -0.011007221415638924,
                        0.034580305218696594,
                        -0.031971003860235214,
                        0.1953069269657135,
                        0.0729646235704422,
                        -0.03808446228504181,
                        -0.16735084354877472,
                        -0.01734006218612194,
                        -0.1834871768951416,
                        0.18993045389652252,
                        -0.10577340424060822,
                        -0.1615448147058487,
                        -0.14164727926254272,
                        -0.13452334702014923,
                        -0.16544243693351746,
                        -0.02138855680823326,
                        0.07482141256332397,
                        -0.13024605810642242,
                        -0.11780113726854324,
                        -0.044131189584732056,
                        -0.08389277011156082,
                        0.12661898136138916,
                        0.03486153855919838,
                        0.2903076112270355,
                        -0.08544203639030457
                    ],
                    [
                        -0.3266403079032898,
                        0.028600400313735008,
                        0.006025020964443684,
                        -0.00010668683535186574,
                        -0.10615755617618561,
                        0.002523002913221717,
                        -0.06362210959196091,
                        0.023804491385817528,
                        -0.11027964949607849,
                        0.05572950467467308,
                        -0.04975955933332443,
                        -0.15537413954734802,
                        0.018686499446630478,
                        0.02126060053706169,
                        -0.030537422746419907,
                        -0.009411984123289585,
                        -0.0149645721539855,
                        -0.0010402414482086897,
                        -0.058500707149505615,
                        -0.5317734479904175,
                        -0.025580957531929016,
                        0.06896533071994781,
                        0.19416317343711853,
                        -0.052867989987134933,
                        -0.04749828577041626,
                        0.07044434547424316,
                        -0.14168046414852142,
                        0.012408572249114513,
                        -0.10775452107191086,
                        0.1393478959798813,
                        0.1028137132525444,
                        0.1316428780555725,
                        -0.020526304841041565,
                        0.06709736585617065,
                        0.09094808250665665,
                        0.0448048897087574,
                        0.06933868676424026,
                        -0.09782228618860245,
                        -0.06927195936441422,
                        -0.02735811658203602,
                        0.043440353125333786,
                        -0.044092319905757904,
                        0.2982446849346161,
                        0.7240116596221924,
                        -1.1308434009552002,
                        0.7689233422279358,
                        -0.08741594105958939,
                        -0.0023343036882579327,
                        2.0792744159698486,
                        -0.125899076461792,
                        0.022433683276176453,
                        0.006366553250700235,
                        0.3514488637447357,
                        0.004893521312624216,
                        -0.15528833866119385,
                        0.003173756878823042,
                        0.21611472964286804,
                        0.11194752901792526,
                        0.19833925366401672,
                        0.19546574354171753,
                        -0.040991734713315964,
                        0.06407447159290314,
                        -0.067446768283844,
                        0.10357602685689926,
                        -0.5125715136528015,
                        0.021187251433730125,
                        0.09165578335523605,
                        0.025324897840619087,
                        -0.1030275970697403,
                        0.060742441564798355,
                        0.021387683227658272,
                        0.0685872733592987,
                        0.051082588732242584,
                        0.002266915515065193,
                        0.003044943790882826,
                        -0.024567220360040665,
                        -0.04383799806237221,
                        -0.09418343752622604,
                        -0.03245558217167854,
                        0.08196436613798141
                    ]
                ],
                [
                    -1.4085006713867188,
                    0.061382148414850235,
                    0.8002792596817017,
                    0.1560143232345581,
                    1.0453749895095825,
                    0.829116702079773,
                    0.8620288372039795,
                    0.8039535880088806,
                    0.931901752948761,
                    0.19378629326820374,
                    -1.1732219457626343,
                    -1.9710845947265625,
                    0.9715805649757385,
                    0.20260879397392273,
                    -0.3344602882862091,
                    0.5845316052436829,
                    0.43494492769241333,
                    0.4744696021080017,
                    0.05215500295162201,
                    -1.4622035026550293,
                    2.0287179946899414,
                    0.5335008502006531,
                    -0.23155373334884644,
                    0.5944424867630005,
                    -0.42115363478660583,
                    -0.00996430404484272,
                    0.39085716009140015,
                    -0.5093733668327332,
                    -0.7486917972564697,
                    0.6954510807991028,
                    1.3620834350585938,
                    2.5651628971099854,
                    -0.27054381370544434,
                    0.5731728076934814,
                    0.8442106246948242,
                    0.19965270161628723,
                    0.017780136317014694,
                    -0.30284982919692993,
                    0.5133130550384521,
                    2.121649742126465,
                    0.29966941475868225,
                    -0.27519047260284424,
                    0.04326820373535156,
                    0.036503858864307404,
                    0.1769249141216278,
                    0.14153407514095306,
                    -0.36615753173828125,
                    0.5050011277198792,
                    0.1164785623550415,
                    0.1117313951253891,
                    0.11509066820144653,
                    0.04738689213991165,
                    0.07757188379764557,
                    -0.0585397444665432,
                    -0.2773904800415039,
                    -0.5007619857788086,
                    -0.2314576655626297,
                    0.34710898995399475,
                    -0.3964087665081024,
                    -0.18804877996444702,
                    0.7024431228637695,
                    1.0128517150878906,
                    0.48614609241485596,
                    0.45050889253616333,
                    0.5124236941337585,
                    0.8702543377876282,
                    1.1929689645767212,
                    0.8052824139595032,
                    0.9676847457885742,
                    0.8698440790176392,
                    0.46539056301116943,
                    0.405925452709198,
                    1.0020605325698853,
                    0.6546381711959839,
                    0.4415183365345001,
                    0.6380236148834229,
                    0.3437132239341736,
                    0.22681620717048645,
                    0.13637682795524597,
                    0.8838587999343872
                ]
            ]
        },
        {
            "type": "dense",
            "activation": "",
            "shape": [
                null,
                null,
                1
            ],
            "weights": [
                [
                    [
                        -0.08105099946260452
                    ],
                    [
                        0.2275552898645401
                    ],
                    [
                        1.0168405771255493
                    ],
                    [
                        0.05923197418451309
                    ],
                    [
                        0.11515162140130997
                    ],
                    [
                        0.05951724201440811
                    ],
                    [
                        -0.0880332738161087
                    ],
                    [
                        0.14994920790195465
                    ],
                    [
                        0.05677691102027893
                    ],
                    [
                        -0.1002444326877594
                    ],
                    [
                        -0.028073759749531746
                    ],
                    [
                        0.46927234530448914
                    ],
                    [
                        -0.1514384001493454
                    ],
                    [
                        0.03345179557800293
                    ],
                    [
                        -0.7167338728904724
                    ],
                    [
                        0.20335006713867188
                    ],
                    [
                        -0.21642613410949707
                    ],
                    [
                        -0.337307870388031
                    ],
                    [
                        -0.5460469126701355
                    ],
                    [
                        -0.06870851665735245
                    ]
                ],
                [
                    0.08566241711378098
                ]
            ]
        }
    ]
}