{
    "in_shape": [
        null,
        null,
        1
    ],
    "layers": [
        {
            "type": "lstm",
            "activation": "",
            "shape": [
                null,
                null,
                20
            ],
            "weights": [
                [
                    [
                        0.2587282955646515,
                        0.2282106727361679,
                        0.08302497118711472,
                        0.6415995955467224,
                        0.006349606439471245,
                        -0.03534854203462601,
                        -0.04780276119709015,
                        -0.05074687302112579,
                        0.20703376829624176,
                        -0.02259206958115101,
                        0.08874798566102982,
                        -0.030335869640111923,
                        -0.186750128865242,
                        -0.2799680233001709,
                        -0.005780452396720648,
                        0.10826808214187622,
                        0.07705772668123245,
                        -0.08749068528413773,
                        -0.11683838069438934,
                        0.19605417549610138,
                        0.14981353282928467,
                        0.1662633717060089,
                        0.490054190158844,
                        0.9042789340019226,
                        0.008389046415686607,
                        -0.6067712903022766,
                        -0.03206487372517586,
                        -0.14220502972602844,
                        0.19672133028507233,
                        -0.1263580024242401,
                        0.15085598826408386,
                        -0.38993486762046814,
                        -0.03731309995055199,
                        -0.23290377855300903,
                        -0.005281195975840092,
                        -0.0260765440762043,
                        -0.018702037632465363,
                        -0.0996125265955925,
                        -0.2523297667503357,
                        0.1470731943845749,
                        -0.07052551209926605,
                        -0.3159116804599762,
                        -0.13386495411396027,
                        -0.33581697940826416,
                        0.1400400996208191,
                        0.6863539814949036,
                        0.5133075714111328,
                        -1.2387580871582031,
                        0.7783623337745667,
                        0.34191393852233887,
                        1.3236576318740845,
                        -0.18498611450195312,
                        0.18760721385478973,
                        0.1035413146018982,
                        -0.2158842831850052,
                        0.21579794585704803,
                        0.19596008956432343,
                        0.0314943827688694,
                        0.057023145258426666,
                        -0.3249145448207855,
                        -0.37092292308807373,
                        0.07111448049545288,
                        -0.003674501786008477,
                        0.5125012397766113,
                        0.007850327529013157,
                        -0.3660106062889099,
                        0.04971437528729439,
                        -0.16865508258342743,
                        -0.47481516003608704,
                        -0.007606754079461098,
                        0.03216848894953728,
                        -0.29827234148979187,
                        0.03230191022157669,
                        -0.8903146386146545,
                        -0.0030769926961511374,
                        -0.03654202073812485,
                        0.15338340401649475,
                        -0.37581440806388855,
                        0.004303978756070137,
                        0.20182307064533234
                    ]
                ],
                [
                    [
                        0.4117428660392761,
                        0.2081555277109146,
                        0.7540724873542786,
                        0.7190510630607605,
                        -0.0036565836053341627,
                        0.20238779485225677,
                        -0.18133912980556488,
                        -0.07971783727407455,
                        0.1897742599248886,
                        0.011024687439203262,
                        -0.06279879063367844,
                        -0.4105450510978699,
                        0.3388324975967407,
                        -0.17213603854179382,
                        -0.005479684565216303,
                        0.07848365604877472,
                        0.1691337376832962,
                        -0.022347714751958847,
                        -0.2113916277885437,
                        -0.08839135617017746,
                        -0.1123645007610321,
                        0.14681804180145264,
                        -0.16175347566604614,
                        -0.9058566689491272,
                        -0.012127053923904896,
                        -0.5292030572891235,
                        -0.15576328337192535,
                        0.28997597098350525,
                        0.1411881446838379,
                        0.13141685724258423,
                        -0.030998511239886284,
                        -0.3225804269313812,
                        -0.20090721547603607,
                        -0.1460878998041153,
                        -0.019229639321565628,
                        0.2602369785308838,
                        -0.7208457589149475,
                        -0.06974717229604721,
                        0.2680443227291107,
                        -0.25101613998413086,
                        0.653444230556488,
                        0.4745299220085144,
                        1.025437355041504,
                        0.12913969159126282,
                        0.05359563231468201,
                        -0.23706164956092834,
                        -0.11188215017318726,
                        -0.16689927875995636,
                        -0.04087188094854355,
                        -0.3812420964241028,
                        0.04359063133597374,
                        -0.528374195098877,
                        1.0221905708312988,
                        -0.13539107143878937,
                        -0.04845418408513069,
                        0.4911623001098633,
                        -0.3744518756866455,
                        0.02479679509997368,
                        0.08019606024026871,
                        0.454801470041275,
                        -0.21344102919101715,
                        0.11191632598638535,
                        -0.09254256635904312,
                        -0.2042737752199173,
                        -0.003235442331060767,
                        -0.0022177542559802532,
                        -0.3167736530303955,
                        0.021562086418271065,
                        0.13609212636947632,
                        0.0546862818300724,
                        -0.07775320112705231,
                        -0.27032992243766785,
                        -0.13945186138153076,
                        -0.27782946825027466,
                        -0.008447553031146526,
                        0.06721923500299454,
                        -0.42158788442611694,
                        -0.16360005736351013,
                        -0.0253358893096447,
                        -0.12879623472690582
                    ],
                    [
                        0.0820314884185791,
                        -0.15150116384029388,
                        0.3517788350582123,
                        -0.018578706309199333,
                        -0.009115280583500862,
                        -0.07760687172412872,
                        -0.033707525581121445,
                        0.17575587332248688,
                        0.06878722459077835,
                        0.0875360444188118,
                        0.004481324926018715,
                        -0.35816049575805664,
                        0.11756602674722672,
                        -0.07203049212694168,
                        -0.017628749832510948,
                        0.09881557524204254,
                        -0.023654114454984665,
                        0.028087783604860306,
                        -0.04708094894886017,
                        -0.024256858974695206,
                        -0.04276091232895851,
                        -0.3037089705467224,
                        -0.09996122121810913,
                        0.3609062135219574,
                        -0.009521565400063992,
                        0.007885406725108624,
                        -0.16599132120609283,
                        0.24533428251743317,
                        0.10447416454553604,
                        0.1325186789035797,
                        -0.3761955797672272,
                        -0.23141716420650482,
                        0.007185881957411766,
                        0.0465429350733757,
                        -0.020872272551059723,
                        0.17246632277965546,
                        -0.0017516459338366985,
                        0.031910188496112823,
                        -0.0776171013712883,
                        -0.038249265402555466,
                        -0.05070330575108528,
                        0.27309203147888184,
                        0.39651599526405334,
                        0.08969009667634964,
                        -0.039421197026968,
                        0.19701841473579407,
                        0.15998196601867676,
                        -0.24719949066638947,
                        -0.1211220771074295,
                        -0.11101120710372925,
                        -0.08526038378477097,
                        -0.021851545199751854,
                        0.3147145211696625,
                        0.11359543353319168,
                        0.0896867960691452,
                        -0.3114720582962036,
                        0.030926907435059547,
                        0.16224269568920135,
                        0.0004694419039878994,
                        0.6537411212921143,
                        0.004964297171682119,
                        -0.1636446863412857,
                        -0.21010750532150269,
                        -0.024063533172011375,
                        -0.0072476426139473915,
                        -0.036459315568208694,
                        0.2812102735042572,
                        0.04300456494092941,
                        0.24982459843158722,
                        0.11436321586370468,
                        -0.01605413295328617,
                        -0.07050896435976028,
                        -0.10366341471672058,
                        0.12820863723754883,
                        -0.013556146062910557,
                        0.14552834630012512,
                        -0.16772955656051636,
                        0.0034724874421954155,
                        0.15766854584217072,
                        -0.0161703210324049
                    ],
                    [
                        -0.8569914102554321,
                        0.14848750829696655,
                        -0.3670201599597931,
                        -0.19239214062690735,
                        0.02564643882215023,
                        0.29218798875808716,
                        0.05922015756368637,
                        0.10486692190170288,
                        0.03255033120512962,
                        -0.05976776406168938,
                        0.19981113076210022,
                        0.41250309348106384,
                        -0.4925471842288971,
                        -0.08623339980840683,
                        0.04297801852226257,
                        0.07012949138879776,
                        -0.30857062339782715,
                        0.07769125699996948,
                        -0.2001156210899353,
                        0.04912466183304787,
                        0.09496016055345535,
                        0.2526407539844513,
                        -0.15336748957633972,
                        -0.21790927648544312,
                        0.03488512709736824,
                        0.5176781415939331,
                        0.01728813350200653,
                        0.058406345546245575,
                        0.27242332696914673,
                        -0.06232898309826851,
                        0.044172145426273346,
                        1.0627645254135132,
                        -0.7094225883483887,
                        -0.045577045530080795,
                        0.06102778762578964,
                        0.08905988931655884,
                        -0.2557838559150696,
                        0.07750912010669708,
                        -0.22284099459648132,
                        -0.012837748974561691,
                        -0.5239498615264893,
                        -0.34852200746536255,
                        0.3866644501686096,
                        0.4227023720741272,
                        -0.0057596685364842415,
                        0.4311261773109436,
                        -0.7333632707595825,
                        -0.48566165566444397,
                        -0.15646082162857056,
                        0.4581344425678253,
                        0.14292088150978088,
                        -0.6260278820991516,
                        -0.7332913875579834,
                        0.27806398272514343,
                        0.032652825117111206,
                        0.022392332553863525,
                        0.28389209508895874,
                        0.17768917977809906,
                        -0.07113542407751083,
                        0.42363134026527405,
                        -0.4520620107650757,
                        0.31967613101005554,
                        0.17039130628108978,
                        0.019283728674054146,
                        0.025162268429994583,
                        0.45704057812690735,
                        -0.09707366675138474,
                        0.07739297300577164,
                        -0.3292555809020996,
                        -0.03970971703529358,
                        0.22223961353302002,
                        0.32756322622299194,
                        -0.2510640323162079,
                        0.0006664058892056346,
                        0.040112633258104324,
                        0.054085541516542435,
                        -0.5559791922569275,
                        0.05805954337120056,
                        -0.6044167280197144,
                        0.05713949725031853
                    ],
                    [
                        0.6870858669281006,
                        0.046214740723371506,
                        -0.01104055903851986,
                        -0.18893256783485413,
                        -0.011896640993654728,
                        0.7754231095314026,
                        -0.2231094241142273,
                        -0.20881690084934235,
                        -0.25649142265319824,
                        -0.08149351924657822,
                        -0.343801885843277,
                        0.1987699270248413,
                        0.5693637728691101,
                        0.07534942775964737,
                        -0.009397801011800766,
                        -0.08107802271842957,
                        0.21603745222091675,
                        -0.13142874836921692,
                        0.12339762598276138,
                        -0.10627017915248871,
                        0.28054630756378174,
                        -0.10138966888189316,
                        -0.23008112609386444,
                        -0.15632730722427368,
                        -0.023383378982543945,
                        0.3086666166782379,
                        -0.21037103235721588,
                        -0.012776424176990986,
                        -0.45694443583488464,
                        -0.02621510624885559,
                        -0.3812095522880554,
                        -0.09546469151973724,
                        0.20458060503005981,
                        -0.09182851761579514,
                        -0.029413901269435883,
                        -0.12620846927165985,
                        -0.2110932171344757,
                        -0.1763606071472168,
                        -0.08161895722150803,
                        -0.10970110446214676,
                        -0.6589611172676086,
                        0.1219090074300766,
                        -0.6615737080574036,
                        0.5959665775299072,
                        -0.03852296620607376,
                        0.5167919993400574,
                        -0.050494443625211716,
                        -1.4591809511184692,
                        -1.06157386302948,
                        -0.2054961770772934,
                        2.1254045963287354,
                        0.02553757093846798,
                        -0.029662124812602997,
                        -0.1495581865310669,
                        0.03562912344932556,
                        -0.1244887113571167,
                        0.22333334386348724,
                        -0.24314680695533752,
                        0.2661917805671692,
                        -0.45865511894226074,
                        -0.030763039365410805,
                        -0.06657349318265915,
                        -0.15460558235645294,
                        -0.8081299662590027,
                        -0.011428289115428925,
                        0.46032023429870605,
                        -0.09274807572364807,
                        -0.2677776515483856,
                        0.7852060198783875,
                        -0.08810315281152725,
                        -0.39971694350242615,
                        -0.23624342679977417,
                        0.07126275449991226,
                        0.7384923696517944,
                        -0.010860443115234375,
                        0.020125798881053925,
                        -0.06243187189102173,
                        -0.2547069489955902,
                        0.10029757022857666,
                        -0.16202279925346375
                    ],
                    [
                        0.004264700226485729,
                        0.009973171167075634,
                        -0.0030713367741554976,
                        0.00982915423810482,
                        -0.0003126955998595804,
                        0.018763432279229164,
                        -0.014392481185495853,
                        -0.01360106747597456,
                        0.012596509419381618,
                        -0.003766795853152871,
                        -0.005654816050082445,
                        -0.013946348801255226,
                        -0.02062683366239071,
                        -0.046109527349472046,
                        -0.002206039847806096,
                        -0.009681137278676033,
                        0.048405762761831284,
                        -0.024562733247876167,
                        -0.002572696190327406,
                        0.007934728637337685,
                        0.03312110900878906,
                        -0.0004495407920330763,
                        0.031387899070978165,
                        0.0076039754785597324,
                        -0.0005804769461974502,
                        -0.0006000304128974676,
                        -0.0026404736563563347,
                        0.014106166549026966,
                        0.002505154814571142,
                        -0.006885154638439417,
                        -0.039055515080690384,
                        -0.034173641353845596,
                        -0.010480431839823723,
                        -0.045337602496147156,
                        -0.002808868885040283,
                        -0.002098468830808997,
                        0.014802130870521069,
                        -0.03258388862013817,
                        -0.00818885862827301,
                        0.015924518927931786,
                        0.014086940325796604,
                        -0.06775825470685959,
                        0.022326767444610596,
                        -0.03790242224931717,
                        0.02776254341006279,
                        0.005343023221939802,
                        -0.007609862368553877,
                        -0.04499848559498787,
                        0.09073962271213531,
                        0.031206054612994194,
                        -0.030539702624082565,
                        0.010929808020591736,
                        0.027478504925966263,
                        -0.023367883637547493,
                        -0.04224441945552826,
                        0.03478885814547539,
                        0.03540167212486267,
                        -0.02694670669734478,
                        0.009143495932221413,
                        -0.03507523238658905,
                        0.013217377476394176,
                        -0.014235981740057468,
                        -0.0024168838281184435,
                        0.038869038224220276,
                        -0.00024270470021292567,
                        -0.030529456213116646,
                        -0.007802180014550686,
                        -0.003955200780183077,
                        -0.0287608839571476,
                        -0.009002468548715115,
                        -0.0018903202144429088,
                        -0.010799389332532883,
                        0.00806758925318718,
                        -0.044515304267406464,
                        -0.001731789787299931,
                        -0.008001208305358887,
                        0.024346671998500824,
                        -0.02468453347682953,
                        0.009362829849123955,
                        0.004992037080228329
                    ],
                    [
                        0.3958297371864319,
                        0.27999675273895264,
                        -0.49461954832077026,
                        0.7311950325965881,
                        -0.00846040342003107,
                        0.12224549800157547,
                        -0.11292191594839096,
                        -0.04754123464226723,
                        0.21392697095870972,
                        0.11258573830127716,
                        -0.10766424238681793,
                        0.3665107488632202,
                        -0.020494766533374786,
                        -0.17108024656772614,
                        -0.03518787398934364,
                        0.18918298184871674,
                        0.03523886576294899,
                        -0.030372638255357742,
                        0.2569625675678253,
                        0.19496549665927887,
                        -0.044415220618247986,
                        -0.08762092143297195,
                        -0.6610759496688843,
                        -0.590400755405426,
                        -0.014196659438312054,
                        0.07267672568559647,
                        0.1422981321811676,
                        0.035842884331941605,
                        0.1893271505832672,
                        0.21391186118125916,
                        -0.6191151142120361,
                        0.5737894177436829,
                        0.014777258969843388,
                        -0.06565573066473007,
                        -0.045507438480854034,
                        0.23451045155525208,
                        -0.4518223702907562,
                        -0.05915512517094612,
                        0.4736040234565735,
                        0.16102950274944305,
                        -0.003671026788651943,
                        0.4033891260623932,
                        0.25093191862106323,
                        -0.6444094777107239,
                        -0.016190918162465096,
                        0.43254125118255615,
                        0.3159043490886688,
                        0.09316137433052063,
                        0.34554579854011536,
                        0.04085589572787285,
                        0.07320370525121689,
                        0.43742823600769043,
                        0.20941784977912903,
                        0.023641707375645638,
                        -0.000566217175219208,
                        -0.20661823451519012,
                        0.011900538578629494,
                        0.05970506742596626,
                        -0.10745517164468765,
                        -0.6338099241256714,
                        -0.06197996810078621,
                        0.17955951392650604,
                        -0.2592427134513855,
                        0.22699260711669922,
                        -0.008125768974423409,
                        0.1296282708644867,
                        0.15036872029304504,
                        -0.21763183176517487,
                        -0.1502043455839157,
                        0.09543458372354507,
                        -0.04594965651631355,
                        -0.04022057726979256,
                        0.03617282584309578,
                        -0.27543267607688904,
                        -0.037578996270895004,
                        0.37945377826690674,
                        -0.04183770343661308,
                        -0.18918372690677643,
                        0.07385148853063583,
                        0.19769170880317688
                    ],
                    [
                        0.46739208698272705,
                        -0.16473649442195892,
                        -0.18058554828166962,
                        -0.26944825053215027,
                        0.01003103144466877,
                        -0.005997058004140854,
                        -0.12280895560979843,
                        -0.1206798329949379,
                        0.0054077571257948875,
                        -0.034687165170907974,
                        -0.0850730612874031,
                        -0.41728365421295166,
                        0.7328710556030273,
                        -0.07248759269714355,
                        0.018178412690758705,
                        -0.16751079261302948,
                        0.27824825048446655,
                        -0.08548686653375626,
                        0.8903613686561584,
                        0.04167595133185387,
                        0.10897268354892731,
                        -0.3290533423423767,
                        0.1613955795764923,
                        -0.7430130839347839,
                        0.011773998849093914,
                        -0.540595293045044,
                        -0.3330477774143219,
                        -0.7685428857803345,
                        -0.014706711284816265,
                        0.26141878962516785,
                        0.0535481721162796,
                        -0.4975045621395111,
                        -0.3717055022716522,
                        -0.09649723768234253,
                        0.011388101615011692,
                        0.19998888671398163,
                        0.041776660829782486,
                        -0.12125228345394135,
                        1.1233311891555786,
                        0.06363389641046524,
                        0.5908282399177551,
                        0.02541165053844452,
                        -0.12679949402809143,
                        -0.7694401144981384,
                        0.07584031671285629,
                        -0.17736242711544037,
                        -0.34362611174583435,
                        0.04873334616422653,
                        -0.05169594660401344,
                        -0.18879172205924988,
                        0.012263935059309006,
                        -0.160969078540802,
                        -0.17055276036262512,
                        -0.153713658452034,
                        -0.0899551510810852,
                        0.026846546679735184,
                        -0.2317640483379364,
                        -0.03513330593705177,
                        -0.2515698969364166,
                        -0.24050122499465942,
                        0.20300592482089996,
                        -0.177086740732193,
                        0.1649627387523651,
                        -0.045950211584568024,
                        0.016116121783852577,
                        -0.5243895649909973,
                        0.36174923181533813,
                        -0.2517247796058655,
                        -0.17698463797569275,
                        -0.03410915657877922,
                        -0.017560919746756554,
                        -0.21173951029777527,
                        0.6281415820121765,
                        -0.07110325247049332,
                        0.033096473664045334,
                        0.12699951231479645,
                        0.0377623625099659,
                        -0.09197307378053665,
                        0.20455756783485413,
                        -0.029467621818184853
                    ],
                    [
                        -0.8412348031997681,
                        -0.29479631781578064,
                        0.10342678427696228,
                        -0.46966347098350525,
                        0.01093730702996254,
                        -1.0122792720794678,
                        0.07584170252084732,
                        0.1611221581697464,
                        0.09322766214609146,
                        0.02768043614923954,
                        0.09000413864850998,
                        -0.4281500577926636,
                        0.3144669532775879,
                        0.04084542393684387,
                        0.0421886146068573,
                        -0.4133743345737457,
                        0.36713793873786926,
                        -0.0372760035097599,
                        0.5560786128044128,
                        -0.7359869480133057,
                        -0.24756567180156708,
                        0.18518278002738953,
                        0.24968154728412628,
                        -0.7014136910438538,
                        0.018677346408367157,
                        -0.3070868253707886,
                        -0.20266565680503845,
                        0.13025934994220734,
                        0.25189805030822754,
                        0.36886468529701233,
                        -0.9141955375671387,
                        -0.1199631467461586,
                        -1.0919333696365356,
                        0.12843826413154602,
                        0.04412988945841789,
                        -0.07504300773143768,
                        0.9464095830917358,
                        0.1415262222290039,
                        0.7588253021240234,
                        -0.6780558228492737,
                        0.9376657009124756,
                        0.23936043679714203,
                        -0.03814117610454559,
                        0.12118132412433624,
                        -0.014593933708965778,
                        -1.0836948156356812,
                        1.3145867586135864,
                        0.8709518313407898,
                        -0.2138313502073288,
                        0.28735893964767456,
                        0.14901411533355713,
                        -0.4004676640033722,
                        0.2836616635322571,
                        -0.28246307373046875,
                        0.08617867529392242,
                        -0.08856910467147827,
                        -0.4284443259239197,
                        -0.10022927075624466,
                        -0.021782347932457924,
                        -0.18884781002998352,
                        0.012818282470107079,
                        0.198542520403862,
                        0.3248937427997589,
                        0.0371679924428463,
                        0.010646830312907696,
                        -0.40963688492774963,
                        0.9534434080123901,
                        -0.12326537072658539,
                        -0.2389567643404007,
                        0.1340065449476242,
                        -0.03603670001029968,
                        0.5931759476661682,
                        -0.08803796768188477,
                        0.27061226963996887,
                        0.03527595102787018,
                        -0.4908805787563324,
                        -0.3601941168308258,
                        0.21428024768829346,
                        0.4591206908226013,
                        -0.8238833546638489
                    ],
                    [
                        -0.6788768768310547,
                        -0.08092311024665833,
                        -0.9605974555015564,
                        -1.194594144821167,
                        0.0022416780702769756,
                        -0.15435391664505005,
                        0.2747575044631958,
                        0.30981341004371643,
                        0.2293812334537506,
                        0.15893509984016418,
                        0.261848509311676,
                        -0.2803826928138733,
                        -0.0478656031191349,
                        0.19722920656204224,
                        -0.006960049271583557,
                        0.08639450371265411,
                        -0.1980494111776352,
                        0.08861920237541199,
                        -0.10391207784414291,
                        -0.08076941967010498,
                        0.585610568523407,
                        0.04377849027514458,
                        1.480941653251648,
                        1.1577335596084595,
                        0.012200668454170227,
                        0.48284903168678284,
                        0.16621443629264832,
                        0.1869792640209198,
                        0.4072968363761902,
                        0.06971997022628784,
                        0.13914315402507782,
                        0.05163305625319481,
                        0.6533552408218384,
                        0.24498863518238068,
                        0.009084139950573444,
                        0.1778424233198166,
                        0.3509907126426697,
                        0.09046322852373123,
                        0.03592608496546745,
                        -0.14375494420528412,
                        -0.3073374927043915,
                        0.22256521880626678,
                        -0.0008701979531906545,
                        0.14716234803199768,
                        0.02795497141778469,
                        0.02220235951244831,
                        -0.30201825499534607,
                        -0.19865912199020386,
                        0.1426079422235489,
                        -0.2292855679988861,
                        0.314568430185318,
                        0.0425683856010437,
                        0.17840082943439484,
                        0.1699071228504181,
                        -0.015360557474195957,
                        -0.1244528591632843,
                        0.20089329779148102,
                        -0.025587625801563263,
                        -0.12873782217502594,
                        -0.046808890998363495,
                        0.14137960970401764,
                        -0.004016270861029625,
                        0.30440279841423035,
                        0.08819782733917236,
                        0.001796682714484632,
                        0.22693602740764618,
                        0.10126762092113495,
                        0.3972236216068268,
                        0.4429428279399872,
                        0.18284782767295837,
                        0.28043726086616516,
                        0.10167736560106277,
                        0.1081085279583931,
                        0.34824103116989136,
                        -0.004341079853475094,
                        0.06559285521507263,
                        -0.0637349933385849,
                        0.42358967661857605,
                        0.20492923259735107,
                        -0.04094070568680763
                    ],
                    [
                        -0.23727132380008698,
                        0.0388442687690258,
                        -0.27128225564956665,
                        0.20455579459667206,
                        0.012632355093955994,
                        -0.06780201941728592,
                        -0.04345181584358215,
                        -0.009224537760019302,
                        -0.0396871455013752,
                        -0.07600322365760803,
                        -0.021472567692399025,
                        0.21797774732112885,
                        -0.06554264575242996,
                        -0.04172201082110405,
                        0.026112833991646767,
                        0.013718981295824051,
                        -0.1368892639875412,
                        -0.05163748189806938,
                        -0.003988718148320913,
                        0.08353119343519211,
                        0.25314944982528687,
                        0.1315453052520752,
                        -0.18384197354316711,
                        0.051905613392591476,
                        0.01461772806942463,
                        -0.23288874328136444,
                        -0.20690682530403137,
                        -0.2471499890089035,
                        -0.025836916640400887,
                        -0.17490345239639282,
                        0.09088389575481415,
                        0.1641189157962799,
                        -0.10399339348077774,
                        -0.07354938238859177,
                        0.02971636690199375,
                        -0.05067172273993492,
                        -0.007117800880223513,
                        -0.028296073898673058,
                        -0.07064669579267502,
                        0.03945817053318024,
                        0.09209117293357849,
                        0.12487853318452835,
                        -0.3352023661136627,
                        0.08885504305362701,
                        -0.044377055019140244,
                        0.25882774591445923,
                        -0.16343289613723755,
                        0.050505734980106354,
                        -0.1349593698978424,
                        0.004694670904427767,
                        -0.21188373863697052,
                        0.10899388790130615,
                        -0.20741212368011475,
                        -0.06524099409580231,
                        0.09020362794399261,
                        0.036060769110918045,
                        -0.02673083171248436,
                        -0.08344951272010803,
                        0.032420866191387177,
                        -0.07354799658060074,
                        -0.34452149271965027,
                        0.08775418251752853,
                        0.09507665783166885,
                        0.1499914526939392,
                        0.013140425086021423,
                        -0.03858767822384834,
                        -0.042077887803316116,
                        -0.1792880743741989,
                        -0.15459711849689484,
                        -0.09512726217508316,
                        -0.020337846130132675,
                        -0.05801325663924217,
                        0.051110029220581055,
                        -0.11122585833072662,
                        0.02680940181016922,
                        -0.12784981727600098,
                        -0.15234370529651642,
                        -0.06513746827840805,
                        -0.00923861563205719,
                        0.0512332022190094
                    ],
                    [
                        0.4715046286582947,
                        0.2617739140987396,
                        -0.07374928146600723,
                        1.1995062828063965,
                        0.008101311512291431,
                        1.544242024421692,
                        -0.07604000717401505,
                        0.08406956493854523,
                        -0.08533761650323868,
                        -0.21717756986618042,
                        0.009452504105865955,
                        0.018991822376847267,
                        0.3705930709838867,
                        -0.09023106843233109,
                        0.02211787924170494,
                        -0.007784766145050526,
                        0.1601337343454361,
                        -0.16029952466487885,
                        0.351173996925354,
                        0.22974848747253418,
                        0.3119046688079834,
                        0.16111785173416138,
                        -0.07888907194137573,
                        1.3428924083709717,
                        0.008273336105048656,
                        0.005684198345988989,
                        -0.20717225968837738,
                        -0.21068258583545685,
                        -0.050188761204481125,
                        -0.37101981043815613,
                        0.5165205597877502,
                        -0.2201041877269745,
                        0.27178558707237244,
                        -0.008940880186855793,
                        0.021427905187010765,
                        0.10446039587259293,
                        -0.15154384076595306,
                        -0.06349045038223267,
                        0.41516292095184326,
                        -0.043232087045907974,
                        0.32348379492759705,
                        -0.186006098985672,
                        -0.07305324822664261,
                        -0.3492712080478668,
                        -0.01822189800441265,
                        1.1482601165771484,
                        -0.26655712723731995,
                        -2.1740939617156982,
                        -0.40201535820961,
                        0.49073055386543274,
                        0.06830137968063354,
                        -0.09057439863681793,
                        0.17727704346179962,
                        -0.10803002119064331,
                        0.08902876824140549,
                        0.4428333044052124,
                        -0.17216482758522034,
                        -0.06756258755922318,
                        0.009737076237797737,
                        -1.0790538787841797,
                        -0.03954470902681351,
                        0.12914763391017914,
                        -0.03673838824033737,
                        0.29877719283103943,
                        0.009465931914746761,
                        0.24806533753871918,
                        -0.2482660859823227,
                        -0.0913311019539833,
                        -0.24730004370212555,
                        -0.20290765166282654,
                        0.056610990315675735,
                        -0.5474401116371155,
                        -0.14589393138885498,
                        -0.09529564529657364,
                        0.027906443923711777,
                        -0.23773512244224548,
                        0.331684947013855,
                        -0.2528384029865265,
                        0.026479611173272133,
                        0.1882471889257431
                    ],
                    [
                        -0.2446090430021286,
                        -0.3906254768371582,
                        -1.1654711961746216,
                        -1.086492657661438,
                        0.00812073890119791,
                        -0.8535233736038208,
                        0.27214887738227844,
                        0.24843302369117737,
                        0.021140974014997482,
                        -0.04786354675889015,
                        0.27553802728652954,
                        -0.29996317625045776,
                        -0.39833348989486694,
                        -0.06714584678411484,
                        0.0012455431278795004,
                        -0.1439160257577896,
                        -0.7898913025856018,
                        0.0235105212777853,
                        -0.32542315125465393,
                        0.19350652396678925,
                        1.023403525352478,
                        -0.5180475115776062,
                        0.3209019899368286,
                        0.5170604586601257,
                        0.020228208974003792,
                        0.13573963940143585,
                        0.49123650789260864,
                        0.28868567943573,
                        0.2959718406200409,
                        -0.12059425562620163,
                        0.12282942980527878,
                        -0.04161003232002258,
                        0.22981823980808258,
                        0.03212078660726547,
                        0.023484835401177406,
                        -0.0559447780251503,
                        0.41831669211387634,
                        0.1035771444439888,
                        -0.39126744866371155,
                        0.11415387690067291,
                        0.25733688473701477,
                        0.2581852078437805,
                        -0.310021311044693,
                        0.14501197636127472,
                        0.03859245032072067,
                        -0.3229735791683197,
                        0.5367172360420227,
                        -0.15072858333587646,
                        -0.2908569574356079,
                        -0.03524976968765259,
                        0.06747362017631531,
                        0.27517783641815186,
                        -0.2518724799156189,
                        -0.018823252990841866,
                        -0.023155713453888893,
                        -0.09100166708230972,
                        0.5803782343864441,
                        0.05162222310900688,
                        -0.017078593373298645,
                        -0.11235087364912033,
                        0.18265405297279358,
                        -0.39100852608680725,
                        -0.2747548520565033,
                        0.43733084201812744,
                        0.00782040972262621,
                        -0.25105538964271545,
                        0.22582171857357025,
                        0.38134485483169556,
                        -0.27886804938316345,
                        -0.05690605938434601,
                        0.25374436378479004,
                        0.28520044684410095,
                        0.0011081434786319733,
                        0.10785073041915894,
                        0.00435641547665,
                        0.13624979555606842,
                        0.40730446577072144,
                        0.28185808658599854,
                        0.10274172574281693,
                        0.21451139450073242
                    ],
                    [
                        -0.6346966028213501,
                        0.1006096750497818,
                        -0.6533007025718689,
                        -0.10825956612825394,
                        0.005410082172602415,
                        -0.14179664850234985,
                        0.13855566084384918,
                        0.2227236032485962,
                        0.11755529791116714,
                        0.08572648465633392,
                        0.16749726235866547,
                        -0.10748004913330078,
                        -0.28794610500335693,
                        -0.060461509972810745,
                        0.005232616327702999,
                        -0.07501482963562012,
                        -0.04055294021964073,
                        -0.028514673933386803,
                        -0.2107955664396286,
                        -0.054332416504621506,
                        0.3433164954185486,
                        0.014720958657562733,
                        0.9757760167121887,
                        0.438919335603714,
                        0.008505464531481266,
                        0.1375676691532135,
                        0.28243422508239746,
                        0.4345000684261322,
                        0.21003474295139313,
                        0.0713641569018364,
                        0.16476204991340637,
                        0.04550915211439133,
                        -0.06325144320726395,
                        0.0833459123969078,
                        0.01093774102628231,
                        0.07480519264936447,
                        -0.05710401386022568,
                        -0.014490597881376743,
                        0.05147143825888634,
                        -0.1281145066022873,
                        0.034128814935684204,
                        -0.2047380954027176,
                        0.45933929085731506,
                        0.3864997923374176,
                        0.008170980028808117,
                        0.10308215767145157,
                        -0.2281370908021927,
                        -0.1624639928340912,
                        -0.13025669753551483,
                        0.12417753785848618,
                        0.007532086689025164,
                        0.1943775862455368,
                        0.09908223897218704,
                        0.09081156551837921,
                        -0.04131518304347992,
                        -0.3088628649711609,
                        0.16001169383525848,
                        0.15215672552585602,
                        0.028378017246723175,
                        -0.08596339076757431,
                        0.1547832190990448,
                        0.0964212715625763,
                        0.427816778421402,
                        0.17545558512210846,
                        0.005731841549277306,
                        -0.10065975040197372,
                        0.09165578335523605,
                        0.2847380042076111,
                        0.1061125323176384,
                        0.11310338973999023,
                        0.16748100519180298,
                        -0.0442974790930748,
                        -0.10559839010238647,
                        0.008729655295610428,
                        0.009691682644188404,
                        -0.0032392346765846014,
                        0.023280758410692215,
                        0.1062299907207489,
                        0.2649042308330536,
                        -0.05264497175812721
                    ],
                    [
                        -0.768402636051178,
                        -0.14193013310432434,
                        -1.1950416564941406,
                        -1.5952619314193726,
                        0.009031828492879868,
                        -0.36306607723236084,
                        0.3188554346561432,
                        0.3660928010940552,
                        -0.04659479111433029,
                        0.06180368736386299,
                        0.4400239884853363,
                        0.019206833094358444,
                        -0.22589632868766785,
                        0.24736261367797852,
                        0.015034234151244164,
                        -0.026197925209999084,
                        -0.4344465434551239,
                        0.11311401426792145,
                        0.13730409741401672,
                        -8.057308878051117e-05,
                        0.6642758250236511,
                        0.09606479108333588,
                        1.4324421882629395,
                        1.4668761491775513,
                        0.023211076855659485,
                        0.4492410123348236,
                        0.03459421917796135,
                        -0.07367853075265884,
                        0.2269388735294342,
                        0.01188816037029028,
                        0.15201817452907562,
                        0.44987303018569946,
                        0.4169979691505432,
                        0.5186417698860168,
                        0.04032738506793976,
                        0.21976040303707123,
                        0.43648266792297363,
                        0.285521000623703,
                        0.27121907472610474,
                        -0.08120474219322205,
                        -0.3510996997356415,
                        0.05789043754339218,
                        -0.30817049741744995,
                        0.1863768845796585,
                        -0.0130690336227417,
                        -0.12480727583169937,
                        -0.13067281246185303,
                        -0.32013410329818726,
                        0.33726757764816284,
                        -0.0851709395647049,
                        0.30855581164360046,
                        0.2593143582344055,
                        0.26195111870765686,
                        0.2727572023868561,
                        -0.0027150833047926426,
                        -0.025240475311875343,
                        -0.05488525331020355,
                        0.10148896276950836,
                        -0.32414716482162476,
                        -0.087178535759449,
                        0.3460571765899658,
                        0.0432264618575573,
                        0.4807617962360382,
                        0.22860220074653625,
                        0.008423720486462116,
                        0.1759539544582367,
                        0.013546737842261791,
                        0.45656001567840576,
                        0.21320989727973938,
                        0.07456649839878082,
                        0.4849412739276886,
                        0.30364635586738586,
                        -0.06670640408992767,
                        0.4817855954170227,
                        0.01681683026254177,
                        -0.05072338506579399,
                        0.011942237615585327,
                        0.739096999168396,
                        0.3421800434589386,
                        0.04021154344081879
                    ],
                    [
                        -0.003983337432146072,
                        -0.016193168237805367,
                        -0.0035129282623529434,
                        0.0008870895253494382,
                        0.001455821329727769,
                        0.008590739220380783,
                        0.021400008350610733,
                        0.04053298383951187,
                        -0.018388569355010986,
                        0.012394228018820286,
                        0.018257685005664825,
                        -0.013455486856400967,
                        0.026717958971858025,
                        0.05378738045692444,
                        0.006709388457238674,
                        0.005010384134948254,
                        -0.029321711510419846,
                        0.03971034660935402,
                        0.029613295570015907,
                        -0.016600145027041435,
                        -0.028213998302817345,
                        0.0067273275926709175,
                        -0.01747397892177105,
                        0.006958142388612032,
                        0.0029839864000678062,
                        0.014606316573917866,
                        -0.023219816386699677,
                        0.0400102362036705,
                        0.0006476425332948565,
                        0.02501704730093479,
                        0.0689070075750351,
                        0.014580135233700275,
                        -0.012194882147014141,
                        0.047747138887643814,
                        0.009043981321156025,
                        0.00977612379938364,
                        0.00424914201721549,
                        0.05129702389240265,
                        0.039315853267908096,
                        -0.04226227477192879,
                        -0.01608929969370365,
                        0.09835734218358994,
                        -0.03509969264268875,
                        0.04345719516277313,
                        -0.026666060090065002,
                        0.03842070326209068,
                        -0.031039193272590637,
                        0.06652150303125381,
                        -0.19493843615055084,
                        -0.02446528524160385,
                        0.03386962413787842,
                        -0.03602119907736778,
                        -0.044215112924575806,
                        0.006483323406428099,
                        0.04945117235183716,
                        -0.009164094924926758,
                        -0.05835288390517235,
                        0.040436308830976486,
                        -0.022174283862113953,
                        0.10619224607944489,
                        -0.025195876136422157,
                        0.027920974418520927,
                        0.013199476525187492,
                        -0.06930042803287506,
                        0.0018205945380032063,
                        0.05680657550692558,
                        0.012298901565372944,
                        0.019864797592163086,
                        0.07349971681833267,
                        0.02578888088464737,
                        0.013259747996926308,
                        0.008058502338826656,
                        -0.00644444115459919,
                        0.0640011578798294,
                        0.007398784160614014,
                        -0.002222619019448757,
                        -0.033863361924886703,
                        0.035484444350004196,
                        -0.009028207510709763,
                        -0.01642594113945961
                    ],
                    [
                        0.30460071563720703,
                        0.37605413794517517,
                        -0.06040038913488388,
                        -0.3081305921077728,
                        0.013807263225317001,
                        0.24087318778038025,
                        -0.027600012719631195,
                        -0.08963701128959656,
                        0.005078426096588373,
                        -0.0004278837877791375,
                        0.01121398527175188,
                        -0.3038930296897888,
                        0.17181135714054108,
                        -0.10182437300682068,
                        0.018616994842886925,
                        0.02768009528517723,
                        0.25887414813041687,
                        -0.024047844111919403,
                        -0.07593881338834763,
                        0.11217346042394638,
                        0.23837116360664368,
                        0.2871166169643402,
                        -0.04781745746731758,
                        -0.044373948127031326,
                        0.014700610190629959,
                        0.2945510149002075,
                        0.05468149483203888,
                        -0.1133899986743927,
                        -0.05512113496661186,
                        -0.05291486158967018,
                        -0.13525277376174927,
                        -0.28518614172935486,
                        0.15927517414093018,
                        -0.07599227130413055,
                        0.023400723934173584,
                        0.18503597378730774,
                        -0.1393197476863861,
                        -0.056952446699142456,
                        0.178606316447258,
                        -0.015314606949687004,
                        -0.0922875702381134,
                        0.3189636766910553,
                        0.32548484206199646,
                        -0.29591336846351624,
                        0.021137777715921402,
                        0.2924536168575287,
                        -0.2288406491279602,
                        -0.08579138666391373,
                        -0.06122533977031708,
                        -0.22359582781791687,
                        -0.10443149507045746,
                        -0.06177721917629242,
                        0.07013530284166336,
                        -0.021618640050292015,
                        -0.0410560667514801,
                        0.1277092695236206,
                        0.2554798424243927,
                        0.02898426726460457,
                        0.054201364517211914,
                        -0.09745658189058304,
                        0.023764820769429207,
                        0.2886137068271637,
                        0.007838288322091103,
                        0.036298967897892,
                        0.01331038773059845,
                        0.1529037356376648,
                        -0.1460144817829132,
                        0.20604641735553741,
                        0.03296617791056633,
                        -0.017266593873500824,
                        0.029363397508859634,
                        -0.0682709589600563,
                        -0.15565122663974762,
                        0.06302666664123535,
                        0.01681489497423172,
                        0.13221760094165802,
                        0.08320486545562744,
                        0.007014836650341749,
                        -0.019700925797224045,
                        0.09408104419708252
                    ],
                    [
                        -0.23408445715904236,
                        0.05743064358830452,
                        0.6080964803695679,
                        0.2448020577430725,
                        0.007245346438139677,
                        -0.11253798753023148,
                        0.07827441394329071,
                        0.3729638457298279,
                        -0.044176556169986725,
                        -0.06479797512292862,
                        -0.037399839609861374,
                        0.20860451459884644,
                        -0.12440603971481323,
                        -0.01794670894742012,
                        0.005030918400734663,
                        -0.1020011305809021,
                        -0.10433634370565414,
                        -0.016902336850762367,
                        -0.24297429621219635,
                        -0.16084128618240356,
                        -0.10532539337873459,
                        -0.13317154347896576,
                        -0.11531995981931686,
                        0.01101662963628769,
                        0.009498722851276398,
                        0.27329736948013306,
                        0.034869998693466187,
                        1.1469089984893799,
                        -0.0015825829468667507,
                        -0.24965912103652954,
                        -0.07426351308822632,
                        -0.12000300735235214,
                        -0.037381500005722046,
                        -0.11221886426210403,
                        0.008821751922369003,
                        -0.14872246980667114,
                        0.288648784160614,
                        -0.028246108442544937,
                        -0.6831045150756836,
                        0.009873415343463421,
                        -0.7008572220802307,
                        0.25353512167930603,
                        -0.30111610889434814,
                        -0.07746621966362,
                        0.0016340893926098943,
                        0.026406843215227127,
                        0.24570301175117493,
                        0.1721135973930359,
                        0.05596640706062317,
                        -0.1183612048625946,
                        -0.08791697770357132,
                        0.5677817463874817,
                        0.20738914608955383,
                        -0.014513022266328335,
                        -0.0087965726852417,
                        -0.21875731647014618,
                        0.620775043964386,
                        -0.07964029908180237,
                        0.0711003914475441,
                        -0.1917572170495987,
                        -0.1975235790014267,
                        0.026780160143971443,
                        0.2137792408466339,
                        -0.19445547461509705,
                        0.007053394801914692,
                        -0.12055947631597519,
                        0.6127740740776062,
                        0.21590185165405273,
                        0.29905229806900024,
                        -0.07912100106477737,
                        -0.05078418180346489,
                        0.18446259200572968,
                        0.32926037907600403,
                        -0.006112531293183565,
                        0.007736206520348787,
                        -0.15441443026065826,
                        -0.34596389532089233,
                        -0.07957214117050171,
                        0.08844899386167526,
                        -0.15951353311538696
                    ],
                    [
                        -0.7567942142486572,
                        -0.12147510796785355,
                        -1.2298964262008667,
                        -1.616371512413025,
                        0.011296271346509457,
                        -0.5008812546730042,
                        0.3260914087295532,
                        0.3802683651447296,
                        0.02809618040919304,
                        0.083238884806633,
                        0.49698400497436523,
                        -0.1487775295972824,
                        -0.1711825728416443,
                        0.10094080865383148,
                        0.01844117045402527,
                        -0.026607027277350426,
                        -0.3461279571056366,
                        0.21200145781040192,
                        0.08865330368280411,
                        0.053976695984601974,
                        1.0703448057174683,
                        0.10649099946022034,
                        1.3683483600616455,
                        1.5481330156326294,
                        0.026065992191433907,
                        0.28469282388687134,
                        0.044518258422613144,
                        0.023117562755942345,
                        0.34050169587135315,
                        0.02680167928338051,
                        0.16129735112190247,
                        0.3606482446193695,
                        0.6238569617271423,
                        0.4654830992221832,
                        0.045020684599876404,
                        0.2579297125339508,
                        0.5774736404418945,
                        0.4035656452178955,
                        0.4747186601161957,
                        -0.013902169652283192,
                        -0.10743386298418045,
                        -0.16091956198215485,
                        0.2643812894821167,
                        0.02994035929441452,
                        -0.0203312486410141,
                        -0.34798744320869446,
                        -0.2121535986661911,
                        -0.40762007236480713,
                        0.3704540431499481,
                        -0.24185578525066376,
                        0.36788997054100037,
                        0.39424216747283936,
                        0.3222532272338867,
                        0.45201849937438965,
                        0.025370720773935318,
                        0.05856874957680702,
                        -0.1486031711101532,
                        0.33096426725387573,
                        -0.404083251953125,
                        -0.08843369036912918,
                        0.3450532853603363,
                        0.06293569505214691,
                        0.38481104373931885,
                        0.3037099242210388,
                        0.010726130567491055,
                        0.05808423087000847,
                        -0.009748284704983234,
                        0.4800209701061249,
                        0.34889906644821167,
                        0.09152530878782272,
                        0.5499629378318787,
                        0.28286826610565186,
                        0.14743535220623016,
                        0.6997743248939514,
                        0.020132748410105705,
                        -0.09492157399654388,
                        0.0458892397582531,
                        0.8392806053161621,
                        0.4459226131439209,
                        0.10119590908288956
                    ],
                    [
                        0.5579376220703125,
                        0.025078024715185165,
                        0.8139820694923401,
                        0.7026167511940002,
                        -0.01964215748012066,
                        0.011629738844931126,
                        -0.22488677501678467,
                        -0.2762221395969391,
                        0.06867706030607224,
                        -0.06211675703525543,
                        -0.31984278559684753,
                        0.6955658793449402,
                        -0.17954882979393005,
                        0.08214745670557022,
                        -0.0447712279856205,
                        -0.013485951349139214,
                        -0.17298853397369385,
                        -0.06888964772224426,
                        -0.5185486078262329,
                        -0.016434581950306892,
                        -0.7767928242683411,
                        -0.19168873131275177,
                        -1.456663727760315,
                        -1.0870481729507446,
                        -0.030797112733125687,
                        -0.20095983147621155,
                        -0.14436554908752441,
                        -0.13347400724887848,
                        -0.11213168501853943,
                        -0.0510464645922184,
                        -0.4122264087200165,
                        0.2817971706390381,
                        -0.08714291453361511,
                        -0.31726914644241333,
                        -0.060263197869062424,
                        -0.2387802004814148,
                        -0.7486993670463562,
                        -0.31783604621887207,
                        -0.768683671951294,
                        0.12566398084163666,
                        0.04051973670721054,
                        -0.09489906579256058,
                        0.02132531628012657,
                        -0.07242899388074875,
                        0.013613167218863964,
                        0.5018207430839539,
                        -0.171892449259758,
                        -0.03584224730730057,
                        -0.18298082053661346,
                        0.04614446312189102,
                        -0.010468223132193089,
                        0.057576850056648254,
                        -0.049726203083992004,
                        -0.04430742934346199,
                        -0.02192128822207451,
                        0.019392801448702812,
                        0.27812719345092773,
                        -0.29847943782806396,
                        0.31338727474212646,
                        0.0454372800886631,
                        -0.18365445733070374,
                        -0.18534666299819946,
                        -0.3411537706851959,
                        -0.3867547810077667,
                        -0.021410562098026276,
                        -0.14756181836128235,
                        -0.6833947896957397,
                        -0.2912030518054962,
                        -0.08650071173906326,
                        -0.09356120973825455,
                        -0.4053235948085785,
                        0.17087531089782715,
                        -0.29171431064605713,
                        -0.19646669924259186,
                        -0.04967517778277397,
                        0.08267218619585037,
                        -0.08063624054193497,
                        -0.37108346819877625,
                        -0.4236995577812195,
                        -0.07318161427974701
                    ],
                    [
                        0.3244576156139374,
                        -0.1994795948266983,
                        0.08524412661790848,
                        -0.8936625123023987,
                        0.0057067242451012135,
                        -0.8959962129592896,
                        0.07946563512086868,
                        -0.044990502297878265,
                        0.004996725358068943,
                        -0.015070119872689247,
                        0.17295922338962555,
                        -0.20955869555473328,
                        -0.2052893340587616,
                        0.1014789342880249,
                        0.009419659152626991,
                        -0.0158762875944376,
                        -0.09853674471378326,
                        0.13028082251548767,
                        -0.2657838463783264,
                        -0.002981427125632763,
                        0.33526936173439026,
                        0.018005724996328354,
                        -0.41730430722236633,
                        0.1142800822854042,
                        0.010791463777422905,
                        0.041740622371435165,
                        0.13383032381534576,
                        0.18572944402694702,
                        -0.0024994323030114174,
                        0.020285749807953835,
                        0.6540675759315491,
                        -0.09878528118133545,
                        0.08513079583644867,
                        -4.7383142373291776e-05,
                        0.02154352515935898,
                        -0.14532484114170074,
                        0.0018584986682981253,
                        0.08643799275159836,
                        -0.37765246629714966,
                        -0.004266161471605301,
                        0.05872301757335663,
                        -0.5027292966842651,
                        0.26357659697532654,
                        0.21396036446094513,
                        0.038344092667102814,
                        -0.20133158564567566,
                        -0.46344417333602905,
                        0.42686739563941956,
                        -0.1875060796737671,
                        0.13955546915531158,
                        0.09762236475944519,
                        0.03363300487399101,
                        0.20821134746074677,
                        0.11140932887792587,
                        -0.042605482041835785,
                        0.44395139813423157,
                        0.3865806460380554,
                        0.12828227877616882,
                        0.03534247726202011,
                        0.3078608214855194,
                        0.19276735186576843,
                        -0.21674375236034393,
                        0.21553342044353485,
                        -0.04685332253575325,
                        0.0029438300989568233,
                        -0.3832453787326813,
                        -0.26403990387916565,
                        0.370860755443573,
                        0.023642539978027344,
                        0.011986680328845978,
                        0.1136961281299591,
                        0.29821205139160156,
                        -0.017523624002933502,
                        0.08606322854757309,
                        0.0017702736658975482,
                        -0.10699103027582169,
                        0.050251998007297516,
                        0.12633946537971497,
                        -0.17750348150730133,
                        -0.02806949056684971
                    ]
                ],
                [
                    -1.101550579071045,
                    -0.12353917211294174,
                    -2.371279001235962,
                    -1.9119739532470703,
                    0.024417994543910027,
                    -0.717866063117981,
                    0.593634843826294,
                    0.6820544600486755,
                    0.026971299201250076,
                    0.14411813020706177,
                    1.193454384803772,
                    -0.7296900749206543,
                    -0.2988443374633789,
                    -1.0930145978927612,
                    0.04073888808488846,
                    -0.08119107037782669,
                    -1.0348154306411743,
                    -0.7904006242752075,
                    -0.19905529916286469,
                    0.200239896774292,
                    2.228999614715576,
                    0.26650530099868774,
                    2.3337409496307373,
                    2.606437921524048,
                    0.05419043079018593,
                    0.8549139499664307,
                    -0.06639590859413147,
                    -0.46560487151145935,
                    0.6840577125549316,
                    0.044980913400650024,
                    0.08428199589252472,
                    0.8360490798950195,
                    1.4034998416900635,
                    0.8825101852416992,
                    0.09391935914754868,
                    0.5123147368431091,
                    0.8742449283599854,
                    1.0379542112350464,
                    0.4313845634460449,
                    -0.005985962226986885,
                    0.48619240522384644,
                    0.3233743906021118,
                    0.1862284243106842,
                    -1.066795825958252,
                    -0.02729617804288864,
                    0.25686317682266235,
                    -0.06865917146205902,
                    -0.013849327340722084,
                    -0.3853243291378021,
                    -0.0369848869740963,
                    0.49025046825408936,
                    0.2283792793750763,
                    0.19521062076091766,
                    -0.12908773124217987,
                    0.048653729259967804,
                    0.127404123544693,
                    -0.09699548780918121,
                    0.2910851240158081,
                    -0.34265828132629395,
                    0.10135913640260696,
                    0.9090021848678589,
                    0.22841764986515045,
                    0.6215780377388,
                    1.1095044612884521,
                    0.02298497036099434,
                    0.31918591260910034,
                    -0.21030274033546448,
                    0.6162539720535278,
                    0.38831445574760437,
                    0.14002977311611176,
                    1.3274741172790527,
                    0.4298211634159088,
                    0.21253091096878052,
                    0.9685964584350586,
                    0.042982716113328934,
                    -0.20172925293445587,
                    -0.06582082808017731,
                    0.8352372646331787,
                    0.5952836871147156,
                    0.30876070261001587
                ]
            ]
        },
        {
            "type": "dense",
            "activation": "",
            "shape": [
                null,
                null,
                1
            ],
            "weights": [
                [
                    [
                        -0.5676011443138123
                    ],
                    [
                        -0.3224083483219147
                    ],
                    [
                        0.5621502995491028
                    ],
                    [
                        0.07885395735502243
                    ],
                    [
                        -0.021021582186222076
                    ],
                    [
                        -0.1168932244181633
                    ],
                    [
                        0.06083979457616806
                    ],
                    [
                        0.01169779896736145
                    ],
                    [
                        -0.02684563770890236
                    ],
                    [
                        0.17374823987483978
                    ],
                    [
                        -0.05958642065525055
                    ],
                    [
                        0.1349358856678009
                    ],
                    [
                        -0.40607133507728577
                    ],
                    [
                        -0.02826940454542637
                    ],
                    [
                        0.03326583281159401
                    ],
                    [
                        -0.1655738651752472
                    ],
                    [
                        0.09769979864358902
                    ],
                    [
                        -0.019696781411767006
                    ],
                    [
                        0.2846871316432953
                    ],
                    [
                        -0.16093027591705322
                    ]
                ],
                [
                    -0.07325530797243118
                ]
            ]
        }
    ]
}