{
    "in_shape": [
        null,
        null,
        1
    ],
    "out_gain": -2,
    "layers": [
        {
            "type": "lstm",
            "activation": "",
            "shape": [
                null,
                null,
                20
            ],
            "weights": [
                [
                    [
                        0.07479821145534515,
                        0.12043897062540054,
                        0.5410745739936829,
                        0.18299727141857147,
                        0.005562812555581331,
                        -0.14033931493759155,
                        -0.25687316060066223,
                        -0.36924824118614197,
                        0.025199655443429947,
                        0.06603328138589859,
                        -0.15481631457805634,
                        0.0434979647397995,
                        -0.29838404059410095,
                        -0.18996673822402954,
                        -0.11357288062572479,
                        -0.2309020459651947,
                        -0.0977889895439148,
                        0.17298437654972076,
                        0.09437382966279984,
                        0.04564107954502106,
                        0.21098588407039642,
                        0.22228007018566132,
                        0.44382020831108093,
                        0.04257241636514664,
                        0.1668500304222107,
                        -0.46065986156463623,
                        0.20316392183303833,
                        -0.34555983543395996,
                        0.10309053212404251,
                        0.3320634961128235,
                        -0.08231407403945923,
                        0.15512830018997192,
                        0.1680135726928711,
                        -0.3830645978450775,
                        0.0037693774793297052,
                        0.07172335684299469,
                        -0.21991141140460968,
                        0.03011188842356205,
                        0.1695062816143036,
                        0.25553208589553833,
                        -0.1352250576019287,
                        -0.2544003427028656,
                        0.8104415535926819,
                        -0.04198020324110985,
                        -0.2684720456600189,
                        -0.6819671392440796,
                        0.25823184847831726,
                        0.7778953313827515,
                        0.13855551183223724,
                        0.5417651534080505,
                        -1.6580736637115479,
                        -0.11657635867595673,
                        -0.6984675526618958,
                        0.3358117341995239,
                        0.18689434230327606,
                        -0.9614542126655579,
                        -0.41616979241371155,
                        0.10868160426616669,
                        -1.6757415533065796,
                        2.625368595123291,
                        0.016118507832288742,
                        0.3213936984539032,
                        0.4642319083213806,
                        0.11094412207603455,
                        -0.14262807369232178,
                        0.6785604953765869,
                        -0.10508736968040466,
                        -0.11871664226055145,
                        -0.002861202461645007,
                        0.034966614097356796,
                        -0.056722041219472885,
                        -0.030754484236240387,
                        -0.033914800733327866,
                        -0.18964464962482452,
                        -0.12879137694835663,
                        -0.41864967346191406,
                        -0.060152698308229446,
                        0.06712641566991806,
                        0.3064172565937042,
                        -0.025136707350611687
                    ]
                ],
                [
                    [
                        -0.007091045379638672,
                        -0.0494459830224514,
                        -0.03925155848264694,
                        0.2210630476474762,
                        -0.09697575867176056,
                        -0.2170080989599228,
                        -0.058967962861061096,
                        -0.14016832411289215,
                        -0.0025462156627327204,
                        -0.03831440582871437,
                        0.024026604369282722,
                        -0.21109122037887573,
                        0.4099704623222351,
                        -0.17723838984966278,
                        -0.7360028624534607,
                        -0.15636132657527924,
                        0.19143766164779663,
                        0.17039082944393158,
                        0.18858805298805237,
                        -0.0376327708363533,
                        0.1289416402578354,
                        0.19581462442874908,
                        0.09193960577249527,
                        -0.16975106298923492,
                        0.07411166280508041,
                        0.03144211322069168,
                        0.14415307343006134,
                        0.3656837046146393,
                        -0.23128440976142883,
                        0.03258076310157776,
                        -0.27167028188705444,
                        -0.1762758195400238,
                        0.8071157932281494,
                        0.05303860083222389,
                        -0.45030543208122253,
                        -0.44401097297668457,
                        -0.1842987835407257,
                        0.06275267153978348,
                        -0.04852864146232605,
                        -0.23213951289653778,
                        0.09606842696666718,
                        0.32921895384788513,
                        0.15871429443359375,
                        0.2313535511493683,
                        0.08164350688457489,
                        0.08497902750968933,
                        -0.12701041996479034,
                        -0.08686221390962601,
                        0.4926097095012665,
                        -0.17323364317417145,
                        -0.1292414665222168,
                        -0.46550947427749634,
                        -0.25229889154434204,
                        0.07407866418361664,
                        -1.2154035568237305,
                        -0.3336627185344696,
                        -0.2869059145450592,
                        -0.0077585261315107346,
                        -0.06373060494661331,
                        -0.07280800491571426,
                        0.4227530360221863,
                        0.22591692209243774,
                        0.036501601338386536,
                        -0.04133427143096924,
                        0.22188974916934967,
                        -0.28334417939186096,
                        0.4888574182987213,
                        -0.015708662569522858,
                        -0.33822333812713623,
                        -0.05221604183316231,
                        -0.22383162379264832,
                        0.3099975883960724,
                        -0.006555511150509119,
                        0.01317785494029522,
                        -0.7049740552902222,
                        0.18131132423877716,
                        0.09428015351295471,
                        -0.004679922014474869,
                        0.16454584896564484,
                        0.014162055216729641
                    ],
                    [
                        0.43619731068611145,
                        0.05009002238512039,
                        0.12402932345867157,
                        0.05445012450218201,
                        0.036764007061719894,
                        0.09586472064256668,
                        0.5608916878700256,
                        0.33709195256233215,
                        -0.3948931097984314,
                        -0.1198447048664093,
                        -0.0034900554455816746,
                        0.31520509719848633,
                        0.19733700156211853,
                        -0.03806343302130699,
                        -0.21333952248096466,
                        0.07818666100502014,
                        -0.09025155007839203,
                        0.19528153538703918,
                        -0.37897801399230957,
                        -0.28491896390914917,
                        -0.15714766085147858,
                        0.007509999442845583,
                        -0.15066935122013092,
                        -0.17845049500465393,
                        -0.4698365032672882,
                        0.0979406088590622,
                        -0.7464139461517334,
                        -0.7152930498123169,
                        -0.4501907229423523,
                        -0.3532705008983612,
                        -0.2914952337741852,
                        -0.09363648295402527,
                        -0.7446046471595764,
                        0.15557751059532166,
                        0.10424678772687912,
                        -0.023332329466938972,
                        0.20738168060779572,
                        -0.1848783791065216,
                        0.09495502710342407,
                        -0.16236084699630737,
                        0.08691480755805969,
                        0.3155573606491089,
                        -0.18453286588191986,
                        0.04009510576725006,
                        0.221867635846138,
                        0.1932675987482071,
                        0.09350045770406723,
                        -0.02733626402914524,
                        1.3530734777450562,
                        0.029930906370282173,
                        -0.015802418813109398,
                        0.35041120648384094,
                        -0.006909197196364403,
                        -0.1114361435174942,
                        0.1141684278845787,
                        -0.07136976718902588,
                        -0.08027616888284683,
                        0.29210788011550903,
                        -0.06486447900533676,
                        0.0036453623324632645,
                        0.34113550186157227,
                        -0.17925146222114563,
                        -0.011112101376056671,
                        -0.11993938684463501,
                        0.20645365118980408,
                        -0.04143967851996422,
                        -0.2737621068954468,
                        -0.21589776873588562,
                        0.19636313617229462,
                        -0.23306626081466675,
                        -0.09582286328077316,
                        -0.30307427048683167,
                        -0.01610732078552246,
                        -0.23569375276565552,
                        -0.03906809166073799,
                        -0.10391038656234741,
                        -0.1205778419971466,
                        0.08292614668607712,
                        0.009599337354302406,
                        -0.3422432839870453
                    ],
                    [
                        -0.18114876747131348,
                        0.05500378832221031,
                        0.10905654728412628,
                        -0.12747810781002045,
                        -0.026883834972977638,
                        0.04020041599869728,
                        0.05491522699594498,
                        0.6421139240264893,
                        -0.05576881021261215,
                        0.19205397367477417,
                        -0.009489522315561771,
                        -0.13013514876365662,
                        0.232801616191864,
                        0.17310850322246552,
                        -0.08126243948936462,
                        -0.07699739187955856,
                        0.39506039023399353,
                        -0.07913874834775925,
                        0.013043832033872604,
                        -0.01764814369380474,
                        -0.09083443135023117,
                        -0.04589268937706947,
                        0.34506237506866455,
                        -0.5275242328643799,
                        -0.1937893033027649,
                        -0.2506004571914673,
                        0.0767979696393013,
                        -0.1900387406349182,
                        -0.08589671552181244,
                        0.22122515738010406,
                        -0.08320433646440506,
                        -0.11848490685224533,
                        0.32231467962265015,
                        0.044139597564935684,
                        -0.1015438660979271,
                        -0.1811078041791916,
                        0.36726897954940796,
                        -0.12213422358036041,
                        -0.0950988307595253,
                        -0.4725836515426636,
                        0.0363810695707798,
                        -0.003912178799510002,
                        -0.12205767631530762,
                        0.18620283901691437,
                        0.03338918089866638,
                        -0.35410574078559875,
                        -0.14962445199489594,
                        0.2950337827205658,
                        0.09640597552061081,
                        0.022011900320649147,
                        0.43699702620506287,
                        0.09196434915065765,
                        0.30780714750289917,
                        0.3941143751144409,
                        0.11094564944505692,
                        0.5977552533149719,
                        0.06364143639802933,
                        0.17593532800674438,
                        -0.387146919965744,
                        -0.0934620350599289,
                        -0.050178125500679016,
                        -0.024530308321118355,
                        0.2672061324119568,
                        -0.08651022613048553,
                        -0.09028584510087967,
                        -0.003445030888542533,
                        0.16960592567920685,
                        0.1088213250041008,
                        -0.054530635476112366,
                        0.08727799355983734,
                        0.024604348465800285,
                        0.020738128572702408,
                        0.30832189321517944,
                        0.056388817727565765,
                        -0.0869564414024353,
                        0.030908118933439255,
                        0.3244136571884155,
                        -0.014413997530937195,
                        -0.17440588772296906,
                        0.045951735228300095
                    ],
                    [
                        -0.09868934750556946,
                        -0.34357669949531555,
                        0.11692413687705994,
                        -0.16120292246341705,
                        0.19633369147777557,
                        0.24052628874778748,
                        -0.1359991729259491,
                        0.34483540058135986,
                        -0.07863454520702362,
                        -0.10135459899902344,
                        -0.126080721616745,
                        0.19547860324382782,
                        -0.0540056973695755,
                        0.18126048147678375,
                        -0.007502722088247538,
                        0.308228462934494,
                        -0.002609910210594535,
                        -0.05622774362564087,
                        -0.06057528778910637,
                        -0.21080191433429718,
                        -0.15161223709583282,
                        -0.36086079478263855,
                        0.03153116628527641,
                        -0.06409858912229538,
                        0.13765904307365417,
                        -0.0710948184132576,
                        -0.013978119008243084,
                        -0.38543757796287537,
                        -0.4103667438030243,
                        -0.4424426853656769,
                        -0.3075562119483948,
                        0.1353054791688919,
                        -0.5765549540519714,
                        0.10006530582904816,
                        -0.05960318073630333,
                        -0.3155744969844818,
                        0.10373935103416443,
                        0.2471606582403183,
                        -0.3959369659423828,
                        -0.4728134274482727,
                        -0.3056302070617676,
                        -0.2639785706996918,
                        0.17377418279647827,
                        0.08702192455530167,
                        0.11021977663040161,
                        -0.15657708048820496,
                        -0.1596217155456543,
                        0.08593065291643143,
                        -0.4182538092136383,
                        0.3608595132827759,
                        0.9277824759483337,
                        -0.06192247197031975,
                        -0.12897542119026184,
                        -0.32342955470085144,
                        -0.05608896538615227,
                        -0.16068272292613983,
                        -0.057986196130514145,
                        0.2536349892616272,
                        -0.3941459357738495,
                        0.20998044312000275,
                        0.12661007046699524,
                        0.2157251238822937,
                        0.07717634737491608,
                        -0.01946028508245945,
                        -0.34730154275894165,
                        0.0358482263982296,
                        -0.4850894510746002,
                        -0.4281027317047119,
                        -0.5670484304428101,
                        -0.0574931837618351,
                        0.1301124095916748,
                        -0.44252070784568787,
                        -0.532221794128418,
                        0.12289805710315704,
                        -0.04585268720984459,
                        -0.24950836598873138,
                        -0.03718533739447594,
                        0.09220483154058456,
                        -0.235563263297081,
                        -0.1805475652217865
                    ],
                    [
                        0.011439169757068157,
                        0.32606780529022217,
                        -0.00488619739189744,
                        0.07089671492576599,
                        0.3017956018447876,
                        0.12749893963336945,
                        0.5534215569496155,
                        0.825508177280426,
                        -0.20203626155853271,
                        0.11125810444355011,
                        -0.11836115270853043,
                        0.29481860995292664,
                        0.5872763991355896,
                        -0.15452565252780914,
                        0.07619218528270721,
                        0.13856883347034454,
                        0.13953039050102234,
                        0.3149857223033905,
                        -0.06998781114816666,
                        -0.05720948800444603,
                        -0.20494626462459564,
                        0.06736934930086136,
                        -0.13498958945274353,
                        -0.2411266714334488,
                        0.11560830473899841,
                        0.2251126915216446,
                        -0.4730963110923767,
                        -0.41396886110305786,
                        0.04759957268834114,
                        0.16118255257606506,
                        0.2568766474723816,
                        -0.3763138949871063,
                        -0.6628974676132202,
                        -0.14246626198291779,
                        0.15402354300022125,
                        0.3500373959541321,
                        0.14514674246311188,
                        -0.16664546728134155,
                        -0.05637814477086067,
                        -0.14289389550685883,
                        0.2405776083469391,
                        -0.4148479104042053,
                        -0.19414450228214264,
                        0.05975070968270302,
                        0.023364173248410225,
                        -0.14117588102817535,
                        -0.13195809721946716,
                        0.16541850566864014,
                        -0.7281986474990845,
                        0.3640753924846649,
                        0.331610769033432,
                        -0.4667079448699951,
                        -0.329142302274704,
                        -0.6172929406166077,
                        0.5156256556510925,
                        0.26986390352249146,
                        0.02038712054491043,
                        -0.19903768599033356,
                        -0.3439738154411316,
                        0.03970242664217949,
                        -0.03542834520339966,
                        0.415526419878006,
                        -0.12173478305339813,
                        -0.06271262466907501,
                        -0.10598920285701752,
                        0.08922726660966873,
                        -0.07563227415084839,
                        0.1538717895746231,
                        0.36500510573387146,
                        -0.0730321928858757,
                        -0.07586422562599182,
                        0.45844966173171997,
                        -0.3580057919025421,
                        -0.14630313217639923,
                        -0.04940764605998993,
                        0.35177528858184814,
                        0.1546710580587387,
                        -0.14561335742473602,
                        -0.3929316997528076,
                        -0.12900497019290924
                    ],
                    [
                        -0.2591460049152374,
                        -0.1316886991262436,
                        0.06905708461999893,
                        0.1394246220588684,
                        -0.17204499244689941,
                        0.3010573387145996,
                        -0.9221365451812744,
                        -1.3683193922042847,
                        0.5458505153656006,
                        0.3772161602973938,
                        0.11029442399740219,
                        -0.505111038684845,
                        -0.5057434439659119,
                        -0.0854417234659195,
                        0.3048396110534668,
                        0.17985965311527252,
                        -0.12403342872858047,
                        -0.06875907629728317,
                        0.18947730958461761,
                        0.5518959760665894,
                        0.09894748032093048,
                        0.2493874728679657,
                        0.0983535572886467,
                        0.5649191737174988,
                        0.20248053967952728,
                        0.15099361538887024,
                        0.9849011301994324,
                        1.4275641441345215,
                        0.07186247408390045,
                        0.18585219979286194,
                        -0.07347334176301956,
                        0.3674372732639313,
                        0.6107174158096313,
                        -0.18130196630954742,
                        -0.09871188551187515,
                        -0.01264012698084116,
                        -0.46884986758232117,
                        0.5134243965148926,
                        -0.10172144323587418,
                        0.4750029742717743,
                        -0.2717917263507843,
                        -0.35742419958114624,
                        0.22190390527248383,
                        0.014031090773642063,
                        -0.1577228307723999,
                        -0.09993032366037369,
                        -0.088431216776371,
                        -0.029875246807932854,
                        0.04394269362092018,
                        0.23003675043582916,
                        0.33214759826660156,
                        0.17993998527526855,
                        -0.032286494970321655,
                        -0.22574728727340698,
                        -0.069842629134655,
                        -0.20356711745262146,
                        -0.3353663980960846,
                        0.36887067556381226,
                        -0.14602404832839966,
                        -0.169011190533638,
                        0.20989643037319183,
                        0.13906246423721313,
                        -0.05808963626623154,
                        0.3187151849269867,
                        -0.03166576847434044,
                        0.7995197772979736,
                        0.28454485535621643,
                        0.6368393898010254,
                        -0.17483121156692505,
                        0.41138797998428345,
                        0.15044695138931274,
                        -0.08861737698316574,
                        0.07257913798093796,
                        0.05931420251727104,
                        0.2156747430562973,
                        0.22583986818790436,
                        0.005040506366640329,
                        0.18306182324886322,
                        0.12757916748523712,
                        0.6118555068969727
                    ],
                    [
                        -0.02768908441066742,
                        0.17329566180706024,
                        -0.04683470353484154,
                        0.06634052097797394,
                        -0.005440502427518368,
                        -0.15557903051376343,
                        0.2730242908000946,
                        -0.17527392506599426,
                        -0.18967221677303314,
                        -0.1072998046875,
                        0.3169986307621002,
                        0.21236950159072876,
                        0.5730273127555847,
                        0.10029999911785126,
                        -0.6071067452430725,
                        -0.03352951630949974,
                        0.17782028019428253,
                        -0.17983748018741608,
                        -0.11656056344509125,
                        -0.026925500482320786,
                        0.07336299866437912,
                        0.34215590357780457,
                        0.2947688102722168,
                        -0.44067105650901794,
                        -0.2919403314590454,
                        0.11754436790943146,
                        -0.2855173349380493,
                        0.04717420041561127,
                        0.0006559700123034418,
                        0.09108167141675949,
                        0.35250967741012573,
                        -0.061521198600530624,
                        -0.2556419372558594,
                        -0.16939400136470795,
                        -0.20383362472057343,
                        -0.18413613736629486,
                        0.23677273094654083,
                        -0.7838576436042786,
                        -0.0628850981593132,
                        0.3711789846420288,
                        0.6107528209686279,
                        -0.09608007967472076,
                        0.24734847247600555,
                        0.2202281355857849,
                        -0.05654798448085785,
                        0.0968175083398819,
                        0.48132213950157166,
                        0.47714778780937195,
                        -0.5247913002967834,
                        -0.010842015966773033,
                        0.017995253205299377,
                        0.5276041626930237,
                        0.2824751138687134,
                        -0.2763601839542389,
                        -0.1635141670703888,
                        -0.12530995905399323,
                        -0.5843837857246399,
                        0.4932975769042969,
                        -0.38949498534202576,
                        -0.18780632317066193,
                        -0.12806101143360138,
                        0.28921711444854736,
                        0.032850973308086395,
                        -0.14159661531448364,
                        -0.4434899389743805,
                        0.11098717153072357,
                        -0.3293612599372864,
                        -0.20983712375164032,
                        0.2705989181995392,
                        -0.14991982281208038,
                        -0.2892463207244873,
                        -0.4082357585430145,
                        -0.08895181119441986,
                        -0.015809016302227974,
                        -0.590877890586853,
                        -0.4094645082950592,
                        0.1244741827249527,
                        -0.3021013140678406,
                        0.34280088543891907,
                        -0.07509053498506546
                    ],
                    [
                        0.20182941854000092,
                        0.13377487659454346,
                        0.24155814945697784,
                        0.3171021342277527,
                        0.06598373502492905,
                        -0.2550646662712097,
                        0.3038271963596344,
                        0.3461633324623108,
                        -0.32973212003707886,
                        0.037369731813669205,
                        0.24238944053649902,
                        0.37003493309020996,
                        0.1633222997188568,
                        0.09340821206569672,
                        -0.35607290267944336,
                        -0.21066366136074066,
                        -0.04310670495033264,
                        0.4881345331668854,
                        0.059895843267440796,
                        -0.01956827938556671,
                        0.16475790739059448,
                        0.032408054918050766,
                        0.5365793108940125,
                        -0.09767740219831467,
                        -0.05338237062096596,
                        0.0035067263524979353,
                        -0.3783670663833618,
                        0.14988616108894348,
                        -0.04810604825615883,
                        0.11468537896871567,
                        0.1590890735387802,
                        -0.03444401174783707,
                        -0.49268221855163574,
                        -0.3087485432624817,
                        -0.008624088950455189,
                        0.0664369985461235,
                        0.03881613165140152,
                        0.032098595052957535,
                        0.4104178547859192,
                        0.1549299955368042,
                        0.0849405899643898,
                        0.22533027827739716,
                        0.12656117975711823,
                        -0.09086456894874573,
                        -0.25718018412590027,
                        0.3862904906272888,
                        -0.4022883176803589,
                        0.021037016063928604,
                        0.46017879247665405,
                        0.1834993064403534,
                        1.054965853691101,
                        -0.16693972051143646,
                        0.3495147228240967,
                        -0.35296329855918884,
                        -0.3282846510410309,
                        -0.6938609480857849,
                        0.2844821810722351,
                        -0.18244588375091553,
                        1.3465332984924316,
                        -1.8833024501800537,
                        -0.004511500708758831,
                        0.02489626221358776,
                        0.35723841190338135,
                        0.09827584028244019,
                        -0.03151225298643112,
                        0.35171011090278625,
                        -0.407715380191803,
                        -0.41533446311950684,
                        0.18982666730880737,
                        -0.05229368805885315,
                        0.031644098460674286,
                        -0.30309170484542847,
                        -0.2855982184410095,
                        -0.10884696990251541,
                        -0.3541397452354431,
                        -0.19292183220386505,
                        -0.13371771574020386,
                        0.017659733071923256,
                        1.1331958770751953,
                        -0.3902440369129181
                    ],
                    [
                        0.11660970747470856,
                        0.48690757155418396,
                        0.06625774502754211,
                        -0.06508039683103561,
                        -0.12177359312772751,
                        -0.16189654171466827,
                        0.03633858263492584,
                        -0.15685898065567017,
                        -0.07047281414270401,
                        0.1420971304178238,
                        0.18071088194847107,
                        0.00035573815694078803,
                        -0.09150376170873642,
                        -0.2393805831670761,
                        -0.284721702337265,
                        0.02827191911637783,
                        0.01574385166168213,
                        0.4045678973197937,
                        0.008015521802008152,
                        0.08083339035511017,
                        0.4743134379386902,
                        0.4031617045402527,
                        -0.011879663914442062,
                        -0.3714071810245514,
                        -0.3735233247280121,
                        -0.1524234563112259,
                        -0.392054945230484,
                        -0.015743974596261978,
                        -0.42006000876426697,
                        -0.11302444338798523,
                        -0.10642004758119583,
                        0.1316618025302887,
                        -0.6320990920066833,
                        -0.116958849132061,
                        -0.23241956532001495,
                        -0.11531070619821548,
                        0.0427715964615345,
                        -0.1559707671403885,
                        -0.06288836151361465,
                        0.008960828185081482,
                        0.3521817922592163,
                        -0.6139534711837769,
                        -0.11545920372009277,
                        -0.015189106576144695,
                        0.48751410841941833,
                        0.045110128819942474,
                        0.21573065221309662,
                        -0.015438826754689217,
                        0.8803154826164246,
                        0.023171689361333847,
                        -0.022793825715780258,
                        -0.3120662569999695,
                        0.3361961543560028,
                        0.1508275419473648,
                        0.09503331780433655,
                        0.06499273329973221,
                        0.033067796379327774,
                        0.44339409470558167,
                        0.016869043931365013,
                        -0.01777869276702404,
                        -0.5310121178627014,
                        -0.46183136105537415,
                        0.1584845781326294,
                        0.030643433332443237,
                        -0.4025948941707611,
                        -0.08515153080224991,
                        -0.11916408687829971,
                        -0.04286781698465347,
                        -0.21327434480190277,
                        -0.14617478847503662,
                        0.029117347672581673,
                        -0.06342557817697525,
                        0.13840371370315552,
                        -0.05142925679683685,
                        -0.37152814865112305,
                        -0.151203915476799,
                        -0.20582851767539978,
                        -0.28853464126586914,
                        0.18327100574970245,
                        -0.15264643728733063
                    ],
                    [
                        0.03307529538869858,
                        0.14800041913986206,
                        -0.1499626785516739,
                        -0.0563369058072567,
                        0.0358000285923481,
                        -0.2464672327041626,
                        0.4700353145599365,
                        -0.15941990911960602,
                        -0.13381412625312805,
                        0.09161481261253357,
                        -0.10578092932701111,
                        0.21893921494483948,
                        0.4919656813144684,
                        0.23606349527835846,
                        0.10834843665361404,
                        -0.3124794065952301,
                        0.32264184951782227,
                        -0.0699230283498764,
                        0.11559369415044785,
                        -0.037367407232522964,
                        -0.5018813610076904,
                        -0.2263307124376297,
                        0.09988481551408768,
                        -0.48207032680511475,
                        0.01059198658913374,
                        -0.0797206461429596,
                        -0.40689152479171753,
                        -0.1622544378042221,
                        -0.036479346454143524,
                        -0.06152942404150963,
                        -0.19909198582172394,
                        -0.22749167680740356,
                        -0.5200396776199341,
                        0.10678265243768692,
                        -0.12765371799468994,
                        -0.057531606405973434,
                        0.3460635840892792,
                        -0.10192518681287766,
                        -0.2853848338127136,
                        0.27335354685783386,
                        -0.41138526797294617,
                        -0.2914731800556183,
                        -0.2852745056152344,
                        0.003983197268098593,
                        0.09730920940637589,
                        0.02270513027906418,
                        -0.14387565851211548,
                        -0.11659803241491318,
                        -0.33120185136795044,
                        0.03134596347808838,
                        -0.6759504079818726,
                        -0.056408923119306564,
                        -0.11246291548013687,
                        0.6422669887542725,
                        1.5710030794143677,
                        -0.26398852467536926,
                        0.5796388983726501,
                        0.034530021250247955,
                        0.2600691020488739,
                        -0.03967903181910515,
                        -0.09198645502328873,
                        0.056483104825019836,
                        -0.024699373170733452,
                        0.14076976478099823,
                        -0.27793294191360474,
                        -0.36508339643478394,
                        -0.4129612445831299,
                        -0.19010306894779205,
                        -0.1754629909992218,
                        0.06758391112089157,
                        -0.1541433334350586,
                        0.02866804599761963,
                        0.16152022778987885,
                        0.28804919123649597,
                        0.11238955706357956,
                        0.04314957931637764,
                        0.2851196527481079,
                        0.1630207747220993,
                        0.376794695854187,
                        -0.12808652222156525
                    ],
                    [
                        0.1528429388999939,
                        0.1516624540090561,
                        -0.05607622489333153,
                        -0.4950391352176666,
                        -0.11330763250589371,
                        -0.30010613799095154,
                        -0.8085333704948425,
                        -0.17160801589488983,
                        0.16256079077720642,
                        0.05467894673347473,
                        0.4195000231266022,
                        -0.19294942915439606,
                        -0.5498314499855042,
                        0.34740129113197327,
                        0.050961047410964966,
                        -1.452532410621643,
                        0.14094248414039612,
                        -0.4241947531700134,
                        0.30326658487319946,
                        -0.25281134247779846,
                        0.16555272042751312,
                        -0.08916815370321274,
                        0.1204308345913887,
                        -0.3426496088504791,
                        0.2634445130825043,
                        -0.4906865954399109,
                        0.5029436349868774,
                        0.6291325688362122,
                        0.09409577399492264,
                        -0.21184484660625458,
                        -0.0059256525710225105,
                        0.32478249073028564,
                        0.12432094663381577,
                        0.14410226047039032,
                        -0.1485907882452011,
                        -0.548059344291687,
                        0.1563374400138855,
                        0.3114522397518158,
                        0.06316608935594559,
                        -0.45060691237449646,
                        -0.16348479688167572,
                        -0.04413270205259323,
                        -0.20407138764858246,
                        -0.6221372485160828,
                        -0.27901747822761536,
                        -0.6239018440246582,
                        0.022425178438425064,
                        -0.00605173222720623,
                        0.004471803084015846,
                        1.1140835285186768,
                        0.35423335433006287,
                        -0.17445117235183716,
                        -0.1818060725927353,
                        0.4326147437095642,
                        0.30855080485343933,
                        0.8878020644187927,
                        -0.2048499882221222,
                        0.0625728964805603,
                        -0.04256664589047432,
                        -0.40232717990875244,
                        0.22962872684001923,
                        -0.09978491067886353,
                        0.1522406041622162,
                        -0.10094983875751495,
                        0.21117697656154633,
                        0.042822062969207764,
                        0.015117408707737923,
                        0.19605617225170135,
                        -0.10665316134691238,
                        0.22086955606937408,
                        0.2813834846019745,
                        -0.09144268184900284,
                        -0.1375117301940918,
                        0.31876131892204285,
                        0.2230100780725479,
                        0.6718904376029968,
                        0.2214711755514145,
                        0.15971539914608002,
                        -0.2225671112537384,
                        -0.021706677973270416
                    ],
                    [
                        0.01562827080488205,
                        0.02301345206797123,
                        0.3011614978313446,
                        -0.34885627031326294,
                        -0.09299597144126892,
                        -0.12107506394386292,
                        0.11156691610813141,
                        0.05210215598344803,
                        0.20028898119926453,
                        -0.011984772980213165,
                        0.016625721007585526,
                        -0.21203748881816864,
                        -0.29115578532218933,
                        -0.41779473423957825,
                        0.8014633655548096,
                        -0.08546686917543411,
                        0.1071176752448082,
                        0.3855491578578949,
                        -0.15097922086715698,
                        0.037369631230831146,
                        -0.6030951142311096,
                        -0.15000437200069427,
                        0.07213795930147171,
                        0.4701414108276367,
                        0.07538773864507675,
                        -0.37929239869117737,
                        0.016008436679840088,
                        -0.07316221296787262,
                        0.2276955246925354,
                        -0.03248501569032669,
                        -0.11832741647958755,
                        0.2914845943450928,
                        0.22388717532157898,
                        -0.2616729438304901,
                        0.23812289535999298,
                        -0.07565733790397644,
                        0.06340812891721725,
                        0.5402989983558655,
                        -0.12394656985998154,
                        -0.24506835639476776,
                        -0.04214680567383766,
                        0.13522568345069885,
                        0.12614937126636505,
                        -0.45697021484375,
                        -0.07540804147720337,
                        -0.13144251704216003,
                        -0.24507345259189606,
                        0.15695123374462128,
                        0.966814398765564,
                        0.35612034797668457,
                        0.25505250692367554,
                        0.5799219608306885,
                        -0.2859693467617035,
                        0.2970390021800995,
                        0.4883890748023987,
                        0.036358319222927094,
                        0.32862570881843567,
                        -0.17404717206954956,
                        -0.2996128499507904,
                        0.002248500008136034,
                        -0.15744921565055847,
                        -0.28282418847084045,
                        0.12788698077201843,
                        -0.1462036520242691,
                        0.28139644861221313,
                        0.0681672990322113,
                        0.005216602701693773,
                        -0.016121838241815567,
                        0.07514173537492752,
                        0.02819002978503704,
                        0.2701096534729004,
                        0.16036678850650787,
                        0.12463527917861938,
                        -0.16746361553668976,
                        0.8978843092918396,
                        0.15003542602062225,
                        0.07588464021682739,
                        0.1920994520187378,
                        -0.45571160316467285,
                        0.1582590639591217
                    ],
                    [
                        -0.03934130817651749,
                        0.04921133443713188,
                        -0.1472349464893341,
                        0.05814708024263382,
                        0.4494296908378601,
                        -0.1793147772550583,
                        0.8795433640480042,
                        0.2550339102745056,
                        -0.30038174986839294,
                        -0.31885480880737305,
                        -0.09107715636491776,
                        0.512248158454895,
                        0.22662055492401123,
                        0.09504776448011398,
                        -0.17847488820552826,
                        -0.29644572734832764,
                        -0.054316893219947815,
                        0.1087896004319191,
                        -0.01434068102389574,
                        -0.5092149972915649,
                        0.014454257674515247,
                        -0.1344023495912552,
                        -0.10797230154275894,
                        0.01451762206852436,
                        0.07774972915649414,
                        -0.2198513299226761,
                        -0.6498737931251526,
                        -0.5106256604194641,
                        -0.26169297099113464,
                        -0.241651713848114,
                        0.012163717299699783,
                        -0.4127838611602783,
                        -0.8015282154083252,
                        0.26574456691741943,
                        0.017386874184012413,
                        0.0058875922113657,
                        0.21798016130924225,
                        -0.48548340797424316,
                        0.410854697227478,
                        -0.27586331963539124,
                        -0.3680628836154938,
                        -0.46319472789764404,
                        0.06620354950428009,
                        0.29009902477264404,
                        -0.34772589802742004,
                        -0.06076471507549286,
                        0.012550468556582928,
                        -0.3520032465457916,
                        -0.4884869456291199,
                        -0.19824564456939697,
                        -0.2716868817806244,
                        -0.23977933824062347,
                        0.2130221128463745,
                        0.49282658100128174,
                        -0.5029885768890381,
                        -0.0517047643661499,
                        0.1453099399805069,
                        0.4161471724510193,
                        0.021754924207925797,
                        -0.07499153167009354,
                        -0.20864495635032654,
                        -0.08026347309350967,
                        -0.09940898418426514,
                        -0.11460070312023163,
                        0.06756444275379181,
                        -0.6086373925209045,
                        -0.08948112279176712,
                        -0.3323551416397095,
                        -0.22681684792041779,
                        -0.2991119623184204,
                        -0.292095422744751,
                        -0.3994572162628174,
                        -0.4363276958465576,
                        0.019783414900302887,
                        -0.11478241533041,
                        -0.19333486258983612,
                        -0.09716527909040451,
                        -0.18530389666557312,
                        0.2901201546192169,
                        -0.5855394005775452
                    ],
                    [
                        0.09977003931999207,
                        0.06262566149234772,
                        -0.22013023495674133,
                        0.1707112342119217,
                        -0.03719865530729294,
                        0.009767075069248676,
                        -0.6304972171783447,
                        0.39948326349258423,
                        0.046761445701122284,
                        -0.12000656872987747,
                        -0.1807403713464737,
                        -0.31566253304481506,
                        -0.659039318561554,
                        0.01645640656352043,
                        0.0773383229970932,
                        0.5270487070083618,
                        0.0933416560292244,
                        0.07091595977544785,
                        0.15351749956607819,
                        -0.09842667728662491,
                        -0.09377273172140121,
                        0.05865752696990967,
                        -0.040036242455244064,
                        0.08507131040096283,
                        0.17832541465759277,
                        -0.14286842942237854,
                        0.6227049231529236,
                        0.606501042842865,
                        -0.20063155889511108,
                        -0.3945460021495819,
                        -0.8138469457626343,
                        0.569108784198761,
                        0.5229644775390625,
                        0.35539254546165466,
                        -0.23914851248264313,
                        0.10617091506719589,
                        -0.047530271112918854,
                        0.0200453232973814,
                        -0.02487136796116829,
                        -0.43825215101242065,
                        -0.14737409353256226,
                        0.170622780919075,
                        -0.2449008971452713,
                        0.41733500361442566,
                        0.31738412380218506,
                        0.5737094879150391,
                        -0.18774136900901794,
                        -0.08572209626436234,
                        -0.41119325160980225,
                        -0.5061832666397095,
                        -0.18124616146087646,
                        0.5711811184883118,
                        0.05032855272293091,
                        -0.19268985092639923,
                        0.6728619933128357,
                        -0.2955489754676819,
                        0.18075843155384064,
                        -0.025555768981575966,
                        0.8260045647621155,
                        0.3236587345600128,
                        0.11932779848575592,
                        -0.10381992161273956,
                        -0.1591242402791977,
                        0.13300548493862152,
                        0.07495389133691788,
                        -0.34798187017440796,
                        0.20098072290420532,
                        -0.08260348439216614,
                        0.0101320780813694,
                        -0.03804929926991463,
                        -0.0471496619284153,
                        0.02075725793838501,
                        0.3618590831756592,
                        0.25072696805000305,
                        0.17407916486263275,
                        -0.12338157743215561,
                        0.17379799485206604,
                        0.16814827919006348,
                        0.5415724515914917,
                        -0.07915579527616501
                    ],
                    [
                        0.21702463924884796,
                        0.19891242682933807,
                        -0.03430120646953583,
                        -0.4245867133140564,
                        -0.22324460744857788,
                        -0.22758106887340546,
                        0.04770105332136154,
                        0.10767325758934021,
                        0.17526690661907196,
                        -0.11658360809087753,
                        0.08055038005113602,
                        0.035518109798431396,
                        0.032116733491420746,
                        -0.13326232135295868,
                        0.0950377881526947,
                        0.20520366728305817,
                        -0.08899446576833725,
                        -0.1092355027794838,
                        0.1212831512093544,
                        -0.3272078037261963,
                        -0.15615017712116241,
                        -0.2746104300022125,
                        -0.054749585688114166,
                        0.029711011797189713,
                        0.12609009444713593,
                        -0.0011068967869505286,
                        -0.2253379374742508,
                        -0.24882987141609192,
                        0.6440733671188354,
                        0.11867859959602356,
                        -0.08182426542043686,
                        0.09112861752510071,
                        -0.1295401155948639,
                        -0.04876036196947098,
                        -0.7303392887115479,
                        -0.03644433617591858,
                        -0.15344971418380737,
                        0.09187189489603043,
                        -0.10772402584552765,
                        0.0466257743537426,
                        0.4642541706562042,
                        0.06596485525369644,
                        -0.09989894926548004,
                        -0.11756044626235962,
                        -0.26125866174697876,
                        0.03643138334155083,
                        -0.43516355752944946,
                        -0.04055609554052353,
                        -2.423593282699585,
                        -0.14907826483249664,
                        0.023778384551405907,
                        0.27076447010040283,
                        0.1071845293045044,
                        -0.07806355506181717,
                        0.5618802905082703,
                        -0.0014046084834262729,
                        -0.04716240242123604,
                        -0.4374581575393677,
                        0.04391168802976608,
                        0.02957635000348091,
                        -0.12620429694652557,
                        0.468990296125412,
                        -0.01802578754723072,
                        0.13937783241271973,
                        0.038365017622709274,
                        -0.07231972366571426,
                        -0.008357643149793148,
                        0.1389024257659912,
                        -0.19010646641254425,
                        -0.23555545508861542,
                        -0.0005265583749860525,
                        -0.3812517821788788,
                        -0.06598272919654846,
                        -0.12447866052389145,
                        -0.24306532740592957,
                        -0.2404095083475113,
                        0.2400311976671219,
                        0.3313709795475006,
                        0.10743843764066696,
                        0.04099569097161293
                    ],
                    [
                        0.28922736644744873,
                        0.26161691546440125,
                        0.3204233944416046,
                        0.007626901380717754,
                        0.2208789438009262,
                        -0.31667035818099976,
                        0.2938541769981384,
                        0.34575724601745605,
                        -0.28875732421875,
                        0.08770434558391571,
                        0.5619552731513977,
                        0.29134997725486755,
                        0.35368821024894714,
                        -0.08082212507724762,
                        -0.40604087710380554,
                        -0.7568814158439636,
                        0.11020033061504364,
                        -0.10382109880447388,
                        -0.016333850100636482,
                        -0.10687814652919769,
                        0.04875687509775162,
                        -0.09435106813907623,
                        0.15799982845783234,
                        -0.21498313546180725,
                        -0.07260378450155258,
                        -0.3705713152885437,
                        -0.8239036798477173,
                        -0.718640148639679,
                        -0.28071099519729614,
                        -0.04869779199361801,
                        0.4979341924190521,
                        -0.05224020406603813,
                        -0.5894361138343811,
                        -0.24652674794197083,
                        -0.029578527435660362,
                        -0.07187177985906601,
                        0.21585416793823242,
                        -0.49415716528892517,
                        0.11810293048620224,
                        0.08778037875890732,
                        0.4024720788002014,
                        0.39664676785469055,
                        0.13719519972801208,
                        -0.6717848181724548,
                        -0.2904263138771057,
                        -0.4961124658584595,
                        0.15871202945709229,
                        0.08777546882629395,
                        0.0009543891064822674,
                        -0.07669910043478012,
                        0.5462289452552795,
                        -0.026138506829738617,
                        0.06404882669448853,
                        -0.27204248309135437,
                        0.030388519167900085,
                        0.443813294172287,
                        0.24498340487480164,
                        -0.36523425579071045,
                        -0.29581695795059204,
                        0.15398068726062775,
                        -0.030236581340432167,
                        -0.14350742101669312,
                        0.347643107175827,
                        0.22463633120059967,
                        0.010460308752954006,
                        -0.13992877304553986,
                        -0.09063118696212769,
                        0.012166457250714302,
                        0.021298062056303024,
                        -0.12243456393480301,
                        0.00506415544077754,
                        0.12775756418704987,
                        -0.016885844990611076,
                        -0.17414362728595734,
                        -0.267894983291626,
                        -0.09749236702919006,
                        0.03976990655064583,
                        -0.23303259909152985,
                        -0.38339781761169434,
                        0.011851385235786438
                    ],
                    [
                        0.17368461191654205,
                        0.14867448806762695,
                        0.17687107622623444,
                        -0.06695004552602768,
                        0.10068804025650024,
                        -0.09103398025035858,
                        -0.695702075958252,
                        -0.30466365814208984,
                        0.14316725730895996,
                        0.04121624678373337,
                        0.15442809462547302,
                        -0.46447569131851196,
                        -0.4065074920654297,
                        0.017459508031606674,
                        0.3124048411846161,
                        -0.1962546706199646,
                        -0.09771116822957993,
                        -0.16663987934589386,
                        0.15830343961715698,
                        -0.16811257600784302,
                        0.0773480236530304,
                        0.14051854610443115,
                        0.09935412555932999,
                        -0.0031398211140185595,
                        0.34814321994781494,
                        -0.2580673396587372,
                        0.6334599256515503,
                        0.3438398540019989,
                        0.01801445707678795,
                        -0.242246612906456,
                        -0.5174546241760254,
                        0.34945768117904663,
                        0.5665104985237122,
                        -0.10966333746910095,
                        -0.062200989574193954,
                        -0.07980388402938843,
                        -0.09161023795604706,
                        0.10866957902908325,
                        -0.09758473187685013,
                        -0.2816838324069977,
                        0.5104227066040039,
                        0.30779901146888733,
                        -0.4554906487464905,
                        -0.04310804605484009,
                        -0.5370457768440247,
                        0.24381332099437714,
                        -0.09835877269506454,
                        -0.045880597084760666,
                        -0.19623525440692902,
                        -0.7567622065544128,
                        -0.05031147599220276,
                        0.05353324115276337,
                        0.029196422547101974,
                        -0.25073501467704773,
                        0.24904212355613708,
                        0.08124971389770508,
                        -0.25375381112098694,
                        -0.2685730755329132,
                        0.0002476920490153134,
                        -0.27357831597328186,
                        -0.025043059140443802,
                        0.060555350035429,
                        0.20058417320251465,
                        0.13912002742290497,
                        0.3380764424800873,
                        0.20244044065475464,
                        -0.05130715295672417,
                        0.10443554073572159,
                        0.09999731183052063,
                        0.08196822553873062,
                        0.22913406789302826,
                        0.10042890906333923,
                        0.2381366789340973,
                        0.09508426487445831,
                        0.3029974102973938,
                        -0.027684710919857025,
                        0.1921234279870987,
                        0.039967603981494904,
                        -0.26903796195983887,
                        -0.022497881203889847
                    ],
                    [
                        -0.1998034417629242,
                        -0.028420837596058846,
                        -0.0697532594203949,
                        0.12604880332946777,
                        0.12621617317199707,
                        0.007901312783360481,
                        0.03559735044836998,
                        0.04879961907863617,
                        0.10257387906312943,
                        0.07931074500083923,
                        0.01616757921874523,
                        0.16980984807014465,
                        0.11474430561065674,
                        0.22014659643173218,
                        0.2070259302854538,
                        -0.08608993142843246,
                        -0.3314664959907532,
                        -0.4589281380176544,
                        -0.12106302380561829,
                        -0.14132550358772278,
                        -0.31379640102386475,
                        0.19799895584583282,
                        0.04199261590838432,
                        0.09787702560424805,
                        0.3245548605918884,
                        -0.05250737816095352,
                        -0.20245231688022614,
                        0.27626731991767883,
                        0.016477031633257866,
                        -0.159616157412529,
                        -0.3644574284553528,
                        0.6511046290397644,
                        -0.5443214774131775,
                        0.11793361604213715,
                        -0.048543017357587814,
                        -0.0542321503162384,
                        -0.2130049169063568,
                        -0.7621909976005554,
                        -0.3417660892009735,
                        0.15676848590373993,
                        -0.16155676543712616,
                        -0.045229244977235794,
                        -0.30037346482276917,
                        -0.1672704964876175,
                        0.0588529072701931,
                        0.11433467268943787,
                        -0.12410152703523636,
                        0.03910995274782181,
                        -0.27045273780822754,
                        0.1330997347831726,
                        0.17645925283432007,
                        0.12523677945137024,
                        -0.17498819530010223,
                        -0.10266176611185074,
                        0.36229994893074036,
                        -0.016663262620568275,
                        0.3642873167991638,
                        0.578849196434021,
                        0.11168356239795685,
                        0.10994664579629898,
                        -0.21612697839736938,
                        0.2953854203224182,
                        -0.04260963574051857,
                        0.11796421557664871,
                        -0.23121821880340576,
                        0.0758758932352066,
                        -0.6356908679008484,
                        -0.11128059029579163,
                        1.0397976636886597,
                        0.04213586822152138,
                        0.01432958897203207,
                        -0.15245871245861053,
                        -0.5284342765808105,
                        0.1814517229795456,
                        0.142752543091774,
                        -0.28254765272140503,
                        -0.22003225982189178,
                        -0.1553572565317154,
                        -0.1201932281255722,
                        -0.13373826444149017
                    ],
                    [
                        0.17941822111606598,
                        -0.047812238335609436,
                        -0.254947692155838,
                        -0.12693162262439728,
                        -0.11922546476125717,
                        0.23066817224025726,
                        -0.3233270049095154,
                        0.7740382552146912,
                        0.04656699672341347,
                        0.10614228993654251,
                        -0.36177703738212585,
                        -0.10678061842918396,
                        -0.5361323356628418,
                        0.11231432855129242,
                        0.17677025496959686,
                        0.8869333267211914,
                        -0.1495748609304428,
                        -0.060574721544981,
                        -0.15958458185195923,
                        0.06834986060857773,
                        0.0377202033996582,
                        -0.1942182034254074,
                        -0.2333250790834427,
                        0.259168803691864,
                        -0.04359552264213562,
                        0.31624364852905273,
                        0.12641507387161255,
                        -0.5705919861793518,
                        -0.053926706314086914,
                        -0.25183236598968506,
                        -0.3083178699016571,
                        0.44677790999412537,
                        -0.26513031125068665,
                        0.29895657300949097,
                        -0.04085768014192581,
                        0.4916656017303467,
                        0.007615804206579924,
                        0.0770900771021843,
                        -0.34136614203453064,
                        -0.666946530342102,
                        0.17393137514591217,
                        0.4276483952999115,
                        -0.12978318333625793,
                        0.06908800452947617,
                        -0.279329776763916,
                        -0.1320207417011261,
                        -0.23328076303005219,
                        -0.09381569921970367,
                        0.012749811634421349,
                        0.46371763944625854,
                        -0.3658619523048401,
                        0.13220317661762238,
                        0.08695915341377258,
                        -0.012862921692430973,
                        -0.14524830877780914,
                        -1.022597312927246,
                        -0.5174478888511658,
                        0.04563920944929123,
                        0.2912124991416931,
                        -0.30971235036849976,
                        0.21818362176418304,
                        -0.0029946209397166967,
                        -0.2140016108751297,
                        -0.12130843102931976,
                        -0.129987895488739,
                        -0.20076331496238708,
                        -0.2636803984642029,
                        -0.2893407642841339,
                        0.04501749202609062,
                        0.007148138713091612,
                        0.0765114277601242,
                        0.14379684627056122,
                        -0.0018527235370129347,
                        0.13776731491088867,
                        0.1076098307967186,
                        0.03447648510336876,
                        -0.14302171766757965,
                        0.0743425264954567,
                        0.1768217533826828,
                        -0.06586844474077225
                    ],
                    [
                        -0.09779863059520721,
                        -0.1096869558095932,
                        0.440430223941803,
                        0.35133954882621765,
                        0.0238075852394104,
                        0.15644991397857666,
                        -0.3919745981693268,
                        -0.3204215466976166,
                        0.06874898076057434,
                        0.04029040038585663,
                        0.012532657012343407,
                        -0.28601178526878357,
                        -0.4342033267021179,
                        -0.32900533080101013,
                        0.02170388586819172,
                        0.10920875519514084,
                        0.08142029494047165,
                        0.11975625902414322,
                        -0.08834393322467804,
                        0.10900235176086426,
                        -0.06654775142669678,
                        0.09160836040973663,
                        0.03794291615486145,
                        0.20715968310832977,
                        0.0419684536755085,
                        0.02413426712155342,
                        0.365301251411438,
                        -1.0416203737258911,
                        -0.2147255837917328,
                        -0.0023104988504201174,
                        0.03481237217783928,
                        0.1852572113275528,
                        0.429321825504303,
                        -0.40240147709846497,
                        -0.11710743606090546,
                        -0.022871611639857292,
                        -0.025650503113865852,
                        0.24888543784618378,
                        0.03497673571109772,
                        -0.09349282085895538,
                        -0.5660278797149658,
                        -0.2198282778263092,
                        0.43681061267852783,
                        0.6914698481559753,
                        0.3848215341567993,
                        -0.1317310333251953,
                        -0.12063770741224289,
                        0.4960906207561493,
                        -0.0661778450012207,
                        -0.6594467759132385,
                        0.05114411190152168,
                        0.33496952056884766,
                        0.10773947834968567,
                        -0.7442576885223389,
                        0.5295724868774414,
                        0.8624284863471985,
                        0.6368746161460876,
                        0.13142895698547363,
                        -1.339768648147583,
                        0.2888466715812683,
                        -0.1250392496585846,
                        0.014917771331965923,
                        0.4188542366027832,
                        0.42284464836120605,
                        -0.06041872873902321,
                        0.6652201414108276,
                        -0.07641631364822388,
                        -0.16924186050891876,
                        -0.08200164139270782,
                        -0.02219534106552601,
                        0.02886362001299858,
                        0.15394358336925507,
                        0.158661887049675,
                        -0.2841249108314514,
                        0.01068279892206192,
                        -0.5131096839904785,
                        -0.03095882013440132,
                        0.026741620153188705,
                        -0.7518600821495056,
                        0.26088595390319824
                    ]
                ],
                [
                    -0.17370747029781342,
                    -0.07957395911216736,
                    -0.8129700422286987,
                    -0.3850514590740204,
                    -0.37827157974243164,
                    0.5908620357513428,
                    -2.121520519256592,
                    -3.0492963790893555,
                    1.6779425144195557,
                    0.86070716381073,
                    1.1519126892089844,
                    -2.0330750942230225,
                    -1.2763581275939941,
                    0.2207181453704834,
                    0.551344633102417,
                    0.2586922347545624,
                    0.11361896991729736,
                    -1.232424259185791,
                    0.9286424517631531,
                    0.9286260008811951,
                    1.0182933807373047,
                    0.8272364139556885,
                    0.7555625438690186,
                    0.5358016490936279,
                    0.9542022943496704,
                    0.5243502855300903,
                    2.693957805633545,
                    3.727508544921875,
                    0.5937914848327637,
                    0.09613406658172607,
                    0.10077273100614548,
                    2.745168685913086,
                    1.7456939220428467,
                    -0.01371699571609497,
                    -0.5142437219619751,
                    -0.010088972747325897,
                    0.02815304324030876,
                    0.5505379438400269,
                    0.027629103511571884,
                    0.09542802721261978,
                    0.4233219623565674,
                    -0.46736764907836914,
                    -0.1192224770784378,
                    -0.10495533794164658,
                    -0.31512901186943054,
                    0.8909261226654053,
                    -0.062240008264780045,
                    -0.09007147699594498,
                    -0.1329282969236374,
                    -0.1675695776939392,
                    0.4888128340244293,
                    -0.14131411910057068,
                    0.053327519446611404,
                    0.014320285990834236,
                    -0.13683730363845825,
                    -0.40557560324668884,
                    0.5647123456001282,
                    -0.00129803828895092,
                    0.3349821865558624,
                    -0.5066883563995361,
                    0.25698113441467285,
                    0.3737492263317108,
                    0.3192201554775238,
                    0.22028356790542603,
                    0.34022101759910583,
                    1.1291282176971436,
                    0.14854784309864044,
                    1.2726171016693115,
                    -0.3738434910774231,
                    1.230494499206543,
                    1.5053951740264893,
                    0.07858060300350189,
                    -0.015365340746939182,
                    1.08058500289917,
                    0.6419432163238525,
                    0.3866860270500183,
                    0.6334795951843262,
                    -0.23278570175170898,
                    0.22374632954597473,
                    1.2283837795257568
                ]
            ]
        },
        {
            "type": "dense",
            "activation": "",
            "shape": [
                null,
                null,
                1
            ],
            "weights": [
                [
                    [
                        -0.7417632341384888
                    ],
                    [
                        0.5951911211013794
                    ],
                    [
                        0.0007263489533215761
                    ],
                    [
                        0.15388281643390656
                    ],
                    [
                        -0.4028235077857971
                    ],
                    [
                        0.00827634148299694
                    ],
                    [
                        0.04622110351920128
                    ],
                    [
                        -0.16212157905101776
                    ],
                    [
                        1.1549290418624878
                    ],
                    [
                        -0.1369490623474121
                    ],
                    [
                        -0.007517416495829821
                    ],
                    [
                        -0.8756714463233948
                    ],
                    [
                        -0.5493724346160889
                    ],
                    [
                        0.09740685671567917
                    ],
                    [
                        0.061791714280843735
                    ],
                    [
                        0.046693217009305954
                    ],
                    [
                        -0.08920876681804657
                    ],
                    [
                        -0.1902943253517151
                    ],
                    [
                        0.02562648430466652
                    ],
                    [
                        -0.022493667900562286
                    ]
                ],
                [
                    0.06755325198173523
                ]
            ]
        }
    ],
    "input_batch": [
        0.08890712261199951,
        0.07685470581054688,
        0.0653461217880249,
        0.054532408714294434,
        0.04451119899749756,
        0.035308122634887695,
        0.026958346366882324,
        0.019446253776550293,
        0.012525677680969238,
        0.005981564521789551,
        -0.00026929378509521484,
        -0.006249666213989258,
        -0.011995553970336914,
        -0.017508625984191895,
        -0.02271401882171631,
        -0.02761971950531006,
        -0.032241225242614746,
        -0.036610960960388184,
        -0.040699005126953125,
        -0.044444918632507324,
        -0.04790925979614258,
        -0.05123317241668701,
        -0.05459952354431152,
        -0.05816948413848877,
        -0.06197834014892578,
        -0.06591951847076416,
        -0.06988704204559326,
        -0.07376646995544434,
        -0.0775219202041626,
        -0.0812673568725586,
        -0.0852200984954834,
        -0.08966875076293945,
        -0.0947955846786499,
        -0.10053467750549316,
        -0.10666441917419434,
        -0.11304926872253418,
        -0.11953246593475342,
        -0.12591278553009033,
        -0.132002592086792,
        -0.13763344287872314,
        -0.1428072452545166,
        -0.1477440595626831,
        -0.15266728401184082,
        -0.15767443180084229,
        -0.16278719902038574,
        -0.16788256168365479,
        -0.17280030250549316,
        -0.17743873596191406,
        -0.18170714378356934,
        -0.18566298484802246,
        -0.18930482864379883,
        -0.1925739049911499,
        -0.1953953504562378,
        -0.19770467281341553,
        -0.19953620433807373,
        -0.20087742805480957,
        -0.20163464546203613,
        -0.20174288749694824,
        -0.20131254196166992,
        -0.20060443878173828,
        -0.19981276988983154,
        -0.19898736476898193,
        -0.19804656505584717,
        -0.196830153465271,
        -0.19518935680389404,
        -0.19313395023345947,
        -0.19076907634735107,
        -0.18827474117279053,
        -0.18589138984680176,
        -0.1838209629058838,
        -0.1821526288986206,
        -0.18084239959716797,
        -0.17979443073272705,
        -0.17878055572509766,
        -0.17766690254211426,
        -0.17643523216247559,
        -0.17515993118286133,
        -0.1739363670349121,
        -0.17273938655853271,
        -0.17163515090942383,
        -0.17070817947387695,
        -0.17007207870483398,
        -0.16979968547821045,
        -0.16981327533721924,
        -0.16993045806884766,
        -0.16990244388580322,
        -0.16958773136138916,
        -0.1689746379852295,
        -0.16806650161743164,
        -0.16679561138153076,
        -0.1650604009628296,
        -0.16283249855041504,
        -0.16023242473602295,
        -0.15746891498565674,
        -0.15467429161071777,
        -0.1518399715423584,
        -0.14881455898284912,
        -0.14543640613555908,
        -0.1416233777999878,
        -0.13732385635375977,
        -0.13252103328704834,
        -0.12722790241241455,
        -0.12140977382659912,
        -0.1149972677230835,
        -0.10812699794769287,
        -0.10091328620910645,
        -0.09338629245758057,
        -0.08561444282531738,
        -0.07770180702209473,
        -0.0697547197341919,
        -0.06180286407470703,
        -0.05381882190704346,
        -0.04577839374542236,
        -0.037773728370666504,
        -0.02981877326965332,
        -0.0217587947845459,
        -0.013584733009338379,
        -0.005498647689819336,
        0.0022115707397460938,
        0.009361028671264648,
        0.015861988067626953,
        0.02178025245666504,
        0.027471303939819336,
        0.03322553634643555,
        0.0390704870223999,
        0.044942378997802734,
        0.05073356628417969,
        0.056270599365234375,
        0.061307668685913086,
        0.06559419631958008,
        0.06905794143676758,
        0.07182455062866211,
        0.07404875755310059,
        0.07576572895050049,
        0.07687973976135254,
        0.07731044292449951,
        0.07699429988861084,
        0.07598209381103516,
        0.07441914081573486,
        0.07245373725891113,
        0.07016265392303467,
        0.06741988658905029,
        0.06401145458221436,
        0.059793949127197266,
        0.054786086082458496,
        0.049076080322265625,
        0.04292154312133789,
        0.0367201566696167,
        0.030768513679504395,
        0.025237202644348145,
        0.020194053649902344,
        0.015549659729003906,
        0.011062860488891602,
        0.006516814231872559,
        0.0016690492630004883,
        -0.0035783052444458008,
        -0.009043335914611816,
        -0.014560103416442871,
        -0.01997232437133789,
        -0.025107622146606445,
        -0.029849529266357422,
        -0.0341801643371582,
        -0.038176894187927246,
        -0.0419238805770874,
        -0.04551243782043457,
        -0.049030423164367676,
        -0.05255579948425293,
        -0.05611443519592285,
        -0.05966758728027344,
        -0.06308913230895996,
        -0.06624603271484375,
        -0.06903386116027832,
        -0.07132863998413086,
        -0.07318830490112305,
        -0.07477903366088867,
        -0.07623231410980225,
        -0.07766759395599365,
        -0.07912790775299072,
        -0.08060348033905029,
        -0.08206832408905029,
        -0.0835350751876831,
        -0.0849834680557251,
        -0.0863875150680542,
        -0.08768463134765625,
        -0.08876609802246094,
        -0.08961772918701172,
        -0.09028482437133789,
        -0.09077417850494385,
        -0.09109926223754883,
        -0.09132516384124756,
        -0.09154629707336426,
        -0.09190034866333008,
        -0.09250175952911377,
        -0.09336423873901367,
        -0.09438812732696533,
        -0.09540486335754395,
        -0.09629964828491211,
        -0.09695351123809814,
        -0.09727776050567627,
        -0.09731853008270264,
        -0.09716832637786865,
        -0.09688055515289307,
        -0.09645700454711914,
        -0.09585022926330566,
        -0.09491729736328125,
        -0.09349715709686279,
        -0.09149730205535889,
        -0.0888979434967041,
        -0.08565866947174072,
        -0.08183944225311279,
        -0.07756125926971436,
        -0.07288217544555664,
        -0.06781184673309326,
        -0.06223011016845703,
        -0.05610156059265137,
        -0.049604177474975586,
        -0.04303312301635742,
        -0.03657269477844238,
        -0.030182957649230957,
        -0.023830890655517578,
        -0.017480134963989258,
        -0.011202812194824219,
        -0.005202770233154297,
        0.00040411949157714844,
        0.005603194236755371,
        0.010437726974487305,
        0.0148468017578125,
        0.018692374229431152,
        0.02192986011505127,
        0.0246657133102417,
        0.027021288871765137,
        0.029035091400146484,
        0.030586719512939453,
        0.03155243396759033,
        0.031975388526916504,
        0.031960248947143555,
        0.03164219856262207,
        0.03116452693939209,
        0.030570149421691895,
        0.029740571975708008,
        0.028551816940307617,
        0.027022480964660645,
        0.025263190269470215,
        0.023347020149230957,
        0.021306276321411133,
        0.019191265106201172,
        0.017074108123779297,
        0.014982461929321289,
        0.012930631637573242,
        0.011011600494384766,
        0.009290933609008789,
        0.007765769958496094,
        0.006402850151062012,
        0.005133152008056641,
        0.003931283950805664,
        0.0027321577072143555,
        0.0015039443969726562,
        0.0003292560577392578,
        -0.000674128532409668,
        -0.0014024972915649414,
        -0.001804351806640625,
        -0.0017800331115722656,
        -0.001269221305847168,
        -0.00032699108123779297,
        0.000947117805480957,
        0.002516508102416992,
        0.004452705383300781,
        0.006804466247558594,
        0.00959157943725586,
        0.01270139217376709,
        0.0160750150680542,
        0.01967310905456543,
        0.023368358612060547,
        0.027097105979919434,
        0.030758142471313477,
        0.03434407711029053,
        0.03788125514984131,
        0.04126310348510742,
        0.0442659854888916,
        0.046614766120910645,
        0.048201560974121094,
        0.04912543296813965,
        0.04964029788970947,
        0.049962520599365234,
        0.05014371871948242,
        0.05012857913970947,
        0.04983675479888916,
        0.04925990104675293,
        0.048380136489868164,
        0.04710042476654053,
        0.045377135276794434,
        0.04331254959106445,
        0.04109060764312744,
        0.038783907890319824,
        0.03635132312774658,
        0.03364443778991699,
        0.030588626861572266,
        0.027303099632263184,
        0.02396368980407715,
        0.020811080932617188,
        0.017944693565368652,
        0.015338897705078125,
        0.012925505638122559,
        0.010601639747619629,
        0.008323907852172852,
        0.006069660186767578,
        0.0038775205612182617,
        0.001814126968383789,
        -0.00012803077697753906,
        -0.001978278160095215,
        -0.003760099411010742,
        -0.0054596662521362305,
        -0.007068753242492676,
        -0.008604645729064941,
        -0.010076761245727539,
        -0.0114821195602417,
        -0.012848258018493652,
        -0.014246225357055664,
        -0.015692472457885742,
        -0.01719212532043457,
        -0.0187608003616333,
        -0.020316243171691895,
        -0.021687865257263184,
        -0.022744178771972656,
        -0.023395895957946777,
        -0.02367424964904785,
        -0.023686766624450684,
        -0.023559212684631348,
        -0.02353835105895996,
        -0.023810148239135742,
        -0.024420976638793945,
        -0.025281429290771484,
        -0.026275038719177246,
        -0.02729785442352295,
        -0.028254151344299316,
        -0.029113173484802246,
        -0.029862523078918457,
        -0.030559778213500977,
        -0.031292080879211426,
        -0.032172203063964844,
        -0.0333104133605957,
        -0.03469491004943848,
        -0.03616642951965332,
        -0.03746485710144043,
        -0.03835141658782959,
        -0.03867208957672119,
        -0.038384437561035156,
        -0.03746497631072998,
        -0.03588759899139404,
        -0.03366267681121826,
        -0.030804753303527832,
        -0.027373194694519043,
        -0.023534536361694336,
        -0.019438862800598145,
        -0.015193939208984375,
        -0.010837078094482422,
        -0.006299853324890137,
        -0.0014376640319824219,
        0.0038427114486694336,
        0.009543776512145996,
        0.01564168930053711,
        0.022014617919921875,
        0.02853548526763916,
        0.03507280349731445,
        0.041413187980651855,
        0.047380924224853516,
        0.052945852279663086,
        0.05824482440948486,
        0.0635983943939209,
        0.06930017471313477,
        0.07545745372772217,
        0.08200514316558838,
        0.08876204490661621,
        0.0954751968383789,
        0.10194063186645508,
        0.10813772678375244,
        0.11412465572357178,
        0.11989188194274902,
        0.12540817260742188,
        0.13065004348754883,
        0.13551747798919678,
        0.13996493816375732,
        0.14400458335876465,
        0.14764666557312012,
        0.1509488821029663,
        0.153936505317688,
        0.15665125846862793,
        0.15916800498962402,
        0.16149985790252686,
        0.163557767868042,
        0.1652536392211914,
        0.1665053367614746,
        0.16722917556762695,
        0.16746926307678223,
        0.16731905937194824,
        0.16686558723449707,
        0.1661592721939087,
        0.16517388820648193,
        0.16384673118591309,
        0.16212892532348633,
        0.15992379188537598,
        0.1572057008743286,
        0.15409469604492188,
        0.15064311027526855,
        0.14686822891235352,
        0.1427854299545288,
        0.13837194442749023,
        0.13358283042907715,
        0.12836873531341553,
        0.12267875671386719,
        0.11648714542388916,
        0.10981261730194092,
        0.10262274742126465,
        0.09489047527313232,
        0.08663547039031982,
        0.07785844802856445,
        0.06863725185394287,
        0.059093356132507324,
        0.049382805824279785,
        0.03961348533630371,
        0.029848098754882812,
        0.020093560218811035,
        0.010236620903015137,
        0.00021505355834960938,
        -0.009972095489501953,
        -0.020226001739501953,
        -0.030455946922302246,
        -0.04052531719207764,
        -0.050289154052734375,
        -0.05972552299499512,
        -0.06886005401611328,
        -0.07784080505371094,
        -0.0867767333984375,
        -0.09571337699890137,
        -0.1045914888381958,
        -0.11325192451477051,
        -0.12151956558227539,
        -0.12922298908233643,
        -0.1362835168838501,
        -0.14263927936553955,
        -0.1482940912246704,
        -0.1532684564590454,
        -0.15757524967193604,
        -0.16122519969940186,
        -0.1642622947692871,
        -0.16681206226348877,
        -0.16893625259399414,
        -0.17068421840667725,
        -0.17207610607147217,
        -0.17307233810424805,
        -0.17363691329956055,
        -0.1737598180770874,
        -0.17346549034118652,
        -0.17271947860717773,
        -0.17148637771606445,
        -0.16977882385253906,
        -0.16760897636413574,
        -0.16502392292022705,
        -0.16216707229614258,
        -0.1592104434967041,
        -0.15623486042022705,
        -0.15324032306671143,
        -0.1501682996749878,
        -0.14697551727294922,
        -0.14366364479064941,
        -0.14021897315979004,
        -0.13671469688415527,
        -0.13324189186096191,
        -0.12983334064483643,
        -0.12648701667785645,
        -0.12318646907806396,
        -0.11989593505859375,
        -0.11658215522766113,
        -0.11322450637817383,
        -0.10980117321014404,
        -0.10633063316345215,
        -0.10277009010314941,
        -0.09906196594238281,
        -0.09512495994567871,
        -0.09084725379943848,
        -0.08619320392608643,
        -0.08116018772125244,
        -0.07574772834777832,
        -0.06996405124664307,
        -0.0638279914855957,
        -0.05738401412963867,
        -0.05070388317108154,
        -0.043877243995666504,
        -0.03686964511871338,
        -0.029566407203674316,
        -0.021921396255493164,
        -0.013936519622802734,
        -0.005740642547607422,
        0.002494215965270996,
        0.010594964027404785,
        0.018350601196289062,
        0.025620341300964355,
        0.032303452491760254,
        0.03835153579711914,
        0.04381203651428223,
        0.04878711700439453,
        0.05340433120727539,
        0.05774569511413574,
        0.0618366003036499,
        0.06566691398620605,
        0.06917035579681396,
        0.07234203815460205,
        0.07526206970214844,
        0.07799792289733887,
        0.08058881759643555,
        0.08302938938140869,
        0.08532822132110596,
        0.08749306201934814,
        0.08949458599090576,
        0.09129893779754639,
        0.09285402297973633,
        0.09407222270965576,
        0.09488523006439209,
        0.09520912170410156,
        0.09495413303375244,
        0.09404194355010986,
        0.09246575832366943,
        0.0903468132019043,
        0.08780062198638916,
        0.08496463298797607,
        0.08192956447601318,
        0.07872426509857178,
        0.07540559768676758,
        0.0719749927520752,
        0.06843304634094238,
        0.06476032733917236,
        0.06087362766265869,
        0.05673205852508545,
        0.052332520484924316,
        0.047727346420288086,
        0.04300487041473389,
        0.03824615478515625,
        0.03349590301513672,
        0.02874135971069336,
        0.024009108543395996,
        0.019306421279907227,
        0.014646530151367188,
        0.010010123252868652,
        0.005287289619445801,
        0.00045299530029296875,
        -0.004498720169067383,
        -0.009496808052062988,
        -0.014434576034545898,
        -0.019288182258605957,
        -0.02406179904937744,
        -0.028815865516662598,
        -0.03360104560852051,
        -0.038417935371398926,
        -0.0432513952255249,
        -0.04804682731628418,
        -0.05280649662017822,
        -0.05752289295196533,
        -0.06214869022369385,
        -0.06665265560150146,
        -0.07101058959960938,
        -0.07518935203552246,
        -0.07914745807647705,
        -0.0828104019165039,
        -0.08608293533325195,
        -0.08889186382293701,
        -0.09117889404296875,
        -0.09295666217803955,
        -0.09428727626800537,
        -0.09519016742706299,
        -0.09563040733337402,
        -0.09557640552520752,
        -0.09496498107910156,
        -0.09374654293060303,
        -0.09195005893707275,
        -0.08963990211486816,
        -0.08688616752624512,
        -0.08372116088867188,
