{
    "in_shape": [
        null,
        null,
        1
    ],
    "out_gain": -1,
    "layers": [
        {
            "type": "lstm",
            "activation": "",
            "shape": [
                null,
                null,
                20
            ],
            "weights": [
                [
                    [
                        0.25316575169563293,
                        -0.15252941846847534,
                        0.11438419669866562,
                        0.1378912627696991,
                        0.09246625751256943,
                        0.058109454810619354,
                        -0.017997607588768005,
                        -0.04009927064180374,
                        -0.32459139823913574,
                        -0.8079156875610352,
                        0.09803936630487442,
                        0.087371826171875,
                        0.1311497688293457,
                        0.035959117114543915,
                        0.1159735843539238,
                        0.1487133800983429,
                        -0.09924614429473877,
                        0.1363050639629364,
                        0.1455414742231369,
                        -1.1092662811279297,
                        -0.15507325530052185,
                        0.01639578863978386,
                        0.08360109478235245,
                        0.659902811050415,
                        -0.0985383465886116,
                        -0.17250584065914154,
                        0.00866091251373291,
                        0.05170242860913277,
                        -0.030487477779388428,
                        -0.18097923696041107,
                        0.08296029269695282,
                        0.04748805984854698,
                        -0.14553634822368622,
                        -0.2492988109588623,
                        -0.21460865437984467,
                        -0.27465757727622986,
                        0.07454850524663925,
                        0.8329527378082275,
                        -0.25095444917678833,
                        -1.273098111152649,
                        0.27303260564804077,
                        0.03138856962323189,
                        0.014492038637399673,
                        -4.089015960693359,
                        -0.011675001122057438,
                        0.05183161050081253,
                        0.019430430606007576,
                        0.0009014731040224433,
                        -0.26431146264076233,
                        -0.1606481522321701,
                        0.04671996086835861,
                        -0.08045001327991486,
                        0.16696403920650482,
                        0.237312451004982,
                        -0.2654849588871002,
                        0.006757508963346481,
                        0.18803630769252777,
                        -1.4035313129425049,
                        -0.17983146011829376,
                        1.0346810817718506,
                        -0.3232693374156952,
                        0.3268255591392517,
                        0.02893572673201561,
                        -0.18223384022712708,
                        0.06859990954399109,
                        -0.08961407095193863,
                        -0.059964198619127274,
                        -0.01891379803419113,
                        -0.13725848495960236,
                        -0.12860581278800964,
                        0.10693404823541641,
                        0.15747009217739105,
                        -0.004754209890961647,
                        -0.09568348526954651,
                        -0.0572875440120697,
                        -0.13387516140937805,
                        -0.203834667801857,
                        -0.641673743724823,
                        0.17175200581550598,
                        -0.20568633079528809
                    ]
                ],
                [
                    [
                        0.3450397551059723,
                        -0.45834818482398987,
                        -0.010155743919312954,
                        0.1846739649772644,
                        -0.010685751214623451,
                        0.4410015642642975,
                        0.11094661056995392,
                        -0.015267233364284039,
                        -0.013841809704899788,
                        0.007318159565329552,
                        -0.5810574293136597,
                        0.30744341015815735,
                        -0.09278500080108643,
                        0.009535055607557297,
                        -0.038542646914720535,
                        -0.25602760910987854,
                        0.4578348994255066,
                        -0.12024915218353271,
                        -0.5439835786819458,
                        -0.07684134691953659,
                        0.19845739006996155,
                        -0.3654332160949707,
                        0.010032115504145622,
                        -0.034587349742650986,
                        0.16152773797512054,
                        0.5427967309951782,
                        0.06352908909320831,
                        0.047113627195358276,
                        -0.009958415292203426,
                        0.35733774304389954,
                        -0.18851889669895172,
                        0.13061082363128662,
                        0.14152279496192932,
                        -0.10302915424108505,
                        -0.23477227985858917,
                        0.027577174827456474,
                        -0.11839647591114044,
                        0.23980532586574554,
                        0.13174551725387573,
                        0.004629242233932018,
                        2.3338332176208496,
                        0.2903483510017395,
                        -0.07104845345020294,
                        0.019407644867897034,
                        -0.012535683810710907,
                        -0.10819932073354721,
                        0.009927401319146156,
                        0.06811527907848358,
                        -0.007422457914799452,
                        -0.10373286157846451,
                        -1.2457191944122314,
                        0.1461772620677948,
                        0.11930288374423981,
                        0.33381643891334534,
                        -0.5441060662269592,
                        -0.05919342488050461,
                        -0.1326100379228592,
                        0.0382513627409935,
                        0.36570921540260315,
                        0.03433305397629738,
                        0.35118567943573,
                        0.46595248579978943,
                        -0.12591785192489624,
                        0.29562821984291077,
                        0.08784095197916031,
                        0.2648034989833832,
                        -0.3091358244419098,
                        -0.15605954825878143,
                        -0.6027880311012268,
                        0.08621043711900711,
                        -0.03740181773900986,
                        -0.19990122318267822,
                        -0.02564352937042713,
                        -0.034585677087306976,
                        -0.4071001708507538,
                        0.08724164217710495,
                        0.020372750237584114,
                        -0.038488324731588364,
                        -0.219866082072258,
                        0.16660532355308533
                    ],
                    [
                        -0.11833023279905319,
                        0.16221876442432404,
                        0.3417291045188904,
                        -0.12525449693202972,
                        0.1966833919286728,
                        -0.3019891083240509,
                        -0.0022570414002984762,
                        -0.1767331212759018,
                        0.13600771129131317,
                        -0.16978421807289124,
                        -0.03754650801420212,
                        -0.34054556488990784,
                        0.3022998571395874,
                        0.16048279404640198,
                        0.7242239713668823,
                        0.6483876705169678,
                        -0.2347288727760315,
                        0.28198108077049255,
                        0.5180217623710632,
                        -0.014515506103634834,
                        0.6059955954551697,
                        0.09173846244812012,
                        -0.10381725430488586,
                        -0.1912454217672348,
                        -0.14013904333114624,
                        -0.21234790980815887,
                        -0.3245179057121277,
                        -0.37063369154930115,
                        0.004184511955827475,
                        -0.06941992789506912,
                        -0.6870167851448059,
                        -0.3288019597530365,
                        -0.3931514620780945,
                        0.008454814553260803,
                        -0.31374555826187134,
                        -0.6279875040054321,
                        -0.0888267531991005,
                        -0.49103134870529175,
                        -0.7408548593521118,
                        -0.3872269093990326,
                        -0.40190619230270386,
                        0.33859318494796753,
                        -0.11045309156179428,
                        0.027390900999307632,
                        -0.4489677846431732,
                        -0.795768678188324,
                        -0.5365743041038513,
                        -0.49626240134239197,
                        -0.08884909003973007,
                        -0.13958775997161865,
                        0.807535707950592,
                        -1.0538002252578735,
                        -0.07759732753038406,
                        0.05828099697828293,
                        -0.23093634843826294,
                        0.04949812591075897,
                        0.2298482209444046,
                        -0.048807479441165924,
                        0.57627272605896,
                        0.01928417757153511,
                        -0.03306287154555321,
                        -0.8496395945549011,
                        0.11086802184581757,
                        -0.3875129818916321,
                        -0.4511137008666992,
                        -0.21745705604553223,
                        0.02869468182325363,
                        0.0508519783616066,
                        -0.36580443382263184,
                        0.13484445214271545,
                        0.1806809902191162,
                        0.41672444343566895,
                        -0.1338035762310028,
                        -0.024754367768764496,
                        0.6607455015182495,
                        -0.0930636003613472,
                        0.35376909375190735,
                        -0.15623590350151062,
                        -0.25384166836738586,
                        -0.2220088392496109
                    ],
                    [
                        -0.16423048079013824,
                        0.1337795853614807,
                        0.41186752915382385,
                        -0.3589235246181488,
                        0.11934323608875275,
                        -0.05265667662024498,
                        -0.14436163008213043,
                        0.08569781482219696,
                        -0.017517952248454094,
                        0.07522515952587128,
                        0.00831426028162241,
                        -0.031273454427719116,
                        0.31936517357826233,
                        0.3525514006614685,
                        0.17992126941680908,
                        0.4507780969142914,
                        0.1550467163324356,
                        0.11429166793823242,
                        0.1188187524676323,
                        -0.042097482830286026,
                        -0.19424119591712952,
                        -0.21059662103652954,
                        -0.3092181086540222,
                        -0.14504428207874298,
                        -0.0966351255774498,
                        0.1025768369436264,
                        0.016872484236955643,
                        0.4902525246143341,
                        0.171919047832489,
                        -0.12449988722801208,
                        -0.1238260269165039,
                        -0.5436097979545593,
                        -0.2847762107849121,
                        -0.46112748980522156,
                        -0.35320916771888733,
                        -0.31958895921707153,
                        -0.38743382692337036,
                        -0.48137205839157104,
                        0.13479375839233398,
                        0.19111110270023346,
                        0.25684016942977905,
                        0.19069425761699677,
                        -0.544339120388031,
                        0.004413733724504709,
                        0.2683534622192383,
                        -0.08970189839601517,
                        -0.07958459854125977,
                        -1.1597644090652466,
                        0.056239884346723557,
                        0.05413420498371124,
                        -0.2699595093727112,
                        0.09963945299386978,
                        0.9076554179191589,
                        -0.7326439023017883,
                        0.35691872239112854,
                        0.12373841553926468,
                        -0.06310994923114777,
                        -0.009287701919674873,
                        -0.3172706365585327,
                        -0.02709732949733734,
                        0.1520746648311615,
                        -0.22631311416625977,
                        0.21777158975601196,
                        -0.05965053290128708,
                        0.010536237619817257,
                        -0.16306300461292267,
                        0.2455974966287613,
                        0.7232202887535095,
                        -0.16139160096645355,
                        -0.2502519488334656,
                        0.15576553344726562,
                        0.5873634815216064,
                        0.22431336343288422,
                        -0.2123422771692276,
                        -0.07963500171899796,
                        -0.03653860092163086,
                        0.09478215128183365,
                        -0.07106621563434601,
                        -0.036817342042922974,
                        -0.060917362570762634
                    ],
                    [
                        0.46854060888290405,
                        -0.0013593077892437577,
                        0.003754124976694584,
                        0.30957841873168945,
                        0.026086334139108658,
                        0.23237909376621246,
                        -0.047986291348934174,
                        -0.007418882567435503,
                        -0.3246593177318573,
                        -0.32495802640914917,
                        0.46111008524894714,
                        -0.03427811339497566,
                        0.1309705376625061,
                        0.11581327766180038,
                        0.2781001925468445,
                        -0.11276605725288391,
                        0.1802278757095337,
                        -0.20287884771823883,
                        0.019296767190098763,
                        -0.07551553100347519,
                        0.7566354870796204,
                        0.1627543568611145,
                        0.015742629766464233,
                        0.8005208969116211,
                        -0.0038160679396241903,
                        -0.3459368348121643,
                        0.09809232503175735,
                        0.07886254042387009,
                        0.5959452390670776,
                        -0.8659787178039551,
                        1.1799007654190063,
                        0.05945638567209244,
                        -0.1937810629606247,
                        -0.26919421553611755,
                        0.08820295333862305,
                        -0.1342952698469162,
                        0.18968184292316437,
                        -2.2588119506835938,
                        0.3647044003009796,
                        0.8925384879112244,
                        0.8615464568138123,
                        -0.031720761209726334,
                        0.03071710839867592,
                        0.9097121357917786,
                        -0.02126428671181202,
                        -0.10646097362041473,
                        0.008873936720192432,
                        -0.00940270908176899,
                        -0.6338227391242981,
                        0.30757540464401245,
                        0.33267688751220703,
                        -0.09345602244138718,
                        0.04014284908771515,
                        0.21706046164035797,
                        0.35688915848731995,
                        0.07043706625699997,
                        0.3103879392147064,
                        0.3526473343372345,
                        0.037048280239105225,
                        2.1184754371643066,
                        0.018612373620271683,
                        -0.09236336499452591,
                        0.12006136029958725,
                        -1.0382311344146729,
                        0.01876801624894142,
                        -0.18417060375213623,
                        0.017500827088952065,
                        -0.07962948083877563,
                        1.1908239126205444,
                        -1.629954218864441,
                        -0.44286879897117615,
                        0.23563624918460846,
                        -0.025397129356861115,
                        -0.14864227175712585,
                        0.024519814178347588,
                        0.1644510179758072,
                        -0.3263000249862671,
                        -1.749305248260498,
                        -0.05382212623953819,
                        0.06071559339761734
                    ],
                    [
                        0.060133542865514755,
                        -0.07746509462594986,
                        0.011272969655692577,
                        0.07590853422880173,
                        -0.08144505321979523,
                        -0.12084073573350906,
                        -0.2413247525691986,
                        0.21918340027332306,
                        0.2020770013332367,
                        -0.013615665957331657,
                        0.16058434545993805,
                        -0.261231929063797,
                        -0.10306532680988312,
                        -0.12121748924255371,
                        -0.1780136376619339,
                        -0.08498739451169968,
                        0.029654262587428093,
                        -0.17080017924308777,
                        -0.30922386050224304,
                        0.1819234937429428,
                        -0.02078597992658615,
                        -0.2578902542591095,
                        0.03191352263092995,
                        0.02511131390929222,
                        0.0966455489397049,
                        0.05702768266201019,
                        -0.5291922092437744,
                        -0.023471493273973465,
                        0.19161655008792877,
                        0.04260005056858063,
                        0.07515280693769455,
                        -0.5310720205307007,
                        -0.1856900304555893,
                        -0.048190683126449585,
                        -0.01800287887454033,
                        -0.02612365409731865,
                        0.5011613965034485,
                        0.18094360828399658,
                        -0.22574195265769958,
                        0.030401676893234253,
                        0.139856219291687,
                        0.6454096436500549,
                        0.06746283918619156,
                        0.00278577976860106,
                        0.6823487877845764,
                        -0.14695826172828674,
                        -1.0094894170761108,
                        0.023499703034758568,
                        0.1419348120689392,
                        -0.08909568190574646,
                        -0.3902166783809662,
                        -0.4412316381931305,
                        -0.15769022703170776,
                        -0.21259647607803345,
                        0.15522581338882446,
                        0.04638597369194031,
                        0.43664756417274475,
                        0.05910825356841087,
                        -0.575097382068634,
                        -0.03454560041427612,
                        0.11162868142127991,
                        -0.08668068796396255,
                        0.3297152817249298,
                        -0.12990890443325043,
                        -0.0311900544911623,
                        0.03346744552254677,
                        -0.11054019629955292,
                        0.17820791900157928,
                        -0.17966607213020325,
                        0.2522212564945221,
                        -0.09078646451234818,
                        0.14918886125087738,
                        0.19473899900913239,
                        0.19094891846179962,
                        0.15411852300167084,
                        -0.027259325608611107,
                        0.1904730349779129,
                        -0.06023449823260307,
                        -0.07743716239929199,
                        0.09812156856060028
                    ],
                    [
                        0.6947048902511597,
                        0.14141695201396942,
                        -0.031612273305654526,
                        0.31696128845214844,
                        -0.006718184798955917,
                        -0.06377213448286057,
                        -0.05702745169401169,
                        0.1031445637345314,
                        0.2348475307226181,
                        0.13349349796772003,
                        -0.0755462795495987,
                        0.10540898889303207,
                        -0.023310057818889618,
                        0.08938222378492355,
                        0.1678808033466339,
                        -0.034527041018009186,
                        0.2858119308948517,
                        -0.03890615701675415,
                        -0.4294542372226715,
                        0.24593234062194824,
                        0.9353131055831909,
                        0.29264017939567566,
                        0.12590129673480988,
                        -0.41684606671333313,
                        0.11870208382606506,
                        0.718292772769928,
                        0.07614149898290634,
                        0.2101326882839203,
                        -0.13508275151252747,
                        -0.09882935881614685,
                        -0.232390895485878,
                        0.09010826051235199,
                        0.276923805475235,
                        0.07413820922374725,
                        -0.32780328392982483,
                        0.1907075047492981,
                        0.07267893105745316,
                        0.28091293573379517,
                        -0.15866582095623016,
                        -0.04904571920633316,
                        1.884138822555542,
                        0.2066487818956375,
                        -0.016462787985801697,
                        0.03851703926920891,
                        -0.002783070784062147,
                        -0.5653056502342224,
                        0.004708185791969299,
                        0.03526286035776138,
                        -0.8041138052940369,
                        -0.3172992765903473,
                        -0.669887900352478,
                        0.12416184693574905,
                        0.0032506445422768593,
                        0.05140305310487747,
                        -0.25847455859184265,
                        0.029197553172707558,
                        -0.0017305499641224742,
                        0.03962055593729019,
                        -0.08650900423526764,
                        0.21667087078094482,
                        1.5005680322647095,
                        0.19842161238193512,
                        -0.2311698943376541,
                        -0.15609483420848846,
                        -0.061165302991867065,
                        0.06313756853342056,
                        0.1074158251285553,
                        0.07810758054256439,
                        -0.5739075541496277,
                        0.420615017414093,
                        -0.7808631658554077,
                        -0.23905673623085022,
                        -0.05521485581994057,
                        0.06582227349281311,
                        0.3867039978504181,
                        0.14263981580734253,
                        -0.07459305971860886,
                        -0.10344266146421432,
                        0.05361337214708328,
                        0.2503563165664673
                    ],
                    [
                        0.3469870686531067,
                        -0.08537808805704117,
                        -0.0663941279053688,
                        0.12793433666229248,
                        0.2850332260131836,
                        -0.248810276389122,
                        0.7555283904075623,
                        -0.3724289536476135,
                        0.17993909120559692,
                        0.002827713266015053,
                        -0.06379741430282593,
                        0.4463580250740051,
                        -0.057306624948978424,
                        -0.13935482501983643,
                        -0.09995685517787933,
                        0.14355973899364471,
                        0.40299269556999207,
                        -0.07264362275600433,
                        -0.5090467929840088,
                        -0.12856829166412354,
                        0.027168912813067436,
                        -0.16331328451633453,
                        -0.036792658269405365,
                        0.10842707753181458,
                        0.014868431724607944,
                        0.06934037804603577,
                        0.3710808753967285,
                        0.0724702849984169,
                        -0.08595119416713715,
                        0.12836919724941254,
                        -0.1959984451532364,
                        0.661578357219696,
                        0.31386706233024597,
                        0.14685198664665222,
                        0.2314917892217636,
                        0.13734744489192963,
                        -0.032809413969516754,
                        0.2957022488117218,
                        0.5009688138961792,
                        -0.023378489539027214,
                        0.011511658318340778,
                        0.5113885998725891,
                        -0.015640905126929283,
                        0.03214682638645172,
                        0.8997386693954468,
                        -0.3579789400100708,
                        0.2972559630870819,
                        0.10499188303947449,
                        0.03378508239984512,
                        -0.13700221478939056,
                        -0.19807377457618713,
                        -1.4696292877197266,
                        0.247287780046463,
                        0.04655929654836655,
                        0.3474352955818176,
                        -0.13908828794956207,
                        -0.35310208797454834,
                        0.034155771136283875,
                        -0.49454981088638306,
                        0.0025063578505069017,
                        0.11368675529956818,
                        -0.06822408735752106,
                        0.3865390419960022,
                        -0.14715425670146942,
                        -0.22317282855510712,
                        0.0732191652059555,
                        0.3050976097583771,
                        -0.900269627571106,
                        0.2229570895433426,
                        0.16201767325401306,
                        0.11765441298484802,
                        -0.09224295616149902,
                        -0.08081241697072983,
                        0.07470951229333878,
                        0.045229364186525345,
                        -0.1240086778998375,
                        -0.2369633913040161,
                        -0.14313536882400513,
                        0.21444106101989746,
                        0.09461583942174911
                    ],
                    [
                        -0.2099829465150833,
                        -0.010623713955283165,
                        0.017515011131763458,
                        -0.2909219264984131,
                        -0.028587738052010536,
                        -0.015616991557180882,
                        -0.25643160939216614,
                        -0.14042843878269196,
                        -0.07728027552366257,
                        -0.07526347041130066,
                        0.043604470789432526,
                        0.3299635052680969,
                        -0.09241028875112534,
                        0.13117700815200806,
                        0.121334008872509,
                        0.45686277747154236,
                        -0.2963563799858093,
                        0.14833912253379822,
                        0.09726358205080032,
                        -0.05405936390161514,
                        -0.16788135468959808,
                        -0.16527347266674042,
                        0.0767214447259903,
                        -0.02519710175693035,
                        -0.20681875944137573,
                        0.07874411344528198,
                        -0.23563256859779358,
                        0.02763213776051998,
                        -0.06769701838493347,
                        -0.03971913829445839,
                        0.017397737130522728,
                        -0.6236032247543335,
                        -0.19749021530151367,
                        -0.4887097179889679,
                        -0.3038084805011749,
                        -0.23421145975589752,
                        -0.330949604511261,
                        -0.16630639135837555,
                        -0.5373139381408691,
                        0.11529102921485901,
                        0.08435652405023575,
                        0.04711485281586647,
                        0.7192510366439819,
                        -0.012200619094073772,
                        -0.21802225708961487,
                        -0.07104218006134033,
                        0.08900214731693268,
                        -1.8982195854187012,
                        -0.008723893202841282,
                        -0.046667952090501785,
                        -0.08119264245033264,
                        -0.1621369570493698,
                        0.12316620349884033,
                        0.057350195944309235,
                        -0.1967863142490387,
                        -0.46123677492141724,
                        -0.7519012093544006,
                        0.028415584936738014,
                        0.08341453224420547,
                        -0.024293584749102592,
                        0.018296752125024796,
                        0.18258962035179138,
                        -0.7923456430435181,
                        -0.06621415168046951,
                        -0.45937955379486084,
                        -0.15560881793498993,
                        -0.15233854949474335,
                        -1.6326647996902466,
                        0.1429520696401596,
                        -0.16617512702941895,
                        0.3229367733001709,
                        -0.6023565530776978,
                        -0.03487114608287811,
                        -0.017973287031054497,
                        -0.1368611603975296,
                        -0.04104052856564522,
                        -0.31900501251220703,
                        -0.01798553578555584,
                        0.011539794504642487,
                        -0.1506325602531433
                    ],
                    [
                        0.5192141532897949,
                        -0.2680779695510864,
                        0.16348566114902496,
                        0.47272586822509766,
                        -0.022044159471988678,
                        -0.6466176509857178,
                        -0.11244857311248779,
                        -0.04341394826769829,
                        0.6590622663497925,
                        -0.3398060202598572,
                        0.11798833310604095,
                        -0.19771945476531982,
                        0.04584377631545067,
                        -0.14116349816322327,
                        -0.13684751093387604,
                        0.2550121545791626,
                        -0.11482346057891846,
                        0.5918794870376587,
                        0.24756185710430145,
                        -0.11392540484666824,
                        0.36066579818725586,
                        0.17373698949813843,
                        -0.1089254841208458,
                        -0.13390223681926727,
                        -0.2539876699447632,
                        -0.1998877078294754,
                        -0.04336368665099144,
                        -0.07290911674499512,
                        1.0058740377426147,
                        -0.32527488470077515,
                        -0.3277099132537842,
                        -0.1357192099094391,
                        -0.19302500784397125,
                        -0.009006552398204803,
                        0.2665446698665619,
                        0.02478291653096676,
                        0.1345864087343216,
                        -0.6920144557952881,
                        -0.5668677091598511,
                        -0.03141181170940399,
                        0.8934739232063293,
                        -0.10446873307228088,
                        0.03614705428481102,
                        -0.001170203322544694,
                        -0.047109026461839676,
                        1.182495355606079,
                        0.009642232209444046,
                        -0.10738708078861237,
                        0.9192817211151123,
                        -0.08625268191099167,
                        -0.2699264883995056,
                        -0.22933393716812134,
                        -0.035767052322626114,
                        0.018328523263335228,
                        -0.014873536303639412,
                        0.06876721233129501,
                        0.28475797176361084,
                        -0.04720887541770935,
                        -0.14166267216205597,
                        -0.1271955519914627,
                        -0.4287453591823578,
                        0.047305162996053696,
                        0.2642383277416229,
                        -0.43891191482543945,
                        0.0004172746557742357,
                        -0.09839197248220444,
                        0.1233111098408699,
                        -0.009146894328296185,
                        -0.4898533523082733,
                        -0.27819928526878357,
                        -1.1281177997589111,
                        0.3814978003501892,
                        -0.04738364741206169,
                        -0.15360531210899353,
                        0.051540374755859375,
                        0.1398678570985794,
                        0.00025993859162554145,
                        -0.01897384598851204,
                        0.054348092526197433,
                        0.16382941603660583
                    ],
                    [
                        -0.6552885174751282,
                        0.03491527959704399,
                        0.014519847929477692,
                        0.8498746156692505,
                        -0.008610152639448643,
                        0.11684590578079224,
                        0.04903625324368477,
                        -0.11509925127029419,
                        0.07249519228935242,
                        0.6333484649658203,
                        -0.37869077920913696,
                        -0.3760249614715576,
                        0.015480205416679382,
                        0.1531693935394287,
                        -0.16938257217407227,
                        0.07964815944433212,
                        -0.13104020059108734,
                        -0.7617626190185547,
                        0.14080990850925446,
                        0.6271931529045105,
                        -0.1950424760580063,
                        -0.063555046916008,
                        0.025820812210440636,
                        1.5927902460098267,
                        0.06095648929476738,
                        0.7728997468948364,
                        -0.05174980312585831,
                        -0.0008824376855045557,
                        0.28176483511924744,
                        -0.1701158583164215,
                        -0.6507598757743835,
                        0.09115642309188843,
                        -0.12180124968290329,
                        -0.11858946830034256,
                        -0.5079303979873657,
                        -0.050032228231430054,
                        -0.039396870881319046,
                        0.048004768788814545,
                        -0.24029892683029175,
                        1.1065632104873657,
                        -0.27009129524230957,
                        -0.06833138316869736,
                        0.03283131122589111,
                        -0.09983383119106293,
                        0.005918705370277166,
                        0.5622496604919434,
                        0.00016256330127362162,
                        -0.003593061352148652,
                        1.3411273956298828,
                        1.6047865152359009,
                        -0.24449127912521362,
                        -0.023978954181075096,
                        -0.022681567817926407,
                        -0.036718811839818954,
                        -0.5509775876998901,
                        -0.05852658301591873,
                        -0.025324266403913498,
                        0.11146821826696396,
                        -0.35825106501579285,
                        -0.0642377957701683,
                        0.5069477558135986,
                        0.09435279667377472,
                        -0.10340884327888489,
                        -0.8622456192970276,
                        -0.0354146845638752,
                        -0.13345208764076233,
                        0.001637310953810811,
                        0.12660248577594757,
                        -0.9668556451797485,
                        -0.11518435180187225,
                        -0.010411466471850872,
                        -0.1325697898864746,
                        0.1393885761499405,
                        0.02976752072572708,
                        -0.17831188440322876,
                        -0.2981314957141876,
                        0.0256394911557436,
                        0.18093639612197876,
                        0.21769477427005768,
                        -0.06635568290948868
                    ],
                    [
                        -0.4614237844944,
                        0.4946669042110443,
                        0.16248659789562225,
                        0.22660207748413086,
                        0.10799717903137207,
                        1.0627368688583374,
                        -0.024059562012553215,
                        -0.26667386293411255,
                        0.17260883748531342,
                        -0.10903492569923401,
                        -0.2042839229106903,
                        0.28533414006233215,
                        0.004643416963517666,
                        0.6829339265823364,
                        1.2318501472473145,
                        0.131353959441185,
                        -0.48421698808670044,
                        0.2540060579776764,
                        0.49870941042900085,
                        0.536806046962738,
                        -0.08872461318969727,
                        -0.07637863606214523,
                        -0.19520968198776245,
                        -0.30536267161369324,
                        -0.2695469558238983,
                        -0.24426709115505219,
                        -0.21429097652435303,
                        -0.1408577412366867,
                        -0.29569128155708313,
                        -0.07686048001050949,
                        -0.3805941641330719,
                        -0.321818083524704,
                        -0.13761527836322784,
                        -0.5949611663818359,
                        -1.0287891626358032,
                        -0.7354667782783508,
                        -0.08801136910915375,
                        -0.6231924891471863,
                        -0.4053648114204407,
                        -0.45926612615585327,
                        0.9602178335189819,
                        -0.21555200219154358,
                        0.004848155193030834,
                        0.0017655296251177788,
                        0.019399113953113556,
                        0.16412562131881714,
                        -0.019341889768838882,
                        -0.16980278491973877,
                        -0.041309576481580734,
                        -0.13032647967338562,
                        -0.004622458014637232,
                        -0.10200772434473038,
                        -0.08325237035751343,
                        -0.23632267117500305,
                        0.2860887050628662,
                        -0.021376686170697212,
                        -0.025739192962646484,
                        -0.02702510543167591,
                        -0.34601089358329773,
                        0.014730499126017094,
                        -0.22340121865272522,
                        0.5608795285224915,
                        0.14874190092086792,
                        -0.32321470975875854,
                        -0.015075036324560642,
                        -0.23889142274856567,
                        -0.055018577724695206,
                        -0.04166702553629875,
                        -0.2111513316631317,
                        0.06370667368173599,
                        -0.8536361455917358,
                        0.13912996649742126,
                        -0.25201964378356934,
                        -0.1605173945426941,
                        -0.12963348627090454,
                        -0.10572703182697296,
                        0.38666796684265137,
                        -0.002341895829886198,
                        0.02506367675960064,
                        -0.15177373588085175
                    ],
                    [
                        0.022136248648166656,
                        -0.11609428375959396,
                        0.5832026600837708,
                        -0.10799158364534378,
                        0.3436024487018585,
                        -0.3224419355392456,
                        -0.42029324173927307,
                        0.251804918050766,
                        -0.03499242290854454,
                        -0.0022413963451981544,
                        -0.08166088908910751,
                        -0.6637489199638367,
                        0.37392181158065796,
                        0.30506232380867004,
                        0.044802475720644,
                        0.4434889853000641,
                        -0.07413917779922485,
                        0.20340341329574585,
                        -0.07186562567949295,
                        -0.0009700481896288693,
                        0.016368143260478973,
                        -0.05343402177095413,
                        0.09116207808256149,
                        -0.10505872964859009,
                        0.050415970385074615,
                        -0.003689654404297471,
                        0.05125581845641136,
                        -0.1230597123503685,
                        0.3260122537612915,
                        -0.07981335371732712,
                        -0.25094544887542725,
                        0.9424472451210022,
                        0.06472086161375046,
                        -0.043454915285110474,
                        0.025091562420129776,
                        -0.08137369155883789,
                        0.6691445112228394,
                        -0.011785687878727913,
                        -0.16507947444915771,
                        -0.018828287720680237,
                        -0.15832513570785522,
                        0.4545486271381378,
                        -0.06018074229359627,
                        0.004715725779533386,
                        -0.12459933757781982,
                        -0.29218313097953796,
                        0.5028076767921448,
                        -0.9958288073539734,
                        0.11717119812965393,
                        0.0035934424959123135,
                        -0.11987645924091339,
                        0.17624656856060028,
                        -0.05040403828024864,
                        0.18927021324634552,
                        0.3364643454551697,
                        -0.020440777763724327,
                        1.6106066703796387,
                        0.005872863344848156,
                        -0.6108931303024292,
                        -0.05212230607867241,
                        -0.0880783423781395,
                        -0.14031140506267548,
                        -0.2119581699371338,
                        0.07132750749588013,
                        -0.028439899906516075,
                        0.1455947607755661,
                        -0.03744441643357277,
                        1.06844162940979,
                        -0.05408075079321861,
                        -0.1764727681875229,
                        -0.017061950638890266,
                        0.29895660281181335,
                        -0.1040387973189354,
                        -0.08096270263195038,
                        -0.0035558955278247595,
                        -0.26324698328971863,
                        1.720423698425293,
                        -0.12347904592752457,
                        0.056008487939834595,
                        0.15447793900966644
                    ],
                    [
                        0.1980048418045044,
                        0.04644565284252167,
                        0.17648257315158844,
                        0.06577154248952866,
                        0.20690086483955383,
                        -0.039880264550447464,
                        0.002854707418009639,
                        0.08038429915904999,
                        0.2628176510334015,
                        -0.012000888586044312,
                        0.21834972500801086,
                        0.03175398334860802,
                        -0.0891576036810875,
                        0.054358869791030884,
                        -0.022568464279174805,
                        0.33878859877586365,
                        0.011931555345654488,
                        -0.08120540529489517,
                        -0.048836417496204376,
                        0.15070907771587372,
                        -0.22853553295135498,
                        0.12890727818012238,
                        -0.0108123067766428,
                        0.1473495215177536,
                        0.07524175196886063,
                        -0.16519631445407867,
                        -0.16767840087413788,
                        0.183730810880661,
                        0.022076817229390144,
                        -0.08311639726161957,
                        0.19401739537715912,
                        -0.012960582971572876,
                        -0.15021422505378723,
                        0.2190413922071457,
                        0.04170656576752663,
                        -0.03609057143330574,
                        -0.2772402763366699,
                        -0.0205107219517231,
                        -0.09906605631113052,
                        -0.5260399580001831,
                        -0.03578198701143265,
                        -0.09607923775911331,
                        -0.42578691244125366,
                        0.11794792115688324,
                        -0.0083957863971591,
                        -0.09536436945199966,
                        0.07344944030046463,
                        -0.25736311078071594,
                        0.16410991549491882,
                        -0.033433545380830765,
                        0.2601911127567291,
                        0.06627646088600159,
                        0.4564235806465149,
                        -0.2527018189430237,
                        0.1812533140182495,
                        -0.6765632629394531,
                        0.13518349826335907,
                        -0.03647023066878319,
                        -0.10802760720252991,
                        0.02938385121524334,
                        -0.03606080636382103,
                        0.04000180587172508,
                        0.17973828315734863,
                        0.2349931001663208,
                        0.05962130427360535,
                        0.0675329640507698,
                        0.025855962187051773,
                        -0.1547444611787796,
                        0.10397162288427353,
                        0.08418624103069305,
                        -0.0077550881542265415,
                        -0.09688642621040344,
                        0.12039035558700562,
                        -0.042934563010931015,
                        -0.25461795926094055,
                        0.07406085729598999,
                        -0.09806941449642181,
                        -0.31764742732048035,
                        0.07760436832904816,
                        0.07468928396701813
                    ],
                    [
                        0.16989122331142426,
                        0.25495681166648865,
                        0.11926484107971191,
                        0.039100248366594315,
                        0.10585321485996246,
                        0.030819769948720932,
                        -0.020753569900989532,
                        -0.0114052165299654,
                        0.1750369518995285,
                        -0.25456660985946655,
                        0.17915230989456177,
                        -0.1212848648428917,
                        0.02429136633872986,
                        -0.24767686426639557,
                        -0.03312288224697113,
                        0.052262190729379654,
                        0.01167622022330761,
                        0.09241770952939987,
                        0.13867954909801483,
                        0.20866484940052032,
                        -0.13468606770038605,
                        0.16517584025859833,
                        -0.02144288644194603,
                        0.5328120589256287,
                        -0.2157089114189148,
                        -0.17057111859321594,
                        -0.3424640893936157,
                        0.017107129096984863,
                        -0.1611047089099884,
                        -0.04361603781580925,
                        0.1384393870830536,
                        -0.16914919018745422,
                        0.14886131882667542,
                        0.042797088623046875,
                        0.11728756874799728,
                        -0.2092614471912384,
                        -0.08133930712938309,
                        0.26085034012794495,
                        -0.2023167461156845,
                        -0.4896546006202698,
                        -0.3441133499145508,
                        -0.08008652180433273,
                        -0.09912978857755661,
                        -0.10895241051912308,
                        0.27245375514030457,
                        -0.058668289333581924,
                        0.06733082234859467,
                        -0.051758792251348495,
                        -0.42033904790878296,
                        0.004084569402039051,
                        0.4153405427932739,
                        0.1049705296754837,
                        0.34615516662597656,
                        0.5388408899307251,
                        0.03192531690001488,
                        0.2545497715473175,
                        0.022060183808207512,
                        -0.16299140453338623,
                        -0.16671006381511688,
                        -0.10920495539903641,
                        -0.1218770295381546,
                        0.19529271125793457,
                        0.1259659379720688,
                        0.2680729031562805,
                        0.056800082325935364,
                        -0.01316018495708704,
                        -0.06874436885118484,
                        0.13856863975524902,
                        -0.0010828321101143956,
                        0.3894573152065277,
                        0.0012918551219627261,
                        -0.21016985177993774,
                        0.009570127353072166,
                        -0.25768551230430603,
                        -0.5685533285140991,
                        0.032997552305459976,
                        -0.1418662816286087,
                        -0.3666205406188965,
                        0.24578619003295898,
                        -0.0022676177322864532
                    ],
                    [
                        0.22895540297031403,
                        -0.47816842794418335,
                        0.1261623203754425,
                        -0.52010577917099,
                        -0.3378872275352478,
                        0.19175860285758972,
                        0.24882224202156067,
                        -0.07832774519920349,
                        -0.7238486409187317,
                        0.796816885471344,
                        -0.06185377389192581,
                        0.20271998643875122,
                        0.07873046398162842,
                        0.5064249634742737,
                        0.028729068115353584,
                        0.178530752658844,
                        0.22492603957653046,
                        0.06579563021659851,
                        -0.03760210797190666,
                        -0.7423773407936096,
                        -0.12857119739055634,
                        -1.0692174434661865,
                        0.11019428819417953,
                        -0.3669019937515259,
                        0.1969153732061386,
                        0.1940920501947403,
                        0.5324642658233643,
                        0.05095427483320236,
                        -0.4084838926792145,
                        0.42083990573883057,
                        0.43695640563964844,
                        0.0559847466647625,
                        -0.018088674172759056,
                        -0.23925131559371948,
                        -0.14971430599689484,
                        -0.3521212339401245,
                        -0.10428682714700699,
                        -0.25113725662231445,
                        -0.27843597531318665,
                        0.042786166071891785,
                        0.2441294640302658,
                        -0.04471941292285919,
                        -0.09651628881692886,
                        -0.08667925745248795,
                        -0.5004969835281372,
                        0.21391957998275757,
                        -0.5879786014556885,
                        -0.09939749538898468,
                        1.1745444536209106,
                        -0.055103275924921036,
                        0.08453844487667084,
                        -0.9767916798591614,
                        -0.14566653966903687,
                        0.16615630686283112,
                        0.02210896834731102,
                        0.07565639913082123,
                        0.20494413375854492,
                        -0.07194867730140686,
                        0.11969735473394394,
                        -0.10121573507785797,
                        0.3659064769744873,
                        0.3487356901168823,
                        0.010041776113212109,
                        0.21427926421165466,
                        -0.2142009139060974,
                        0.14317204058170319,
                        -0.2089870274066925,
                        -0.3836670219898224,
                        0.19984517991542816,
                        -1.2863366603851318,
                        -0.12713181972503662,
                        0.20477446913719177,
                        -0.27619388699531555,
                        -0.0633125752210617,
                        0.3171931505203247,
                        -0.364528089761734,
                        -0.040605030953884125,
                        -0.41343924403190613,
                        0.17950545251369476,
                        -0.14774471521377563
                    ],
                    [
                        -0.13464640080928802,
                        0.0764893963932991,
                        -0.022128252312541008,
                        -0.18417274951934814,
                        -0.11627699434757233,
                        0.01448024157434702,
                        0.09717708081007004,
                        -0.10028053820133209,
                        -0.1979811191558838,
                        -0.1901407390832901,
                        -0.16985808312892914,
                        0.02395903319120407,
                        0.07698781788349152,
                        0.14377522468566895,
                        0.3687379062175751,
                        0.3067561089992523,
                        0.13038069009780884,
                        0.7136229872703552,
                        0.36135298013687134,
                        0.19644688069820404,
                        -0.2486717402935028,
                        -0.1779966801404953,
                        0.06980112195014954,
                        0.25147178769111633,
                        -0.050363317131996155,
                        0.01419034507125616,
                        -0.01016496866941452,
                        -0.06627088785171509,
                        0.10151896625757217,
                        -0.06944834440946579,
                        -0.35607096552848816,
                        0.12618055939674377,
                        -0.09352600574493408,
                        -0.12201888859272003,
                        -0.34031060338020325,
                        -0.24092718958854675,
                        0.538761556148529,
                        -0.4521520733833313,
                        -0.1146027222275734,
                        0.4650360643863678,
                        0.3006810247898102,
                        -0.3389964997768402,
                        0.16727164387702942,
                        0.25998735427856445,
                        -0.4560284912586212,
                        0.38270267844200134,
                        -0.17925240099430084,
                        0.3154471814632416,
                        0.5466289520263672,
                        0.08677055686712265,
                        -0.14029985666275024,
                        -0.2689915597438812,
                        0.3354760706424713,
                        -0.0014643588801845908,
                        -0.36514604091644287,
                        0.83563232421875,
                        0.05148071423172951,
                        0.0354243628680706,
                        0.4318397641181946,
                        -0.5042527914047241,
                        0.2189822793006897,
                        0.16708137094974518,
                        0.012691855430603027,
                        -0.15725986659526825,
                        -0.11079907417297363,
                        -0.05648011714220047,
                        -0.03210201859474182,
                        0.0287009309977293,
                        -0.12258346378803253,
                        -0.14231376349925995,
                        -0.25140002369880676,
                        0.10743128508329391,
                        0.05862201377749443,
                        0.000814471859484911,
                        -0.09922504425048828,
                        -0.08062975853681564,
                        0.3130468726158142,
                        -0.21637608110904694,
                        -0.020845845341682434,
                        -0.04318106919527054
                    ],
                    [
                        0.322061687707901,
                        -0.028825443238019943,
                        0.1034860759973526,
                        0.22644296288490295,
                        -0.21629686653614044,
                        -0.18018659949302673,
                        0.0394534170627594,
                        0.28087887167930603,
                        -0.028115373104810715,
                        -0.08139259368181229,
                        0.11736872792243958,
                        0.0480659045279026,
                        -0.48829972743988037,
                        -0.3732312321662903,
                        -0.15391024947166443,
                        -0.5490378737449646,
                        0.11226200312376022,
                        -0.17181353271007538,
                        -0.2505028545856476,
                        0.0032431185245513916,
                        0.05290495604276657,
                        0.09781379252672195,
                        0.3742590844631195,
                        0.10539474338293076,
                        0.32637885212898254,
                        0.15716642141342163,
                        0.03879905492067337,
                        -0.49491697549819946,
                        -0.23037098348140717,
                        0.16326911747455597,
                        0.07531310617923737,
                        -0.34779343008995056,
                        0.5465038418769836,
                        0.5000438690185547,
                        0.3926028907299042,
                        0.654548704624176,
                        0.5585863590240479,
                        0.32420507073402405,
                        0.2505381107330322,
                        -0.06794629991054535,
                        0.08597418665885925,
                        -0.13992854952812195,
                        0.7798994779586792,
                        0.0044223954901099205,
                        -0.10091747343540192,
                        0.03295929729938507,
                        -0.14394702017307281,
                        1.4468032121658325,
                        -0.05477483943104744,
                        -0.04973414167761803,
                        0.01831834949553013,
                        -0.1831405609846115,
                        -0.26366499066352844,
                        0.15118883550167084,
                        -0.25122585892677307,
                        -0.21120427548885345,
                        -0.2315039336681366,
                        0.027387289330363274,
                        0.2407456338405609,
                        0.04642311483621597,
                        0.05353577435016632,
                        0.08352217078208923,
                        -0.8249101638793945,
                        -0.057039033621549606,
                        0.08600499480962753,
                        0.3833913803100586,
                        0.6108835339546204,
                        2.159888982772827,
                        0.26372429728507996,
                        0.18860405683517456,
                        -0.015598241239786148,
                        0.8937053680419922,
                        -0.07523402571678162,
                        0.08296138793230057,
                        0.07259207218885422,
                        0.17546561360359192,
                        2.692456007003784,
                        0.040492888540029526,
                        0.08639248460531235,
                        0.30088403820991516
                    ],
                    [
                        -0.6005011200904846,
                        0.28502199053764343,
                        0.14320912957191467,
                        -0.43831026554107666,
                        0.07493086159229279,
                        0.027252277359366417,
                        0.11389170587062836,
                        -0.18610259890556335,
                        -0.028821028769016266,
                        0.6186482906341553,
                        -0.004569572862237692,
                        -0.004724397324025631,
                        0.008749354630708694,
                        0.05660684406757355,
                        0.2825593948364258,
                        0.21315515041351318,
                        -0.2570432722568512,
                        0.6736589074134827,
                        0.16276107728481293,
                        0.5388252139091492,
                        0.13168185949325562,
                        -0.14068703353405,
                        -0.09997036308050156,
                        -0.08569400757551193,
                        -0.20788763463497162,
                        0.13175468146800995,
                        -0.08994321525096893,
                        -0.22900879383087158,
                        0.2226727455854416,
                        0.3371543884277344,
                        -0.22344231605529785,
                        -0.1297776997089386,
                        -0.07209465652704239,
                        -0.1999896913766861,
                        -0.3681792914867401,
                        -0.18650145828723907,
                        -0.09066113829612732,
                        -0.2421591430902481,
                        0.02821814827620983,
                        0.22459161281585693,
                        0.40716254711151123,
                        -0.0983942374587059,
                        -0.04122072085738182,
                        -2.8578250408172607,
                        -0.04897763207554817,
                        0.03720112890005112,
                        -0.05864575877785683,
                        -0.17319394648075104,
                        -0.7449576258659363,
                        -0.7911116480827332,
                        0.01041879691183567,
                        -0.28997913002967834,
                        0.11944282054901123,
                        0.10788130760192871,
                        0.19627390801906586,
                        0.02481955476105213,
                        0.16036313772201538,
                        -0.5476614832878113,
                        0.048474475741386414,
                        1.32052743434906,
                        0.294114887714386,
                        -0.7483516335487366,
                        0.2521776854991913,
                        -0.8679496049880981,
                        -0.10125827044248581,
                        -0.10661474615335464,
                        0.09572528302669525,
                        0.1066419780254364,
                        -0.32286563515663147,
                        0.25195029377937317,
                        -0.3782028257846832,
                        0.2437610626220703,
                        -0.040985140949487686,
                        -0.022371966391801834,
                        -0.23043517768383026,
                        0.199657142162323,
                        -0.19570507109165192,
                        -1.312211275100708,
                        -0.22103716433048248,
                        -0.10636786371469498
                    ],
                    [
                        0.0514148473739624,
                        0.10702402144670486,
                        -0.23041033744812012,
                        -0.5423890352249146,
                        0.12839271128177643,
                        -0.07321444898843765,
                        -0.045769959688186646,
                        -0.14806658029556274,
                        -0.4769861102104187,
                        0.2849021852016449,
                        -0.3130793273448944,
                        -0.318332701921463,
                        0.416702002286911,
                        0.44831955432891846,
                        0.48062965273857117,
                        0.6353995203971863,
                        -0.014577114954590797,
                        0.1884874701499939,
                        -0.19928793609142303,
                        -0.32319939136505127,
                        0.3155811131000519,
                        -0.16730979084968567,
                        -0.06379150599241257,
                        -0.28873059153556824,
                        -0.21286629140377045,
                        -0.372245728969574,
                        -0.05900581553578377,
                        -0.06425485759973526,
                        0.10594135522842407,
                        0.11998757719993591,
                        -0.25081393122673035,
                        -0.03039604052901268,
                        -0.590347945690155,
                        -0.3452824652194977,
                        -0.5835582613945007,
                        -0.28269073367118835,
                        0.24357245862483978,
                        -0.6118600368499756,
                        -0.12500852346420288,
                        0.10652347654104233,
                        0.012176722288131714,
                        -0.9370148777961731,
                        0.21032238006591797,
                        -0.018349140882492065,
                        0.3862631320953369,
                        -0.12520650029182434,
                        0.37223413586616516,
                        -0.010375821962952614,
                        -0.0380958691239357,
                        -0.045301154255867004,
                        0.71547532081604,
                        0.49543118476867676,
                        0.24907894432544708,
                        0.15572533011436462,
                        0.19411394000053406,
                        -0.039305634796619415,
                        0.332450807094574,
                        -0.03865755721926689,
                        0.29059210419654846,
                        0.20052318274974823,
                        -0.07065169513225555,
                        0.20206281542778015,
                        -0.017042579129338264,
                        -0.07814689725637436,
                        -0.1676025092601776,
                        -0.19767582416534424,
                        -0.01837562583386898,
                        0.29739558696746826,
                        -0.4078703224658966,
                        -1.0234076976776123,
                        0.16261231899261475,
                        -0.06103361025452614,
                        0.02886640653014183,
                        0.08235926926136017,
                        0.3839610815048218,
                        -0.11185728013515472,
                        0.14987167716026306,
                        -0.07866982370615005,
                        -0.23225192725658417,
                        -0.2776438891887665
                    ],
                    [
                        -0.20787589251995087,
                        -0.09012389183044434,
                        -0.03235965967178345,
                        -0.6381458044052124,
                        0.03919605165719986,
                        1.0912266969680786,
                        0.02374066412448883,
                        -0.01821034960448742,
                        -0.4694285988807678,
                        -2.055506467819214,
                        0.5950031876564026,
                        0.39338165521621704,
                        -0.07936269044876099,
                        -0.2992899417877197,
                        -0.38921111822128296,
                        -0.1412418782711029,
                        0.054500170052051544,
                        1.0800206661224365,
                        -0.059093818068504333,
                        0.2924190163612366,
                        0.21931329369544983,
                        -0.13049036264419556,
                        0.06518858671188354,
                        -1.1373035907745361,
                        0.034588683396577835,
                        0.23256754875183105,
                        0.016984973102808,
                        -0.07577992230653763,
                        0.0542401447892189,
                        -1.399989366531372,
                        0.47501835227012634,
                        -0.1115109920501709,
                        -0.00848173163831234,
                        0.07704953104257584,
                        0.03888862207531929,
                        0.04065018519759178,
                        -0.14701145887374878,
                        0.1047523245215416,
                        -0.15166422724723816,
                        -0.7427390217781067,
                        -1.0622587203979492,
                        0.09807125478982925,
                        -0.057042934000492096,
                        -0.39665424823760986,
                        0.04301636293530464,
                        -0.2969236671924591,
                        -0.008724917657673359,
                        0.09517927467823029,
                        0.4870159327983856,
                        1.156206488609314,
                        0.22358866035938263,
                        0.18349695205688477,
                        0.0065346891060471535,
                        -0.06523200124502182,
                        -0.4417397677898407,
                        -0.0727371945977211,
                        -0.3685316741466522,
                        -0.22957390546798706,
                        0.11064429581165314,
                        -0.4860685467720032,
                        -0.9436899423599243,
                        0.3944931924343109,
                        -0.1261814534664154,
                        -1.4990944862365723,
                        0.05126477777957916,
                        0.26547154784202576,
                        -0.10539477318525314,
                        -0.05218302085995674,
                        0.5711960196495056,
                        -0.5238140821456909,
                        0.32014238834381104,
                        -0.21832314133644104,
                        -0.0072837574407458305,
                        0.14883609116077423,
                        0.17363503575325012,
                        -0.40408191084861755,
                        0.1747068464756012,
                        0.689980685710907,
                        0.25026050209999084,
                        0.20259614288806915
                    ]
                ],
                [
                    0.4813660979270935,
                    0.4802357852458954,
                    0.022990504279732704,
                    1.9330317974090576,
                    -0.8474820852279663,
                    0.6545501947402954,
                    -0.1894690990447998,
                    1.6958339214324951,
                    1.1041042804718018,
                    -0.347106397151947,
                    -0.40549731254577637,
                    1.1216479539871216,
                    -3.1295647621154785,
                    -2.5629916191101074,
                    -2.088026285171509,
                    -3.402273178100586,
                    1.252122163772583,
                    -2.7417891025543213,
                    -1.4933222532272339,
                    1.1889811754226685,
                    -0.18403364717960358,
                    1.0898743867874146,
                    0.9362009167671204,
                    -0.4665048122406006,
                    1.6488354206085205,
                    0.0061780367977917194,
                    1.0177736282348633,
                    1.0919383764266968,
                    -0.16774344444274902,
                    0.1181660145521164,
                    0.6851105690002441,
                    0.19156566262245178,
                    3.337770462036133,
                    3.1453628540039062,
                    2.960604667663574,
                    3.7245569229125977,
                    0.5230436325073242,
                    3.334676742553711,
                    2.2537479400634766,
                    0.17263329029083252,
                    0.4771016538143158,
                    -0.617239236831665,
                    -0.2227499783039093,
                    -0.5792534351348877,
                    0.008103112690150738,
                    0.04510408639907837,
                    -0.044781673699617386,
                    -1.2398053407669067,
                    -0.048164013773202896,
                    -0.10145097970962524,
                    -0.12103065848350525,
                    0.06368084251880646,
                    0.30230459570884705,
                    -0.20206725597381592,
                    0.11266690492630005,
                    0.08980603516101837,
                    0.18636055290699005,
                    -0.1628156155347824,
                    -0.17299233376979828,
                    0.4356442093849182,
                    -0.3323814272880554,
                    1.159285306930542,
                    0.6417871713638306,
                    1.2856018543243408,
                    0.608532726764679,
                    1.7445892095565796,
                    1.0702354907989502,
                    -1.2848970890045166,
                    0.5581099390983582,
                    0.5015807747840881,
                    0.38885626196861267,
                    0.6266518831253052,
                    0.5810254216194153,
                    0.6562584638595581,
                    1.022000789642334,
                    0.7115783095359802,
                    -0.7358663082122803,
                    0.9646120667457581,
                    0.8500485420227051,
                    2.2099292278289795
                ]
            ]
        },
        {
            "type": "dense",
            "activation": "",
            "shape": [
                null,
                null,
                1
            ],
            "weights": [
                [
                    [
                        0.006777311209589243
                    ],
                    [
                        0.09599590301513672
                    ],
                    [
                        0.7328841686248779
                    ],
                    [
                        0.0008498954703100026
                    ],
                    [
                        0.047011151909828186
                    ],
                    [
                        -0.01295547466725111
                    ],
                    [
                        0.06568413972854614
                    ],
                    [
                        -1.2009906768798828
                    ],
                    [
                        0.0022146226838231087
                    ],
                    [
                        -0.006061321124434471
                    ],
                    [
                        -0.0018084598705172539
                    ],
                    [
                        -0.029759779572486877
                    ],
                    [
                        -1.221940279006958
                    ],
                    [
                        0.6420928239822388
                    ],
                    [
                        0.16949264705181122
                    ],
                    [
                        -0.10387617349624634
                    ],
                    [
                        -0.5931887626647949
                    ],
                    [
                        -0.021024979650974274
                    ],
                    [
                        -0.07003955543041229
                    ],
                    [
                        0.011373656801879406
                    ]
                ],
                [
                    0.21156492829322815
                ]
            ]
        }
    ],
    "input_batch": [
        0.08890712261199951,
        0.07685470581054688,
        0.0653461217880249,
        0.054532408714294434,
        0.04451119899749756,
        0.035308122634887695,
        0.026958346366882324,
        0.019446253776550293,
        0.012525677680969238,
        0.005981564521789551,
        -0.00026929378509521484,
        -0.006249666213989258,
        -0.011995553970336914,
        -0.017508625984191895,
        -0.02271401882171631,
        -0.02761971950531006,
        -0.032241225242614746,
        -0.036610960960388184,
        -0.040699005126953125,
        -0.044444918632507324,
        -0.04790925979614258,
        -0.05123317241668701,
        -0.05459952354431152,
        -0.05816948413848877,
        -0.06197834014892578,
        -0.06591951847076416,
        -0.06988704204559326,
        -0.07376646995544434,
        -0.0775219202041626,
        -0.0812673568725586,
        -0.0852200984954834,
        -0.08966875076293945,
        -0.0947955846786499,
        -0.10053467750549316,
        -0.10666441917419434,
        -0.11304926872253418,
        -0.11953246593475342,
        -0.12591278553009033,
        -0.132002592086792,
        -0.13763344287872314,
        -0.1428072452545166,
        -0.1477440595626831,
        -0.15266728401184082,
        -0.15767443180084229,
        -0.16278719902038574,
        -0.16788256168365479,
        -0.17280030250549316,
        -0.17743873596191406,
        -0.18170714378356934,
        -0.18566298484802246,
        -0.18930482864379883,
        -0.1925739049911499,
        -0.1953953504562378,
        -0.19770467281341553,
        -0.19953620433807373,
        -0.20087742805480957,
        -0.20163464546203613,
        -0.20174288749694824,
        -0.20131254196166992,
        -0.20060443878173828,
        -0.19981276988983154,
        -0.19898736476898193,
        -0.19804656505584717,
        -0.196830153465271,
        -0.19518935680389404,
        -0.19313395023345947,
        -0.19076907634735107,
        -0.18827474117279053,
        -0.18589138984680176,
        -0.1838209629058838,
        -0.1821526288986206,
        -0.18084239959716797,
        -0.17979443073272705,
        -0.17878055572509766,
        -0.17766690254211426,
        -0.17643523216247559,
        -0.17515993118286133,
        -0.1739363670349121,
        -0.17273938655853271,
        -0.17163515090942383,
        -0.17070817947387695,
        -0.17007207870483398,
        -0.16979968547821045,
        -0.16981327533721924,
        -0.16993045806884766,
        -0.16990244388580322,
        -0.16958773136138916,
        -0.1689746379852295,
        -0.16806650161743164,
        -0.16679561138153076,
        -0.1650604009628296,
        -0.16283249855041504,
        -0.16023242473602295,
        -0.15746891498565674,
        -0.15467429161071777,
        -0.1518399715423584,
        -0.14881455898284912,
        -0.14543640613555908,
        -0.1416233777999878,
        -0.13732385635375977,
        -0.13252103328704834,
        -0.12722790241241455,
        -0.12140977382659912,
        -0.1149972677230835,
        -0.10812699794769287,
        -0.10091328620910645,
        -0.09338629245758057,
        -0.08561444282531738,
        -0.07770180702209473,
        -0.0697547197341919,
        -0.06180286407470703,
        -0.05381882190704346,
        -0.04577839374542236,
        -0.037773728370666504,
        -0.02981877326965332,
        -0.0217587947845459,
        -0.013584733009338379,
        -0.005498647689819336,
        0.0022115707397460938,
        0.009361028671264648,
        0.015861988067626953,
        0.02178025245666504,
        0.027471303939819336,
        0.03322553634643555,
        0.0390704870223999,
        0.044942378997802734,
        0.05073356628417969,
        0.056270599365234375,
        0.061307668685913086,
        0.06559419631958008,
        0.06905794143676758,
        0.07182455062866211,
        0.07404875755310059,
        0.07576572895050049,
        0.07687973976135254,
        0.07731044292449951,
        0.07699429988861084,
        0.07598209381103516,
        0.07441914081573486,
        0.07245373725891113,
        0.07016265392303467,
        0.06741988658905029,
        0.06401145458221436,
        0.059793949127197266,
        0.054786086082458496,
        0.049076080322265625,
        0.04292154312133789,
        0.0367201566696167,
        0.030768513679504395,
        0.025237202644348145,
        0.020194053649902344,
        0.015549659729003906,
        0.011062860488891602,
        0.006516814231872559,
        0.0016690492630004883,
        -0.0035783052444458008,
        -0.009043335914611816,
        -0.014560103416442871,
        -0.01997232437133789,
        -0.025107622146606445,
        -0.029849529266357422,
        -0.0341801643371582,
        -0.038176894187927246,
        -0.0419238805770874,
        -0.04551243782043457,
        -0.049030423164367676,
        -0.05255579948425293,
        -0.05611443519592285,
        -0.05966758728027344,
        -0.06308913230895996,
        -0.06624603271484375,
        -0.06903386116027832,
        -0.07132863998413086,
        -0.07318830490112305,
        -0.07477903366088867,
        -0.07623231410980225,
        -0.07766759395599365,
        -0.07912790775299072,
        -0.08060348033905029,
        -0.08206832408905029,
        -0.0835350751876831,
        -0.0849834680557251,
        -0.0863875150680542,
        -0.08768463134765625,
        -0.08876609802246094,
        -0.08961772918701172,
        -0.09028482437133789,
        -0.09077417850494385,
        -0.09109926223754883,
        -0.09132516384124756,
        -0.09154629707336426,
        -0.09190034866333008,
        -0.09250175952911377,
        -0.09336423873901367,
        -0.09438812732696533,
        -0.09540486335754395,
        -0.09629964828491211,
        -0.09695351123809814,
        -0.09727776050567627,
        -0.09731853008270264,
        -0.09716832637786865,
        -0.09688055515289307,
        -0.09645700454711914,
        -0.09585022926330566,
        -0.09491729736328125,
        -0.09349715709686279,
        -0.09149730205535889,
        -0.0888979434967041,
        -0.08565866947174072,
        -0.08183944225311279,
        -0.07756125926971436,
        -0.07288217544555664,
        -0.06781184673309326,
        -0.06223011016845703,
        -0.05610156059265137,
        -0.049604177474975586,
        -0.04303312301635742,
        -0.03657269477844238,
        -0.030182957649230957,
        -0.023830890655517578,
        -0.017480134963989258,
        -0.011202812194824219,
        -0.005202770233154297,
        0.00040411949157714844,
        0.005603194236755371,
        0.010437726974487305,
        0.0148468017578125,
        0.018692374229431152,
        0.02192986011505127,
        0.0246657133102417,
        0.027021288871765137,
        0.029035091400146484,
        0.030586719512939453,
        0.03155243396759033,
        0.031975388526916504,
        0.031960248947143555,
        0.03164219856262207,
        0.03116452693939209,
        0.030570149421691895,
        0.029740571975708008,
        0.028551816940307617,
        0.027022480964660645,
        0.025263190269470215,
        0.023347020149230957,
        0.021306276321411133,
        0.019191265106201172,
        0.017074108123779297,
        0.014982461929321289,
        0.012930631637573242,
        0.011011600494384766,
        0.009290933609008789,
        0.007765769958496094,
        0.006402850151062012,
        0.005133152008056641,
        0.003931283950805664,
        0.0027321577072143555,
        0.0015039443969726562,
        0.0003292560577392578,
        -0.000674128532409668,
        -0.0014024972915649414,
        -0.001804351806640625,
        -0.0017800331115722656,
        -0.001269221305847168,
        -0.00032699108123779297,
        0.000947117805480957,
        0.002516508102416992,
        0.004452705383300781,
        0.006804466247558594,
        0.00959157943725586,
        0.01270139217376709,
        0.0160750150680542,
        0.01967310905456543,
        0.023368358612060547,
        0.027097105979919434,
        0.030758142471313477,
        0.03434407711029053,
        0.03788125514984131,
        0.04126310348510742,
        0.0442659854888916,
        0.046614766120910645,
        0.048201560974121094,
        0.04912543296813965,
        0.04964029788970947,
        0.049962520599365234,
        0.05014371871948242,
        0.05012857913970947,
        0.04983675479888916,
        0.04925990104675293,
        0.048380136489868164,
        0.04710042476654053,
        0.045377135276794434,
        0.04331254959106445,
        0.04109060764312744,
        0.038783907890319824,
        0.03635132312774658,
        0.03364443778991699,
        0.030588626861572266,
        0.027303099632263184,
        0.02396368980407715,
        0.020811080932617188,
        0.017944693565368652,
        0.015338897705078125,
        0.012925505638122559,
        0.010601639747619629,
        0.008323907852172852,
        0.006069660186767578,
        0.0038775205612182617,
        0.001814126968383789,
        -0.00012803077697753906,
        -0.001978278160095215,
        -0.003760099411010742,
        -0.0054596662521362305,
        -0.007068753242492676,
        -0.008604645729064941,
        -0.010076761245727539,
        -0.0114821195602417,
        -0.012848258018493652,
        -0.014246225357055664,
        -0.015692472457885742,
        -0.01719212532043457,
        -0.0187608003616333,
        -0.020316243171691895,
        -0.021687865257263184,
        -0.022744178771972656,
        -0.023395895957946777,
        -0.02367424964904785,
        -0.023686766624450684,
        -0.023559212684631348,
        -0.02353835105895996,
        -0.023810148239135742,
        -0.024420976638793945,
        -0.025281429290771484,
        -0.026275038719177246,
        -0.02729785442352295,
        -0.028254151344299316,
        -0.029113173484802246,
        -0.029862523078918457,
        -0.030559778213500977,
        -0.031292080879211426,
        -0.032172203063964844,
        -0.0333104133605957,
        -0.03469491004943848,
        -0.03616642951965332,
        -0.03746485710144043,
        -0.03835141658782959,
        -0.03867208957672119,
        -0.038384437561035156,
        -0.03746497631072998,
        -0.03588759899139404,
        -0.03366267681121826,
        -0.030804753303527832,
        -0.027373194694519043,
        -0.023534536361694336,
        -0.019438862800598145,
        -0.015193939208984375,
        -0.010837078094482422,
        -0.006299853324890137,
        -0.0014376640319824219,
        0.0038427114486694336,
        0.009543776512145996,
        0.01564168930053711,
        0.022014617919921875,
        0.02853548526763916,
        0.03507280349731445,
        0.041413187980651855,
        0.047380924224853516,
        0.052945852279663086,
        0.05824482440948486,
        0.0635983943939209,
        0.06930017471313477,
        0.07545745372772217,
        0.08200514316558838,
        0.08876204490661621,
        0.0954751968383789,
        0.10194063186645508,
        0.10813772678375244,
        0.11412465572357178,
        0.11989188194274902,
        0.12540817260742188,
        0.13065004348754883,
        0.13551747798919678,
        0.13996493816375732,
        0.14400458335876465,
        0.14764666557312012,
        0.1509488821029663,
        0.153936505317688,
        0.15665125846862793,
        0.15916800498962402,
        0.16149985790252686,
        0.163557767868042,
        0.1652536392211914,
        0.1665053367614746,
        0.16722917556762695,
        0.16746926307678223,
        0.16731905937194824,
        0.16686558723449707,
        0.1661592721939087,
        0.16517388820648193,
        0.16384673118591309,
        0.16212892532348633,
        0.15992379188537598,
        0.1572057008743286,
        0.15409469604492188,
        0.15064311027526855,
        0.14686822891235352,
        0.1427854299545288,
        0.13837194442749023,
        0.13358283042907715,
        0.12836873531341553,
        0.12267875671386719,
        0.11648714542388916,
        0.10981261730194092,
        0.10262274742126465,
        0.09489047527313232,
        0.08663547039031982,
        0.07785844802856445,
        0.06863725185394287,
        0.059093356132507324,
        0.049382805824279785,
        0.03961348533630371,
        0.029848098754882812,
        0.020093560218811035,
        0.010236620903015137,
        0.00021505355834960938,
        -0.009972095489501953,
        -0.020226001739501953,
        -0.030455946922302246,
        -0.04052531719207764,
        -0.050289154052734375,
        -0.05972552299499512,
        -0.06886005401611328,
        -0.07784080505371094,
        -0.0867767333984375,
        -0.09571337699890137,
        -0.1045914888381958,
        -0.11325192451477051,
        -0.12151956558227539,
        -0.12922298908233643,
        -0.1362835168838501,
        -0.14263927936553955,
        -0.1482940912246704,
        -0.1532684564590454,
        -0.15757524967193604,
        -0.16122519969940186,
        -0.1642622947692871,
        -0.16681206226348877,
        -0.16893625259399414,
        -0.17068421840667725,
        -0.17207610607147217,
        -0.17307233810424805,
        -0.17363691329956055,
        -0.1737598180770874,
        -0.17346549034118652,
        -0.17271947860717773,
        -0.17148637771606445,
        -0.16977882385253906,
        -0.16760897636413574,
        -0.16502392292022705,
        -0.16216707229614258,
        -0.1592104434967041,
        -0.15623486042022705,
        -0.15324032306671143,
        -0.1501682996749878,
        -0.14697551727294922,
        -0.14366364479064941,
        -0.14021897315979004,
        -0.13671469688415527,
        -0.13324189186096191,
        -0.12983334064483643,
        -0.12648701667785645,
        -0.12318646907806396,
        -0.11989593505859375,
        -0.11658215522766113,
        -0.11322450637817383,
        -0.10980117321014404,
        -0.10633063316345215,
        -0.10277009010314941,
        -0.09906196594238281,
        -0.09512495994567871,
        -0.09084725379943848,
        -0.08619320392608643,
        -0.08116018772125244,
        -0.07574772834777832,
        -0.06996405124664307,
        -0.0638279914855957,
        -0.05738401412963867,
        -0.05070388317108154,
        -0.043877243995666504,
        -0.03686964511871338,
        -0.029566407203674316,
        -0.021921396255493164,
        -0.013936519622802734,
        -0.005740642547607422,
        0.002494215965270996,
        0.010594964027404785,
        0.018350601196289062,
        0.025620341300964355,
        0.032303452491760254,
        0.03835153579711914,
        0.04381203651428223,
        0.04878711700439453,
        0.05340433120727539,
        0.05774569511413574,
        0.0618366003036499,
        0.06566691398620605,
        0.06917035579681396,
        0.07234203815460205,
        0.07526206970214844,
        0.07799792289733887,
        0.08058881759643555,
        0.08302938938140869,
        0.08532822132110596,
        0.08749306201934814,
        0.08949458599090576,
        0.09129893779754639,
        0.09285402297973633,
        0.09407222270965576,
        0.09488523006439209,
        0.09520912170410156,
        0.09495413303375244,
        0.09404194355010986,
        0.09246575832366943,
        0.0903468132019043,
        0.08780062198638916,
        0.08496463298797607,
        0.08192956447601318,
        0.07872426509857178,
        0.07540559768676758,
        0.0719749927520752,
        0.06843304634094238,
        0.06476032733917236,
        0.06087362766265869,
        0.05673205852508545,
        0.052332520484924316,
        0.047727346420288086,
        0.04300487041473389,
        0.03824615478515625,
        0.03349590301513672,
        0.02874135971069336,
        0.024009108543395996,
        0.019306421279907227,
        0.014646530151367188,
        0.010010123252868652,
        0.005287289619445801,
        0.00045299530029296875,
        -0.004498720169067383,
        -0.009496808052062988,
        -0.014434576034545898,
        -0.019288182258605957,
        -0.02406179904937744,
        -0.028815865516662598,
        -0.03360104560852051,
        -0.038417935371398926,
        -0.0432513952255249,
        -0.04804682731628418,
        -0.05280649662017822,
        -0.05752289295196533,
        -0.06214869022369385,
        -0.06665265560150146,
        -0.07101058959960938,
        -0.07518935203552246,
        -0.07914745807647705,
        -0.0828104019165039,
        -0.08608293533325195,
        -0.08889186382293701,
        -0.09117889404296875,
        -0.09295666217803955,
        -0.09428727626800537,
        -0.09519016742706299,
        -0.09563040733337402,
        -0.09557640552520752,
        -0.09496498107910156,
        -0.09374654293060303,
        -0.09195005893707275,
