{
    "in_shape": [
        null,
        null,
        1
    ],
    "layers": [
        {
            "type": "lstm",
            "activation": "",
            "shape": [
                null,
                null,
                20
            ],
            "weights": [
                [
                    [
                        0.0015166245866566896,
                        -0.01596815511584282,
                        0.11807447671890259,
                        0.026809601113200188,
                        0.03605026379227638,
                        -0.08675084263086319,
                        0.03660724684596062,
                        0.001545339124277234,
                        -0.17966921627521515,
                        0.13260813057422638,
                        0.037816695868968964,
                        0.046545304358005524,
                        0.06597406417131424,
                        0.017675282433629036,
                        0.02882946841418743,
                        0.07515734434127808,
                        -0.10043330490589142,
                        0.07481343299150467,
                        0.061164259910583496,
                        0.2040291577577591,
                        -0.04277920350432396,
                        -0.06334096193313599,
                        0.07404987514019012,
                        0.1097620278596878,
                        -0.052990514785051346,
                        0.08197546005249023,
                        0.04101172462105751,
                        0.016740644350647926,
                        -0.04030171036720276,
                        -0.035742297768592834,
                        0.04813288524746895,
                        -0.01728057488799095,
                        0.048222899436950684,
                        -0.06259634345769882,
                        -0.008461641147732735,
                        0.02350764535367489,
                        -0.3119415044784546,
                        0.09280386567115784,
                        0.025808338075876236,
                        -0.10555558651685715,
                        0.0303502194583416,
                        -0.006061709951609373,
                        0.09779882431030273,
                        -0.07753438502550125,
                        -0.28653770685195923,
                        0.1868559569120407,
                        -0.12665314972400665,
                        -0.006466337479650974,
                        -0.009875173680484295,
                        -0.0813424363732338,
                        0.025070039555430412,
                        0.1787506341934204,
                        -0.08499468863010406,
                        0.3121814429759979,
                        -0.38413289189338684,
                        -0.0651950016617775,
                        -0.8397364616394043,
                        -0.07108523696660995,
                        0.04860612004995346,
                        1.1613372564315796,
                        -0.03633158281445503,
                        0.016571534797549248,
                        0.11685191094875336,
                        0.024453794583678246,
                        0.021007627248764038,
                        -0.009196337312459946,
                        0.08729609847068787,
                        0.039647236466407776,
                        -0.016365446150302887,
                        0.1339564174413681,
                        0.04503769055008888,
                        0.05252532660961151,
                        -0.06338976323604584,
                        0.021298805251717567,
                        -0.4770336151123047,
                        0.03951152786612511,
                        -0.21012811362743378,
                        0.09170699119567871,
                        0.02497432753443718,
                        0.004536391701549292
                    ]
                ],
                [
                    [
                        0.0723777711391449,
                        0.056574154645204544,
                        -0.07669418305158615,
                        0.05647986754775047,
                        -0.07529588788747787,
                        0.0027887087780982256,
                        0.0013713166117668152,
                        0.02133212797343731,
                        -0.1598537564277649,
                        0.08923780173063278,
                        0.028099995106458664,
                        0.09837226569652557,
                        0.05066363885998726,
                        0.03983038663864136,
                        0.028093479573726654,
                        -0.03430840000510216,
                        0.000531968311406672,
                        0.04641382023692131,
                        -0.023013746365904808,
                        0.04406246170401573,
                        -0.07517082244157791,
                        -0.0845385193824768,
                        -0.08621717244386673,
                        -0.00807230081409216,
                        0.22023721039295197,
                        0.07157695293426514,
                        -0.04873944818973541,
                        0.034414131194353104,
                        0.15297478437423706,
                        0.004586787894368172,
                        0.004859546665102243,
                        0.15397301316261292,
                        0.18643224239349365,
                        -0.010912207886576653,
                        0.0622222013771534,
                        -0.026325169950723648,
                        0.09747954457998276,
                        -0.04219378903508186,
                        -0.12035007029771805,
                        0.03558899089694023,
                        -0.4142822325229645,
                        0.8122217655181885,
                        -0.27353647351264954,
                        0.21870355308055878,
                        -0.059752508997917175,
                        0.42670726776123047,
                        -0.15771813690662384,
                        0.03465743735432625,
                        0.30110839009284973,
                        0.22076986730098724,
                        -0.9596307277679443,
                        0.04346297308802605,
                        0.04380282759666443,
                        0.15540042519569397,
                        -0.03619914874434471,
                        -0.024451952427625656,
                        0.06669634580612183,
                        -0.6850029826164246,
                        0.31790268421173096,
                        -0.00704620685428381,
                        0.06529436260461807,
                        -0.025432299822568893,
                        0.001230146735906601,
                        0.062859445810318,
                        0.08423607051372528,
                        0.032893747091293335,
                        0.09190157800912857,
                        0.03144911676645279,
                        0.030031846836209297,
                        0.09004540741443634,
                        0.034210652112960815,
                        0.056347548961639404,
                        -0.00030665710801258683,
                        0.042904872447252274,
                        0.47665494680404663,
                        -0.015461593866348267,
                        0.0010084410896524787,
                        0.041416458785533905,
                        0.26201868057250977,
                        0.02556087076663971
                    ],
                    [
                        -0.01368674822151661,
                        -0.1495644748210907,
                        -0.06314152479171753,
                        -0.05880903825163841,
                        0.22244219481945038,
                        -0.008669935166835785,
                        -0.1370694637298584,
                        -0.0077599468640983105,
                        0.11675798147916794,
                        -0.04093995690345764,
                        -0.0016742813168093562,
                        0.13598403334617615,
                        0.21308811008930206,
                        0.006456082686781883,
                        -0.03520210087299347,
                        -0.11899036914110184,
                        -0.01748119480907917,
                        0.015201249159872532,
                        -0.023460373282432556,
                        -0.02664691023528576,
                        -0.06486891210079193,
                        -0.07248309999704361,
                        0.04947885498404503,
                        -0.04963688179850578,
                        0.04467085376381874,
                        0.04219042882323265,
                        0.09231284260749817,
                        -0.007048389408737421,
                        0.03957314416766167,
                        -0.030131222680211067,
                        0.08434614539146423,
                        0.056967608630657196,
                        -0.08552873134613037,
                        -0.018729193136096,
                        -0.08518729358911514,
                        -0.13006648421287537,
                        0.06228834390640259,
                        0.04279051721096039,
                        -0.17240239679813385,
                        0.051904574036598206,
                        0.23830321431159973,
                        0.912662923336029,
                        0.03457975387573242,
                        0.04708051681518555,
                        -0.2691144347190857,
                        0.317966103553772,
                        0.4255729019641876,
                        -0.013678602874279022,
                        0.27067771553993225,
                        0.2593306005001068,
                        0.8576316237449646,
                        -0.36060553789138794,
                        0.30247998237609863,
                        -0.04085055738687515,
                        0.16302359104156494,
                        0.24479608237743378,
                        -0.1294163316488266,
                        -0.2678406834602356,
                        0.011766373179852962,
                        0.06563004106283188,
                        -0.005244723986834288,
                        0.055355582386255264,
                        0.0685950294137001,
                        -0.053117360919713974,
                        -0.05789590999484062,
                        0.017175940796732903,
                        -0.08664210140705109,
                        -0.14889807999134064,
                        -0.09180249273777008,
                        -0.05888589471578598,
                        -0.008588830009102821,
                        -0.005532518029212952,
                        0.03982846811413765,
                        0.007095566485077143,
                        0.29491281509399414,
                        -0.1632729023694992,
                        -0.26044875383377075,
                        0.0229791346937418,
                        0.17480173707008362,
                        -0.0631004050374031
                    ],
                    [
                        -0.09136995673179626,
                        -0.03191188722848892,
                        0.1299089789390564,
                        -0.0028901465702801943,
                        0.6529242396354675,
                        0.0907898023724556,
                        -0.10328280180692673,
                        -0.012459548190236092,
                        -0.17251133918762207,
                        -0.0423683300614357,
                        -0.024245204403996468,
                        0.09503339976072311,
                        0.10011304169893265,
                        -0.09609798341989517,
                        -0.06446293741464615,
                        -0.06818825751543045,
                        0.11543827503919601,
                        -0.03749874606728554,
                        -0.06123833730816841,
                        -0.13003632426261902,
                        -0.04148175194859505,
                        -0.21300798654556274,
                        0.11996611952781677,
                        -0.04018695652484894,
                        0.09382820129394531,
                        0.11258450895547867,
                        -0.04453394562005997,
                        -0.03748706728219986,
                        0.005275694187730551,
                        -0.05875381454825401,
                        -0.14852440357208252,
                        -0.1258711814880371,
                        -0.13939811289310455,
                        0.04899146780371666,
                        -0.21096083521842957,
                        -0.052828822284936905,
                        0.22121596336364746,
                        -0.035827960819005966,
                        -0.04006941244006157,
                        -0.12744148075580597,
                        0.3208954930305481,
                        0.4307241439819336,
                        0.44050660729408264,
                        -0.13981667160987854,
                        -0.18077532947063446,
                        -0.16081127524375916,
                        0.0955655425786972,
                        -0.018210453912615776,
                        0.06526847928762436,
                        -0.04398296773433685,
                        -0.3584332764148712,
                        0.03562178462743759,
                        -0.05710143968462944,
                        0.2096593976020813,
                        0.21480251848697662,
                        0.09830939769744873,
                        0.09344540536403656,
                        -0.04082919657230377,
                        -0.15844646096229553,
                        -0.18848352134227753,
                        -0.0923987552523613,
                        -0.05258306488394737,
                        0.2042389065027237,
                        -0.01693241111934185,
                        -0.21419113874435425,
                        0.06600116193294525,
                        0.052174363285303116,
                        -0.08541522175073624,
                        0.0013336117845028639,
                        -0.054007478058338165,
                        -0.0341191366314888,
                        -0.08946673572063446,
                        0.03325299546122551,
                        -0.0998852476477623,
                        -0.12466875463724136,
                        0.001298660528846085,
                        0.11949368566274643,
                        -0.050305578857660294,
                        0.03442500904202461,
                        -0.15603287518024445
                    ],
                    [
                        -0.028216267004609108,
                        -0.010223313234746456,
                        0.21178573369979858,
                        -0.0165546927601099,
                        -0.10781929641962051,
                        -0.0047142687253654,
                        -0.06091596931219101,
                        0.007089637219905853,
                        -0.119966521859169,
                        0.054416172206401825,
                        0.03135161101818085,
                        -0.03889263793826103,
                        0.06703081727027893,
                        -0.031555064022541046,
                        -0.030477574095129967,
                        0.08174940198659897,
                        0.044447824358940125,
                        0.06910925358533859,
                        0.06760085374116898,
                        -0.05790404602885246,
                        -0.15322420001029968,
                        0.02328146994113922,
                        0.14191769063472748,
                        -0.08966616541147232,
                        -0.1638559252023697,
                        0.06757362931966782,
                        -0.13172656297683716,
                        -0.005335044115781784,
                        -0.09478144347667694,
                        0.019749239087104797,
                        -0.06153963506221771,
                        -0.05008583143353462,
                        0.012803738936781883,
                        0.004339426755905151,
                        -0.09866253286600113,
                        0.11044415831565857,
                        -0.05279117450118065,
                        -0.09822797030210495,
                        0.12599334120750427,
                        -0.14032332599163055,
                        -0.708604633808136,
                        -1.559863805770874,
                        0.5167245864868164,
                        -0.18993447721004486,
                        0.02435041032731533,
                        0.03285113349556923,
                        -0.09094177931547165,
                        0.017515430226922035,
                        -0.0039034620858728886,
                        0.6170950531959534,
                        0.03901870548725128,
                        -0.17148490250110626,
                        0.04759857803583145,
                        0.11953362822532654,
                        0.24955910444259644,
                        -0.09055077284574509,
                        -0.00546360295265913,
                        -0.6982650756835938,
                        -0.46548986434936523,
                        0.40938490629196167,
                        -0.05513744056224823,
                        0.05953742563724518,
                        0.10009939223527908,
                        -0.006410631816834211,
                        -0.1873161941766739,
                        0.03853518143296242,
                        -0.07999008893966675,
                        -0.01507238857448101,
                        0.015902459621429443,
                        0.054199837148189545,
                        0.037223540246486664,
                        -0.016870811581611633,
                        0.1304931938648224,
                        -0.028754599392414093,
                        -0.20009399950504303,
                        0.05724393203854561,
                        0.003700684290379286,
                        0.06925032287836075,
                        0.09278533607721329,
                        -0.023745307698845863
                    ],
                    [
                        -0.05328876152634621,
                        -0.03685002028942108,
                        0.09355281293392181,
                        -0.07890869677066803,
                        0.05441128462553024,
                        -0.005704717710614204,
                        -0.06483360379934311,
                        -0.0114644980058074,
                        0.11617086827754974,
                        -0.08510902523994446,
                        -0.051178060472011566,
                        -0.03152553364634514,
                        0.03365887701511383,
                        -0.03971976414322853,
                        -0.02735440619289875,
                        -0.06802948564291,
                        0.00521654449403286,
                        -0.06917249411344528,
                        -0.018520543351769447,
                        0.07596401870250702,
                        0.006288214586675167,
                        -0.04824204742908478,
                        -0.024173885583877563,
                        -0.045677635818719864,
                        -0.024411996826529503,
                        -0.1368865966796875,
                        -0.09510412067174911,
                        -0.026717474684119225,
                        -0.024660708382725716,
                        0.03866835683584213,
                        0.04695545881986618,
                        -0.09548120200634003,
                        -0.04867349937558174,
                        0.03338242694735527,
                        -0.036522772163152695,
                        -0.05540347471833229,
                        -0.039271339774131775,
                        0.03178022429347038,
                        -0.16611440479755402,
                        0.0389992780983448,
                        0.11888594925403595,
                        0.11982487887144089,
                        0.035506416112184525,
                        0.2186432182788849,
                        0.25806477665901184,
                        0.048762984573841095,
                        0.22332663834095,
                        -0.014612139202654362,
                        -0.045189835131168365,
                        -0.010395340621471405,
                        -0.29517096281051636,
                        -0.13927778601646423,
                        -0.07496797293424606,
                        -0.06706344336271286,
                        0.28021714091300964,
                        -0.09113942831754684,
                        -0.35560765862464905,
                        0.2134213149547577,
                        -0.1258161962032318,
                        1.1458319425582886,
                        -0.05596031993627548,
                        -0.04728935658931732,
                        0.031025098636746407,
                        -0.074795663356781,
                        -0.1270449459552765,
                        -0.007258945144712925,
                        -0.24775834381580353,
                        -0.05165530741214752,
                        0.04823391139507294,
                        -0.08230125904083252,
                        -0.04978683218359947,
                        0.04520533233880997,
                        0.029113352298736572,
                        -0.03930031508207321,
                        -0.10802514106035233,
                        -0.07121863961219788,
                        -0.0033100696746259928,
                        -0.06654412299394608,
                        -0.019433986395597458,
                        0.06376313418149948
                    ],
                    [
                        0.011787437833845615,
                        -0.001401338609866798,
                        -0.02348819375038147,
                        0.01111490000039339,
                        -0.005443064495921135,
                        0.08891166001558304,
                        0.016409993171691895,
                        0.006263097748160362,
                        -0.09529606252908707,
                        -0.006240651477128267,
                        -0.023021552711725235,
                        -0.040105629712343216,
                        -0.19136309623718262,
                        -0.014064249582588673,
                        0.057493437081575394,
                        0.021909497678279877,
                        0.09711904078722,
                        0.004316217731684446,
                        -0.02328178472816944,
                        0.07394921034574509,
                        0.1019609123468399,
                        0.022494081407785416,
                        -0.02643171325325966,
                        0.07838674634695053,
                        0.1686665564775467,
                        0.1915266364812851,
                        0.009693323634564877,
                        0.024146942421793938,
                        0.18066951632499695,
                        0.20831961929798126,
                        0.1083812564611435,
                        0.06519227474927902,
                        0.06748342514038086,
                        0.013600709848105907,
                        0.09949085116386414,
                        0.04367219656705856,
                        0.24139083921909332,
                        0.0667450949549675,
                        -0.08233702182769775,
                        -0.010408556088805199,
                        -0.21062509715557098,
                        -0.6562731266021729,
                        -0.08030109107494354,
                        -0.07418698072433472,
                        -0.029402267187833786,
                        -0.10337533056735992,
                        -0.5016239881515503,
                        0.008894872851669788,
                        -0.26159390807151794,
                        -0.4502725601196289,
                        -0.46828997135162354,
                        -0.3477170169353485,
                        -0.3099362850189209,
                        -0.20597384870052338,
                        -0.039871614426374435,
                        0.21107983589172363,
                        0.23250196874141693,
                        0.44033023715019226,
                        0.09742285311222076,
                        0.13909995555877686,
                        0.022460011765360832,
                        -0.0178859643638134,
                        -0.13239212334156036,
                        0.00693860650062561,
                        0.01734781451523304,
                        0.08837593346834183,
                        -0.0011347997933626175,
                        0.05949748307466507,
                        0.07572755217552185,
                        -0.00552174961194396,
                        -0.0198651235550642,
                        0.030974144116044044,
                        -0.09870516508817673,
                        -0.01870935969054699,
                        -0.09308399260044098,
                        0.025747915729880333,
                        0.15966472029685974,
                        0.00023335980949923396,
                        -0.24916426837444305,
                        0.06745761632919312
                    ],
                    [
                        0.06731360405683517,
                        0.10840393602848053,
                        -0.007854362949728966,
                        0.04999583587050438,
                        -0.22739775478839874,
                        -0.07247836142778397,
                        0.12359414249658585,
                        0.009903864935040474,
                        -0.2828015983104706,
                        0.01804768480360508,
                        0.08145954459905624,
                        0.07921852171421051,
                        -0.09357895702123642,
                        0.0831335112452507,
                        0.06039814651012421,
                        0.008428624831140041,
                        -0.020957931876182556,
                        -0.001996225444599986,
                        0.03950967267155647,
                        0.03725117817521095,
                        -0.09567699581384659,
                        0.10470614582300186,
                        0.03839452192187309,
                        -0.01098586991429329,
                        0.3629392087459564,
                        -0.10785813629627228,
                        0.319774866104126,
                        0.038998499512672424,
                        -0.27783870697021484,
                        -0.008358282037079334,
                        0.0630137026309967,
                        0.0595826655626297,
                        0.28041720390319824,
                        -0.10799834877252579,
                        0.03721543028950691,
                        -0.005018201656639576,
                        -0.07151244580745697,
                        -0.004104615654796362,
                        0.06027255207300186,
                        -0.037704698741436005,
                        -0.4038086235523224,
                        0.4026051461696625,
                        -0.021336637437343597,
                        0.025974467396736145,
                        0.033149074763059616,
                        -0.17683012783527374,
                        0.46198397874832153,
                        0.013817476108670235,
                        -0.06278616189956665,
                        -0.2343052476644516,
                        -0.39441776275634766,
                        0.1509978473186493,
                        -0.1710672378540039,
                        0.05673980340361595,
                        -0.2247995138168335,
                        0.30909931659698486,
                        -0.0919099822640419,
                        -0.06270405650138855,
                        0.17625856399536133,
                        -0.0753946602344513,
                        0.0733385756611824,
                        0.3381977677345276,
                        0.07676583528518677,
                        0.06921830028295517,
                        0.11299270391464233,
                        0.02074437402188778,
                        -0.02148383855819702,
                        0.016573505476117134,
                        -0.3235488831996918,
                        0.029846619814634323,
                        0.09909481555223465,
                        -0.11712076514959335,
                        -0.11816223710775375,
                        0.08837968111038208,
                        -0.23707503080368042,
                        -0.00145722774323076,
                        -0.04173150658607483,
                        0.009926434606313705,
                        -0.06686899811029434,
                        0.015600242651998997
                    ],
                    [
                        0.4368387758731842,
                        0.5336906909942627,
                        0.023097386583685875,
                        0.4840342700481415,
                        -1.001250982284546,
                        0.2054165154695511,
                        0.23777711391448975,
                        0.1613711416721344,
                        -1.3925988674163818,
                        0.41515085101127625,
                        0.525541365146637,
                        -0.9934362769126892,
                        -0.17858415842056274,
                        0.4530903398990631,
                        0.2453661412000656,
                        0.021173104643821716,
                        0.26168808341026306,
                        0.46632686257362366,
                        0.2044662982225418,
                        0.25477373600006104,
                        -0.26218724250793457,
                        -0.2622850835323334,
                        0.13913403451442719,
                        -0.2915250360965729,
                        1.217167615890503,
                        0.16268110275268555,
                        0.09991160780191422,
                        0.38077035546302795,
                        1.3243849277496338,
                        -0.2337566316127777,
                        -0.2843925952911377,
                        1.3227043151855469,
                        0.5686191916465759,
                        -0.38736024498939514,
                        0.23044855892658234,
                        0.026028795167803764,
                        0.0854480192065239,
                        -0.2998787760734558,
                        0.15794183313846588,
                        -0.06096649914979935,
                        0.08110878616571426,
                        -0.18486729264259338,
                        -0.04702908173203468,
                        -0.4308347702026367,
                        -0.14305643737316132,
                        -0.06556028127670288,
                        0.3239201307296753,
                        0.24411869049072266,
                        -0.01922682486474514,
                        0.047422852367162704,
                        0.09841784089803696,
                        0.12410243600606918,
                        0.011383747681975365,
                        0.26117828488349915,
                        -0.24228300154209137,
                        0.030844978988170624,
                        0.09473048150539398,
                        -0.06538291275501251,
                        -0.057289835065603256,
                        -0.045274749398231506,
                        0.44549325108528137,
                        0.28083425760269165,
                        0.15922527015209198,
                        0.5152186155319214,
                        0.2281666249036789,
                        0.3784053921699524,
                        -0.036214858293533325,
                        0.6747008562088013,
                        0.1843472719192505,
                        0.4384567141532898,
                        0.556864857673645,
                        0.261425256729126,
                        0.13340485095977783,
                        0.4682193100452423,
                        0.20333142578601837,
                        0.07407443970441818,
                        0.36601319909095764,
                        0.4871262013912201,
                        0.3208586573600769,
                        0.3096478581428528
                    ],
                    [
                        -0.030559808015823364,
                        0.00813837070018053,
                        -0.0264586228877306,
                        -0.02470051310956478,
                        -0.1360650509595871,
                        -0.06237112730741501,
                        -0.007948423735797405,
                        -0.004292813595384359,
                        -0.05630071088671684,
                        -0.07491535693407059,
                        -0.055506736040115356,
                        0.13695484399795532,
                        -0.10571720451116562,
                        -0.04983750358223915,
                        -0.00570294912904501,
                        0.05516119673848152,
                        0.04013504460453987,
                        -0.05691039562225342,
                        0.04726717621088028,
                        0.048472341150045395,
                        0.1104244515299797,
                        0.06596298515796661,
                        0.08233640342950821,
                        0.1517307311296463,
                        -0.05739956721663475,
                        0.011763245798647404,
                        -0.07616611570119858,
                        -0.007905678823590279,
                        0.08306966722011566,
                        0.1234380304813385,
                        0.10736096650362015,
                        0.09428263455629349,
                        0.07306354492902756,
                        0.05257199704647064,
                        -0.020440619438886642,
                        0.07169989496469498,
                        0.0808640718460083,
                        0.11881967633962631,
                        0.09276861697435379,
                        0.15119433403015137,
                        -0.08634644746780396,
                        -0.16506409645080566,
                        -0.028234241530299187,
                        -0.05118275806307793,
                        0.13651734590530396,
                        0.10358818620443344,
                        0.2719131112098694,
                        -0.00563825573772192,
                        0.4406787157058716,
                        0.035144783556461334,
                        0.125652477145195,
                        0.4156349003314972,
                        0.062044933438301086,
                        0.2139231264591217,
                        0.14027367532253265,
                        -0.18874190747737885,
                        0.07371140271425247,
                        0.04183472692966461,
                        0.08070109784603119,
                        -0.10787422955036163,
                        -0.030313488095998764,
                        -0.02727905847132206,
                        -0.024932673200964928,
                        -0.025413887575268745,
                        0.07549730688333511,
                        -0.029373081400990486,
                        -0.10276547819375992,
                        0.006865674629807472,
                        -0.001204916276037693,
                        -0.07234278321266174,
                        -0.05400244891643524,
                        0.09893511980772018,
                        -0.004965677857398987,
                        -0.04980361461639404,
                        -0.031152360141277313,
                        0.06074361875653267,
                        0.06002165749669075,
                        -0.054752908647060394,
                        0.02028602547943592,
                        0.050290703773498535
                    ],
                    [
                        0.050252702087163925,
                        -0.01952812634408474,
                        0.07648372650146484,
                        -0.03450765088200569,
                        0.07686115801334381,
                        -0.040567606687545776,
                        -0.025266481563448906,
                        0.0038917416241019964,
                        -0.07218513637781143,
                        -0.05493880435824394,
                        -0.006797619629651308,
                        0.02308768406510353,
                        0.05478620156645775,
                        0.0007177867228165269,
                        -0.008673847652971745,
                        -0.02147608995437622,
                        0.02618549019098282,
                        -0.014429841190576553,
                        0.004923318512737751,
                        0.012743608094751835,
                        -0.06262589991092682,
                        -0.07292312383651733,
                        0.015261506661772728,
                        -0.013696645386517048,
                        0.009023958817124367,
                        -0.028747620061039925,
                        -0.031498827040195465,
                        0.0032553377095609903,
                        0.017095476388931274,
                        0.06246355548501015,
                        -0.02894139103591442,
                        0.02071828581392765,
                        0.03676842525601387,
                        0.012059679254889488,
                        -0.060964230448007584,
                        -0.01859263703227043,
                        -0.011979317292571068,
                        -0.0805247500538826,
                        -0.013839444145560265,
                        -0.00835435464978218,
                        -1.1444644927978516,
                        0.4471310079097748,
                        0.24795927107334137,
                        -0.43681761622428894,
                        -0.12816821038722992,
                        0.3171234726905823,
                        0.10385218262672424,
                        0.006669699680060148,
                        0.3073539137840271,
                        -0.4128839373588562,
                        -0.0004591221804730594,
                        -0.11271900683641434,
                        0.07504786550998688,
                        0.2627934217453003,
                        0.09444253146648407,
                        -0.02897699922323227,
                        0.08525960147380829,
                        0.6820865869522095,
                        0.03204084187746048,
                        0.32321199774742126,
                        0.022875115275382996,
                        -0.02556079439818859,
                        0.06741102039813995,
                        -0.03840985521674156,
                        -0.05053900554776192,
                        -0.018005575984716415,
                        0.020422132685780525,
                        -0.11811099946498871,
                        0.057444967329502106,
                        -0.017357051372528076,
                        -0.005582358222454786,
                        0.012711840681731701,
                        -0.004834430292248726,
                        0.007519800215959549,
                        0.5327561497688293,
                        -0.051484137773513794,
                        -0.1380372941493988,
                        -0.03474019840359688,
                        0.13174492120742798,
                        0.03001532144844532
                    ],
                    [
                        -0.005913591478019953,
                        -0.06547068804502487,
                        0.05638362467288971,
                        -0.023073310032486916,
                        -0.2667620778083801,
                        0.03456339240074158,
                        -0.07802411168813705,
                        -0.01101091131567955,
                        0.05388155207037926,
                        -0.02551736868917942,
                        0.007751434575766325,
                        -0.09833928942680359,
                        -0.04735218733549118,
                        0.008000836707651615,
                        -0.044034142047166824,
                        0.09888996928930283,
                        0.088398277759552,
                        0.004053644835948944,
                        0.04104864224791527,
                        0.030402837321162224,
                        0.04269777610898018,
                        0.03529377654194832,
                        0.11750701814889908,
                        0.011810722760856152,
                        -0.03098532371222973,
                        0.020547064021229744,
                        -0.0959896370768547,
                        -0.019076231867074966,
                        -0.004529350902885199,
                        0.041509922593832016,
                        0.07204325497150421,
                        0.06889898329973221,
                        -0.07782503217458725,
                        -0.013625403866171837,
                        -0.08974707871675491,
                        0.09899164736270905,
                        0.06528175622224808,
                        -0.04124768078327179,
                        0.10915002226829529,
                        -0.05103576183319092,
                        0.20317082107067108,
                        -1.097772240638733,
                        0.1801225244998932,
                        0.18086881935596466,
                        0.21166501939296722,
                        0.11154554784297943,
                        0.3114417791366577,
                        -0.017086757346987724,
                        0.9842263460159302,
                        -0.5734362006187439,
                        -0.5617631673812866,
                        -0.07842518389225006,
                        0.013002103194594383,
                        0.26874274015426636,
                        0.25765442848205566,
                        -0.1168871819972992,
                        0.27584677934646606,
                        0.12182752788066864,
                        -0.4337436258792877,
                        -0.31366434693336487,
                        -0.0007088786805979908,
                        -0.009690756909549236,
                        0.0618714764714241,
                        -0.016774382442235947,
                        -0.05739288032054901,
                        -0.03613847866654396,
                        -0.011279950849711895,
                        -0.12323003262281418,
                        -0.007223955821245909,
                        -0.013236761093139648,
                        0.012025853618979454,
                        -0.008205846883356571,
                        -0.21346598863601685,
                        0.006848721764981747,
                        0.2384265661239624,
                        0.01193167269229889,
                        -0.06290094554424286,
                        -0.010284695774316788,
                        0.46993523836135864,
                        0.06310124695301056
                    ],
                    [
                        0.08520762622356415,
                        0.04562376067042351,
                        0.05176447331905365,
                        0.07193474471569061,
                        0.008328787982463837,
                        0.0683571845293045,
                        -0.029164891690015793,
                        0.009482054971158504,
                        -0.17305059731006622,
                        0.10287534445524216,
                        0.09575548022985458,
                        0.09387826174497604,
                        -0.11361073702573776,
                        0.10041886568069458,
                        0.015532084740698338,
                        0.01360259484499693,
                        0.06519812345504761,
                        0.09993088990449905,
                        -0.022461704909801483,
                        -0.06648746877908707,
                        -0.08354400098323822,
                        -0.031769540160894394,
                        0.03131278231739998,
                        -0.13662217557430267,
                        -0.025451768189668655,
                        0.020734751597046852,
                        -0.06755132973194122,
                        0.02652878686785698,
                        -0.01581907831132412,
                        -0.11622750759124756,
                        -0.11117492616176605,
                        -0.025630991905927658,
                        0.0028126242104917765,
                        -0.04961797222495079,
                        -0.01967528462409973,
                        0.005704600363969803,
                        0.1137716993689537,
                        -0.12263435870409012,
                        -0.05091451108455658,
                        -0.1400521993637085,
                        0.07416524738073349,
                        0.05209251120686531,
                        0.022627761587500572,
                        0.10028395056724548,
                        -0.10755539685487747,
                        0.2673713266849518,
                        0.09565487504005432,
                        0.01329947542399168,
                        -0.5785847902297974,
                        -0.04925184324383736,
                        -0.3978252112865448,
                        0.2256462126970291,
                        0.1993672102689743,
                        0.09902965277433395,
                        -0.006548166740685701,
                        0.14988583326339722,
                        0.3549404442310333,
                        0.3044750988483429,
                        0.10947603732347488,
                        -0.17716757953166962,
                        0.08627588301897049,
                        0.12329337000846863,
                        0.05457711219787598,
                        0.07508682459592819,
                        0.10361718386411667,
                        0.07749214768409729,
                        -0.004419321194291115,
                        0.010918352752923965,
                        0.07520151883363724,
                        0.1023433655500412,
                        0.09741485118865967,
                        0.12989573180675507,
                        0.005610722582787275,
                        0.10093662142753601,
                        -0.03482739254832268,
                        0.01995399221777916,
                        0.04945475608110428,
                        0.10010869801044464,
                        -0.02384747564792633,
                        -0.07440389692783356
                    ],
                    [
                        0.11385463923215866,
                        0.05652785301208496,
                        -0.08017682284116745,
                        0.11259373277425766,
                        -0.09689611196517944,
                        0.051301680505275726,
                        -0.12237437069416046,
                        0.016804486513137817,
                        -0.029941586777567863,
                        0.21909886598587036,
                        0.16730467975139618,
                        0.16629409790039062,
                        0.06099618971347809,
                        0.15240421891212463,
                        0.011779055930674076,
                        0.009142127819359303,
                        -0.0532517172396183,
                        0.20687568187713623,
                        -0.029258234426379204,
                        -0.07303556799888611,
                        -0.2367313951253891,
                        0.001301351236179471,
                        -0.043160565197467804,
                        -0.3565864861011505,
                        -0.10048436373472214,
                        -0.10322849452495575,
                        -0.360460489988327,
                        0.034052684903144836,
                        0.09304897487163544,
                        -0.2665026783943176,
                        -0.2748103439807892,
                        0.14795143902301788,
                        0.023088257759809494,
                        -0.13075193762779236,
                        0.04159225896000862,
                        -0.008076345548033714,
                        -0.06918629258871078,
                        -0.30444401502609253,
                        0.05730309709906578,
                        0.04588189721107483,
                        -0.024564102292060852,
                        -0.2987136244773865,
                        -0.025904599577188492,
                        0.1331397444009781,
                        0.002655481453984976,
                        -0.321331262588501,
                        -0.13173630833625793,
                        0.022307373583316803,
                        -0.10866868495941162,
                        -0.20794777572155,
                        -0.09733892232179642,
                        0.1003185361623764,
                        0.33241575956344604,
                        0.4250026345252991,
                        0.09089832752943039,
                        -0.30456283688545227,
                        -0.12240082025527954,
                        0.24911975860595703,
                        -0.055231232196092606,
                        0.1536668837070465,
                        0.11547937989234924,
                        0.07487324625253677,
                        -0.028859512880444527,
                        0.11415265500545502,
                        -0.027052272111177444,
                        0.04563869908452034,
                        -0.20596089959144592,
                        0.09018351882696152,
                        0.00299449497833848,
                        0.21592977643013,
                        0.1675015687942505,
                        0.0032817840110510588,
                        0.13430766761302948,
                        0.15241672098636627,
                        0.03352488949894905,
                        0.01822209730744362,
                        -0.015107384882867336,
                        0.20154403150081635,
                        -0.0562673956155777,
                        -0.07321352511644363
                    ],
                    [
                        0.06059078872203827,
                        0.048919931054115295,
                        -0.033103108406066895,
                        0.02557801827788353,
                        0.08574876189231873,
                        0.08002009242773056,
                        -0.042146436870098114,
                        0.003543718485161662,
                        -0.277632474899292,
                        0.002485125558450818,
                        0.05518167093396187,
                        0.01904013194143772,
                        -0.14006757736206055,
                        0.009344235993921757,
                        -0.00047454462037421763,
                        0.003337656380608678,
                        -0.026537101715803146,
                        0.0718575194478035,
                        -0.006625748705118895,
                        -0.026384107768535614,
                        0.023535866290330887,
                        -0.015851590782403946,
                        -0.03586585074663162,
                        -0.1478215605020523,
                        0.056875087320804596,
                        -0.0428120493888855,
                        -0.11130228638648987,
                        0.0072101629339158535,
                        -0.015515320003032684,
                        -0.010852312669157982,
                        -0.11143885552883148,
                        0.023887338116765022,
                        0.14365455508232117,
                        -0.07080329209566116,
                        0.023690519854426384,
                        0.030503984540700912,
                        1.6684451111359522e-05,
                        -0.1348533034324646,
                        -0.032229457050561905,
                        0.01578408107161522,
                        -0.2854683995246887,
                        -0.2703101933002472,
                        0.10986422747373581,
                        -0.15726977586746216,
                        0.26707491278648376,
                        -0.3201591968536377,
                        -0.21207968890666962,
                        0.006191450171172619,
                        -0.15173104405403137,
                        -0.8555489778518677,
                        0.1921340972185135,
                        0.31807172298431396,
                        -0.19910307228565216,
                        -0.9739444255828857,
                        -0.054283056408166885,
                        0.11490502208471298,
                        -0.19068500399589539,
                        -0.7636202573776245,
                        -0.04275389015674591,
                        0.07398780435323715,
                        0.06905744969844818,
                        0.12365800887346268,
                        -0.03455710411071777,
                        0.015433389693498611,
                        0.012348542921245098,
                        0.05066344141960144,
                        -0.14460453391075134,
                        0.038963112980127335,
                        -0.012182817794382572,
                        0.034361179918050766,
                        0.04648822546005249,
                        0.043772462755441666,
                        0.12139835208654404,
                        -0.0006973730633035302,
                        0.3465735912322998,
                        -0.018055161461234093,
                        -0.024448595941066742,
                        0.050428539514541626,
                        -0.18993069231510162,
                        0.003344028489664197
                    ],
                    [
                        -0.23922261595726013,
                        -0.27346470952033997,
                        -0.007982532493770123,
                        -0.27943283319473267,
                        0.26740363240242004,
                        -0.060963913798332214,
                        -0.14880694448947906,
                        -0.08243267983198166,
                        0.511250376701355,
                        -0.25837966799736023,
                        -0.30212077498435974,
                        0.43621626496315,
                        0.07980534434318542,
                        -0.27184781432151794,
                        -0.12987633049488068,
                        -0.09098824858665466,
                        -0.06054622307419777,
                        -0.27403292059898376,
                        -0.13539321720600128,
                        -0.16259631514549255,
                        0.1312110722064972,
                        0.13494496047496796,
                        0.011798438616096973,
                        0.10617422312498093,
                        -0.5772456526756287,
                        -0.07528401166200638,
                        -0.04106959328055382,
                        -0.19504624605178833,
                        -0.5222024321556091,
                        0.1438693255186081,
                        0.11226686090230942,
                        -0.3243843913078308,
                        -0.3660604953765869,
                        0.22809873521327972,
                        -0.18973508477210999,
                        -0.10655487328767776,
                        0.06380948424339294,
                        0.1593266725540161,
                        -0.0013813514960929751,
                        0.03364451974630356,
                        0.3048015236854553,
                        0.004960899241268635,
                        0.12635183334350586,
                        -0.6564125418663025,
                        -0.384052038192749,
                        -0.43936392664909363,
                        0.18883520364761353,
                        -0.12248260527849197,
                        -0.31026920676231384,
                        -0.44681134819984436,
                        -0.36854463815689087,
                        -0.03227177634835243,
                        -0.1399567872285843,
                        0.24318905174732208,
                        0.05980209633708,
                        0.2759425640106201,
                        0.17559278011322021,
                        -0.29179853200912476,
                        -0.05625531077384949,
                        0.193266361951828,
                        -0.24379383027553558,
                        -0.248854860663414,
                        -0.026258394122123718,
                        -0.29905736446380615,
                        -0.12996087968349457,
                        -0.1859809011220932,
                        -0.11594569683074951,
                        -0.3985472619533539,
                        -0.04428502172231674,
                        -0.25338348746299744,
                        -0.32641881704330444,
                        -0.0457901768386364,
                        -0.09063317626714706,
                        -0.2769513726234436,
                        -0.00715230219066143,
                        -0.11831805109977722,
                        -0.12924431264400482,
                        -0.29315996170043945,
                        -0.07033335417509079,
                        -0.18893539905548096
                    ],
                    [
                        -0.046138156205415726,
                        -0.08619499951601028,
                        -0.06940503418445587,
                        -0.06685641407966614,
                        0.14182956516742706,
                        -0.02995414286851883,
                        0.022516615688800812,
                        -0.012643120251595974,
                        0.3949550688266754,
                        -0.06743159890174866,
                        -0.06093023344874382,
                        0.07124381512403488,
                        0.07088956236839294,
                        -0.058436959981918335,
                        -0.002612299984320998,
                        -0.04249783977866173,
                        0.0647525042295456,
                        -0.08123565465211868,
                        -0.024200187996029854,
                        -0.016640640795230865,
                        0.017517734318971634,
                        0.010809551924467087,
                        -0.01950770430266857,
                        0.045852117240428925,
                        -0.04623313620686531,
                        -0.03746907785534859,
                        0.21612022817134857,
                        -0.020971868187189102,
                        -0.08414827287197113,
                        0.08919023722410202,
                        0.09647390991449356,
                        -0.11506403237581253,
                        -0.20852451026439667,
                        0.03438994660973549,
                        -0.02543541230261326,
                        -0.07228010892868042,
                        0.12375546246767044,
                        0.08605781942605972,
                        -0.0025446319486945868,
                        0.049918755888938904,
                        0.10026651620864868,
                        0.042051807045936584,
                        0.07250738143920898,
                        0.01852494478225708,
                        -0.0346488282084465,
                        0.2940862774848938,
                        0.11664588004350662,
                        -0.019822165369987488,
                        0.0883675366640091,
                        0.1356857270002365,
                        -0.3659578561782837,
                        -0.2620116174221039,
                        0.09997835010290146,
                        -0.1491604447364807,
                        0.03516523540019989,
                        0.06406218558549881,
                        0.1501232236623764,
                        0.23852168023586273,
                        -0.19876614212989807,
                        -0.17690953612327576,
                        -0.0430036336183548,
                        -0.048139411956071854,
                        -0.04592983052134514,
                        -0.06649240106344223,
                        0.01020033285021782,
                        -0.016743410378694534,
                        0.026210619136691093,
                        -0.07156719267368317,
                        0.014180652797222137,
                        -0.06916241347789764,
                        -0.06093991547822952,
                        -0.03697676956653595,
                        -0.14714595675468445,
                        -0.059078000485897064,
                        -0.1732017546892166,
                        -0.04837667942047119,
                        -0.002750260289758444,
                        -0.07916487008333206,
                        -0.053423959761857986,
                        -0.04634612798690796
                    ],
                    [
                        0.1414507031440735,
                        0.25050053000450134,
                        0.02904673106968403,
                        0.17916342616081238,
                        -0.5471341609954834,
                        0.10508498549461365,
                        0.10169518738985062,
                        0.0702844187617302,
                        -0.5988210439682007,
                        0.11848994344472885,
                        0.16535890102386475,
                        -0.32840701937675476,
                        -0.13499760627746582,
                        0.16458988189697266,
                        0.09155333042144775,
                        -0.040593184530735016,
                        0.21296747028827667,
                        0.17838220298290253,
                        0.12992112338542938,
                        0.20799003541469574,
                        -0.06313898414373398,
                        -0.11867398768663406,
                        0.1473754495382309,
                        -0.04251372069120407,
                        0.3932856619358063,
                        0.15512725710868835,
                        0.0034027521032840014,
                        0.1516145020723343,
                        0.8891108632087708,
                        0.022384630516171455,
                        -0.10547354072332382,
                        0.4215611517429352,
                        0.31929904222488403,
                        -0.11209481209516525,
                        0.1554015576839447,
                        0.008311573415994644,
                        0.1297917515039444,
                        -0.06136355921626091,
                        0.175802543759346,
                        -0.024057095870375633,
                        0.11818689852952957,
                        0.04552774876356125,
                        -0.10120755434036255,
                        -0.5799429416656494,
                        0.0640796422958374,
                        -0.03804488107562065,
                        0.12943212687969208,
                        0.10750726610422134,
                        -0.33136647939682007,
                        -0.17077180743217468,
                        0.30080005526542664,
                        0.19218751788139343,
                        -0.19648416340351105,
                        0.10615317523479462,
                        0.229131817817688,
                        0.2085111439228058,
                        -0.26084282994270325,
                        -0.2109157145023346,
                        -0.17864595353603363,
                        -0.2729633152484894,
                        0.12253914773464203,
                        0.17499412596225739,
                        0.05692983791232109,
                        0.19104716181755066,
                        0.0417681448161602,
                        0.19356849789619446,
                        0.001549291075207293,
                        0.3419933319091797,
                        0.2319520115852356,
                        0.1290757656097412,
                        0.17898255586624146,
                        0.1417519748210907,
                        0.08511717617511749,
                        0.17629271745681763,
                        -0.20258115231990814,
                        0.011292836628854275,
                        0.4163176119327545,
                        0.19270741939544678,
                        0.34289082884788513,
                        0.11268453299999237
                    ],
                    [
                        -0.07576441764831543,
                        0.01319126132875681,
                        0.10630086064338684,
                        0.012307808734476566,
                        0.01843980886042118,
                        -0.15302865207195282,
                        0.000921832222957164,
                        -0.002927344525232911,
                        0.08061140030622482,
                        -0.05038806051015854,
                        -0.03524905815720558,
                        -0.056186825037002563,
                        0.18741358816623688,
                        0.0009378215181641281,
                        -0.00508079631254077,
                        -0.03157813102006912,
                        0.06293493509292603,
                        -0.002454591216519475,
                        0.026739947497844696,
                        0.031336069107055664,
                        -0.005131741985678673,
                        0.020851176232099533,
                        0.07467515766620636,
                        0.0881304144859314,
                        -0.11320901662111282,
                        0.048709310591220856,
                        -0.004754521418362856,
                        -7.717780681559816e-05,
                        0.007342120632529259,
                        -0.012813923880457878,
                        0.03408767655491829,
                        -0.02930966205894947,
                        -0.04477023705840111,
                        0.017684757709503174,
                        -0.04629058763384819,
                        -0.03454935923218727,
                        0.07303901761770248,
                        0.06885295361280441,
                        0.03861668333411217,
                        0.0362250842154026,
                        -0.6935743689537048,
                        0.3079627752304077,
                        0.14915646612644196,
                        1.223286509513855,
                        -0.08439210057258606,
                        0.16693086922168732,
                        -0.1152508482336998,
                        -0.005122321657836437,
                        -0.3309328854084015,
                        -0.5610260367393494,
                        0.4944409132003784,
                        -0.121930792927742,
                        0.13102613389492035,
                        0.5210832357406616,
                        0.11448001116514206,
                        0.08620626479387283,
                        0.2762250602245331,
                        -0.4796210527420044,
                        -0.22441135346889496,
                        0.017668426036834717,
                        -0.08295510709285736,
                        0.05378798767924309,
                        0.07656100392341614,
                        0.028273670002818108,
                        -0.03907104581594467,
                        -0.028583351522684097,
                        -0.15729458630084991,
                        0.0489656962454319,
                        0.0489252544939518,
                        -0.06712695211172104,
                        -0.02685702219605446,
                        -0.008627337403595448,
                        -0.14132364094257355,
                        0.004284942988306284,
                        -0.3443949818611145,
                        -0.028498001396656036,
                        0.09142377972602844,
                        0.006724582053720951,
                        -0.06838608533143997,
                        0.06598035246133804
                    ],
                    [
                        -0.261400431394577,
                        -0.1971423327922821,
                        -0.06686560809612274,
                        -0.3094820976257324,
                        0.6463592052459717,
                        -0.009995839558541775,
                        -0.19283351302146912,
                        -0.09766563773155212,
                        0.382362425327301,
                        -0.1774129569530487,
                        -0.24147234857082367,
                        0.41041144728660583,
                        0.2510722577571869,
                        -0.2733198404312134,
                        -0.10242427885532379,
                        0.022397685796022415,
                        -0.04622367396950722,
                        -0.25378096103668213,
                        -0.19878317415714264,
                        -0.22674718499183655,
                        0.15077002346515656,
                        0.21308955550193787,
                        -0.2288302779197693,
                        0.0453176349401474,
                        -0.7169674038887024,
                        0.09090930223464966,
                        -0.20825232565402985,
                        -0.20898981392383575,
                        -0.9219368100166321,
                        0.09904977679252625,
                        0.14301708340644836,
                        -0.47102200984954834,
                        -0.34879380464553833,
                        0.2451668381690979,
                        -0.19575415551662445,
                        0.08449055254459381,
                        0.006519542541354895,
                        0.12053555250167847,
                        -0.276590496301651,
                        -0.16700877249240875,
                        0.2212102860212326,
                        -0.3401563763618469,
                        0.1630786508321762,
                        0.6935224533081055,
                        0.23328030109405518,
                        0.17485131323337555,
                        -0.5791339874267578,
                        -0.14314068853855133,
                        -0.0925847589969635,
                        0.17240159213542938,
                        0.4440244138240814,
                        0.03912148252129555,
                        0.0731024518609047,
                        0.43065670132637024,
                        0.021723799407482147,
                        -0.2485847920179367,
                        0.002194624161347747,
                        0.145231232047081,
                        0.19529318809509277,
                        -0.04952313378453255,
                        -0.264533668756485,
                        -0.08957687765359879,
                        -0.1875312328338623,
                        -0.3319854140281677,
                        -0.20463857054710388,
                        -0.05780269205570221,
                        -0.002468743361532688,
                        -0.33048009872436523,
                        -0.16426026821136475,
                        -0.19801387190818787,
                        -0.25881555676460266,
                        -0.16581474244594574,
                        0.12601667642593384,
                        -0.2844420075416565,
                        0.18701516091823578,
                        0.054463889449834824,
                        -0.12715409696102142,
                        -0.2716881036758423,
                        -0.27768418192863464,
                        -0.1940564662218094
                    ],
                    [
                        0.021596135571599007,
                        -0.06928904354572296,
                        0.3263363838195801,
                        0.04655464366078377,
                        -0.27802279591560364,
                        0.01637217588722706,
                        -0.10195931792259216,
                        0.0015992078697308898,
                        0.10669596493244171,
                        -0.019687822088599205,
                        0.022970573976635933,
                        0.06518522650003433,
                        0.07442940026521683,
                        -0.028208201751112938,
                        -0.0569814071059227,
                        0.024795660749077797,
                        -0.033259905874729156,
                        0.009469880722463131,
                        0.07711800932884216,
                        -0.03127339482307434,
                        0.051129769533872604,
                        -0.04316728189587593,
                        0.2805400490760803,
                        0.11911147087812424,
                        -0.22068552672863007,
                        -0.017628775909543037,
                        -0.1063377857208252,
                        -0.005445829126983881,
                        -0.06297917664051056,
                        -0.11916428059339523,
                        -0.041626278311014175,
                        -0.023911096155643463,
                        -0.03793339803814888,
                        -0.011412818916141987,
                        -0.18228906393051147,
                        -0.001585479243658483,
                        0.13182146847248077,
                        0.04155922308564186,
                        0.23407308757305145,
                        0.10484897345304489,
                        0.0999009758234024,
                        0.15536212921142578,
                        0.5188695192337036,
                        0.45832160115242004,
                        -0.08168374001979828,
                        -0.33790603280067444,
                        0.3772869110107422,
                        0.0015353545313701034,
                        -0.08360924571752548,
                        0.1709551364183426,
                        0.006953446660190821,
                        0.178091898560524,
                        -0.20045633614063263,
                        -0.5060575008392334,
                        0.24405083060264587,
                        0.10235008597373962,
                        0.25678449869155884,
                        0.3028779923915863,
                        -0.7627212405204773,
                        0.33703431487083435,
                        0.04453135281801224,
                        -0.085800901055336,
                        0.1906627118587494,
                        0.04038884863257408,
                        -0.2585132420063019,
                        -0.0340324267745018,
                        -0.1234898790717125,
                        -0.07096200436353683,
                        0.0865037739276886,
                        -0.023007623851299286,
                        0.018437404185533524,
                        0.09122629463672638,
                        -0.19854256510734558,
                        -0.03668571263551712,
                        0.26541200280189514,
                        -0.029308777302503586,
                        -0.12149699032306671,
                        0.0005453347694128752,
                        0.015096011571586132,
                        0.04685695096850395
                    ]
                ],
                [
                    0.9304497241973877,
                    1.1289207935333252,
                    0.00442523043602705,
                    1.0619924068450928,
                    -2.0294690132141113,
                    0.43412208557128906,
                    0.5324794054031372,
                    0.4139319658279419,
                    -2.516324996948242,
                    0.8984576463699341,
                    1.1360747814178467,
                    -1.9648797512054443,
                    -0.4391013979911804,
                    0.9583712816238403,
                    0.46223700046539307,
                    0.0805216133594513,
                    0.5043177008628845,
                    1.002028226852417,
                    0.5431047081947327,
                    0.6001490354537964,
                    -0.5649393200874329,
                    -0.5999898910522461,
                    0.3191135823726654,
                    -0.5515660047531128,
                    2.5186867713928223,
                    0.33631616830825806,
                    0.22770848870277405,
                    0.8383750915527344,
                    3.154196262359619,
                    -0.5038198828697205,
                    -0.6145884394645691,
                    2.5046417713165283,
                    1.149640440940857,
                    -0.8290575742721558,
                    0.5565020442008972,
                    0.1895924210548401,
                    0.14291781187057495,
                    -0.6515889763832092,
                    0.5286707878112793,
                    -0.062391042709350586,
                    0.4280487596988678,
                    -0.06261461228132248,
                    0.11096208542585373,
                    0.6541152000427246,
                    -0.038137976080179214,
                    0.003681875765323639,
                    -0.26158982515335083,
                    0.6699481010437012,
                    0.04938828945159912,
                    -0.027755480259656906,
                    -0.043358564376831055,
                    -0.2243395894765854,
                    0.09062394499778748,
                    0.08003520220518112,
                    -0.3079020082950592,
                    -0.21886694431304932,
                    0.49734532833099365,
                    0.0843471810221672,
                    -0.42980432510375977,
                    0.17033055424690247,
                    0.9497220516204834,
                    0.5341818332672119,
                    0.30071040987968445,
                    1.122969150543213,
                    0.46912944316864014,
                    0.8032729625701904,
                    0.03221650794148445,
                    1.5133700370788574,
                    0.2872128486633301,
                    0.9448103308677673,
                    1.2041144371032715,
                    0.5556434988975525,
                    0.24415728449821472,
                    0.9909210801124573,
                    0.4675099849700928,
                    0.1990632712841034,
                    0.7473258376121521,
                    1.0480740070343018,
                    0.557713508605957,
                    0.7007474899291992
                ]
            ]
        },
        {
            "type": "dense",
            "activation": "",
            "shape": [
                null,
                null,
                1
            ],
            "weights": [
                [
                    [
                        0.3013085126876831
                    ],
                    [
                        0.20699362456798553
                    ],
                    [
                        0.020461348816752434
                    ],
                    [
                        -0.025567999109625816
                    ],
                    [
                        -0.07038940489292145
                    ],
                    [
                        -0.29631948471069336
                    ],
                    [
                        -0.07814404368400574
                    ],
                    [
                        -0.0550997219979763
                    ],
                    [
                        -0.2816445827484131
                    ],
                    [
                        0.3046911358833313
                    ],
                    [
                        1.001549243927002
                    ],
                    [
                        -0.5504809617996216
                    ],
                    [
                        -0.10566439479589462
                    ],
                    [
                        -0.14252808690071106
                    ],
                    [
                        -0.3076937794685364
                    ],
                    [
                        0.14328670501708984
                    ],
                    [
                        -0.2992514967918396
                    ],
                    [
                        -0.33727285265922546
                    ],
                    [
                        -0.06970245391130447
                    ],
                    [
                        -0.06148708611726761
                    ]
                ],
                [
                    0.08147116005420685
                ]
            ]
        }
    ],
    "input_batch": [
        0.08890712261199951,
        0.07685470581054688,
        0.0653461217880249,
        0.054532408714294434,
        0.04451119899749756,
        0.035308122634887695,
        0.026958346366882324,
        0.019446253776550293,
        0.012525677680969238,
        0.005981564521789551,
        -0.00026929378509521484,
        -0.006249666213989258,
        -0.011995553970336914,
        -0.017508625984191895,
        -0.02271401882171631,
        -0.02761971950531006,
        -0.032241225242614746,
        -0.036610960960388184,
        -0.040699005126953125,
        -0.044444918632507324,
        -0.04790925979614258,
        -0.05123317241668701,
        -0.05459952354431152,
        -0.05816948413848877,
        -0.06197834014892578,
        -0.06591951847076416,
        -0.06988704204559326,
        -0.07376646995544434,
        -0.0775219202041626,
        -0.0812673568725586,
        -0.0852200984954834,
        -0.08966875076293945,
        -0.0947955846786499,
        -0.10053467750549316,
        -0.10666441917419434,
        -0.11304926872253418,
        -0.11953246593475342,
        -0.12591278553009033,
        -0.132002592086792,
        -0.13763344287872314,
        -0.1428072452545166,
        -0.1477440595626831,
        -0.15266728401184082,
        -0.15767443180084229,
        -0.16278719902038574,
        -0.16788256168365479,
        -0.17280030250549316,
        -0.17743873596191406,
        -0.18170714378356934,
        -0.18566298484802246,
        -0.18930482864379883,
        -0.1925739049911499,
        -0.1953953504562378,
        -0.19770467281341553,
        -0.19953620433807373,
        -0.20087742805480957,
        -0.20163464546203613,
        -0.20174288749694824,
        -0.20131254196166992,
        -0.20060443878173828,
        -0.19981276988983154,
        -0.19898736476898193,
        -0.19804656505584717,
        -0.196830153465271,
        -0.19518935680389404,
        -0.19313395023345947,
        -0.19076907634735107,
        -0.18827474117279053,
        -0.18589138984680176,
        -0.1838209629058838,
        -0.1821526288986206,
        -0.18084239959716797,
        -0.17979443073272705,
        -0.17878055572509766,
        -0.17766690254211426,
        -0.17643523216247559,
        -0.17515993118286133,
        -0.1739363670349121,
        -0.17273938655853271,
        -0.17163515090942383,
        -0.17070817947387695,
        -0.17007207870483398,
        -0.16979968547821045,
        -0.16981327533721924,
        -0.16993045806884766,
        -0.16990244388580322,
        -0.16958773136138916,
        -0.1689746379852295,
        -0.16806650161743164,
        -0.16679561138153076,
        -0.1650604009628296,
        -0.16283249855041504,
        -0.16023242473602295,
        -0.15746891498565674,
        -0.15467429161071777,
        -0.1518399715423584,
        -0.14881455898284912,
        -0.14543640613555908,
        -0.1416233777999878,
        -0.13732385635375977,
        -0.13252103328704834,
        -0.12722790241241455,
        -0.12140977382659912,
        -0.1149972677230835,
        -0.10812699794769287,
        -0.10091328620910645,
        -0.09338629245758057,
        -0.08561444282531738,
        -0.07770180702209473,
        -0.0697547197341919,
        -0.06180286407470703,
        -0.05381882190704346,
        -0.04577839374542236,
        -0.037773728370666504,
        -0.02981877326965332,
        -0.0217587947845459,
        -0.013584733009338379,
        -0.005498647689819336,
        0.0022115707397460938,
        0.009361028671264648,
        0.015861988067626953,
        0.02178025245666504,
        0.027471303939819336,
        0.03322553634643555,
        0.0390704870223999,
        0.044942378997802734,
        0.05073356628417969,
        0.056270599365234375,
        0.061307668685913086,
        0.06559419631958008,
        0.06905794143676758,
        0.07182455062866211,
        0.07404875755310059,
        0.07576572895050049,
        0.07687973976135254,
        0.07731044292449951,
        0.07699429988861084,
        0.07598209381103516,
        0.07441914081573486,
        0.07245373725891113,
        0.07016265392303467,
        0.06741988658905029,
        0.06401145458221436,
        0.059793949127197266,
        0.054786086082458496,
        0.049076080322265625,
        0.04292154312133789,
        0.0367201566696167,
        0.030768513679504395,
        0.025237202644348145,
        0.020194053649902344,
        0.015549659729003906,
        0.011062860488891602,
        0.006516814231872559,
        0.0016690492630004883,
        -0.0035783052444458008,
        -0.009043335914611816,
        -0.014560103416442871,
        -0.01997232437133789,
        -0.025107622146606445,
        -0.029849529266357422,
        -0.0341801643371582,
        -0.038176894187927246,
        -0.0419238805770874,
        -0.04551243782043457,
        -0.049030423164367676,
        -0.05255579948425293,
        -0.05611443519592285,
        -0.05966758728027344,
        -0.06308913230895996,
        -0.06624603271484375,
        -0.06903386116027832,
        -0.07132863998413086,
        -0.07318830490112305,
        -0.07477903366088867,
        -0.07623231410980225,
        -0.07766759395599365,
        -0.07912790775299072,
        -0.08060348033905029,
        -0.08206832408905029,
        -0.0835350751876831,
        -0.0849834680557251,
        -0.0863875150680542,
        -0.08768463134765625,
        -0.08876609802246094,
        -0.08961772918701172,
        -0.09028482437133789,
        -0.09077417850494385,
        -0.09109926223754883,
        -0.09132516384124756,
        -0.09154629707336426,
        -0.09190034866333008,
        -0.09250175952911377,
        -0.09336423873901367,
        -0.09438812732696533,
        -0.09540486335754395,
        -0.09629964828491211,
        -0.09695351123809814,
        -0.09727776050567627,
        -0.09731853008270264,
        -0.09716832637786865,
        -0.09688055515289307,
        -0.09645700454711914,
        -0.09585022926330566,
        -0.09491729736328125,
        -0.09349715709686279,
        -0.09149730205535889,
        -0.0888979434967041,
        -0.08565866947174072,
        -0.08183944225311279,
        -0.07756125926971436,
        -0.07288217544555664,
        -0.06781184673309326,
        -0.06223011016845703,
        -0.05610156059265137,
        -0.049604177474975586,
        -0.04303312301635742,
        -0.03657269477844238,
        -0.030182957649230957,
        -0.023830890655517578,
        -0.017480134963989258,
        -0.011202812194824219,
        -0.005202770233154297,
        0.00040411949157714844,
        0.005603194236755371,
        0.010437726974487305,
        0.0148468017578125,
        0.018692374229431152,
        0.02192986011505127,
        0.0246657133102417,
        0.027021288871765137,
        0.029035091400146484,
        0.030586719512939453,
        0.03155243396759033,
        0.031975388526916504,
        0.031960248947143555,
        0.03164219856262207,
        0.03116452693939209,
        0.030570149421691895,
        0.029740571975708008,
        0.028551816940307617,
        0.027022480964660645,
        0.025263190269470215,
        0.023347020149230957,
        0.021306276321411133,
        0.019191265106201172,
        0.017074108123779297,
        0.014982461929321289,
        0.012930631637573242,
        0.011011600494384766,
        0.009290933609008789,
        0.007765769958496094,
        0.006402850151062012,
        0.005133152008056641,
        0.003931283950805664,
        0.0027321577072143555,
        0.0015039443969726562,
        0.0003292560577392578,
        -0.000674128532409668,
        -0.0014024972915649414,
        -0.001804351806640625,
        -0.0017800331115722656,
        -0.001269221305847168,
        -0.00032699108123779297,
        0.000947117805480957,
        0.002516508102416992,
        0.004452705383300781,
        0.006804466247558594,
        0.00959157943725586,
        0.01270139217376709,
        0.0160750150680542,
        0.01967310905456543,
        0.023368358612060547,
        0.027097105979919434,
        0.030758142471313477,
        0.03434407711029053,
        0.03788125514984131,
        0.04126310348510742,
        0.0442659854888916,
        0.046614766120910645,
        0.048201560974121094,
        0.04912543296813965,
        0.04964029788970947,
        0.049962520599365234,
        0.05014371871948242,
        0.05012857913970947,
        0.04983675479888916,
        0.04925990104675293,
        0.048380136489868164,
        0.04710042476654053,
        0.045377135276794434,
        0.04331254959106445,
        0.04109060764312744,
        0.038783907890319824,
        0.03635132312774658,
        0.03364443778991699,
        0.030588626861572266,
        0.027303099632263184,
        0.02396368980407715,
        0.020811080932617188,
        0.017944693565368652,
        0.015338897705078125,
        0.012925505638122559,
        0.010601639747619629,
        0.008323907852172852,
        0.006069660186767578,
        0.0038775205612182617,
        0.001814126968383789,
        -0.00012803077697753906,
        -0.001978278160095215,
        -0.003760099411010742,
        -0.0054596662521362305,
        -0.007068753242492676,
        -0.008604645729064941,
        -0.010076761245727539,
        -0.0114821195602417,
        -0.012848258018493652,
        -0.014246225357055664,
        -0.015692472457885742,
        -0.01719212532043457,
        -0.0187608003616333,
        -0.020316243171691895,
        -0.021687865257263184,
        -0.022744178771972656,
        -0.023395895957946777,
        -0.02367424964904785,
        -0.023686766624450684,
        -0.023559212684631348,
        -0.02353835105895996,
        -0.023810148239135742,
        -0.024420976638793945,
        -0.025281429290771484,
        -0.026275038719177246,
        -0.02729785442352295,
        -0.028254151344299316,
        -0.029113173484802246,
        -0.029862523078918457,
        -0.030559778213500977,
        -0.031292080879211426,
        -0.032172203063964844,
        -0.0333104133605957,
        -0.03469491004943848,
        -0.03616642951965332,
        -0.03746485710144043,
        -0.03835141658782959,
        -0.03867208957672119,
        -0.038384437561035156,
        -0.03746497631072998,
        -0.03588759899139404,
        -0.03366267681121826,
        -0.030804753303527832,
        -0.027373194694519043,
        -0.023534536361694336,
        -0.019438862800598145,
        -0.015193939208984375,
        -0.010837078094482422,
        -0.006299853324890137,
        -0.0014376640319824219,
        0.0038427114486694336,
        0.009543776512145996,
        0.01564168930053711,
        0.022014617919921875,
        0.02853548526763916,
        0.03507280349731445,
        0.041413187980651855,
        0.047380924224853516,
        0.052945852279663086,
        0.05824482440948486,
        0.0635983943939209,
        0.06930017471313477,
        0.07545745372772217,
        0.08200514316558838,
        0.08876204490661621,
        0.0954751968383789,
        0.10194063186645508,
        0.10813772678375244,
        0.11412465572357178,
        0.11989188194274902,
        0.12540817260742188,
        0.13065004348754883,
        0.13551747798919678,
        0.13996493816375732,
        0.14400458335876465,
        0.14764666557312012,
        0.1509488821029663,
        0.153936505317688,
        0.15665125846862793,
        0.15916800498962402,
        0.16149985790252686,
        0.163557767868042,
        0.1652536392211914,
        0.1665053367614746,
        0.16722917556762695,
        0.16746926307678223,
        0.16731905937194824,
        0.16686558723449707,
        0.1661592721939087,
        0.16517388820648193,
        0.16384673118591309,
        0.16212892532348633,
        0.15992379188537598,
        0.1572057008743286,
        0.15409469604492188,
        0.15064311027526855,
        0.14686822891235352,
        0.1427854299545288,
        0.13837194442749023,
        0.13358283042907715,
        0.12836873531341553,
        0.12267875671386719,
        0.11648714542388916,
        0.10981261730194092,
        0.10262274742126465,
        0.09489047527313232,
        0.08663547039031982,
        0.07785844802856445,
        0.06863725185394287,
        0.059093356132507324,
        0.049382805824279785,
        0.03961348533630371,
        0.029848098754882812,
        0.020093560218811035,
        0.010236620903015137,
        0.00021505355834960938,
        -0.009972095489501953,
        -0.020226001739501953,
        -0.030455946922302246,
        -0.04052531719207764,
        -0.050289154052734375,
        -0.05972552299499512,
        -0.06886005401611328,
        -0.07784080505371094,
        -0.0867767333984375,
        -0.09571337699890137,
        -0.1045914888381958,
        -0.11325192451477051,
        -0.12151956558227539,
        -0.12922298908233643,
        -0.1362835168838501,
        -0.14263927936553955,
        -0.1482940912246704,
        -0.1532684564590454,
        -0.15757524967193604,
        -0.16122519969940186,
        -0.1642622947692871,
        -0.16681206226348877,
        -0.16893625259399414,
        -0.17068421840667725,
        -0.17207610607147217,
        -0.17307233810424805,
        -0.17363691329956055,
        -0.1737598180770874,
        -0.17346549034118652,
        -0.17271947860717773,
        -0.17148637771606445,
        -0.16977882385253906,
        -0.16760897636413574,
        -0.16502392292022705,
        -0.16216707229614258,
        -0.1592104434967041,
        -0.15623486042022705,
        -0.15324032306671143,
        -0.1501682996749878,
        -0.14697551727294922,
        -0.14366364479064941,
        -0.14021897315979004,
        -0.13671469688415527,
        -0.13324189186096191,
        -0.12983334064483643,
        -0.12648701667785645,
        -0.12318646907806396,
        -0.11989593505859375,
        -0.11658215522766113,
        -0.11322450637817383,
        -0.10980117321014404,
        -0.10633063316345215,
        -0.10277009010314941,
        -0.09906196594238281,
        -0.09512495994567871,
        -0.09084725379943848,
        -0.08619320392608643,
        -0.08116018772125244,
        -0.07574772834777832,
        -0.06996405124664307,
        -0.0638279914855957,
        -0.05738401412963867,
        -0.05070388317108154,
        -0.043877243995666504,
        -0.03686964511871338,
        -0.029566407203674316,
        -0.021921396255493164,
        -0.013936519622802734,
        -0.005740642547607422,
        0.002494215965270996,
        0.010594964027404785,
        0.018350601196289062,
        0.025620341300964355,
        0.032303452491760254,
        0.03835153579711914,
        0.04381203651428223,
        0.04878711700439453,
        0.05340433120727539,
        0.05774569511413574,
        0.0618366003036499,
        0.06566691398620605,
        0.06917035579681396,
        0.07234203815460205,
        0.07526206970214844,
        0.07799792289733887,
        0.08058881759643555,
        0.08302938938140869,
        0.08532822132110596,
        0.08749306201934814,
        0.08949458599090576,
        0.09129893779754639,
        0.09285402297973633,
        0.09407222270965576,
        0.09488523006439209,
        0.09520912170410156,
        0.09495413303375244,
        0.09404194355010986,
        0.09246575832366943,
        0.0903468132019043,
        0.08780062198638916,
        0.08496463298797607,
        0.08192956447601318,
        0.07872426509857178,
        0.07540559768676758,
        0.0719749927520752,
        0.06843304634094238,
        0.06476032733917236,
        0.06087362766265869,
        0.05673205852508545,
        0.052332520484924316,
        0.047727346420288086,
        0.04300487041473389,
        0.03824615478515625,
        0.03349590301513672,
        0.02874135971069336,
        0.024009108543395996,
        0.019306421279907227,
        0.014646530151367188,
        0.010010123252868652,
        0.005287289619445801,
        0.00045299530029296875,
        -0.004498720169067383,
        -0.009496808052062988,
        -0.014434576034545898,
        -0.019288182258605957,
        -0.02406179904937744,
        -0.028815865516662598,
        -0.03360104560852051,
        -0.038417935371398926,
        -0.0432513952255249,
        -0.04804682731628418,
        -0.05280649662017822,
        -0.05752289295196533,
        -0.06214869022369385,
        -0.06665265560150146,
        -0.07101058959960938,
        -0.07518935203552246,
        -0.07914745807647705,
        -0.0828104019165039,
