{
    "in_shape": [
        null,
        null,
        1
    ],
    "out_gain": -1,
    "layers": [
        {
            "type": "lstm",
            "activation": "",
            "shape": [
                null,
                null,
                20
            ],
            "weights": [
                [
                    [
                        -0.007704128976911306,
                        0.25731706619262695,
                        0.1557694673538208,
                        0.047120384871959686,
                        0.026969516649842262,
                        -0.15372133255004883,
                        0.29718437790870667,
                        0.01000465452671051,
                        0.2726513147354126,
                        0.10379842668771744,
                        -0.22200188040733337,
                        -0.19405974447727203,
                        -0.12742701172828674,
                        0.07857958227396011,
                        -0.07263770699501038,
                        0.019878491759300232,
                        0.010858673602342606,
                        -0.03204037994146347,
                        0.1433519572019577,
                        -0.09329038858413696,
                        0.19119906425476074,
                        0.390059232711792,
                        0.25752606987953186,
                        -0.06321649253368378,
                        -0.1957860291004181,
                        -0.09963881969451904,
                        0.29546189308166504,
                        -0.034540824592113495,
                        0.25541937351226807,
                        -0.014703751541674137,
                        -0.2007356733083725,
                        -0.1125369593501091,
                        -0.05437466502189636,
                        0.1233571469783783,
                        -0.21386508643627167,
                        -0.023287255316972733,
                        -0.06025741621851921,
                        -0.3324926793575287,
                        0.1981007158756256,
                        -0.21022078394889832,
                        -0.06176458299160004,
                        -0.0418856106698513,
                        -0.6488200426101685,
                        0.9049143195152283,
                        3.4989936351776123,
                        -0.12900711596012115,
                        -0.6277089715003967,
                        -0.293720006942749,
                        -0.26795244216918945,
                        -0.026348736137151718,
                        -0.661478579044342,
                        -0.16805505752563477,
                        0.4062254726886749,
                        0.0058066146448254585,
                        0.11585782468318939,
                        -0.171373650431633,
                        0.6465354561805725,
                        0.05065889656543732,
                        -1.2345820665359497,
                        0.5482732653617859,
                        -0.05836297944188118,
                        -0.3957928717136383,
                        0.10587190836668015,
                        0.055413611233234406,
                        -0.1835528314113617,
                        0.08168923854827881,
                        0.09348196536302567,
                        0.02845717780292034,
                        0.40022099018096924,
                        -0.0022258225362747908,
                        0.11160092055797577,
                        -0.26230791211128235,
                        -0.8273997902870178,
                        0.07311391830444336,
                        -0.05898839235305786,
                        -0.014523397199809551,
                        -0.004838000982999802,
                        -0.04805230721831322,
                        0.0012071543605998158,
                        -0.07286388427019119
                    ]
                ],
                [
                    [
                        0.22526393830776215,
                        0.08884520828723907,
                        0.027999596670269966,
                        -0.004353480413556099,
                        -0.19845694303512573,
                        -1.039285659790039,
                        0.1390524059534073,
                        -0.10451710969209671,
                        -0.17053771018981934,
                        0.16465316712856293,
                        0.21477749943733215,
                        0.017770880833268166,
                        -0.16530174016952515,
                        -0.0073012057691812515,
                        -0.05791071057319641,
                        -0.0060961078852415085,
                        0.06782954931259155,
                        -0.07795631885528564,
                        0.0060782963410019875,
                        -0.1364866942167282,
                        -0.12249390780925751,
                        0.22513967752456665,
                        0.03626644238829613,
                        0.13449054956436157,
                        -0.0468420647084713,
                        -0.3591170907020569,
                        -0.19162173569202423,
                        -0.2716309130191803,
                        -0.2557447850704193,
                        0.15017470717430115,
                        0.011161991395056248,
                        0.00037719510146416724,
                        0.03949945792555809,
                        -0.05208883062005043,
                        -0.526464581489563,
                        0.2668936252593994,
                        0.14496727287769318,
                        0.040350914001464844,
                        -0.049192193895578384,
                        -0.09602341800928116,
                        0.14848314225673676,
                        0.20208589732646942,
                        0.10501451790332794,
                        0.015949074178934097,
                        -0.08692887425422668,
                        1.1839401721954346,
                        0.023684347048401833,
                        -0.5731051564216614,
                        -0.10843493044376373,
                        -0.21824757754802704,
                        0.004482361953705549,
                        0.10643243789672852,
                        0.021181855350732803,
                        0.22204293310642242,
                        0.013453242368996143,
                        0.23484733700752258,
                        -0.10846357047557831,
                        -0.23047803342342377,
                        -0.022791584953665733,
                        0.0495760515332222,
                        0.5830348134040833,
                        0.06377576291561127,
                        0.0240480937063694,
                        0.1497611105442047,
                        0.15217573940753937,
                        -0.1076304018497467,
                        0.07660575956106186,
                        0.2645004689693451,
                        -0.06166435778141022,
                        0.360442191362381,
                        0.033764757215976715,
                        0.051193732768297195,
                        -0.12111464887857437,
                        0.09731981158256531,
                        -0.26555418968200684,
                        -0.27150043845176697,
                        0.06983139365911484,
                        0.2197948843240738,
                        0.04159100353717804,
                        -0.0841314047574997
                    ],
                    [
                        0.5933032035827637,
                        -0.2439599484205246,
                        -0.09805017709732056,
                        -0.4237777590751648,
                        -0.34328681230545044,
                        -0.16353702545166016,
                        0.9750292301177979,
                        1.4398146867752075,
                        0.3411257266998291,
                        -0.35691332817077637,
                        0.9128394722938538,
                        -0.18889276683330536,
                        0.373262494802475,
                        0.3581487536430359,
                        -0.1138031929731369,
                        -0.5874671339988708,
                        -0.4277860224246979,
                        1.0789836645126343,
                        -0.3241173028945923,
                        -0.012451895512640476,
                        -0.9853144288063049,
                        -0.31523916125297546,
                        0.08285394310951233,
                        0.000537621439434588,
                        0.07329073548316956,
                        -0.09299500286579132,
                        -0.8763198852539062,
                        -1.2883400917053223,
                        -0.4090743958950043,
                        -0.12630683183670044,
                        -1.0056371688842773,
                        -0.19101566076278687,
                        -0.37194809317588806,
                        -0.11855718493461609,
                        -0.14490893483161926,
                        -0.3123686909675598,
                        0.03952539712190628,
                        -1.2887251377105713,
                        -0.4188815653324127,
                        -0.16650928556919098,
                        -0.21700142323970795,
                        0.7897534966468811,
                        -0.15251292288303375,
                        0.48543253540992737,
                        0.2165711522102356,
                        -0.49503034353256226,
                        -0.023997485637664795,
                        0.21409708261489868,
                        -0.13433904945850372,
                        0.11418291181325912,
                        0.08905260264873505,
                        0.3152786195278168,
                        -0.13951876759529114,
                        -0.1166369616985321,
                        -0.28891947865486145,
                        0.11513986438512802,
                        0.17254671454429626,
                        -0.07671432197093964,
                        0.2090490311384201,
                        0.013543711975216866,
                        -0.06987053155899048,
                        -0.7980784177780151,
                        -0.26361727714538574,
                        -0.4054711163043976,
                        -0.4400034248828888,
                        -0.42705038189888,
                        -0.18458881974220276,
                        -0.4398971498012543,
                        -0.052784811705350876,
                        -0.053610119968652725,
                        -0.3862413763999939,
                        -0.2824738621711731,
                        0.14006967842578888,
                        -0.07606545090675354,
                        -0.2959425151348114,
                        0.16343434154987335,
                        -0.4598599970340729,
                        -0.2190440148115158,
                        -0.42404261231422424,
                        -0.2873586118221283
                    ],
                    [
                        0.0019688683096319437,
                        0.07582639157772064,
                        -0.010621794499456882,
                        0.12886366248130798,
                        0.019319532439112663,
                        0.35373538732528687,
                        -0.14803457260131836,
                        -0.5764030814170837,
                        -0.004414746072143316,
                        0.039144814014434814,
                        -0.6829654574394226,
                        -0.08178678154945374,
                        -0.15152961015701294,
                        0.03613220900297165,
                        -0.03413042053580284,
                        0.03533856198191643,
                        0.12596499919891357,
                        -0.1084984689950943,
                        -0.36250361800193787,
                        -0.06716370582580566,
                        0.10717153549194336,
                        0.03622354939579964,
                        -0.43123751878738403,
                        -0.2061416208744049,
                        0.49048280715942383,
                        0.027283255010843277,
                        -0.096467524766922,
                        0.057461582124233246,
                        0.13448593020439148,
                        0.06269639730453491,
                        0.496499240398407,
                        -0.09067833423614502,
                        -0.09965755045413971,
                        0.061430640518665314,
                        0.0012674452736973763,
                        0.11659898608922958,
                        -0.05830349400639534,
                        0.4326794147491455,
                        -0.21452006697654724,
                        -0.02086254209280014,
                        0.0025131101720035076,
                        0.08025819808244705,
                        -0.052024032920598984,
                        -0.5716454982757568,
                        0.18583045899868011,
                        -0.11558358371257782,
                        -0.16102305054664612,
                        0.20388786494731903,
                        -0.09653623402118683,
                        0.30882886052131653,
                        0.448530912399292,
                        0.10419882833957672,
                        -0.048109568655490875,
                        0.12343914806842804,
                        0.1851181536912918,
                        0.14885590970516205,
                        0.49742063879966736,
                        0.08023359626531601,
                        0.2998656928539276,
                        0.07179683446884155,
                        -0.1959051936864853,
                        0.4211269021034241,
                        -0.007425055373460054,
                        -0.09409398585557938,
                        0.5745449066162109,
                        0.061733175069093704,
                        -0.11985830217599869,
                        0.166133850812912,
                        -0.05142314359545708,
                        -0.21272554993629456,
                        0.06537894904613495,
                        0.07408762723207474,
                        -0.025210831314325333,
                        -0.12130739539861679,
                        -0.12203172594308853,
                        -0.5010430812835693,
                        0.1351364105939865,
                        0.14672911167144775,
                        0.05604618787765503,
                        0.0013232837663963437
                    ],
                    [
                        -0.0013327476335689425,
                        0.037722792476415634,
                        0.2646872401237488,
                        -0.23838402330875397,
                        0.501499593257904,
                        -0.7737270593643188,
                        0.13460735976696014,
                        -0.07606324553489685,
                        -0.0949113592505455,
                        0.02746465988457203,
                        0.012527558021247387,
                        -0.07988740503787994,
                        0.031137311831116676,
                        0.3317248523235321,
                        0.3135462701320648,
                        -0.10413847118616104,
                        -0.07731305062770844,
                        0.0630604699254036,
                        -0.05958804115653038,
                        -0.45434293150901794,
                        -0.14087049663066864,
                        -0.1376899629831314,
                        0.6297136545181274,
                        -0.016334133222699165,
                        -0.08023639768362045,
                        -0.5873574614524841,
                        0.2573741674423218,
                        0.033429790288209915,
                        -0.266418993473053,
                        0.22941218316555023,
                        -0.1068214699625969,
                        -0.039621591567993164,
                        0.1098954826593399,
                        0.4255044162273407,
                        -0.03220193833112717,
                        0.1556215137243271,
                        -0.29971885681152344,
                        0.2696235477924347,
                        0.30297210812568665,
                        -0.5781337022781372,
                        -0.044471751898527145,
                        0.005623765755444765,
                        0.15417882800102234,
                        1.1495122909545898,
                        -0.20761865377426147,
                        -0.20624826848506927,
                        -0.24977914988994598,
                        0.02106480859220028,
                        0.13721778988838196,
                        1.0667107105255127,
                        -0.023001903668045998,
                        -0.5262553691864014,
                        -0.005143675487488508,
                        -0.0384192056953907,
                        -0.47792530059814453,
                        1.739311933517456,
                        -0.6310892105102539,
                        -0.4920814037322998,
                        -0.5453649759292603,
                        0.013625724241137505,
                        0.1849590241909027,
                        -0.3105355501174927,
                        0.3601650297641754,
                        0.51384437084198,
                        -0.6626768112182617,
                        0.3646555542945862,
                        0.15744641423225403,
                        0.01779843494296074,
                        0.08706206828355789,
                        -0.9313696026802063,
                        -0.09360624104738235,
                        0.012388435192406178,
                        -0.04550766944885254,
                        0.2575889825820923,
                        -0.6858500242233276,
                        -0.13006076216697693,
                        -0.11271077394485474,
                        0.020684538409113884,
                        0.16440925002098083,
                        -0.3555247485637665
                    ],
                    [
                        0.051340773701667786,
                        0.01847420632839203,
                        0.053917523473501205,
                        -0.034007418900728226,
                        0.170890212059021,
                        -0.38114649057388306,
                        0.04849730804562569,
                        -0.055795151740312576,
                        -0.2474329024553299,
                        0.27743086218833923,
                        -0.45479080080986023,
                        0.08224356919527054,
                        0.030661802738904953,
                        0.1942962110042572,
                        0.27582424879074097,
                        0.057964254170656204,
                        0.02400132082402706,
                        0.19462285935878754,
                        -0.1288522332906723,
                        0.00020301813492551446,
                        -0.17364546656608582,
                        0.025148842483758926,
                        0.027733147144317627,
                        -0.04147280380129814,
                        0.11131337285041809,
                        0.19119352102279663,
                        -0.019179245457053185,
                        -0.04805446416139603,
                        -0.20951254665851593,
                        -0.054671838879585266,
                        -0.09616898000240326,
                        0.08587831258773804,
                        0.018045376986265182,
                        0.36549779772758484,
                        0.1722097545862198,
                        -0.10844404250383377,
                        -0.13518017530441284,
                        -0.4035533666610718,
                        -0.06449170410633087,
                        -0.02187756635248661,
                        -0.05547355115413666,
                        -0.1935182362794876,
                        -0.7004141211509705,
                        2.2483818531036377,
                        0.3175806999206543,
                        0.17546844482421875,
                        -0.19195343554019928,
                        -0.46732690930366516,
                        0.10970927774906158,
                        -0.3821963965892792,
                        -0.2321784794330597,
                        -0.19815054535865784,
                        -0.06921980530023575,
                        0.08012092858552933,
                        0.37444379925727844,
                        -0.8426530957221985,
                        1.276048183441162,
                        0.42476534843444824,
                        0.11129239201545715,
                        0.05804908275604248,
                        0.2744297385215759,
                        -0.31463512778282166,
                        0.020685400813817978,
                        -0.026711847633123398,
                        -0.324114054441452,
                        0.14325836300849915,
                        0.2499319314956665,
                        -0.11349062621593475,
                        0.2476743906736374,
                        -0.013577037490904331,
                        -0.333967387676239,
                        -0.16786503791809082,
                        0.17485997080802917,
                        0.3792720437049866,
                        0.2698752284049988,
                        0.11979053169488907,
                        -0.00814458541572094,
                        0.272470086812973,
                        -0.052874594926834106,
                        -0.03865104168653488
                    ],
                    [
                        0.10249883681535721,
                        -0.0506112314760685,
                        -0.11584025621414185,
                        0.12072981148958206,
                        0.4499570429325104,
                        0.4998234212398529,
                        -0.6533730030059814,
                        -0.4264709949493408,
                        -0.055732361972332,
                        0.30303311347961426,
                        -0.6912851929664612,
                        0.055799927562475204,
                        -0.22578930854797363,
                        -0.07699026167392731,
                        -0.05802689865231514,
                        0.48060640692710876,
                        0.215325266122818,
                        -0.5227618217468262,
                        0.23426398634910583,
                        0.1166675016283989,
                        0.07715959846973419,
                        -0.05470537021756172,
                        -0.30908122658729553,
                        0.05704769864678383,
                        -0.015483476221561432,
                        0.3350028991699219,
                        0.761673092842102,
                        0.6355999112129211,
                        0.21616104245185852,
                        0.11278203129768372,
                        0.7025529742240906,
                        0.0253889262676239,
                        0.18829795718193054,
                        0.22001928091049194,
                        -0.10071130841970444,
                        -0.4784311354160309,
                        -0.038717120885849,
                        0.832198441028595,
                        0.19187358021736145,
                        0.15819036960601807,
                        -0.2501465380191803,
                        -0.3016563057899475,
                        -0.281997412443161,
                        0.2056191861629486,
                        -0.08389361947774887,
                        -0.6762697100639343,
                        -0.004330305848270655,
                        -0.22556926310062408,
                        0.24932761490345,
                        0.18805916607379913,
                        0.07867059856653214,
                        0.03684885799884796,
                        -0.009735580533742905,
                        -0.036671027541160583,
                        0.015445415861904621,
                        -0.2051541805267334,
                        -0.2879147529602051,
                        0.17410363256931305,
                        -0.0008388258866034448,
                        -0.14411137998104095,
                        -0.337747186422348,
                        0.2787528932094574,
                        0.0003098812303505838,
                        0.5142382383346558,
                        0.13610854744911194,
                        0.3630741834640503,
                        0.127101331949234,
                        0.0937594622373581,
                        0.33734944462776184,
                        -0.07948845624923706,
                        0.17209963500499725,
                        -0.12328345328569412,
                        0.03759809583425522,
                        0.24612246453762054,
                        0.6448289752006531,
                        1.5691094398498535,
                        0.24350717663764954,
                        0.32832756638526917,
                        0.22750619053840637,
                        0.3103245496749878
                    ],
                    [
                        0.0716274157166481,
                        -0.0019598715007305145,
                        -0.13507871329784393,
                        0.03873033821582794,
                        -0.012284033000469208,
                        -0.5600491166114807,
                        0.266032874584198,
                        0.06268733739852905,
                        -0.23469462990760803,
                        -0.0788746252655983,
                        -0.03016652725636959,
                        0.05699213221669197,
                        0.09377335757017136,
                        -0.0165980514138937,
                        0.13856589794158936,
                        0.03557472303509712,
                        -0.007722329348325729,
                        0.5956527590751648,
                        -0.0882483497262001,
                        -0.0959349200129509,
                        -0.2544206976890564,
                        -0.0018823131686076522,
                        -0.28055816888809204,
                        0.07453836500644684,
                        0.02824852243065834,
                        -0.14160926640033722,
                        0.09618256241083145,
                        -0.11428768932819366,
                        -0.3818707764148712,
                        -0.06053277477622032,
                        -0.07794511318206787,
                        0.17089472711086273,
                        0.1570327877998352,
                        -0.17434164881706238,
                        0.2840059995651245,
                        0.060114555060863495,
                        -0.09357119351625443,
                        0.043377116322517395,
                        0.14859233796596527,
                        -0.06291300803422928,
                        -0.04440176859498024,
                        0.052977554500103,
                        0.00037144884117878973,
                        0.5352301001548767,
                        0.3756227493286133,
                        -0.026191269978880882,
                        0.2061534970998764,
                        0.20953503251075745,
                        0.7700344324111938,
                        0.08752143383026123,
                        0.09788684546947479,
                        0.671512246131897,
                        -0.013188658282160759,
                        -0.4231943190097809,
                        -0.009846066124737263,
                        0.23702214658260345,
                        0.5740861892700195,
                        -0.3235926628112793,
                        -0.5010741949081421,
                        0.5277819037437439,
                        0.16449105739593506,
                        -0.15899720788002014,
                        -0.06227006018161774,
                        -0.15381842851638794,
                        -0.0033415781799703836,
                        -0.010271519422531128,
                        0.2062133401632309,
                        0.10012361407279968,
                        -0.13834905624389648,
                        -0.35516083240509033,
                        -0.17146818339824677,
                        0.06606034934520721,
                        0.4593893885612488,
                        -0.16012321412563324,
                        -0.023841818794608116,
                        0.22548054158687592,
                        -0.01658175140619278,
                        -0.06779426336288452,
                        -0.037756238132715225,
                        0.0009063452598638833
                    ],
                    [
                        -0.47095924615859985,
                        -0.35960668325424194,
                        0.11086349189281464,
                        0.27315637469291687,
                        0.19703394174575806,
                        -0.016166822984814644,
                        0.08007141947746277,
                        0.3454400599002838,
                        0.007170577999204397,
                        0.1892373114824295,
                        -0.4029456675052643,
                        -0.19524888694286346,
                        -0.1378706693649292,
                        0.05616232752799988,
                        -0.039037976413965225,
                        0.29468390345573425,
                        0.18914155662059784,
                        -0.0624285489320755,
                        0.031625714153051376,
                        0.10315101593732834,
                        0.3303252160549164,
                        -0.49913227558135986,
                        0.06669783592224121,
                        0.09442578256130219,
                        -0.11081959307193756,
                        -0.29440876841545105,
                        -0.07067275047302246,
                        0.13490501046180725,
                        0.12093783915042877,
                        0.08012828230857849,
                        0.1823718100786209,
                        -0.164065420627594,
                        0.11048302799463272,
                        0.16403912007808685,
                        -0.1726858764886856,
                        0.08934423327445984,
                        -0.018300311639904976,
                        -0.23430436849594116,
                        0.07441622763872147,
                        0.16124475002288818,
                        0.7499313354492188,
                        -0.408353716135025,
                        -0.3938397467136383,
                        0.839730441570282,
                        0.7333635687828064,
                        -0.10952913016080856,
                        -0.1201247125864029,
                        0.4567987024784088,
                        -0.3189925253391266,
                        0.16936935484409332,
                        -0.20032212138175964,
                        -0.05280148610472679,
                        0.0491926446557045,
                        -0.11327490210533142,
                        0.260407954454422,
                        0.4248947501182556,
                        -0.23177990317344666,
                        0.08836772292852402,
                        -0.23134949803352356,
                        0.2068338245153427,
                        0.037140946835279465,
                        -0.022352514788508415,
                        0.16645078361034393,
                        0.07114206254482269,
                        0.20325972139835358,
                        0.06872455775737762,
                        -0.009301243349909782,
                        0.4300297796726227,
                        0.13098876178264618,
                        0.10803793370723724,
                        0.17994196712970734,
                        -0.13789209723472595,
                        -0.22720125317573547,
                        0.06675639003515244,
                        -0.13782529532909393,
                        -0.0757887214422226,
                        0.20270799100399017,
                        0.030024832114577293,
                        0.28943297266960144,
                        0.1666368991136551
                    ],
                    [
                        0.14774321019649506,
                        -0.045132074505090714,
                        -0.019745875149965286,
                        0.3218829035758972,
                        0.36103135347366333,
                        -0.122322678565979,
                        0.009275516495108604,
                        -0.21435949206352234,
                        -0.1757861226797104,
                        0.027072526514530182,
                        -0.20979240536689758,
                        -0.09960074722766876,
                        -0.1464349329471588,
                        0.005284490063786507,
                        0.18577179312705994,
                        0.18348480761051178,
                        0.11893196403980255,
                        -0.276854008436203,
                        0.1760774850845337,
                        -0.012203794904053211,
                        0.05161221697926521,
                        -0.03734392672777176,
                        -0.09514984488487244,
                        0.21834854781627655,
                        0.3132263123989105,
                        -0.09810085594654083,
                        0.057415496557950974,
                        -0.048266321420669556,
                        -0.2621909976005554,
                        -0.03199206292629242,
                        0.02426241710782051,
                        -0.08564392477273941,
                        0.04755401611328125,
                        0.11543159186840057,
                        0.20182885229587555,
                        -0.10191997140645981,
                        -0.024225736036896706,
                        0.022140802815556526,
                        0.021646369248628616,
                        0.018508248031139374,
                        -0.0754227563738823,
                        -0.1101149246096611,
                        -0.20506447553634644,
                        0.7169025540351868,
                        -0.06390561908483505,
                        -0.010473478585481644,
                        -0.07755259424448013,
                        -0.1659856140613556,
                        0.2368452548980713,
                        0.28238624334335327,
                        0.014530382119119167,
                        0.24952298402786255,
                        0.013746879994869232,
                        0.035801228135824203,
                        0.5883582234382629,
                        0.12459390610456467,
                        0.08026206493377686,
                        -0.4559427499771118,
                        -0.1621067076921463,
                        0.07334702461957932,
                        0.18381869792938232,
                        -0.0315488763153553,
                        0.016543691977858543,
                        0.09982400387525558,
                        0.41356393694877625,
                        0.06696077436208725,
                        -0.13030560314655304,
                        -0.09973647445440292,
                        -0.08728763461112976,
                        -0.06296475976705551,
                        -0.1363162249326706,
                        -0.11338997632265091,
                        0.11930816620588303,
                        -0.06963113695383072,
                        0.0463782362639904,
                        0.08971764147281647,
                        0.09582304209470749,
                        -0.05716805160045624,
                        0.198796808719635,
                        0.07995603233575821
                    ],
                    [
                        0.15601864457130432,
                        -0.08792993426322937,
                        0.006171695422381163,
                        0.4366045594215393,
                        0.17896999418735504,
                        -0.21942147612571716,
                        -0.33075740933418274,
                        0.08078215271234512,
                        0.11118725687265396,
                        0.01326307188719511,
                        -0.04130135476589203,
                        -0.05256491154432297,
                        -0.07826895266771317,
                        0.1522476077079773,
                        0.2288583368062973,
                        0.21964392066001892,
                        0.07289279997348785,
                        -0.3977760672569275,
                        0.37918734550476074,
                        0.06445759534835815,
                        -0.3227822482585907,
                        -0.06856797635555267,
                        -0.14015860855579376,
                        -0.07374483346939087,
                        0.10591954737901688,
                        -0.24163493514060974,
                        0.11606093496084213,
                        -0.23752613365650177,
                        -0.02054869569838047,
                        0.021507253870368004,
                        0.053183719515800476,
                        0.06658041477203369,
                        -0.10189507901668549,
                        0.1404184252023697,
                        0.357466459274292,
                        -0.6018030047416687,
                        0.04969032481312752,
                        0.2501603066921234,
                        0.15579593181610107,
                        -0.1321285218000412,
                        0.16917866468429565,
                        0.05039576068520546,
                        -0.31261804699897766,
                        -0.1417832225561142,
                        0.05833655595779419,
                        -0.2964414060115814,
                        -0.004532176535576582,
                        0.2014663815498352,
                        0.17402033507823944,
                        0.1836138516664505,
                        0.046352922916412354,
                        0.22390742599964142,
                        0.014440791681408882,
                        0.07780355960130692,
                        0.09185386449098587,
                        0.3950718343257904,
                        -0.02571510709822178,
                        -0.04714808613061905,
                        0.172604501247406,
                        -0.3046937584877014,
                        -0.4972134828567505,
                        0.35984212160110474,
                        0.005805321969091892,
                        0.14891138672828674,
                        0.018802441656589508,
                        0.04835570603609085,
                        -0.08129464089870453,
                        -0.08559565991163254,
                        0.14940482378005981,
                        0.6147506237030029,
                        0.029416505247354507,
                        0.1859886348247528,
                        -0.007404905743896961,
                        -0.005622488912194967,
                        0.43536868691444397,
                        1.4189223051071167,
                        0.038529641926288605,
                        0.41367533802986145,
                        0.366112619638443,
                        0.004680033773183823
                    ],
                    [
                        -0.11339450627565384,
                        0.005901352968066931,
                        0.23690608143806458,
                        0.2987107038497925,
                        0.29969170689582825,
                        -0.1370132714509964,
                        0.13378000259399414,
                        -0.40103399753570557,
                        -0.19226373732089996,
                        0.21653681993484497,
                        0.3891165554523468,
                        -0.19652853906154633,
                        -0.3912787437438965,
                        -0.11747975647449493,
                        0.21892346441745758,
                        0.407480388879776,
                        0.28566697239875793,
                        -0.28979599475860596,
                        0.2007317692041397,
                        0.05014324188232422,
                        0.3060559332370758,
                        0.03871902450919151,
                        0.0833783969283104,
                        0.00819736160337925,
                        -0.04033685848116875,
                        -0.021914517506957054,
                        0.02804357185959816,
                        0.39730021357536316,
                        0.08659495413303375,
                        -0.07682115584611893,
                        -0.05541840195655823,
                        -0.15937720239162445,
                        0.1802768111228943,
                        -0.04852830618619919,
                        0.178148552775383,
                        -0.08757776021957397,
                        -0.07704272866249084,
                        0.11393655091524124,
                        0.12062376737594604,
                        0.22068394720554352,
                        -0.0806955024600029,
                        -0.4283667802810669,
                        -0.33864662051200867,
                        0.7170804142951965,
                        1.4782832860946655,
                        0.1368667334318161,
                        0.01927548460662365,
                        -0.18252287805080414,
                        0.11873330920934677,
                        0.03293194994330406,
                        0.03255883604288101,
                        0.013920308090746403,
                        -1.0279000997543335,
                        -0.13530591130256653,
                        -0.104643315076828,
                        0.05290321633219719,
                        0.2229635864496231,
                        0.09051940590143204,
                        -0.4885801672935486,
                        0.0645226240158081,
                        0.1772538274526596,
                        -0.21661917865276337,
                        0.29225584864616394,
                        0.12462299317121506,
                        0.6194010972976685,
                        0.32608461380004883,
                        0.06448449194431305,
                        0.14803683757781982,
                        -0.14387688040733337,
                        -0.06199883297085762,
                        0.5114859938621521,
                        -0.21444368362426758,
                        0.25691789388656616,
                        -0.11680838465690613,
                        0.06120797246694565,
                        -0.04705817997455597,
                        0.29559168219566345,
                        0.48212143778800964,
                        0.23118989169597626,
                        0.18925298750400543
                    ],
                    [
                        -0.005879468284547329,
                        -0.07166990637779236,
                        -0.14320208132266998,
                        -0.16106706857681274,
                        -0.31198200583457947,
                        -0.0816999301314354,
                        0.7880908846855164,
                        0.5885300636291504,
                        0.06579624116420746,
                        -0.21941743791103363,
                        0.7938411831855774,
                        -0.015595748089253902,
                        0.22861868143081665,
                        0.1329909712076187,
                        -0.03397462144494057,
                        -0.32858744263648987,
                        -0.19399258494377136,
                        0.34119701385498047,
                        -0.009928308427333832,
                        0.02585866115987301,
                        -0.08988714218139648,
                        0.0006276105996221304,
                        -0.023883827030658722,
                        -0.16498953104019165,
                        0.0526948943734169,
                        -0.07479837536811829,
                        -0.33494117856025696,
                        -0.4115106463432312,
                        -0.18241631984710693,
                        -0.09661294519901276,
                        -0.4735998809337616,
                        0.061647359281778336,
                        -0.0932650938630104,
                        -0.14212089776992798,
                        -0.07705047726631165,
                        -0.048412349075078964,
                        0.2112419456243515,
                        -0.4601069390773773,
                        0.08717551827430725,
                        0.1016525998711586,
                        -0.003097155364230275,
                        0.1632397621870041,
                        -0.22691860795021057,
                        0.9528985023498535,
                        0.0430130772292614,
                        -0.2555338442325592,
                        0.12923240661621094,
                        -0.10772668570280075,
                        -0.1771162897348404,
                        0.17398202419281006,
                        -0.19422008097171783,
                        0.13202734291553497,
                        -0.03213772550225258,
                        -0.00504662049934268,
                        -0.05313849449157715,
                        0.24556732177734375,
                        0.08675985038280487,
                        -0.07332783192396164,
                        -0.21886368095874786,
                        0.13344179093837738,
                        -0.139277383685112,
                        -0.25369760394096375,
                        -0.18625006079673767,
                        -0.3542523980140686,
                        -0.22054289281368256,
                        -0.26550039649009705,
                        -0.028853660449385643,
                        -0.18369978666305542,
                        -0.03645629808306694,
                        -0.27356278896331787,
                        -0.02948244847357273,
                        -0.18546424806118011,
                        0.2076130211353302,
                        -0.1235581785440445,
                        -0.14081914722919464,
                        -0.14016802608966827,
                        -0.2028522491455078,
                        -0.4218769073486328,
                        -0.09010938555002213,
                        -0.08429571986198425
                    ],
                    [
                        -0.017261072993278503,
                        0.013358773663640022,
                        -0.06371347606182098,
                        0.24998505413532257,
                        0.2726360261440277,
                        -0.04060749709606171,
                        -0.19042402505874634,
                        0.03030649945139885,
                        -0.04325312003493309,
                        0.12847745418548584,
                        -0.2664389908313751,
                        -0.045331187546253204,
                        -0.321089506149292,
                        0.0784437507390976,
                        -0.07250369340181351,
                        0.2879834771156311,
                        0.22364991903305054,
                        -0.22285541892051697,
                        0.2540070116519928,
                        -0.033417534083127975,
                        0.03952903300523758,
                        -0.0365157276391983,
                        -0.11010144650936127,
                        0.09696723520755768,
                        0.18048417568206787,
                        0.08989915251731873,
                        0.1364911049604416,
                        0.35833021998405457,
                        0.09734340012073517,
                        0.028149310499429703,
                        0.4314608573913574,
                        -0.11272779107093811,
                        -0.22624929249286652,
                        0.2908685505390167,
                        -0.2745871841907501,
                        -0.06491249799728394,
                        0.09758689999580383,
                        0.09558336436748505,
                        0.2401544749736786,
                        -0.014848045073449612,
                        -0.005679363384842873,
                        -0.11307182908058167,
                        0.06171172857284546,
                        -0.41890189051628113,
                        -1.1164296865463257,
                        -0.030237317085266113,
                        -0.012447960674762726,
                        -0.030887486413121223,
                        0.06179656833410263,
                        0.021164780482649803,
                        -0.16090495884418488,
                        -0.07978606969118118,
                        0.021840902045369148,
                        0.03625677525997162,
                        0.09080308675765991,
                        -0.21351143717765808,
                        -0.142613485455513,
                        0.04400128498673439,
                        0.5901705026626587,
                        -0.2255876511335373,
                        -0.14744918048381805,
                        0.26288193464279175,
                        0.043507251888513565,
                        0.42625853419303894,
                        0.1921558976173401,
                        0.15995031595230103,
                        -0.11283203214406967,
                        -0.04764404520392418,
                        0.02944662980735302,
                        0.10817887634038925,
                        -0.31505879759788513,
                        0.05652831867337227,
                        -0.1873793601989746,
                        0.1761055588722229,
                        -0.000743063457775861,
                        0.0601450651884079,
                        0.25039142370224,
                        -0.3461083173751831,
                        0.3602132201194763,
                        0.07991619408130646
                    ],
                    [
                        0.00930984690785408,
                        0.037178684026002884,
                        0.17661000788211823,
                        0.038953036069869995,
                        0.14444778859615326,
                        0.2759064733982086,
                        -0.5010917782783508,
                        -0.10125849395990372,
                        0.041732266545295715,
                        0.17774803936481476,
                        -0.17030824720859528,
                        0.05575232207775116,
                        -0.03492603823542595,
                        -0.052804093807935715,
                        0.12697187066078186,
                        0.1243206113576889,
                        0.13050229847431183,
                        -0.47404569387435913,
                        0.10378582775592804,
                        -0.0011362953810021281,
                        0.1336136758327484,
                        0.06738549470901489,
                        0.08247579634189606,
                        -0.21536655724048615,
                        0.10362961143255234,
                        0.18724793195724487,
                        0.4524027705192566,
                        0.24634429812431335,
                        0.19968624413013458,
                        -0.05055677518248558,
                        0.11515145748853683,
                        0.03847576677799225,
                        0.07723329216241837,
                        0.07903315871953964,
                        -0.1562839150428772,
                        -0.24605299532413483,
                        0.12231764942407608,
                        0.1745707392692566,
                        -0.19266335666179657,
                        -0.03806478530168533,
                        0.1896670162677765,
                        0.07084192335605621,
                        -0.06856439262628555,
                        -0.14019855856895447,
                        -0.18674394488334656,
                        0.5802676677703857,
                        0.047108735889196396,
                        -0.11594399809837341,
                        -0.285905122756958,
                        -0.2569141089916229,
                        -0.18170316517353058,
                        -0.08539382368326187,
                        0.024053575471043587,
                        0.18552912771701813,
                        -0.12327152490615845,
                        -0.21610991656780243,
                        -0.1968054324388504,
                        -0.05186382308602333,
                        0.19543392956256866,
                        0.029420066624879837,
                        0.10953845083713531,
                        0.1813378781080246,
                        0.11570198833942413,
                        0.16103065013885498,
                        0.10472234338521957,
                        0.10922819375991821,
                        0.2768911123275757,
                        0.0406167134642601,
                        0.14249394834041595,
                        0.24433988332748413,
                        0.3720172047615051,
                        0.09510419517755508,
                        -0.2543099522590637,
                        0.20275509357452393,
                        0.1797095239162445,
                        -0.15024103224277496,
                        0.13938617706298828,
                        0.2215527594089508,
                        0.10354603081941605,
                        0.011793538928031921
                    ],
                    [
                        -0.21359607577323914,
                        -0.04722415283322334,
                        0.011916355229914188,
                        0.4936079978942871,
                        0.19626642763614655,
                        0.146310493350029,
                        -0.3405483067035675,
                        -0.3957158923149109,
                        0.07198631763458252,
                        0.06869539618492126,
                        -0.5666036605834961,
                        -0.03425150364637375,
                        0.022076303139328957,
                        0.09442542493343353,
                        -0.07298879325389862,
                        0.2933824360370636,
                        0.15930698812007904,
                        -0.3716692626476288,
                        0.23515437543392181,
                        0.07775337249040604,
                        0.14361244440078735,
                        -0.04518532380461693,
                        -0.30610960721969604,
                        0.12336784601211548,
                        -0.03608572855591774,
                        -0.03848723694682121,
                        0.36496904492378235,
                        0.31649401783943176,
                        0.17597468197345734,
                        -0.00792002584785223,
                        0.38638508319854736,
                        0.019173234701156616,
                        0.07807604223489761,
                        0.1990605741739273,
                        -0.2862097918987274,
                        -0.15433242917060852,
                        -0.04302598908543587,
                        0.20978707075119019,
                        0.07978708297014236,
                        0.10958541184663773,
                        0.21248683333396912,
                        -0.1416577398777008,
                        0.28791600465774536,
                        0.5603861212730408,
                        -0.31611761450767517,
                        0.3188687860965729,
                        0.15573783218860626,
                        0.19171719253063202,
                        -0.1727401614189148,
                        0.18832294642925262,
                        -0.15936829149723053,
                        -0.04981859028339386,
                        0.06690599769353867,
                        0.028984688222408295,
                        -0.2501683831214905,
                        0.5441662669181824,
                        -0.29581499099731445,
                        0.16128069162368774,
                        -0.4353693425655365,
                        0.009368479251861572,
                        0.11536987125873566,
                        0.25301358103752136,
                        0.04167840629816055,
                        0.26241227984428406,
                        0.388217955827713,
                        0.09886560589075089,
                        0.08122509717941284,
                        0.04219682142138481,
                        -0.020142409950494766,
                        -0.09972196072340012,
                        0.14925439655780792,
                        -0.01726432703435421,
                        -0.38458648324012756,
                        -0.07531679421663284,
                        0.0994669497013092,
                        0.22401496767997742,
                        0.1691388040781021,
                        -0.2922517955303192,
                        0.24415861070156097,
                        0.18373069167137146
                    ],
                    [
                        -0.10626516491174698,
                        0.14838166534900665,
                        0.0298437662422657,
                        0.16489842534065247,
                        -0.09854138642549515,
                        -0.28675252199172974,
                        -0.012139888480305672,
                        -0.059756018221378326,
                        -0.006020784378051758,
                        -0.09907069057226181,
                        -0.08197492361068726,
                        0.017336580902338028,
                        -0.02317018248140812,
                        0.06786815822124481,
                        0.3678458631038666,
                        0.06251397728919983,
                        0.03793623670935631,
                        0.03460591286420822,
                        0.01521238312125206,
                        0.035376403480768204,
                        0.10924652218818665,
                        0.32398542761802673,
                        -0.08817511051893234,
                        -0.02135058492422104,
                        -0.07184425741434097,
                        -0.72334885597229,
                        0.18671195209026337,
                        -0.18366797268390656,
                        0.012827331200242043,
                        0.16639554500579834,
                        0.11841347068548203,
                        0.21149209141731262,
                        0.07308084517717361,
                        -0.05700226128101349,
                        0.6781604886054993,
                        0.24068599939346313,
                        -0.006741134449839592,
                        -0.021899474784731865,
                        0.04499107971787453,
                        -0.033143673092126846,
                        0.3809705376625061,
                        -0.09310699999332428,
                        -0.10523469746112823,
                        -0.12914663553237915,
                        0.07340871542692184,
                        -1.1723874807357788,
                        -0.054518673568964005,
                        -0.6644788384437561,
                        0.07123377174139023,
                        0.7877042293548584,
                        0.1965743452310562,
                        -0.07746913284063339,
                        -0.08251131325960159,
                        -0.13138419389724731,
                        0.2687849998474121,
                        0.28370773792266846,
                        0.05273904651403427,
                        -0.1125151738524437,
                        0.1667742133140564,
                        0.19494536519050598,
                        -0.13697974383831024,
                        0.5148012042045593,
                        0.004836881533265114,
                        -0.009948712773621082,
                        0.08663765341043472,
                        -0.07312826067209244,
                        -0.02302471175789833,
                        0.14719703793525696,
                        -0.21165435016155243,
                        0.16129131615161896,
                        0.0448712557554245,
                        0.1657560020685196,
                        0.11751414835453033,
                        -0.07150174677371979,
                        0.3851800262928009,
                        -0.2601819634437561,
                        0.019223323091864586,
                        -0.13966189324855804,
                        0.12115874886512756,
                        -0.01722026988863945
                    ],
                    [
                        -0.2324366569519043,
                        0.1225430816411972,
                        -0.08689241111278534,
                        0.0708957239985466,
                        0.20845581591129303,
                        -0.41135597229003906,
                        0.30122318863868713,
                        -0.30084171891212463,
                        -0.05311381816864014,
                        0.06525791436433792,
                        -0.09113235026597977,
                        0.018942752853035927,
                        -0.016946684569120407,
                        0.02556898631155491,
                        -0.012276825495064259,
                        0.0030789135489612818,
                        -0.036012984812259674,
                        -0.025638973340392113,
                        -0.3282412886619568,
                        0.02252054028213024,
                        0.010193178430199623,
                        0.19460807740688324,
                        -0.06996623426675797,
                        0.18441888689994812,
                        0.12418082356452942,
                        -0.014865328557789326,
                        -0.017714306712150574,
                        0.05357245355844498,
                        -0.03850109875202179,
                        0.04580507427453995,
                        0.23442859947681427,
                        0.16040612757205963,
                        0.11153967678546906,
                        0.11556376516819,
                        0.152958482503891,
                        0.26676684617996216,
                        -0.09751172363758087,
                        0.3568004071712494,
                        -0.19055554270744324,
                        0.062118273228406906,
                        -0.006902504712343216,
                        0.10668706893920898,
                        -0.19974075257778168,
                        1.0767484903335571,
                        -0.3971213102340698,
                        -0.2878030836582184,
                        0.09875953197479248,
                        -0.19006989896297455,
                        0.49165078997612,
                        0.1691925823688507,
                        -0.22368748486042023,
                        -0.1073353961110115,
                        0.06770135462284088,
                        -0.07101735472679138,
                        -0.5223905444145203,
                        0.5995410680770874,
                        -0.4807402193546295,
                        0.18519872426986694,
                        -0.15195755660533905,
                        -0.059433531016111374,
                        -0.16920465230941772,
                        -0.11924983561038971,
                        -0.033952731639146805,
                        -0.3593641221523285,
                        -0.039046745747327805,
                        0.1890619844198227,
                        0.4856102466583252,
                        0.07426727563142776,
                        0.09059344977140427,
                        -0.49617329239845276,
                        0.33167216181755066,
                        0.14177224040031433,
                        -0.1932477056980133,
                        -0.0242735855281353,
                        -0.08333607017993927,
                        -0.2073005884885788,
                        -0.06858593225479126,
                        0.3279946744441986,
                        -0.10571928322315216,
                        -0.007758616004139185
                    ],
                    [
                        0.03291367366909981,
                        -0.04281977191567421,
                        -0.15681961178779602,
                        -0.09917087107896805,
                        -0.33502820134162903,
                        0.4113357663154602,
                        -0.08460184186697006,
                        0.364656925201416,
                        0.31139087677001953,
                        -0.2950725555419922,
                        0.3062429130077362,
                        -0.04132479429244995,
                        0.11033409088850021,
                        -0.05550816282629967,
                        -0.18414337933063507,
                        -0.3043019771575928,
                        -0.2656343877315521,
                        -0.04329555109143257,
                        -0.17452868819236755,
                        0.10908474028110504,
                        -0.22622686624526978,
                        -0.13701120018959045,
                        -0.16534531116485596,
                        0.017147285863757133,
                        -0.3624131977558136,
                        -0.19492927193641663,
                        -0.21224983036518097,
                        -0.6573145389556885,
                        0.016749035567045212,
                        -0.22091814875602722,
                        -0.5476939678192139,
                        -0.16120173037052155,
                        -0.4559416174888611,
                        -0.26625174283981323,
                        -0.2634766101837158,
                        0.1617983728647232,
                        -0.008124064654111862,
                        0.06803862005472183,
                        -0.01829490438103676,
                        0.10655669122934341,
                        0.10962855815887451,
                        0.30916494131088257,
                        -0.05331955850124359,
                        0.4415072202682495,
                        -0.47554051876068115,
                        -0.5278874635696411,
                        0.2973046898841858,
                        -0.05397026613354683,
                        0.1680862307548523,
                        0.21436439454555511,
                        -0.08310522884130478,
                        0.1492796391248703,
                        0.017065104097127914,
                        -0.30414023995399475,
                        0.7993078231811523,
                        0.6971020698547363,
                        0.021019818261265755,
                        0.4471231698989868,
                        -0.40824130177497864,
                        0.4201931655406952,
                        -0.3302134871482849,
                        0.2946416437625885,
                        -0.1909475177526474,
                        -0.4698869287967682,
                        -0.6032705903053284,
                        -0.1887519508600235,
                        -0.32877668738365173,
                        -0.10712095350027084,
                        0.14652957022190094,
                        -0.15432067215442657,
                        0.08999412506818771,
                        -0.2693909704685211,
                        -0.5788273215293884,
                        -0.2786899507045746,
                        -0.2845483124256134,
                        0.25375232100486755,
                        -0.2829088568687439,
                        -0.5563971400260925,
                        -0.30100932717323303,
                        -0.05244038626551628
                    ],
                    [
                        -0.1156298816204071,
                        -0.12402232736349106,
                        -0.07961375266313553,
                        -0.4366069436073303,
                        -0.6070011854171753,
                        0.29132184386253357,
                        0.14269478619098663,
                        0.17909878492355347,
                        -0.03316078707575798,
                        0.01768634468317032,
                        0.2892134487628937,
                        0.2546119689941406,
                        0.15164655447006226,
                        -0.042384617030620575,
                        0.1334245353937149,
                        -0.0457153394818306,
                        -0.02138771302998066,
                        0.03428906947374344,
                        -0.05351078882813454,
                        0.3897927403450012,
                        -0.25352805852890015,
                        -0.009344970807433128,
                        -0.4502241015434265,
                        -0.01777929626405239,
                        0.1319696456193924,
                        0.38386598229408264,
                        -0.05466882139444351,
                        -0.46514058113098145,
                        -0.04718894511461258,
                        -0.39144498109817505,
                        -0.18672525882720947,
                        0.21896041929721832,
                        -0.19352121651172638,
                        -0.25000184774398804,
                        0.25863465666770935,
                        -0.17839613556861877,
                        0.20998165011405945,
                        -0.6722870469093323,
                        0.015500923618674278,
                        0.3772358298301697,
                        -0.19555328786373138,
                        0.2849755585193634,
                        -0.12660758197307587,
                        -0.24364814162254333,
                        0.14168842136859894,
                        0.32917627692222595,
                        0.05356210842728615,
                        0.3077172636985779,
                        0.06590736657381058,
                        -1.2477967739105225,
                        0.23684372007846832,
                        -0.07614722847938538,
                        -0.044477105140686035,
                        0.22299259901046753,
                        -0.35399147868156433,
                        -1.802754521369934,
                        -0.32649746537208557,
                        0.39623910188674927,
                        -0.03584381192922592,
                        -0.3297533392906189,
                        0.135562464594841,
                        0.5257710218429565,
                        -0.2499142736196518,
                        0.4619573950767517,
                        0.5171856880187988,
                        -0.5271944999694824,
                        -0.24382062256336212,
                        0.09443674981594086,
                        -0.19842174649238586,
                        0.7988864779472351,
                        -0.2598974108695984,
                        0.36661607027053833,
                        0.03747762367129326,
                        0.11332783102989197,
                        0.5618376135826111,
                        0.28793802857398987,
                        0.042878445237874985,
                        0.055628299713134766,
                        -0.3244226276874542,
                        0.1965484321117401
                    ],
                    [
                        0.026840871199965477,
                        -0.17739228904247284,
                        0.1339588314294815,
                        0.4245772659778595,
                        0.3029184639453888,
                        -0.22725257277488708,
                        -0.33404359221458435,
                        -0.13508111238479614,
                        0.25703901052474976,
                        0.0659383088350296,
                        -0.0619487464427948,
                        0.09935467690229416,
                        0.14257831871509552,
                        0.2678556740283966,
                        0.18220876157283783,
                        0.1028478816151619,
                        0.04455696418881416,
                        0.4347213804721832,
                        0.1949727088212967,
                        0.0007504087989218533,
                        0.11630502343177795,
                        -0.15078015625476837,
                        0.055323317646980286,
                        -0.18610383570194244,
                        -0.06873074918985367,
                        -0.2902287542819977,
                        0.39310330152511597,
                        0.08992698788642883,
                        0.04658710956573486,
                        0.1432589292526245,
                        -0.06653885543346405,
                        0.19085796177387238,
                        -0.1068544089794159,
                        0.18914847075939178,
                        0.21911954879760742,
                        -0.4239319860935211,
                        -0.0058580548502504826,
                        0.028742507100105286,
                        -0.0354129895567894,
                        -0.10486588627099991,
                        -0.006786948535591364,
                        0.07000721246004105,
                        -0.19933749735355377,
                        0.1713806390762329,
                        -0.026701224967837334,
                        0.051189444959163666,
                        -0.14007025957107544,
                        0.10746800899505615,
                        0.18208937346935272,
                        0.7209405303001404,
                        0.11488372087478638,
                        -0.24418622255325317,
                        -0.01679334230720997,
                        -0.031006446108222008,
                        -0.27135714888572693,
                        0.6195630431175232,
                        0.041855838149785995,
                        0.1485038846731186,
                        0.019930914044380188,
                        0.07052043080329895,
                        0.15210896730422974,
                        0.000836242688819766,
                        0.18611913919448853,
                        -0.25186577439308167,
                        -0.04717313498258591,
                        0.3765985071659088,
                        0.3088841736316681,
                        -0.003260216908529401,
                        0.19567368924617767,
                        -0.4591382145881653,
                        0.0475582480430603,
                        0.20402774214744568,
                        -0.0968681275844574,
                        0.04573759436607361,
                        -0.014548040926456451,
                        -0.16829217970371246,
                        -0.018407072871923447,
                        0.06214414909482002,
                        0.04012107849121094,
                        0.018104663118720055
                    ]
                ],
                [
                    -2.1085638999938965,
                    0.22129428386688232,
                    0.38094067573547363,
                    0.8932989835739136,
                    1.0211482048034668,
                    0.3586311936378479,
                    -1.2291314601898193,
                    -2.6808295249938965,
                    -0.6978428959846497,
                    0.8138953447341919,
                    -1.2084033489227295,
                    0.10926569998264313,
                    -0.18592922389507294,
                    -0.7463531494140625,
                    -0.0010499441996216774,
                    1.3406065702438354,
                    0.8849424123764038,
                    -2.104680061340332,
                    0.1944398432970047,
                    -0.03648509830236435,
                    2.637606620788574,
                    1.0279796123504639,
                    0.266887366771698,
                    -0.13421522080898285,
                    -0.2395121455192566,
                    0.0023406553082168102,
                    2.1290416717529297,
                    3.275607109069824,
                    0.894134521484375,
                    0.34090709686279297,
                    2.5444517135620117,
                    0.5259014368057251,
                    1.7765506505966187,
                    0.39655816555023193,
                    0.22275912761688232,
                    1.0272893905639648,
                    -0.2978854179382324,
                    2.9933629035949707,
                    0.9933198690414429,
                    0.40686288475990295,
                    -0.3600931167602539,
                    0.2214086949825287,
                    0.47606754302978516,
                    -0.04622386395931244,
                    -0.6310563087463379,
                    0.09055022895336151,
                    0.3051992356777191,
                    0.39657795429229736,
                    0.20964135229587555,
                    -0.1499401330947876,
                    0.2805984914302826,
                    -0.48136281967163086,
                    0.8178096413612366,
                    0.0938781127333641,
                    0.3111964762210846,
                    0.14881941676139832,
                    0.2549256980419159,
                    -0.3011767864227295,
                    0.1215384379029274,
                    0.35412120819091797,
                    -0.10540279746055603,
                    1.2978272438049316,
                    0.7980310320854187,
                    0.5106590390205383,
                    0.7166813611984253,
                    0.9245098233222961,
                    0.5657224655151367,
                    0.8341175317764282,
                    0.11710028350353241,
                    -0.34598618745803833,
                    0.8505536317825317,
                    0.6713782548904419,
                    0.22688649594783783,
                    0.14524783194065094,
                    0.3953678011894226,
                    -1.1047942638397217,
                    0.9402264952659607,
                    0.028324736282229424,
                    1.0254199504852295,
                    0.5770065784454346
                ]
            ]
        },
        {
            "type": "dense",
            "activation": "",
            "shape": [
                null,
                null,
                1
            ],
            "weights": [
                [
                    [
                        0.41895967721939087
                    ],
                    [
                        0.2895200848579407
                    ],
                    [
                        0.10445057600736618
                    ],
                    [
                        -0.020613905042409897
                    ],
                    [
                        -0.03620404750108719
                    ],
                    [
                        0.4872635304927826
                    ],
                    [
                        -0.09914746880531311
                    ],
                    [
                        0.11797260493040085
                    ],
                    [
                        0.12140490859746933
                    ],
                    [
                        -0.19207054376602173
                    ],
                    [
                        -0.015575548633933067
                    ],
                    [
                        0.048259831964969635
                    ],
                    [
                        0.06550177186727524
                    ],
                    [
                        -0.03604021295905113
                    ],
                    [
                        -0.33359280228614807
                    ],
                    [
                        1.0236544609069824
                    ],
                    [
                        0.07774574309587479
                    ],
                    [
                        0.09528107941150665
                    ],
                    [
                        -0.13288559019565582
                    ],
                    [
                        -0.05420304462313652
                    ]
                ],
                [
                    0.05843033641576767
                ]
            ]
        }
    ],
    "input_batch": [
        0.08890712261199951,
        0.07685470581054688,
        0.0653461217880249,
        0.054532408714294434,
        0.04451119899749756,
        0.035308122634887695,
        0.026958346366882324,
        0.019446253776550293,
        0.012525677680969238,
        0.005981564521789551,
        -0.00026929378509521484,
        -0.006249666213989258,
        -0.011995553970336914,
        -0.017508625984191895,
        -0.02271401882171631,
        -0.02761971950531006,
        -0.032241225242614746,
        -0.036610960960388184,
        -0.040699005126953125,
        -0.044444918632507324,
        -0.04790925979614258,
        -0.05123317241668701,
        -0.05459952354431152,
        -0.05816948413848877,
        -0.06197834014892578,
        -0.06591951847076416,
        -0.06988704204559326,
        -0.07376646995544434,
        -0.0775219202041626,
        -0.0812673568725586,
        -0.0852200984954834,
        -0.08966875076293945,
        -0.0947955846786499,
        -0.10053467750549316,
        -0.10666441917419434,
        -0.11304926872253418,
        -0.11953246593475342,
        -0.12591278553009033,
        -0.132002592086792,
        -0.13763344287872314,
        -0.1428072452545166,
        -0.1477440595626831,
        -0.15266728401184082,
        -0.15767443180084229,
        -0.16278719902038574,
        -0.16788256168365479,
        -0.17280030250549316,
        -0.17743873596191406,
        -0.18170714378356934,
        -0.18566298484802246,
        -0.18930482864379883,
        -0.1925739049911499,
        -0.1953953504562378,
        -0.19770467281341553,
        -0.19953620433807373,
        -0.20087742805480957,
        -0.20163464546203613,
        -0.20174288749694824,
        -0.20131254196166992,
        -0.20060443878173828,
        -0.19981276988983154,
        -0.19898736476898193,
        -0.19804656505584717,
        -0.196830153465271,
        -0.19518935680389404,
        -0.19313395023345947,
        -0.19076907634735107,
        -0.18827474117279053,
        -0.18589138984680176,
        -0.1838209629058838,
        -0.1821526288986206,
        -0.18084239959716797,
        -0.17979443073272705,
        -0.17878055572509766,
        -0.17766690254211426,
        -0.17643523216247559,
        -0.17515993118286133,
        -0.1739363670349121,
        -0.17273938655853271,
        -0.17163515090942383,
        -0.17070817947387695,
        -0.17007207870483398,
        -0.16979968547821045,
        -0.16981327533721924,
        -0.16993045806884766,
        -0.16990244388580322,
        -0.16958773136138916,
        -0.1689746379852295,
        -0.16806650161743164,
        -0.16679561138153076,
        -0.1650604009628296,
        -0.16283249855041504,
        -0.16023242473602295,
        -0.15746891498565674,
        -0.15467429161071777,
        -0.1518399715423584,
        -0.14881455898284912,
        -0.14543640613555908,
        -0.1416233777999878,
        -0.13732385635375977,
        -0.13252103328704834,
        -0.12722790241241455,
        -0.12140977382659912,
        -0.1149972677230835,
        -0.10812699794769287,
        -0.10091328620910645,
        -0.09338629245758057,
        -0.08561444282531738,
        -0.07770180702209473,
        -0.0697547197341919,
        -0.06180286407470703,
        -0.05381882190704346,
        -0.04577839374542236,
        -0.037773728370666504,
        -0.02981877326965332,
        -0.0217587947845459,
        -0.013584733009338379,
        -0.005498647689819336,
        0.0022115707397460938,
        0.009361028671264648,
        0.015861988067626953,
        0.02178025245666504,
        0.027471303939819336,
        0.03322553634643555,
        0.0390704870223999,
        0.044942378997802734,
        0.05073356628417969,
        0.056270599365234375,
        0.061307668685913086,
        0.06559419631958008,
        0.06905794143676758,
        0.07182455062866211,
        0.07404875755310059,
        0.07576572895050049,
        0.07687973976135254,
        0.07731044292449951,
        0.07699429988861084,
        0.07598209381103516,
        0.07441914081573486,
        0.07245373725891113,
        0.07016265392303467,
        0.06741988658905029,
        0.06401145458221436,
        0.059793949127197266,
        0.054786086082458496,
        0.049076080322265625,
        0.04292154312133789,
        0.0367201566696167,
        0.030768513679504395,
        0.025237202644348145,
        0.020194053649902344,
        0.015549659729003906,
        0.011062860488891602,
        0.006516814231872559,
        0.0016690492630004883,
        -0.0035783052444458008,
        -0.009043335914611816,
        -0.014560103416442871,
        -0.01997232437133789,
        -0.025107622146606445,
        -0.029849529266357422,
        -0.0341801643371582,
        -0.038176894187927246,
        -0.0419238805770874,
        -0.04551243782043457,
        -0.049030423164367676,
        -0.05255579948425293,
        -0.05611443519592285,
        -0.05966758728027344,
        -0.06308913230895996,
        -0.06624603271484375,
        -0.06903386116027832,
        -0.07132863998413086,
        -0.07318830490112305,
        -0.07477903366088867,
        -0.07623231410980225,
        -0.07766759395599365,
        -0.07912790775299072,
        -0.08060348033905029,
        -0.08206832408905029,
        -0.0835350751876831,
        -0.0849834680557251,
        -0.0863875150680542,
        -0.08768463134765625,
        -0.08876609802246094,
        -0.08961772918701172,
        -0.09028482437133789,
        -0.09077417850494385,
        -0.09109926223754883,
        -0.09132516384124756,
        -0.09154629707336426,
        -0.09190034866333008,
        -0.09250175952911377,
        -0.09336423873901367,
        -0.09438812732696533,
        -0.09540486335754395,
        -0.09629964828491211,
        -0.09695351123809814,
        -0.09727776050567627,
        -0.09731853008270264,
        -0.09716832637786865,
        -0.09688055515289307,
        -0.09645700454711914,
        -0.09585022926330566,
        -0.09491729736328125,
        -0.09349715709686279,
        -0.09149730205535889,
        -0.0888979434967041,
        -0.08565866947174072,
        -0.08183944225311279,
        -0.07756125926971436,
        -0.07288217544555664,
        -0.06781184673309326,
        -0.06223011016845703,
        -0.05610156059265137,
        -0.049604177474975586,
        -0.04303312301635742,
        -0.03657269477844238,
        -0.030182957649230957,
        -0.023830890655517578,
        -0.017480134963989258,
        -0.011202812194824219,
        -0.005202770233154297,
        0.00040411949157714844,
        0.005603194236755371,
        0.010437726974487305,
        0.0148468017578125,
        0.018692374229431152,
        0.02192986011505127,
        0.0246657133102417,
        0.027021288871765137,
        0.029035091400146484,
        0.030586719512939453,
        0.03155243396759033,
        0.031975388526916504,
        0.031960248947143555,
        0.03164219856262207,
        0.03116452693939209,
        0.030570149421691895,
        0.029740571975708008,
        0.028551816940307617,
        0.027022480964660645,
        0.025263190269470215,
        0.023347020149230957,
        0.021306276321411133,
        0.019191265106201172,
        0.017074108123779297,
        0.014982461929321289,
        0.012930631637573242,
        0.011011600494384766,
        0.009290933609008789,
        0.007765769958496094,
        0.006402850151062012,
        0.005133152008056641,
        0.003931283950805664,
        0.0027321577072143555,
        0.0015039443969726562,
        0.0003292560577392578,
        -0.000674128532409668,
        -0.0014024972915649414,
        -0.001804351806640625,
        -0.0017800331115722656,
        -0.001269221305847168,
        -0.00032699108123779297,
        0.000947117805480957,
        0.002516508102416992,
        0.004452705383300781,
        0.006804466247558594,
        0.00959157943725586,
        0.01270139217376709,
        0.0160750150680542,
        0.01967310905456543,
        0.023368358612060547,
        0.027097105979919434,
        0.030758142471313477,
        0.03434407711029053,
        0.03788125514984131,
        0.04126310348510742,
        0.0442659854888916,
        0.046614766120910645,
        0.048201560974121094,
        0.04912543296813965,
        0.04964029788970947,
        0.049962520599365234,
        0.05014371871948242,
        0.05012857913970947,
        0.04983675479888916,
        0.04925990104675293,
        0.048380136489868164,
        0.04710042476654053,
        0.045377135276794434,
        0.04331254959106445,
        0.04109060764312744,
        0.038783907890319824,
        0.03635132312774658,
        0.03364443778991699,
        0.030588626861572266,
        0.027303099632263184,
        0.02396368980407715,
        0.020811080932617188,
        0.017944693565368652,
        0.015338897705078125,
        0.012925505638122559,
        0.010601639747619629,
        0.008323907852172852,
        0.006069660186767578,
        0.0038775205612182617,
        0.001814126968383789,
        -0.00012803077697753906,
        -0.001978278160095215,
        -0.003760099411010742,
        -0.0054596662521362305,
        -0.007068753242492676,
        -0.008604645729064941,
        -0.010076761245727539,
        -0.0114821195602417,
        -0.012848258018493652,
        -0.014246225357055664,
        -0.015692472457885742,
        -0.01719212532043457,
        -0.0187608003616333,
        -0.020316243171691895,
        -0.021687865257263184,
        -0.022744178771972656,
        -0.023395895957946777,
        -0.02367424964904785,
        -0.023686766624450684,
        -0.023559212684631348,
        -0.02353835105895996,
        -0.023810148239135742,
        -0.024420976638793945,
        -0.025281429290771484,
        -0.026275038719177246,
        -0.02729785442352295,
        -0.028254151344299316,
        -0.029113173484802246,
        -0.029862523078918457,
        -0.030559778213500977,
        -0.031292080879211426,
        -0.032172203063964844,
        -0.0333104133605957,
        -0.03469491004943848,
        -0.03616642951965332,
        -0.03746485710144043,
        -0.03835141658782959,
        -0.03867208957672119,
        -0.038384437561035156,
        -0.03746497631072998,
        -0.03588759899139404,
        -0.03366267681121826,
        -0.030804753303527832,
        -0.027373194694519043,
        -0.023534536361694336,
        -0.019438862800598145,
        -0.015193939208984375,
        -0.010837078094482422,
        -0.006299853324890137,
        -0.0014376640319824219,
        0.0038427114486694336,
        0.009543776512145996,
        0.01564168930053711,
        0.022014617919921875,
        0.02853548526763916,
        0.03507280349731445,
        0.041413187980651855,
        0.047380924224853516,
        0.052945852279663086,
        0.05824482440948486,
        0.0635983943939209,
        0.06930017471313477,
        0.07545745372772217,
        0.08200514316558838,
        0.08876204490661621,
        0.0954751968383789,
        0.10194063186645508,
        0.10813772678375244,
        0.11412465572357178,
        0.11989188194274902,
        0.12540817260742188,
        0.13065004348754883,
        0.13551747798919678,
        0.13996493816375732,
        0.14400458335876465,
        0.14764666557312012,
        0.1509488821029663,
        0.153936505317688,
        0.15665125846862793,
        0.15916800498962402,
        0.16149985790252686,
        0.163557767868042,
        0.1652536392211914,
        0.1665053367614746,
        0.16722917556762695,
        0.16746926307678223,
        0.16731905937194824,
        0.16686558723449707,
        0.1661592721939087,
        0.16517388820648193,
        0.16384673118591309,
        0.16212892532348633,
        0.15992379188537598,
        0.1572057008743286,
        0.15409469604492188,
        0.15064311027526855,
        0.14686822891235352,
        0.1427854299545288,
        0.13837194442749023,
        0.13358283042907715,
        0.12836873531341553,
        0.12267875671386719,
        0.11648714542388916,
        0.10981261730194092,
        0.10262274742126465,
        0.09489047527313232,
        0.08663547039031982,
        0.07785844802856445,
        0.06863725185394287,
        0.059093356132507324,
        0.049382805824279785,
        0.03961348533630371,
        0.029848098754882812,
        0.020093560218811035,
        0.010236620903015137,
        0.00021505355834960938,
        -0.009972095489501953,
        -0.020226001739501953,
        -0.030455946922302246,
        -0.04052531719207764,
        -0.050289154052734375,
        -0.05972552299499512,
        -0.06886005401611328,
        -0.07784080505371094,
        -0.0867767333984375,
        -0.09571337699890137,
        -0.1045914888381958,
        -0.11325192451477051,
        -0.12151956558227539,
        -0.12922298908233643,
        -0.1362835168838501,
        -0.14263927936553955,
        -0.1482940912246704,
        -0.1532684564590454,
        -0.15757524967193604,
        -0.16122519969940186,
        -0.1642622947692871,
        -0.16681206226348877,
        -0.16893625259399414,
        -0.17068421840667725,
        -0.17207610607147217,
        -0.17307233810424805,
        -0.17363691329956055,
        -0.1737598180770874,
        -0.17346549034118652,
        -0.17271947860717773,
        -0.17148637771606445,
        -0.16977882385253906,
        -0.16760897636413574,
        -0.16502392292022705,
        -0.16216707229614258,
        -0.1592104434967041,
        -0.15623486042022705,
        -0.15324032306671143,
        -0.1501682996749878,
        -0.14697551727294922,
        -0.14366364479064941,
        -0.14021897315979004,
        -0.13671469688415527,
        -0.13324189186096191,
        -0.12983334064483643,
        -0.12648701667785645,
        -0.12318646907806396,
        -0.11989593505859375,
        -0.11658215522766113,
        -0.11322450637817383,
        -0.10980117321014404,
        -0.10633063316345215,
        -0.10277009010314941,
        -0.09906196594238281,
        -0.09512495994567871,
        -0.09084725379943848,
        -0.08619320392608643,
        -0.08116018772125244,
        -0.07574772834777832,
        -0.06996405124664307,
        -0.0638279914855957,
        -0.05738401412963867,
        -0.05070388317108154,
        -0.043877243995666504,
        -0.03686964511871338,
        -0.029566407203674316,
        -0.021921396255493164,
        -0.013936519622802734,
        -0.005740642547607422,
        0.002494215965270996,
        0.010594964027404785,
        0.018350601196289062,
        0.025620341300964355,
        0.032303452491760254,
        0.03835153579711914,
        0.04381203651428223,
        0.04878711700439453,
        0.05340433120727539,
        0.05774569511413574,
        0.0618366003036499,
        0.06566691398620605,
        0.06917035579681396,
        0.07234203815460205,
        0.07526206970214844,
        0.07799792289733887,
        0.08058881759643555,
        0.08302938938140869,
        0.08532822132110596,
        0.08749306201934814,
        0.08949458599090576,
        0.09129893779754639,
        0.09285402297973633,
        0.09407222270965576,
        0.09488523006439209,
        0.09520912170410156,
        0.09495413303375244,
        0.09404194355010986,
        0.09246575832366943,
        0.0903468132019043,
        0.08780062198638916,
        0.08496463298797607,
        0.08192956447601318,
        0.07872426509857178,
        0.07540559768676758,
        0.0719749927520752,
        0.06843304634094238,
        0.06476032733917236,
        0.06087362766265869,
        0.05673205852508545,
        0.052332520484924316,
        0.047727346420288086,
        0.04300487041473389,
        0.03824615478515625,
        0.03349590301513672,
        0.02874135971069336,
        0.024009108543395996,
        0.019306421279907227,
        0.014646530151367188,
        0.010010123252868652,
        0.005287289619445801,
        0.00045299530029296875,
        -0.004498720169067383,
        -0.009496808052062988,
        -0.014434576034545898,
        -0.019288182258605957,
        -0.02406179904937744,
        -0.028815865516662598,
        -0.03360104560852051,
        -0.038417935371398926,
        -0.0432513952255249,
        -0.04804682731628418,
        -0.05280649662017822,
        -0.05752289295196533,
        -0.06214869022369385,
        -0.06665265560150146,
        -0.07101058959960938,
        -0.07518935203552246,
        -0.07914745807647705,
        -0.0828104019165039,
        -0.08608293533325195,
        -0.08889186382293701,
        -0.09117889404296875,
        -0.09295666217803955,
        -0.09428727626800537,
        -0.09519016742706299,
        -0.09563040733337402,
        -0.09557640552520752,
        -0.09496498107910156,
        -0.09374654293060303,
        -0.09195005893707275,
        -0.08963990211486816,
