{
    "in_shape": [
        null,
        null,
        1
    ],
    "layers": [
        {
            "type": "lstm",
            "activation": "",
            "shape": [
                null,
                null,
                20
            ],
            "weights": [
                [
                    [
                        0.10468266159296036,
                        -0.4420350193977356,
                        -0.010082396678626537,
                        0.03599507361650467,
                        0.12483689188957214,
                        -0.11610648036003113,
                        -0.11656826734542847,
                        -0.06125020980834961,
                        0.10551326721906662,
                        0.035530779510736465,
                        -0.0903637707233429,
                        -0.17042355239391327,
                        -0.25030073523521423,
                        0.03915940225124359,
                        0.13326741755008698,
                        0.010720586404204369,
                        -0.1766810566186905,
                        -0.38369566202163696,
                        -0.22880975902080536,
                        -0.34272706508636475,
                        0.010480479337275028,
                        0.08695041388273239,
                        0.12517289817333221,
                        -0.1839415282011032,
                        0.04149755835533142,
                        0.04187051206827164,
                        -0.16089363396167755,
                        -0.2534335255622864,
                        0.020374353975057602,
                        0.1851590871810913,
                        0.2767379581928253,
                        -0.1488603800535202,
                        0.1098351925611496,
                        -0.02648136205971241,
                        0.20311257243156433,
                        0.14148244261741638,
                        -0.2948494255542755,
                        0.11995714157819748,
                        -0.3037933111190796,
                        -0.17199963331222534,
                        0.2568782567977905,
                        0.21073539555072784,
                        0.11842723190784454,
                        -0.3244960308074951,
                        0.3116081953048706,
                        0.17485712468624115,
                        0.055759839713573456,
                        -0.1207471415400505,
                        0.205347940325737,
                        0.08323613554239273,
                        -0.35627204179763794,
                        0.3268619179725647,
                        -1.2068841457366943,
                        -0.1600201576948166,
                        -0.19257895648479462,
                        -0.2800580859184265,
                        0.23901981115341187,
                        -4.524112701416016,
                        0.5920482277870178,
                        -0.9740795493125916,
                        0.055914055556058884,
                        -0.05333727225661278,
                        0.01996403932571411,
                        -0.5048852562904358,
                        0.3655382990837097,
                        -0.925443172454834,
                        0.06504373997449875,
                        -0.1305856555700302,
                        -0.04548949375748634,
                        -0.006908880081027746,
                        -0.0863569900393486,
                        0.07589398324489594,
                        0.011522369459271431,
                        0.0013686344027519226,
                        0.027773478999733925,
                        0.07554446905851364,
                        -0.029911400750279427,
                        -0.0869843140244484,
                        0.10980825126171112,
                        -0.265709787607193
                    ]
                ],
                [
                    [
                        -0.18526455760002136,
                        0.20554521679878235,
                        0.07793685048818588,
                        0.503679633140564,
                        0.5444391965866089,
                        0.1691969335079193,
                        0.4767613708972931,
                        0.26157334446907043,
                        -0.4877602159976959,
                        -0.03912392258644104,
                        -0.05573572590947151,
                        0.48474493622779846,
                        0.01225277315825224,
                        -0.03767505660653114,
                        0.016394995152950287,
                        0.18102161586284637,
                        0.12046196311712265,
                        0.02908330224454403,
                        -0.13325704634189606,
                        -0.14146427810192108,
                        -0.5359115600585938,
                        0.2248956710100174,
                        -0.021661175414919853,
                        -0.13341784477233887,
                        -0.1639920175075531,
                        -0.4416111409664154,
                        -0.4190445840358734,
                        0.0672956258058548,
                        -0.1397024244070053,
                        -0.2043095976114273,
                        -0.14970475435256958,
                        -0.12184329330921173,
                        -0.057361289858818054,
                        -0.0070778378285467625,
                        -0.10899872332811356,
                        0.2018626183271408,
                        0.03216869384050369,
                        0.08492899686098099,
                        0.18331170082092285,
                        -0.041884876787662506,
                        -0.06720440089702606,
                        0.7284275889396667,
                        0.34728312492370605,
                        0.017122039571404457,
                        0.14901278913021088,
                        0.21750463545322418,
                        0.08499091118574142,
                        0.11435594409704208,
                        -0.17653420567512512,
                        -0.2843540608882904,
                        0.32827386260032654,
                        -0.2166532278060913,
                        -0.06327470391988754,
                        -0.30337172746658325,
                        0.14021512866020203,
                        -1.21559476852417,
                        -0.2889452576637268,
                        0.027306275442242622,
                        0.11514069885015488,
                        -0.047942742705345154,
                        -0.46080759167671204,
                        -0.04283594340085983,
                        -0.07055508345365524,
                        0.2385907918214798,
                        0.3388636112213135,
                        -0.3635944426059723,
                        -0.10767694562673569,
                        -0.0071723428554832935,
                        -0.27510133385658264,
                        -0.1558229625225067,
                        -0.2414817065000534,
                        0.11868444085121155,
                        -0.03567996248602867,
                        -0.3562268316745758,
                        0.1579306721687317,
                        0.27918723225593567,
                        0.38321253657341003,
                        -0.05353754013776779,
                        -0.1354130506515503,
                        -0.15098516643047333
                    ],
                    [
                        0.16260400414466858,
                        -0.030842287465929985,
                        -0.09715671092271805,
                        -0.46650025248527527,
                        -0.015338239260017872,
                        -0.11226370185613632,
                        0.21958604454994202,
                        -0.20073451101779938,
                        0.41208845376968384,
                        -0.19412274658679962,
                        -0.1329902708530426,
                        0.32493510842323303,
                        -0.03066428378224373,
                        0.36975330114364624,
                        -0.21090082824230194,
                        -0.3344844579696655,
                        0.3742901682853699,
                        0.03629991412162781,
                        0.01632804423570633,
                        0.12427163124084473,
                        0.334414541721344,
                        0.3744060695171356,
                        0.12341389805078506,
                        -0.2780274450778961,
                        0.07259131968021393,
                        -0.3012375235557556,
                        -0.21112704277038574,
                        0.13273483514785767,
                        -0.16604481637477875,
                        0.14713017642498016,
                        -0.16976219415664673,
                        0.5012252330780029,
                        0.010583953931927681,
                        0.060946274548769,
                        -0.1848352551460266,
                        -0.28766316175460815,
                        0.13020434975624084,
                        0.30269715189933777,
                        0.2971248924732208,
                        -0.1845851093530655,
                        -0.645146906375885,
                        0.9247894287109375,
                        -0.25957801938056946,
                        0.11510316282510757,
                        0.23057688772678375,
                        0.14087368547916412,
                        0.021734677255153656,
                        0.13171149790287018,
                        -0.5320385694503784,
                        -0.3351556062698364,
                        1.0146410465240479,
                        -0.06437725573778152,
                        -0.03973598778247833,
                        -0.5648627281188965,
                        0.22640639543533325,
                        0.887202262878418,
                        -0.21043488383293152,
                        -0.014893878251314163,
                        0.08478917926549911,
                        0.09484284371137619,
                        -0.01409091241657734,
                        -0.11853015422821045,
                        -0.023707354441285133,
                        -0.07450942695140839,
                        0.27678582072257996,
                        -0.08584748953580856,
                        -0.0965573787689209,
                        -0.17521168291568756,
                        0.30203738808631897,
                        -0.12854817509651184,
                        0.4636635482311249,
                        0.17435239255428314,
                        -0.07009273022413254,
                        -0.04888198897242546,
                        -0.21068543195724487,
                        -0.4052427411079407,
                        -0.1284872144460678,
                        -0.005458613391965628,
                        -0.4158962070941925,
                        0.0048767151311039925
                    ],
                    [
                        0.08676957339048386,
                        0.054730698466300964,
                        -0.24113622307777405,
                        -0.3485528826713562,
                        -0.04789023473858833,
                        -0.13325944542884827,
                        0.08716797083616257,
                        -0.05634458735585213,
                        -0.18989986181259155,
                        -0.16838280856609344,
                        0.007156332489103079,
                        -0.04482670873403549,
                        -0.08494891971349716,
                        -0.22156400978565216,
                        -0.08939796686172485,
                        0.32379984855651855,
                        0.4595232307910919,
                        0.12233351171016693,
                        0.04809568449854851,
                        0.47654154896736145,
                        -0.049476806074380875,
                        -0.05189991369843483,
                        -0.3798869550228119,
                        -0.1804286688566208,
                        -0.32921692728996277,
                        0.08153772354125977,
                        0.23018549382686615,
                        -0.287945419549942,
                        -0.15858115255832672,
                        -0.18332986533641815,
                        0.13311728835105896,
                        0.167141854763031,
                        -0.11016319692134857,
                        -0.07370597124099731,
                        -0.062151890248060226,
                        0.1748354136943817,
                        0.19870969653129578,
                        0.14822755753993988,
                        0.3273937702178955,
                        0.280517578125,
                        -0.3337157666683197,
                        -0.2347932755947113,
                        0.6790849566459656,
                        -0.1580704301595688,
                        0.11313584446907043,
                        -0.12112915515899658,
                        -0.14594648778438568,
                        0.22269630432128906,
                        0.06268404424190521,
                        0.23631441593170166,
                        -0.014409545809030533,
                        0.2784298360347748,
                        -0.1120128184556961,
                        -0.05818777531385422,
                        0.3943299353122711,
                        0.04437364637851715,
                        -0.10502918064594269,
                        -0.026446333155035973,
                        -0.2583884298801422,
                        0.31195688247680664,
                        -0.015122264623641968,
                        -0.014759264886379242,
                        -0.2498648315668106,
                        0.07631712406873703,
                        -0.3024797737598419,
                        -0.21624267101287842,
                        0.08307697623968124,
                        -0.15477553009986877,
                        -0.10119736194610596,
                        -0.16993440687656403,
                        0.07336166501045227,
                        0.19863495230674744,
                        -0.08071653544902802,
                        0.06544284522533417,
                        -0.14991122484207153,
                        0.47280529141426086,
                        0.18928711116313934,
                        0.12972095608711243,
                        -0.22773723304271698,
                        0.27153247594833374
                    ],
                    [
                        0.10088279098272324,
                        0.39978286623954773,
                        -0.20263704657554626,
                        0.46642646193504333,
                        -0.8092745542526245,
                        -0.4019523859024048,
                        0.08499469608068466,
                        -0.5899398326873779,
                        0.07460430264472961,
                        0.4058401882648468,
                        0.2065039873123169,
                        -0.17912901937961578,
                        0.11623237282037735,
                        0.15936297178268433,
                        0.1007029190659523,
                        0.011177566833794117,
                        -0.23325133323669434,
                        0.20966102182865143,
                        0.23205485939979553,
                        0.24994586408138275,
                        0.19355151057243347,
                        0.3620246946811676,
                        -0.29089415073394775,
                        0.7479552030563354,
                        0.370437353849411,
                        -0.19677424430847168,
                        0.1705186665058136,
                        -0.020692402496933937,
                        -0.05333926901221275,
                        0.46169060468673706,
                        -0.04505563899874687,
                        0.3836733102798462,
                        -0.28673529624938965,
                        0.5436104536056519,
                        -0.016140079125761986,
                        0.0286480113863945,
                        -0.1977100968360901,
                        -0.34983110427856445,
                        0.36502838134765625,
                        0.2119387686252594,
                        0.6520740985870361,
                        0.3571529984474182,
                        0.23675735294818878,
                        0.5183277726173401,
                        -0.35245275497436523,
                        -0.44615107774734497,
                        -0.12491266429424286,
                        0.35732704401016235,
                        0.17422665655612946,
                        -0.014967023395001888,
                        0.002004481153562665,
                        -0.20341436564922333,
                        0.14780057966709137,
                        0.26639169454574585,
                        0.22305594384670258,
                        -0.1693115383386612,
                        0.5012311935424805,
                        0.22341351211071014,
                        -0.22953000664710999,
                        0.6429713368415833,
                        0.1740952581167221,
                        0.1353282928466797,
                        -0.009966730140149593,
                        1.4278614521026611,
                        -0.048732370138168335,
                        0.6441825032234192,
                        0.08676526695489883,
                        -0.3661465048789978,
                        0.18051348626613617,
                        0.30405300855636597,
                        0.33035147190093994,
                        -0.3185677230358124,
                        0.015840087085962296,
                        0.45405861735343933,
                        0.3152286410331726,
                        0.022271450608968735,
                        0.0725560113787651,
                        0.25811487436294556,
                        0.1337418407201767,
                        0.23319871723651886
                    ],
                    [
                        0.14182257652282715,
                        0.5138869285583496,
                        -0.2894159257411957,
                        -0.48964443802833557,
                        -0.2479274719953537,
                        -0.6450815796852112,
                        -0.7709164023399353,
                        -0.43992137908935547,
                        0.17950281500816345,
                        -0.1376347839832306,
                        -0.021463673561811447,
                        -0.2273189276456833,
                        -0.18727755546569824,
                        -0.06039857491850853,
                        -0.0022367348428815603,
                        0.1609448939561844,
                        0.14978253841400146,
                        0.09878158569335938,
                        -0.011085071600973606,
                        0.8158469200134277,
                        0.2141307145357132,
                        -0.4743339419364929,
                        -0.3639882504940033,
                        0.3253428041934967,
                        0.2736240327358246,
                        0.29811131954193115,
                        0.7476516962051392,
                        -0.36657458543777466,
                        0.17807263135910034,
                        -0.34417951107025146,
                        0.07623960077762604,
                        -0.15915144979953766,
                        -0.03123900108039379,
                        0.09121889621019363,
                        0.07207608968019485,
                        0.014711388386785984,
                        -0.013830493204295635,
                        0.8840142488479614,
                        0.42899149656295776,
                        0.452262282371521,
                        -0.23792830109596252,
                        -0.7553467750549316,
                        0.5655763745307922,
                        0.18847672641277313,
                        0.12290272861719131,
                        -0.22064736485481262,
                        0.0857640728354454,
                        0.2799447476863861,
                        0.04318450018763542,
                        -0.33149075508117676,
                        -0.6234985589981079,
                        0.05360615253448486,
                        -0.06346091628074646,
                        -0.01779690384864807,
                        -0.16704492270946503,
                        -0.05953476205468178,
                        -0.050832826644182205,
                        -0.3330397307872772,
                        -0.5411422252655029,
                        0.7300127744674683,
                        0.03092036210000515,
                        0.1142251193523407,
                        -0.39723700284957886,
                        -0.3794083595275879,
                        -0.8929054737091064,
                        0.28002774715423584,
                        -0.17766830325126648,
                        -0.37146076560020447,
                        0.09956643730401993,
                        -0.1377718597650528,
                        -0.0692586749792099,
                        -0.7050692439079285,
                        -0.2292589396238327,
                        -0.07795560359954834,
                        0.028504829853773117,
                        0.12959152460098267,
                        0.25265851616859436,
                        -0.18145568668842316,
                        0.23965570330619812,
                        0.5703216195106506
                    ],
                    [
                        0.2680421769618988,
                        -0.05863812193274498,
                        -0.26992711424827576,
                        -0.4391641914844513,
                        -0.907312273979187,
                        -0.22416619956493378,
                        -0.8866948485374451,
                        0.1549765169620514,
                        -0.04170302301645279,
                        -0.056727729737758636,
                        0.37333106994628906,
                        0.17776554822921753,
                        0.08600872755050659,
                        -0.6072722673416138,
                        0.1784505844116211,
                        0.012375513091683388,
                        -0.13965864479541779,
                        0.5857648253440857,
                        0.3255361318588257,
                        -0.34826791286468506,
                        0.14874891936779022,
                        0.14005210995674133,
                        -0.022948961704969406,
                        0.6872231960296631,
                        0.7868795990943909,
                        0.38414186239242554,
                        0.8359931111335754,
                        0.18869569897651672,
                        0.16977566480636597,
                        0.3342372179031372,
                        0.20786336064338684,
                        1.6504542827606201,
                        0.14332590997219086,
                        0.40751883387565613,
                        0.2683282792568207,
                        0.22187146544456482,
                        0.3812752366065979,
                        0.8270419239997864,
                        0.06499368697404861,
                        -0.46592631936073303,
                        -0.015025397762656212,
                        0.08501701802015305,
                        0.37979596853256226,
                        0.22232237458229065,
                        -0.06987077742815018,
                        0.23709282279014587,
                        -0.07315094023942947,
                        -0.09667462855577469,
                        0.20705141127109528,
                        0.15506985783576965,
                        -0.3375307023525238,
                        -0.8254125118255615,
                        -0.28950193524360657,
                        0.09846048802137375,
                        0.08186937868595123,
                        0.03734266012907028,
                        -0.2059347778558731,
                        1.116422176361084,
                        -0.5072018504142761,
                        0.9226270914077759,
                        0.3901214301586151,
                        -0.0041967350989580154,
                        0.05328109487891197,
                        0.11593976616859436,
                        0.12253539264202118,
                        0.42411142587661743,
                        0.48613473773002625,
                        -0.13021232187747955,
                        -0.0563952662050724,
                        0.02876080945134163,
                        0.5397346615791321,
                        1.084356665611267,
                        0.38324466347694397,
                        0.282669335603714,
                        0.02756418101489544,
                        -0.32284438610076904,
                        0.02686712145805359,
                        0.5825702548027039,
                        0.7323023080825806,
                        -0.25977540016174316
                    ],
                    [
                        -0.1177983433008194,
                        -0.20671623945236206,
                        0.11881290376186371,
                        0.7633290886878967,
                        -0.06186146289110184,
                        0.2193244993686676,
                        -0.11115456372499466,
                        -0.052090153098106384,
                        -0.16417691111564636,
                        0.16622620820999146,
                        -0.09626583009958267,
                        -0.31788113713264465,
                        0.6789505481719971,
                        -0.03861263021826744,
                        -0.10393717885017395,
                        0.03546484187245369,
                        0.11110472679138184,
                        -0.40317875146865845,
                        -0.6069038510322571,
                        -0.2800244987010956,
                        -0.04231018200516701,
                        0.24953129887580872,
                        0.3852076232433319,
                        -0.0972670167684555,
                        -0.1525125354528427,
                        -0.4441099464893341,
                        -0.4394296705722809,
                        -0.5756115913391113,
                        -0.10913053154945374,
                        0.1774313747882843,
                        0.12209466844797134,
                        -0.3089140057563782,
                        0.7405673861503601,
                        -0.07389461249113083,
                        -0.12638503313064575,
                        -0.08611730486154556,
                        -0.15497368574142456,
                        -0.5823551416397095,
                        -0.19732707738876343,
                        -0.23299790918827057,
                        -0.11882694065570831,
                        -0.22348690032958984,
                        0.017684508115053177,
                        0.038229066878557205,
                        0.25785133242607117,
                        0.04341955482959747,
                        0.40245434641838074,
                        0.34029531478881836,
                        0.4058639407157898,
                        0.5457413792610168,
                        -0.4255283772945404,
                        -0.10785556584596634,
                        1.101994514465332,
                        0.09302785992622375,
                        -0.4170856177806854,
                        0.19342519342899323,
                        -0.0028065836522728205,
                        0.7264984250068665,
                        -0.880558967590332,
                        0.3864034116268158,
                        -0.19316138327121735,
                        -0.11058545857667923,
                        0.059416864067316055,
                        -0.09313350915908813,
                        0.07880235463380814,
                        0.41551801562309265,
                        -0.1881287693977356,
                        -0.16384753584861755,
                        -0.24014857411384583,
                        0.39452987909317017,
                        -0.24420166015625,
                        0.8024330139160156,
                        0.5335958003997803,
                        -0.20905935764312744,
                        -0.5358922481536865,
                        -0.01932729035615921,
                        -0.029698049649596214,
                        -0.3369780480861664,
                        0.2727915048599243,
                        -0.3455762267112732
                    ],
                    [
                        0.012237553484737873,
                        -0.503199577331543,
                        -0.1148325651884079,
                        -0.06072463467717171,
                        -0.19013972580432892,
                        0.13128803670406342,
                        -0.6879503130912781,
                        -0.17316186428070068,
                        0.12458886951208115,
                        -0.19587945938110352,
                        -0.009502471424639225,
                        0.04786977544426918,
                        -0.05225246399641037,
                        0.04021064192056656,
                        -0.10238227993249893,
                        0.1762157380580902,
                        0.1302606165409088,
                        0.10926569998264313,
                        -0.02097627893090248,
                        -0.05713878199458122,
                        0.24845615029335022,
                        -0.12389183789491653,
                        -0.0022378198336809874,
                        0.019688399508595467,
                        -0.36652639508247375,
                        -0.1378282755613327,
                        -0.3749961853027344,
                        -0.2717469334602356,
                        -0.009245432913303375,
                        -0.07315720617771149,
                        0.03585291653871536,
                        0.17855705320835114,
                        -0.06938837468624115,
                        -0.06435209512710571,
                        -0.001935636275447905,
                        0.0476117767393589,
                        -0.2285132259130478,
                        0.808472216129303,
                        0.14294709265232086,
                        -0.09385807812213898,
                        -0.589156985282898,
                        0.06018894538283348,
                        0.11562194675207138,
                        0.06473179906606674,
                        0.39563360810279846,
                        0.2328891158103943,
                        0.4726406931877136,
                        -0.22089751064777374,
                        0.356473445892334,
                        -0.02330394834280014,
                        -0.06452397257089615,
                        -0.05555402860045433,
                        -0.24570608139038086,
                        0.20623725652694702,
                        -0.3219716548919678,
                        0.3189076781272888,
                        0.0640639066696167,
                        0.25086382031440735,
                        -0.3399057686328888,
                        -0.08759310096502304,
                        -0.03502942994236946,
                        -0.2593982517719269,
                        -0.1231839582324028,
                        0.2355511635541916,
                        -0.023079831153154373,
                        -0.2613391578197479,
                        -0.19987472891807556,
                        -0.5411347150802612,
                        0.11966173350811005,
                        -0.19310541450977325,
                        0.08494653552770615,
                        0.1790761798620224,
                        -0.038926951587200165,
                        -0.24826155602931976,
                        -0.14649400115013123,
                        -0.13627922534942627,
                        0.09148545563220978,
                        0.028304237872362137,
                        -0.173063725233078,
                        -0.12673859298229218
                    ],
                    [
                        -0.41661345958709717,
                        -0.14730562269687653,
                        0.18332792818546295,
                        0.3758234977722168,
                        0.4326353073120117,
                        -0.2088126838207245,
                        0.13047786056995392,
                        -0.0234360471367836,
                        0.013985206373035908,
                        0.20101502537727356,
                        -0.11391845345497131,
                        -0.41029366850852966,
                        -0.037101827561855316,
                        -0.3324925899505615,
                        0.08124802261590958,
                        -1.3589993715286255,
                        -0.6019166707992554,
                        0.26821351051330566,
                        0.07182744890451431,
                        -0.13708996772766113,
                        -0.042558375746011734,
                        -0.10174170881509781,
                        -0.00976363942027092,
                        0.39706119894981384,
                        -0.04063596948981285,
                        0.002216434571892023,
                        -0.2799132168292999,
                        -0.051226187497377396,
                        0.20026366412639618,
                        0.11639882624149323,
                        -0.4732650816440582,
                        0.10442464053630829,
                        -0.059568632394075394,
                        0.25330281257629395,
                        -0.15294311940670013,
                        -0.814391553401947,
                        0.14401870965957642,
                        -0.041705019772052765,
                        -0.13543686270713806,
                        0.012419969774782658,
                        -0.010215358808636665,
                        -0.5770494937896729,
                        0.04279056563973427,
                        -0.030283696949481964,
                        -0.1255369633436203,
                        -0.01009270828217268,
                        -0.16802428662776947,
                        -0.24869079887866974,
                        0.45166516304016113,
                        0.10976162552833557,
                        -0.6581448316574097,
                        -0.19410502910614014,
                        0.006444478407502174,
                        0.04204327613115311,
                        -0.0980139970779419,
                        0.15141132473945618,
                        -0.2203715592622757,
                        -0.03881758078932762,
                        -0.09702833741903305,
                        0.039329174906015396,
                        -0.08454746007919312,
                        -0.2781708538532257,
                        0.1618083417415619,
                        -0.09756595641374588,
                        -0.08721873164176941,
                        0.051612962037324905,
                        0.015345914289355278,
                        0.1901751458644867,
                        0.05718334764242172,
                        -0.0073812599293887615,
                        -0.8195760846138,
                        9.829959708440583e-06,
                        -0.21641001105308533,
                        -0.08586307615041733,
                        -0.31747573614120483,
                        -0.1681136190891266,
                        0.08748453855514526,
                        0.23776894807815552,
                        0.22131261229515076,
                        -0.04466503486037254
                    ],
                    [
                        -0.10270674526691437,
                        -0.4779125452041626,
                        0.4573262333869934,
                        -0.11450497806072235,
                        0.05373653769493103,
                        0.31722158193588257,
                        -0.056310925632715225,
                        0.3413621187210083,
                        -0.3234739601612091,
                        0.3830389082431793,
                        -0.19042560458183289,
                        0.26353055238723755,
                        -0.07156748324632645,
                        -0.054013416171073914,
                        0.18293164670467377,
                        -0.4918297231197357,
                        -0.3193187415599823,
                        -0.17788797616958618,
                        0.07243548333644867,
                        -0.03370709344744682,
                        -0.26484259963035583,
                        -0.35244759917259216,
                        0.6799339652061462,
                        -0.8227598667144775,
                        -0.2602930963039398,
                        -0.8051720857620239,
                        -0.20491242408752441,
                        0.020776718854904175,
                        -0.14925889670848846,
                        0.05824204161763191,
                        -0.41578492522239685,
                        -0.2405814230442047,
                        -0.002915405435487628,
                        0.022725660353899002,
                        0.13192696869373322,
                        -0.3385399580001831,
                        0.1065734475851059,
                        -0.18112540245056152,
                        -0.08764196187257767,
                        -0.023021019995212555,
                        0.48546627163887024,
                        -0.11681531369686127,
                        -0.09405192732810974,
                        0.4026371240615845,
                        -0.6578353643417358,
                        -0.2688618004322052,
                        -0.18399466574192047,
                        0.17135702073574066,
                        -0.12426292151212692,
                        0.3095164895057678,
                        -0.11672628670930862,
                        0.20613865554332733,
                        -0.029444467276334763,
                        0.12302430719137192,
                        -0.2944420278072357,
                        -0.023645399138331413,
                        0.28123995661735535,
                        0.15953460335731506,
                        -0.3735799193382263,
                        -0.3384907841682434,
                        -0.0207249466329813,
                        0.06020688638091087,
                        0.38897183537483215,
                        -0.5788044929504395,
                        -0.20432236790657043,
                        0.053161170333623886,
                        -0.19522306323051453,
                        0.5639874339103699,
                        -0.18508033454418182,
                        0.47007471323013306,
                        -0.6008285284042358,
                        0.012604156509041786,
                        -0.0761067122220993,
                        0.45148155093193054,
                        0.04482944682240486,
                        0.21277862787246704,
                        0.15554292500019073,
                        -0.08060924708843231,
                        -0.5323071479797363,
                        0.03480914980173111
                    ],
                    [
                        0.1706053763628006,
                        -1.2145564556121826,
                        0.3450204133987427,
                        0.6120341420173645,
                        0.5042874813079834,
                        0.6157712340354919,
                        0.22395989298820496,
                        0.10313960164785385,
                        0.10787084698677063,
                        -0.09017453342676163,
                        -0.2353609949350357,
                        -0.13797929883003235,
                        -0.0035794717259705067,
                        0.03420323133468628,
                        -0.14399349689483643,
                        -0.6814696788787842,
                        -0.35391631722450256,
                        -0.12077201157808304,
                        0.1650880128145218,
                        0.029601844027638435,
                        0.020676376298069954,
                        -0.1497075855731964,
                        0.1952516734600067,
                        -0.34592169523239136,
                        -1.0504279136657715,
                        -0.5213560461997986,
                        -0.35450872778892517,
                        0.06996341794729233,
                        0.004649176262319088,
                        -0.40178874135017395,
                        -0.4468030333518982,
                        -0.2501385509967804,
                        -0.14825239777565002,
                        0.1330389529466629,
                        -0.1849263608455658,
                        -0.4732883870601654,
                        0.20395343005657196,
                        -0.34616196155548096,
                        -0.03281903639435768,
                        -0.06936901062726974,
                        0.002472998108714819,
                        0.48124420642852783,
                        0.36375510692596436,
                        -0.1765555888414383,
                        0.06552395224571228,
                        0.1244555115699768,
                        0.007360402494668961,
                        -0.05690307915210724,
                        1.0240397453308105,
                        0.2920534610748291,
                        0.22464990615844727,
                        0.008913040161132812,
                        0.07192578166723251,
                        0.3272833228111267,
                        0.2784217596054077,
                        -0.4235624670982361,
                        -0.25190848112106323,
                        -0.11422894895076752,
                        -0.054063912481069565,
                        0.07731063663959503,
                        0.10843125730752945,
                        -0.6116135716438293,
                        0.06702359020709991,
                        0.07363316416740417,
                        -0.2285989373922348,
                        -0.07628423720598221,
                        -0.3324534296989441,
                        0.0425952784717083,
                        -0.0031984662637114525,
                        -0.4274410009384155,
                        -0.1337665617465973,
                        -0.1521672010421753,
                        0.17645053565502167,
                        -0.3254236578941345,
                        0.18360182642936707,
                        0.25578659772872925,
                        0.27398648858070374,
                        -0.04948253929615021,
                        -0.7781484723091125,
                        0.0002237446024082601
                    ],
                    [
                        -0.0539504811167717,
                        -0.09060119837522507,
                        0.13534551858901978,
                        0.05287120118737221,
                        0.3890117108821869,
                        -0.254641056060791,
                        0.6454541683197021,
                        -0.062347039580345154,
                        -0.10492126643657684,
                        0.0528746135532856,
                        -0.1740831732749939,
                        0.020582808181643486,
                        -0.16129833459854126,
                        0.22275421023368835,
                        -0.044763676822185516,
                        -0.15061213076114655,
                        0.1150931864976883,
                        -0.16646254062652588,
                        0.12377945333719254,
                        -0.03489840030670166,
                        -0.08716533333063126,
                        -0.027796456590294838,
                        0.02443244494497776,
                        -0.26124849915504456,
                        -0.9840762615203857,
                        -0.1778980940580368,
                        0.08785191178321838,
                        -0.01674453541636467,
                        -0.3284674286842346,
                        -0.13798920810222626,
                        -0.38183972239494324,
                        -0.49701374769210815,
                        -0.21144503355026245,
                        -0.021462632343173027,
                        -0.07602924853563309,
                        -0.23275774717330933,
                        -0.20626847445964813,
                        -0.17970649898052216,
                        0.38495317101478577,
                        -0.08219702541828156,
                        0.07149922102689743,
                        0.3869580030441284,
                        -0.008191746659576893,
                        0.08060125261545181,
                        0.008949743583798409,
                        0.06742901355028152,
                        0.006444558966904879,
                        0.6627913117408752,
                        -0.11724700033664703,
                        -0.26603376865386963,
                        0.3502422571182251,
                        0.13688847422599792,
                        -0.14901168644428253,
                        0.1255686730146408,
                        0.012505573220551014,
                        0.2819212079048157,
                        0.10377412289381027,
                        -0.6037259697914124,
                        0.5813285112380981,
                        0.35419708490371704,
                        -0.09722544252872467,
                        -0.015111293643712997,
                        -0.011464489623904228,
                        0.16041377186775208,
                        -0.2835467457771301,
                        -1.2533681392669678,
                        -0.25573286414146423,
                        0.03146655485033989,
                        -0.13288617134094238,
                        -0.040481965988874435,
                        -0.393563449382782,
                        -0.9769506454467773,
                        -0.3013802468776703,
                        -0.015312118455767632,
                        0.1880769580602646,
                        0.022357508540153503,
                        0.05444635823369026,
                        -0.13018502295017242,
                        0.056071843951940536,
                        -0.08605151623487473
                    ],
                    [
                        -0.019159017130732536,
                        0.1881047785282135,
                        0.24815282225608826,
                        0.005261922255158424,
                        -0.12300615757703781,
                        -0.030288731679320335,
                        0.23379163444042206,
                        0.41114845871925354,
                        0.1335589438676834,
                        -0.0231727696955204,
                        0.0911448523402214,
                        -0.39339035749435425,
                        0.06822545826435089,
                        0.196618914604187,
                        -0.12394207715988159,
                        -0.10239627957344055,
                        0.22676435112953186,
                        -0.1309996098279953,
                        -0.18816369771957397,
                        -0.02713652327656746,
                        -0.16850405931472778,
                        0.29541638493537903,
                        0.43905895948410034,
                        0.08763334900140762,
                        -0.218248650431633,
                        -0.10214827954769135,
                        0.5731596350669861,
                        0.25480037927627563,
                        0.15467572212219238,
                        -0.04489384964108467,
                        0.21298973262310028,
                        0.07797040045261383,
                        0.2408445179462433,
                        0.16523973643779755,
                        -0.3066824972629547,
                        -0.11529151350259781,
                        0.48287931084632874,
                        -0.2474762350320816,
                        -0.12018779665231705,
                        -0.02454005926847458,
                        -0.10545461624860764,
                        -0.07273472100496292,
                        -0.08170997351408005,
                        -0.17573434114456177,
                        0.13021719455718994,
                        -0.2762598693370819,
                        -0.07504589110612869,
                        -0.3325733244419098,
                        0.24973364174365997,
                        0.6411095857620239,
                        0.06285396218299866,
                        0.08054529130458832,
                        -0.09215801954269409,
                        -0.01858837902545929,
                        0.24920880794525146,
                        -0.1925111711025238,
                        -0.18548445403575897,
                        1.2573633193969727,
                        -0.5318652987480164,
                        -0.6380938291549683,
                        0.08121205866336823,
                        0.0799950361251831,
                        0.28483009338378906,
                        -0.14242789149284363,
                        0.16715125739574432,
                        0.07697439193725586,
                        0.14990980923175812,
                        0.1728360801935196,
                        0.18619689345359802,
                        -0.022975130006670952,
                        0.037654731422662735,
                        -0.09084433317184448,
                        0.23280231654644012,
                        -0.11211845278739929,
                        -0.46656668186187744,
                        0.09756005555391312,
                        0.10236635059118271,
                        0.026607954874634743,
                        -0.1984233260154724,
                        0.040243878960609436
                    ],
                    [
                        0.16444192826747894,
                        -0.02298925258219242,
                        -0.15969763696193695,
                        -0.6505553722381592,
                        -0.5041861534118652,
                        -0.7763936519622803,
                        -0.6283060908317566,
                        -0.30573928356170654,
                        -0.037298791110515594,
                        -0.1286918669939041,
                        0.10751921683549881,
                        -0.33463990688323975,
                        -0.15664565563201904,
                        -0.1333758533000946,
                        -0.030002176761627197,
                        -0.18067891895771027,
                        -0.3692016005516052,
                        0.31839051842689514,
                        0.4775962829589844,
                        0.08653746545314789,
                        0.18300743401050568,
                        -0.12229068577289581,
                        -0.005173257552087307,
                        0.7501121163368225,
                        0.7128670811653137,
                        0.8312016129493713,
                        0.6594409346580505,
                        0.3453848361968994,
                        -0.15529586374759674,
                        -0.0580340176820755,
                        -0.1701003611087799,
                        0.45478153228759766,
                        -0.38910579681396484,
                        0.3156958520412445,
                        0.03150957077741623,
                        0.1596752405166626,
                        0.8747807741165161,
                        0.3089839518070221,
                        0.0745520368218422,
                        -0.013710538856685162,
                        0.3274127244949341,
                        -0.11318525671958923,
                        0.11381285637617111,
                        -0.21892674267292023,
                        -0.3049587905406952,
                        0.14094938337802887,
                        -0.08504252880811691,
                        -0.08758056163787842,
                        -0.15272168815135956,
                        -0.24858583509922028,
                        -0.2905353605747223,
                        0.06665332615375519,
                        0.19201938807964325,
                        -0.05359960347414017,
                        -0.006302108988165855,
                        -0.5262085199356079,
                        -0.12055980414152145,
                        -0.04600729048252106,
                        -0.07097313553094864,
                        0.018138157203793526,
                        0.29213839769363403,
                        0.1360521912574768,
                        0.12463387846946716,
                        0.19254504144191742,
                        -0.08194934576749802,
                        0.4341632127761841,
                        0.13913987576961517,
                        0.09205850958824158,
                        0.023934246972203255,
                        0.07546478509902954,
                        -0.16850106418132782,
                        -0.5211766362190247,
                        -0.2788611054420471,
                        0.5964232087135315,
                        0.2250521034002304,
                        0.11839570850133896,
                        0.11122597754001617,
                        0.33884814381599426,
                        0.222533717751503,
                        0.15819288790225983
                    ],
                    [
                        0.01635773852467537,
                        0.48278307914733887,
                        0.0928107500076294,
                        0.5853299498558044,
                        0.3447495400905609,
                        -0.0299968421459198,
                        0.7306618094444275,
                        0.12619014084339142,
                        0.21382367610931396,
                        0.03018038533627987,
                        -0.1050708219408989,
                        0.5698685646057129,
                        0.04582592099905014,
                        0.48116570711135864,
                        -0.0721304714679718,
                        -0.41840630769729614,
                        0.22091388702392578,
                        -0.1689053475856781,
                        -0.23495472967624664,
                        0.2596229016780853,
                        0.0885743796825409,
                        0.3581852614879608,
                        -0.1078493669629097,
                        -0.3571958839893341,
                        -0.4920063614845276,
                        -0.3430149257183075,
                        -0.6599846482276917,
                        0.1958552747964859,
                        -0.04452718794345856,
                        0.024523574858903885,
                        -0.08085960894823074,
                        -0.35824868083000183,
                        -0.10116475075483322,
                        0.06933680921792984,
                        -0.1298048496246338,
                        -0.640889048576355,
                        -0.06982678174972534,
                        -0.38159167766571045,
                        0.25225529074668884,
                        0.21335060894489288,
                        0.0017024612752720714,
                        -0.133937805891037,
                        -0.048955753445625305,
                        -0.2571587860584259,
                        0.3723037540912628,
                        -0.35979142785072327,
                        -0.2466709464788437,
                        -0.4411146938800812,
                        0.24862542748451233,
                        0.35943520069122314,
                        -0.21546323597431183,
                        -0.06931484490633011,
                        -0.3089185357093811,
                        0.07017859816551208,
                        0.02931061014533043,
                        0.34512433409690857,
                        0.14804188907146454,
                        -0.12611542642116547,
                        -0.40169018507003784,
                        0.06921637803316116,
                        -0.14746321737766266,
                        0.19138368964195251,
                        -0.0913601741194725,
                        -0.18342912197113037,
                        -0.2778790295124054,
                        0.10817835479974747,
                        0.06031002849340439,
                        0.18993665277957916,
                        0.0941571444272995,
                        -0.04071979224681854,
                        -0.0010265291202813387,
                        0.31635963916778564,
                        -0.09187006950378418,
                        -0.1430213451385498,
                        -0.2677912414073944,
                        -0.06609544157981873,
                        -0.15246301889419556,
                        -0.28169581294059753,
                        -0.029253145679831505,
                        0.1675974726676941
                    ],
                    [
                        -0.17143195867538452,
                        0.11420997232198715,
                        0.10582593828439713,
                        0.2647968828678131,
                        0.27797529101371765,
                        0.185624361038208,
                        0.2013905942440033,
                        -0.09333761036396027,
                        0.009140197187662125,
                        -0.09518872946500778,
                        0.037827592343091965,
                        -0.02877051569521427,
                        0.1776537150144577,
                        0.49815672636032104,
                        0.011180565692484379,
                        -0.473199725151062,
                        0.6266534924507141,
                        0.022787658497691154,
                        -0.14080588519573212,
                        -0.020995844155550003,
                        0.32124391198158264,
                        0.17633455991744995,
                        -0.027032747864723206,
                        0.19292166829109192,
                        -0.21585038304328918,
                        -0.3668091297149658,
                        -0.28451547026634216,
                        -0.17585769295692444,
                        0.05654808506369591,
                        0.21539008617401123,
                        0.22646473348140717,
                        -0.039887238293886185,
                        0.11173257976770401,
                        0.1876746565103531,
                        -0.018430586904287338,
                        -0.419615238904953,
                        0.2860414385795593,
                        0.07664522528648376,
                        -0.03745526447892189,
                        -0.04775261878967285,
                        0.24589499831199646,
                        -0.15261077880859375,
                        0.025750353932380676,
                        0.3946784436702728,
                        -0.08445913344621658,
                        -0.043423477560281754,
                        -0.01536843366920948,
                        -0.15672186017036438,
                        0.08562619239091873,
                        0.15202221274375916,
                        -0.054641399532556534,
                        0.1819768249988556,
                        -0.05791490152478218,
                        0.17854799330234528,
                        -0.06496032327413559,
                        1.0739433765411377,
                        -0.5596176981925964,
                        -0.007071280386298895,
                        0.0008105217712000012,
                        -0.004032350145280361,
                        -0.04284289851784706,
                        0.03455699235200882,
                        0.03328735753893852,
                        0.030536681413650513,
                        -0.18959073722362518,
                        -0.16048815846443176,
                        -0.11975888907909393,
                        -0.04792271554470062,
                        -0.1093541607260704,
                        -0.057621609419584274,
                        -0.11519161611795425,
                        0.11609618365764618,
                        -0.036706432700157166,
                        -0.1763591766357422,
                        0.11705198884010315,
                        -0.13125480711460114,
                        0.2105884999036789,
                        -0.10718606412410736,
                        0.0038976946379989386,
                        0.049858208745718
                    ],
                    [
                        0.03702021390199661,
                        -0.41165661811828613,
                        0.10666141659021378,
                        0.18830327689647675,
                        0.3158431947231293,
                        0.4311450719833374,
                        0.7064549326896667,
                        0.09368855506181717,
                        -0.29469674825668335,
                        0.02334899641573429,
                        -0.007525282446295023,
                        0.5933336615562439,
                        0.04032912850379944,
                        0.4642549455165863,
                        -0.01568414457142353,
                        -0.20053543150424957,
                        0.053571633994579315,
                        -0.35084617137908936,
                        -0.31257855892181396,
                        -0.12778277695178986,
                        0.14769905805587769,
                        0.24415066838264465,
                        -0.026000749319791794,
                        -0.8775253891944885,
                        -0.5234335064888,
                        -0.7871932983398438,
                        -0.7730637192726135,
                        -0.11834186315536499,
                        -0.5598158836364746,
                        -0.03597939759492874,
                        -0.006608136463910341,
                        -0.6430137157440186,
                        -0.1800396591424942,
                        -0.24238674342632294,
                        0.18888148665428162,
                        0.0034531583078205585,
                        -0.6543518900871277,
                        -0.16417120397090912,
                        -0.2204958200454712,
                        -0.03208165243268013,
                        -0.34402361512184143,
                        0.26818743348121643,
                        -0.233688622713089,
                        -0.26972419023513794,
                        0.02675285004079342,
                        0.07126855105161667,
                        -0.09344679862260818,
                        0.03759334608912468,
                        -0.023971598595380783,
                        0.20629896223545074,
                        0.4247037470340729,
                        -0.02045028656721115,
                        -0.2505078613758087,
                        0.4714888632297516,
                        0.18934108316898346,
                        0.06794514507055283,
                        0.47584229707717896,
                        0.006126489955931902,
                        -0.05418260768055916,
                        0.043095145374536514,
                        -0.021588964387774467,
                        0.04319273307919502,
                        0.023529358208179474,
                        0.26169353723526,
                        0.04038647562265396,
                        -0.3894365131855011,
                        -0.40571892261505127,
                        -0.20036035776138306,
                        -0.5333185791969299,
                        0.15388354659080505,
                        0.35642093420028687,
                        0.15241442620754242,
                        -0.05181759223341942,
                        0.13153065741062164,
                        0.2861090898513794,
                        0.13345134258270264,
                        -0.6061338186264038,
                        -0.40258681774139404,
                        0.0033834853675216436,
                        -0.2183160036802292
                    ],
                    [
                        -0.0622611902654171,
                        -0.03778142109513283,
                        0.09424088895320892,
                        -0.19461555778980255,
                        -0.9119630455970764,
                        -0.094967782497406,
                        -0.08248448371887207,
                        0.45928800106048584,
                        0.024915968999266624,
                        -0.014155616983771324,
                        0.07212245464324951,
                        -0.517363429069519,
                        -0.4550955295562744,
                        -0.17148253321647644,
                        0.07859617471694946,
                        0.283093124628067,
                        0.05006926879286766,
                        -0.1965695321559906,
                        0.19399864971637726,
                        0.44197458028793335,
                        -0.044273942708969116,
                        0.23082071542739868,
                        -0.05691120773553848,
                        -0.3153226375579834,
                        0.08962530642747879,
                        -1.2087254524230957,
                        -0.1611122041940689,
                        0.29030436277389526,
                        -0.23162364959716797,
                        -0.09948278963565826,
                        -0.35040542483329773,
                        -0.41571444272994995,
                        0.05521038919687271,
                        0.013434287160634995,
                        0.18137389421463013,
                        0.2922271192073822,
                        0.01673991046845913,
                        0.2274782955646515,
                        0.19643600285053253,
                        0.3173278272151947,
                        -0.15021665394306183,
                        0.6245538592338562,
                        0.16575461626052856,
                        -0.2777193784713745,
                        0.8398911356925964,
                        -0.8687043190002441,
                        -0.5931195020675659,
                        -0.47509220242500305,
                        0.26125937700271606,
                        0.7852952480316162,
                        -0.2048233151435852,
                        0.5087131261825562,
                        -0.4801218807697296,
                        0.3294142484664917,
                        0.269314169883728,
                        -0.21678471565246582,
                        -0.1537647694349289,
                        0.10238467901945114,
                        -3.1095573902130127,
                        -0.06218685582280159,
                        0.10594230890274048,
                        -0.548048198223114,
                        0.13987582921981812,
                        -0.2211429327726364,
                        -0.6247294545173645,
                        -0.30284661054611206,
                        -0.11101841181516647,
                        0.4739924669265747,
                        0.3760897219181061,
                        0.26393407583236694,
                        0.03672993928194046,
                        -0.04522349685430527,
                        -0.5939450860023499,
                        0.24965204298496246,
                        -0.20290209352970123,
                        -0.08442927151918411,
                        0.5848543643951416,
                        0.10077761113643646,
                        0.05270899087190628,
                        0.3893398940563202
                    ],
                    [
                        -0.00715904263779521,
                        -0.4652126431465149,
                        0.39031514525413513,
                        -0.2840755581855774,
                        -0.023029305040836334,
                        -0.24638484418392181,
                        -0.26113465428352356,
                        -0.34387850761413574,
                        -0.13522781431674957,
                        -0.4014950692653656,
                        0.1875348836183548,
                        -0.289440393447876,
                        0.15333132445812225,
                        -0.07548246532678604,
                        0.08318197727203369,
                        -0.051976826041936874,
                        -0.06809195876121521,
                        -0.02538154274225235,
                        -0.1847597062587738,
                        0.3386196494102478,
                        0.15088863670825958,
                        0.1529764086008072,
                        0.31127530336380005,
                        -0.1086994931101799,
                        -0.31306537985801697,
                        -0.049015384167432785,
                        0.023844921961426735,
                        -0.3314196467399597,
                        0.41983315348625183,
                        -0.4803995192050934,
                        -0.06966570019721985,
                        0.3358326256275177,
                        0.23443076014518738,
                        -0.10519493371248245,
                        0.275306761264801,
                        0.04765806347131729,
                        0.2189723700284958,
                        0.8401869535446167,
                        0.35348060727119446,
                        0.044721439480781555,
                        0.5374260544776917,
                        1.044265866279602,
                        0.22332064807415009,
                        -0.25777149200439453,
                        0.15046870708465576,
                        -0.047283053398132324,
                        0.3039938807487488,
                        0.3951425552368164,
                        -0.8130772709846497,
                        -0.9332797527313232,
                        1.4074573516845703,
                        -0.12832783162593842,
                        0.043813854455947876,
                        -0.1292608231306076,
                        -0.11297924071550369,
                        -0.2822133004665375,
                        0.1657157987356186,
                        0.22091569006443024,
                        0.8648883104324341,
                        -0.3454660177230835,
                        -0.02234753593802452,
                        -0.48889562487602234,
                        0.10506796836853027,
                        0.23463210463523865,
                        0.4972175657749176,
                        -0.2787822186946869,
                        0.13662753999233246,
                        -0.7897608280181885,
                        0.1661558896303177,
                        -0.8079872131347656,
                        0.7935420274734497,
                        -0.059106942266225815,
                        -0.05249571427702904,
                        -0.29379960894584656,
                        0.05008932203054428,
                        0.06108330562710762,
                        -0.018999185413122177,
                        0.011858959682285786,
                        -0.5236058831214905,
                        0.33332332968711853
                    ],
                    [
                        -0.056129395961761475,
                        0.13048404455184937,
                        -0.07136707752943039,
                        0.4159892201423645,
                        0.4087601602077484,
                        0.44901642203330994,
                        0.11164312809705734,
                        -0.31643375754356384,
                        0.07090482115745544,
                        0.04234258830547333,
                        0.029223518446087837,
                        0.07583864033222198,
                        -0.08291295915842056,
                        -0.10792294144630432,
                        -0.011843410320580006,
                        -0.01275672297924757,
                        0.19450904428958893,
                        0.07283831387758255,
                        -0.06301369518041611,
                        -0.018619567155838013,
                        0.04349474608898163,
                        -0.19074180722236633,
                        -0.21386629343032837,
                        -0.08659834414720535,
                        0.41894057393074036,
                        -0.17629143595695496,
                        -0.38381603360176086,
                        -0.45308995246887207,
                        0.07162291556596756,
                        0.20787174999713898,
                        0.27188098430633545,
                        -0.14413265883922577,
                        0.023486007004976273,
                        -0.09022305905818939,
                        0.0081656938418746,
                        -0.29317373037338257,
                        -0.26816338300704956,
                        0.10989899188280106,
                        0.12294901907444,
                        -0.19815568625926971,
                        0.3654389977455139,
                        -0.045821379870176315,
                        0.13986559212207794,
                        -0.30135321617126465,
                        0.5662163496017456,
                        -0.07684584707021713,
                        -0.1233041062951088,
                        -0.06687367707490921,
                        0.08006491512060165,
                        -0.012313943356275558,
                        -0.09550021588802338,
                        0.18334652483463287,
                        -0.47796884179115295,
                        0.20606599748134613,
                        0.19655780494213104,
                        0.07744350284337997,
                        0.09045876562595367,
                        0.6264426708221436,
                        -0.6389897465705872,
                        0.23259209096431732,
                        -0.0708744153380394,
                        0.029046842828392982,
                        -0.05820725858211517,
                        0.0826866552233696,
                        0.06467827409505844,
                        -0.5620010495185852,
                        -0.01567107066512108,
                        -0.35849517583847046,
                        0.06909005343914032,
                        0.1387999802827835,
                        0.32475703954696655,
                        0.1336572915315628,
                        0.0776541531085968,
                        -0.018429799005389214,
                        -0.24035239219665527,
                        0.07770739495754242,
                        -0.5031353235244751,
                        0.041686754673719406,
                        0.6910055875778198,
                        -0.20999296009540558
                    ]
                ],
                [
                    0.5780483484268188,
                    -0.5373564958572388,
                    -0.31015220284461975,
                    -2.8241634368896484,
                    -1.3147854804992676,
                    -2.6053147315979004,
                    -2.248790979385376,
                    -1.3615540266036987,
                    0.3220345377922058,
                    -0.2730273902416229,
                    0.7006913423538208,
                    -2.128843307495117,
                    -0.273134708404541,
                    -0.9746612310409546,
                    0.5530158281326294,
                    -0.029865404590964317,
                    -2.056206703186035,
                    1.2096405029296875,
                    1.4608900547027588,
                    0.10128071904182434,
                    0.4606652855873108,
                    0.931220531463623,
                    0.5827222466468811,
                    3.0406508445739746,
                    2.293973445892334,
                    3.547470808029175,
                    2.5332837104797363,
                    0.8271693587303162,
                    0.4804595112800598,
                    0.2859024703502655,
                    -0.08772934973239899,
                    1.3967556953430176,
                    0.1258811205625534,
                    1.8052363395690918,
                    0.5178972482681274,
                    0.3494549095630646,
                    2.2961363792419434,
                    0.17128917574882507,
                    0.16159562766551971,
                    0.2383144199848175,
                    -0.9113442897796631,
                    -0.13610103726387024,
                    0.15364515781402588,
                    0.17975515127182007,
                    0.302509069442749,
                    0.27123159170150757,
                    0.17278388142585754,
                    0.2969051003456116,
                    0.4834541082382202,
                    -0.14200252294540405,
                    -0.20484398305416107,
                    -0.028895385563373566,
                    0.6536455154418945,
                    0.5835537314414978,
                    -0.826656699180603,
                    0.08473856002092361,
                    -0.23812216520309448,
                    -0.5324286222457886,
                    -0.0352339893579483,
                    -0.18294253945350647,
                    0.8727052807807922,
                    0.3010234832763672,
                    0.3845304846763611,
                    -0.07400716841220856,
                    0.6760485172271729,
                    0.8890891671180725,
                    0.8260734677314758,
                    0.004939381964504719,
                    0.44755154848098755,
                    0.18485480546951294,
                    -0.05923263728618622,
                    -1.0386854410171509,
                    0.39201819896698,
                    0.8390331864356995,
                    0.4838011860847473,
                    -0.4816863238811493,
                    1.0419683456420898,
                    1.5056169033050537,
                    0.09202484786510468,
                    0.7781286239624023
                ]
            ]
        },
        {
            "type": "dense",
            "activation": "",
            "shape": [
                null,
                null,
                1
            ],
            "weights": [
                [
                    [
                        0.30988243222236633
                    ],
                    [
                        0.0005650676321238279
                    ],
                    [
                        0.17910920083522797
                    ],
                    [
                        -0.12420154362916946
                    ],
                    [
                        -0.05897604301571846
                    ],
                    [
                        0.09892913699150085
                    ],
                    [
                        -0.037293191999197006
                    ],
                    [
                        0.0030511103104799986
                    ],
                    [
                        0.16115446388721466
                    ],
                    [
                        -0.03304660692811012
                    ],
                    [
                        0.020444918423891068
                    ],
                    [
                        0.05751775577664375
                    ],
                    [
                        -0.02427787147462368
                    ],
                    [
                        -0.6605628728866577
                    ],
                    [
                        -0.0756596103310585
                    ],
                    [
                        1.5665868520736694
                    ],
                    [
                        -1.0998419523239136
                    ],
                    [
                        0.010410794056952
                    ],
                    [
                        -0.048337291926145554
                    ],
                    [
                        -0.1000867709517479
                    ]
                ],
                [
                    0.14179088175296783
                ]
            ]
        }
    ]
}