{
    "in_shape": [
        null,
        null,
        1
    ],
    "layers": [
        {
            "type": "lstm",
            "activation": "",
            "shape": [
                null,
                null,
                20
            ],
            "weights": [
                [
                    [
                        -0.06817594915628433,
                        0.03648357838392258,
                        -0.1899053156375885,
                        -0.020832719281315804,
                        -0.007322025950998068,
                        -0.026705646887421608,
                        -0.02610774151980877,
                        0.19116923213005066,
                        0.02233685366809368,
                        -0.002317586215212941,
                        0.17257219552993774,
                        0.02188483066856861,
                        0.02298305742442608,
                        0.007798774167895317,
                        -0.0068879565224051476,
                        -0.018674442544579506,
                        0.006822374649345875,
                        -0.010368485003709793,
                        -0.04942601919174194,
                        0.0496496744453907,
                        -0.06250439584255219,
                        -0.132428377866745,
                        -0.04580376297235489,
                        0.0493662990629673,
                        -0.04060925170779228,
                        -0.041749753057956696,
                        0.006697976961731911,
                        0.10977780818939209,
                        0.10289344936609268,
                        0.07844548672437668,
                        -0.0964684709906578,
                        0.019588807597756386,
                        0.06482677906751633,
                        -0.008687215857207775,
                        0.17750948667526245,
                        -0.044573187828063965,
                        0.12267123907804489,
                        0.02109694480895996,
                        -0.038071874529123306,
                        0.060010988265275955,
                        1.0285181999206543,
                        -0.00503425020724535,
                        0.12528565526008606,
                        -1.276586890220642,
                        -0.1764635145664215,
                        0.2188359498977661,
                        0.16235575079917908,
                        0.13051645457744598,
                        -0.22158321738243103,
                        0.1049138531088829,
                        0.18376553058624268,
                        -0.04854622855782509,
                        0.04650222510099411,
                        -0.3438907265663147,
                        -1.7504866123199463,
                        -0.09665575623512268,
                        0.1219245046377182,
                        -0.44328251481056213,
                        0.11794427782297134,
                        -0.11134625226259232,
                        -0.024269601330161095,
                        -0.14258816838264465,
                        -0.16095128655433655,
                        -0.017859769985079765,
                        -0.16661125421524048,
                        -0.02870248444378376,
                        -0.02019525319337845,
                        -0.03885892406105995,
                        0.005112649407237768,
                        0.02702167071402073,
                        -0.08175233751535416,
                        -0.0293146800249815,
                        -0.01793617755174637,
                        0.01686168648302555,
                        0.0055473847314715385,
                        -0.05066954717040062,
                        0.026951326057314873,
                        -0.0007800815510563552,
                        -0.09326912462711334,
                        0.06740979850292206
                    ]
                ],
                [
                    [
                        0.055648863315582275,
                        -0.06845711171627045,
                        -0.07038511335849762,
                        0.0742504820227623,
                        0.0265631303191185,
                        0.04873163253068924,
                        0.05137081444263458,
                        -0.04496230185031891,
                        0.03546528145670891,
                        0.08472038805484772,
                        -0.008371702395379543,
                        -0.03962666168808937,
                        0.05326635017991066,
                        0.1384427696466446,
                        0.056885357946157455,
                        0.06702578067779541,
                        -0.04163125902414322,
                        0.09942217171192169,
                        -0.22479668259620667,
                        0.03595731034874916,
                        0.01947893761098385,
                        0.26808610558509827,
                        0.2620614171028137,
                        -0.24213500320911407,
                        0.08472780138254166,
                        -0.09171485155820847,
                        -0.10460779815912247,
                        0.31812337040901184,
                        0.03238990902900696,
                        0.10019811987876892,
                        0.28151413798332214,
                        -0.13643331825733185,
                        0.09447121620178223,
                        0.0992540717124939,
                        -0.20469136536121368,
                        0.14799724519252777,
                        0.0632212683558464,
                        -0.03227078914642334,
                        0.2523000240325928,
                        0.03213181719183922,
                        -0.0825420543551445,
                        -0.23399171233177185,
                        -0.01949973590672016,
                        -0.6976425051689148,
                        -0.29368096590042114,
                        0.12340731918811798,
                        0.11632823944091797,
                        0.23922602832317352,
                        0.11947299540042877,
                        0.10721248388290405,
                        0.04813683405518532,
                        0.06704434007406235,
                        0.0835007056593895,
                        0.5220997333526611,
                        0.18867474794387817,
                        0.17026294767856598,
                        0.1661902815103531,
                        0.20881105959415436,
                        0.2544896602630615,
                        -0.5919682383537292,
                        0.10457407683134079,
                        0.11340558528900146,
                        0.1572152078151703,
                        0.09279492497444153,
                        0.05849551409482956,
                        0.2141541689634323,
                        0.05893893539905548,
                        -0.10878469794988632,
                        0.02704138122498989,
                        0.1115751788020134,
                        0.07167128473520279,
                        0.024971546605229378,
                        0.1522911936044693,
                        0.12726251780986786,
                        0.058121103793382645,
                        0.13935530185699463,
                        0.0024773739278316498,
                        0.11103563755750656,
                        0.12224020808935165,
                        0.03315974026918411
                    ],
                    [
                        -0.0963214784860611,
                        -0.12969137728214264,
                        0.030582083389163017,
                        -0.022012995555996895,
                        -0.009877934120595455,
                        -0.009470508433878422,
                        -0.018406888470053673,
                        0.030297575518488884,
                        0.03190971538424492,
                        -0.014675015583634377,
                        -0.021390719339251518,
                        0.02589893527328968,
                        0.07218824326992035,
                        -0.002936091972514987,
                        0.01700928807258606,
                        -0.026655685156583786,
                        0.058364491909742355,
                        -0.07656288146972656,
                        0.11681750416755676,
                        0.023146826773881912,
                        -0.2420121282339096,
                        -0.03784682974219322,
                        0.0780101791024208,
                        0.14873430132865906,
                        -0.09153706580400467,
                        -0.01663278415799141,
                        0.013047497719526291,
                        0.017829710617661476,
                        0.08909976482391357,
                        -0.007035549730062485,
                        0.19052879512310028,
                        -0.03489318862557411,
                        0.14656378328800201,
                        -0.05901497229933739,
                        0.1611243486404419,
                        -0.05997748672962189,
                        0.3182738721370697,
                        -0.00919044017791748,
                        0.09852604568004608,
                        0.18310248851776123,
                        -0.44033822417259216,
                        0.33125513792037964,
                        0.03776248171925545,
                        0.31734123826026917,
                        0.18285638093948364,
                        -0.215121790766716,
                        0.27682769298553467,
                        -0.19121599197387695,
                        -0.06279613822698593,
                        0.05757522210478783,
                        0.04561910405755043,
                        -0.029390066862106323,
                        0.13753072917461395,
                        -0.20443958044052124,
                        0.6602555513381958,
                        -0.13401082158088684,
                        -0.23636499047279358,
                        0.35180503129959106,
                        0.07656189799308777,
                        0.060529302805662155,
                        -0.10240340977907181,
                        -0.047234129160642624,
                        0.09877461940050125,
                        -0.028310837224125862,
                        -0.003736981423571706,
                        0.01883523166179657,
                        -0.02252260036766529,
                        -0.3999820649623871,
                        0.02712954767048359,
                        -0.008476518094539642,
                        -0.11427344381809235,
                        0.0015628369292244315,
                        0.11393937468528748,
                        -0.0120531702414155,
                        0.008229094557464123,
                        -0.0010020227637141943,
                        0.0685172751545906,
                        -0.07580969482660294,
                        0.0017312209820374846,
                        0.04717184230685234
                    ],
                    [
                        -0.022271934896707535,
                        0.05681421235203743,
                        0.09392979741096497,
                        -0.09245488792657852,
                        -0.004079773556441069,
                        -0.047360341995954514,
                        -0.03669090196490288,
                        0.013542290776968002,
                        -0.014017585664987564,
                        -0.0002616640995256603,
                        0.07670438289642334,
                        -0.026070721447467804,
                        -0.015681369230151176,
                        -0.05126088485121727,
                        -0.10071264207363129,
                        -0.027161141857504845,
                        0.13185659050941467,
                        -0.06853307038545609,
                        0.0837889239192009,
                        -0.0763545036315918,
                        0.055111389607191086,
                        0.03055272437632084,
                        0.09118756651878357,
                        0.0891154333949089,
                        0.006270960438996553,
                        0.08677729964256287,
                        -0.00954199954867363,
                        -0.17143107950687408,
                        -0.058556366711854935,
                        -0.007679031230509281,
                        -0.046363212168216705,
                        -0.010132450610399246,
                        -0.04211348667740822,
                        -0.0637001246213913,
                        -0.02271299809217453,
                        -0.060023460537195206,
                        0.06984928250312805,
                        0.020631052553653717,
                        0.08668968081474304,
                        0.014408271759748459,
                        0.1442316174507141,
                        0.20225198566913605,
                        0.3630930781364441,
                        -0.41037431359291077,
                        -0.2025727778673172,
                        -0.16210633516311646,
                        -0.18911466002464294,
                        0.14861124753952026,
                        -0.1314225196838379,
                        -0.01956240087747574,
                        -0.04750045761466026,
                        -0.05672014132142067,
                        -0.0269988514482975,
                        -0.12341319769620895,
                        -0.6046015620231628,
                        -0.00754550751298666,
                        -0.2608286142349243,
                        0.025784533470869064,
                        0.13634634017944336,
                        -0.485214501619339,
                        -0.04519297182559967,
                        0.008003374561667442,
                        0.04006733000278473,
                        -0.09720638394355774,
                        -0.019628599286079407,
                        0.07039593905210495,
                        -0.033326417207717896,
                        -0.017557034268975258,
                        -0.01682318188250065,
                        -0.021436113864183426,
                        -0.07319247722625732,
                        -0.06735623627901077,
                        -0.041049763560295105,
                        -0.06515755504369736,
                        -0.1069958284497261,
                        -0.058049675077199936,
                        -0.027762645855545998,
                        -0.07237830758094788,
                        0.10084441304206848,
                        -0.08869150280952454
                    ],
                    [
                        0.0682024136185646,
                        -0.04577319696545601,
                        -0.033602651208639145,
                        0.008871125057339668,
                        -0.018313392996788025,
                        0.023852160200476646,
                        0.04303314909338951,
                        -0.22294102609157562,
                        -0.1182965338230133,
                        -0.03364447131752968,
                        -0.055592454969882965,
                        -0.05812469869852066,
                        0.015082442201673985,
                        0.05355336144566536,
                        -0.09549697488546371,
                        0.003773708362132311,
                        -0.15865223109722137,
                        -0.049002230167388916,
                        0.16738741099834442,
                        0.058546800166368484,
                        0.1455705463886261,
                        0.04904124140739441,
                        -0.08428746461868286,
                        0.37503233551979065,
                        -0.027778439223766327,
                        -0.034396443516016006,
                        0.028231114149093628,
                        -0.07634380459785461,
                        -0.08826377987861633,
                        -0.07354265451431274,
                        0.07980374246835709,
                        -0.3049362301826477,
                        0.019054057076573372,
                        -0.005468536168336868,
                        -0.061190228909254074,
                        -0.058667197823524475,
                        -0.061075255274772644,
                        0.013996865600347519,
                        -0.14361415803432465,
                        -0.014247650280594826,
                        0.4505032002925873,
                        -0.414953351020813,
                        0.41553476452827454,
                        -0.009099354967474937,
                        0.24783951044082642,
                        0.21890172362327576,
                        0.0406445749104023,
                        -0.27654072642326355,
                        -0.12576590478420258,
                        0.09586447477340698,
                        -0.12396880984306335,
                        0.2915826737880707,
                        0.0222335085272789,
                        -0.18903784453868866,
                        -0.2097574770450592,
                        -0.1611504852771759,
                        -0.5520541667938232,
                        -0.3239864110946655,
                        -0.4581226110458374,
                        2.2998292446136475,
                        0.12870922684669495,
                        -0.057928234338760376,
                        0.041766680777072906,
                        0.02630702033638954,
                        -0.26900526881217957,
                        0.0961633026599884,
                        0.025286149233579636,
                        -0.01738656871020794,
                        -0.0743851512670517,
                        -0.06877348572015762,
                        -0.036468300968408585,
                        -0.023651890456676483,
                        0.07144299894571304,
                        0.06792954355478287,
                        -0.10858269035816193,
                        -0.11801529675722122,
                        0.05051155388355255,
                        -0.03984169661998749,
                        -0.03892458602786064,
                        0.01770068146288395
                    ],
                    [
                        -0.11817099153995514,
                        0.47961658239364624,
                        0.12680664658546448,
                        -0.2457999587059021,
                        -0.05069735273718834,
                        -0.2643127739429474,
                        -0.055842701345682144,
                        0.5466762781143188,
                        -0.10260765999555588,
                        0.00511149549856782,
                        0.38149622082710266,
                        -0.07226063311100006,
                        -0.05151890218257904,
                        -0.152360737323761,
                        -0.21518759429454803,
                        -0.09212913364171982,
                        0.2043759822845459,
                        -0.12141884863376617,
                        0.3527771830558777,
                        -0.2761872708797455,
                        0.02242046780884266,
                        -0.3741898238658905,
                        -0.3432840406894684,
                        -0.024521809071302414,
                        -0.14397813379764557,
                        0.05863597244024277,
                        0.02557864412665367,
                        -0.29013216495513916,
                        -0.07372211664915085,
                        0.016598843038082123,
                        -0.49994388222694397,
                        -0.10605134814977646,
                        -0.12124846130609512,
                        0.00688221026211977,
                        -0.0648854523897171,
                        -0.09589249640703201,
                        -0.19593064486980438,
                        0.03058711811900139,
                        -0.24209930002689362,
                        0.060618117451667786,
                        0.002037779428064823,
                        -0.14823046326637268,
                        0.10901269316673279,
                        -0.3581245541572571,
                        0.0967104360461235,
                        0.5512293577194214,
                        -0.10067207366228104,
                        -0.4597718417644501,
                        -0.0568319708108902,
                        0.06536789983510971,
                        0.06667692959308624,
                        0.12978902459144592,
                        -0.10224877297878265,
                        0.05593716725707054,
                        0.00983481016010046,
                        -0.009250528179109097,
                        0.04433482885360718,
                        0.1741294115781784,
                        -0.11953296512365341,
                        0.02090483158826828,
                        -0.1207779049873352,
                        -0.10737283527851105,
                        -0.20003323256969452,
                        -0.2426796704530716,
                        -0.028082137927412987,
                        -0.07056703418493271,
                        -0.06433480232954025,
                        0.2898535132408142,
                        -0.1365811824798584,
                        -0.0326729379594326,
                        -0.24751371145248413,
                        -0.1625010371208191,
                        -0.10750095546245575,
                        -0.1648830622434616,
                        -0.22331343591213226,
                        -0.18312837183475494,
                        -0.21492816507816315,
                        -0.12704789638519287,
                        0.027034934610128403,
                        -0.2764705717563629
                    ],
                    [
                        0.049733586609363556,
                        -0.0009080881718546152,
                        0.09450127929449081,
                        -0.04653336480259895,
                        0.0380220040678978,
                        -0.013380498625338078,
                        -0.10484793037176132,
                        0.020693140104413033,
                        0.047115299850702286,
                        0.0034422860480844975,
                        -0.06473496556282043,
                        -0.011698050424456596,
                        -0.035558950155973434,
                        -0.016554972156882286,
                        -0.039695873856544495,
                        -0.021874215453863144,
                        0.02736772783100605,
                        -0.0574544221162796,
                        0.07318200170993805,
                        -0.00936040561646223,
                        0.11689777672290802,
                        -0.03081873059272766,
                        -0.07186426967382431,
                        0.027934616431593895,
                        0.1006021723151207,
                        -0.0133593725040555,
                        -0.04590359330177307,
                        -0.13028699159622192,
                        -0.08718933910131454,
                        0.0157400444149971,
                        0.009208790957927704,
                        0.07223310321569443,
                        -0.06423129141330719,
                        0.026414450258016586,
                        0.04703135788440704,
                        -0.09906520694494247,
                        -0.0394400991499424,
                        -0.048626769334077835,
                        0.151710644364357,
                        -0.08675798028707504,
                        0.14783544838428497,
                        -0.13156992197036743,
                        0.03525989130139351,
                        0.01737138442695141,
                        -0.03546975553035736,
                        1.0969665050506592,
                        -0.19109369814395905,
                        0.09077051281929016,
                        0.14430662989616394,
                        -0.2390308529138565,
                        -0.3676083981990814,
                        0.16414684057235718,
                        -0.04773664101958275,
                        0.22504715621471405,
                        0.0010908988770097494,
                        -0.09907978028059006,
                        0.004579212982207537,
                        0.04919775202870369,
                        0.04666696861386299,
                        -0.06508355587720871,
                        0.008966484107077122,
                        -0.0994146540760994,
                        0.010455289855599403,
                        -0.04955041781067848,
                        -0.11115510761737823,
                        -0.0912669226527214,
                        -0.06125675514340401,
                        -0.0011413232423365116,
                        0.049033552408218384,
                        0.01846233382821083,
                        -0.05579211190342903,
                        -0.04461900144815445,
                        -0.020155811682343483,
                        -0.007774540688842535,
                        -0.03671813756227493,
                        -0.14151445031166077,
                        -0.014521484263241291,
                        -0.06898559629917145,
                        0.003923388663679361,
                        -0.04656701534986496
                    ],
                    [
                        0.03173268586397171,
                        -0.034381963312625885,
                        -0.015690525993704796,
                        -0.0389828197658062,
                        -0.01811700314283371,
                        -0.044816501438617706,
                        -0.031118186190724373,
                        -0.27028608322143555,
                        -0.03406156972050667,
                        -0.042107727378606796,
                        0.2534900903701782,
                        -0.03574938327074051,
                        -0.009878655895590782,
                        0.034999534487724304,
                        -0.05965215340256691,
                        -0.01730234920978546,
                        0.034326475113630295,
                        0.018473941832780838,
                        0.0639226883649826,
                        -0.05329805612564087,
                        0.05311071500182152,
                        -0.1334892064332962,
                        -0.08099841326475143,
                        -0.09112058579921722,
                        -0.026179499924182892,
                        -0.04567503184080124,
                        -0.11225428432226181,
                        -0.07094920426607132,
                        -0.08423034846782684,
                        -0.01226741448044777,
                        -0.0452607087790966,
                        0.03882721811532974,
                        -0.017839208245277405,
                        0.09685155004262924,
                        -0.08266934007406235,
                        -0.0612000972032547,
                        -0.054695453494787216,
                        0.008664771914482117,
                        0.06908706575632095,
                        -0.10364123433828354,
                        0.008385160937905312,
                        0.0038285560440272093,
                        -0.11042129248380661,
                        -0.12071561068296432,
                        0.08732715994119644,
                        -0.0676748976111412,
                        0.20528914034366608,
                        0.066249780356884,
                        -0.06401074677705765,
                        0.1341685801744461,
                        -0.03561652451753616,
                        -0.07962402701377869,
                        -0.010322635993361473,
                        -0.5477679371833801,
                        0.09043187648057938,
                        -0.028215447440743446,
                        0.09278558194637299,
                        0.33449313044548035,
                        0.1771472990512848,
                        -0.2851812541484833,
                        -0.0009792582131922245,
                        -0.0064955586567521095,
                        -0.012578262947499752,
                        -0.037158045917749405,
                        -0.03035762347280979,
                        -0.01563803106546402,
                        -0.015016121789813042,
                        -0.13263417780399323,
                        -0.0020176912657916546,
                        -0.07073559612035751,
                        0.010084718465805054,
                        -0.05521238222718239,
                        -0.08760915696620941,
                        0.03704394772648811,
                        -0.050957486033439636,
                        -0.005382816772907972,
                        -0.04805043339729309,
                        0.013266036286950111,
                        0.05288120359182358,
                        -0.07960456609725952
                    ],
                    [
                        -0.06979602575302124,
                        0.03938170149922371,
                        0.12233097851276398,
                        -0.15869425237178802,
                        -0.07729586213827133,
                        -0.10741189867258072,
                        -0.013130344450473785,
                        0.15771454572677612,
                        -0.025081181898713112,
                        -0.07712472230195999,
                        0.17648117244243622,
                        -0.017005734145641327,
                        -0.0034831820521503687,
                        -0.12116019427776337,
                        -0.12557613849639893,
                        -0.05125219747424126,
                        0.17301945388317108,
                        -0.12424106150865555,
                        0.12559518218040466,
                        -0.1452169567346573,
                        0.047915536910295486,
                        -0.04953940957784653,
                        -0.02604806050658226,
                        0.06347869336605072,
                        -0.06122338026762009,
                        0.1011546179652214,
                        0.060822077095508575,
                        -0.09166796505451202,
                        -0.039709240198135376,
                        -0.10172189772129059,
                        -0.3635675609111786,
                        0.06319708377122879,
                        -0.0064919800497591496,
                        -0.1328735500574112,
                        0.05813611298799515,
                        -0.08031165599822998,
                        0.17427103221416473,
                        0.00836872961372137,
                        -0.1390821784734726,
                        0.024380521848797798,
                        -0.2536603510379791,
                        -0.002321486361324787,
                        0.019969845190644264,
                        0.7236674427986145,
                        -0.9646265506744385,
                        0.18748684227466583,
                        -0.050187043845653534,
                        0.14694634079933167,
                        0.15685802698135376,
                        0.13889101147651672,
                        0.031898777931928635,
                        -0.34645432233810425,
                        0.020394757390022278,
                        -0.09984247386455536,
                        0.4823199510574341,
                        -0.11606370657682419,
                        -0.03421880304813385,
                        0.11708139628171921,
                        0.003656157525256276,
                        0.30748265981674194,
                        -0.1437593251466751,
                        -0.10833756625652313,
                        -0.054035842418670654,
                        -0.17451341450214386,
                        -0.19799931347370148,
                        0.10206697881221771,
                        -0.018003491684794426,
                        0.11006752401590347,
                        -0.03228986635804176,
                        -0.08879519253969193,
                        -0.06848657131195068,
                        -0.12333197891712189,
                        -0.08301118016242981,
                        -0.13879691064357758,
                        -0.133201465010643,
                        -0.10372089594602585,
                        -0.03476563096046448,
                        -0.12900754809379578,
                        -0.08452112227678299,
                        -0.13686223328113556
                    ],
                    [
                        0.07111655920743942,
                        -0.03844162076711655,
                        -0.043551839888095856,
                        -0.011854586191475391,
                        -0.002762294840067625,
                        0.002784725511446595,
                        0.010976954363286495,
                        -0.16787128150463104,
                        -0.025101907551288605,
                        0.0013898477191105485,
                        -0.23408308625221252,
                        -0.03089745342731476,
                        0.010949977673590183,
                        0.03971868380904198,
                        -0.059655025601387024,
                        0.019768886268138885,
                        0.04084320738911629,
                        0.030452854931354523,
                        -0.06895379722118378,
                        -0.019089441746473312,
                        0.11804424226284027,
                        0.04040395841002464,
                        0.010431266389787197,
                        -0.1251916140317917,
                        0.016873788088560104,
                        0.022784287109971046,
                        -0.06171762943267822,
                        0.10632506757974625,
                        -0.08090424537658691,
                        -0.010427111759781837,
                        -0.0006978492601774633,
                        -0.006389892194420099,
                        0.017142843455076218,
                        0.04008927568793297,
                        -0.1694968193769455,
                        0.02958054468035698,
                        0.050032444298267365,
                        -0.03439151495695114,
                        0.028101811185479164,
                        -0.05745510384440422,
                        0.21367143094539642,
                        -0.046241436153650284,
                        -0.045734040439128876,
                        -0.13890914618968964,
                        -0.06272096186876297,
                        0.038104284554719925,
                        0.39121976494789124,
                        -0.01235375925898552,
                        -0.0068236240185797215,
                        0.17456507682800293,
                        -0.3045731484889984,
                        0.03596723824739456,
                        0.012589255347847939,
                        0.05542268231511116,
                        -0.1773955523967743,
                        0.047859348356723785,
                        -0.09995106607675552,
                        -0.4536007344722748,
                        -0.18684309720993042,
                        0.4582878351211548,
                        0.09590296447277069,
                        0.07110042870044708,
                        -0.012787113897502422,
                        -0.0027657169848680496,
                        -0.050212278962135315,
                        -0.05036691203713417,
                        0.025570036843419075,
                        0.11974718421697617,
                        -0.009580227546393871,
                        0.014287678524851799,
                        -0.027210567146539688,
                        -0.032190319150686264,
                        0.08055409789085388,
                        0.04253961518406868,
                        -0.05944119766354561,
                        0.0010625382419675589,
                        -0.040904585272073746,
                        0.028154851868748665,
                        0.00013472959108185023,
                        -0.05667562037706375
                    ],
                    [
                        -0.011072765104472637,
                        -0.03559235483407974,
                        -0.05113404244184494,
                        -0.022645197808742523,
                        -0.018393997102975845,
                        0.008012289181351662,
                        -0.0267343670129776,
                        -0.11596720665693283,
                        -0.03955031558871269,
                        -0.07189253717660904,
                        0.10045178979635239,
                        0.04942796379327774,
                        -0.033199798315763474,
                        -0.06128505617380142,
                        -0.010178910568356514,
                        -0.02940692938864231,
                        -0.07581578195095062,
                        -0.04817086085677147,
                        -0.0756053552031517,
                        0.004440047312527895,
                        -0.006388922221958637,
                        -0.07953941076993942,
                        -0.12706224620342255,
                        0.17859908938407898,
                        -0.05715489387512207,
                        0.1253497153520584,
                        0.025554772466421127,
                        -0.16928349435329437,
                        -0.09031935036182404,
                        -0.08201607316732407,
                        -0.07212881743907928,
                        0.05280332267284393,
                        -0.0536111518740654,
                        -0.03380466625094414,
                        0.0729193165898323,
                        -0.06279685348272324,
                        -0.0936947911977768,
                        0.02628694474697113,
                        -0.08775437623262405,
                        0.1224750503897667,
                        -0.16214928030967712,
                        0.004782950039952993,
                        0.03248307481408119,
                        -0.21451151371002197,
                        -0.01224630419164896,
                        -0.06598913669586182,
                        -0.07508920133113861,
                        0.39786192774772644,
                        -0.0004896642058156431,
                        0.020815081894397736,
                        0.19484937191009521,
                        -0.017936641350388527,
                        -0.05269280821084976,
                        -0.2894640564918518,
                        -0.22996562719345093,
                        -0.04648066684603691,
                        0.004762875381857157,
                        0.3533913791179657,
                        -0.14346836507320404,
                        -0.17551907896995544,
                        -0.04047003388404846,
                        -0.08098385483026505,
                        -0.13897426426410675,
                        -0.029747677966952324,
                        -0.038216326385736465,
                        -0.010720361955463886,
                        -0.03464458882808685,
                        -0.03943326696753502,
                        -0.04360124096274376,
                        -0.10204892605543137,
                        -0.019111191853880882,
                        0.03461809456348419,
                        -0.09992781281471252,
                        -0.06044483557343483,
                        -0.016364211216568947,
                        -0.04107409343123436,
                        -0.010578401386737823,
                        -0.05084816738963127,
                        -0.14679677784442902,
                        0.02209140732884407
                    ],
                    [
                        -0.02904484234750271,
                        -0.2118510603904724,
                        -0.06547503918409348,
                        0.04630086570978165,
                        0.025320008397102356,
                        0.06383419036865234,
                        0.0018651742720976472,
                        -0.33535993099212646,
                        0.008676940575242043,
                        0.012944324873387814,
                        -0.10640304535627365,
                        0.01814061403274536,
                        0.03351689875125885,
                        -0.0034318403340876102,
                        0.0662909597158432,
                        0.011497064493596554,
                        -0.08948015421628952,
                        0.004650783259421587,
                        0.06307820975780487,
                        0.0709621012210846,
                        -0.0893147736787796,
                        0.17696070671081543,
                        0.12080854177474976,
                        0.05709405615925789,
                        0.07587699592113495,
                        0.03301096707582474,
                        -0.020868536084890366,
                        0.07167953252792358,
                        0.014202691614627838,
                        0.011463182978332043,
                        0.12013432383537292,
                        -0.009311389178037643,
                        0.07073503732681274,
                        -0.04094435274600983,
                        0.06798216700553894,
                        0.00825935322791338,
                        0.14496932923793793,
                        0.00281921005807817,
                        0.19709651172161102,
                        0.12961198389530182,
                        -0.1237066388130188,
                        -0.18537485599517822,
                        -0.0664060115814209,
                        0.8085214495658875,
                        0.025342509150505066,
                        0.1387125849723816,
                        -0.4629773497581482,
                        0.2559059262275696,
                        0.20248271524906158,
                        -0.24538066983222961,
                        0.1842947006225586,
                        0.0797654464840889,
                        0.04539240896701813,
                        0.4086756110191345,
                        0.506189227104187,
                        -0.018812838941812515,
                        0.06928377598524094,
                        -0.22356969118118286,
                        0.06715988367795944,
                        0.300382137298584,
                        -0.02375006675720215,
                        0.02409488707780838,
                        0.02639099769294262,
                        0.046070024371147156,
                        0.10523562133312225,
                        -0.04483301192522049,
                        0.002200390212237835,
                        0.10562334209680557,
                        0.009569968096911907,
                        0.015624421648681164,
                        0.20065650343894958,
                        0.04304349422454834,
                        0.14639948308467865,
                        0.002267287578433752,
                        0.0636349692940712,
                        0.03492698818445206,
                        0.023478413000702858,
                        0.00591673469170928,
                        0.08018955588340759,
                        0.07489040493965149
                    ],
                    [
                        -0.1149984821677208,
                        0.6056179404258728,
                        0.4224371314048767,
                        -0.4206863045692444,
                        -0.12765637040138245,
                        -0.46482935547828674,
                        -0.07602203637361526,
                        0.9036704897880554,
                        0.010034240782260895,
                        0.09936287999153137,
                        0.7760863900184631,
                        -0.25272229313850403,
                        -0.00659516453742981,
                        -0.16348642110824585,
                        -0.44140633940696716,
                        -0.10227485746145248,
                        0.4150242805480957,
                        -0.15541909635066986,
                        0.5800626873970032,
                        -0.4756714403629303,
                        0.043195512145757675,
                        -0.651502788066864,
                        -0.32286468148231506,
                        -0.21130047738552094,
                        -0.2730206847190857,
                        -0.5632482171058655,
                        -0.18949928879737854,
                        -0.9715173840522766,
                        0.05057216063141823,
                        0.11182472109794617,
                        -0.8865918517112732,
                        -0.3350816071033478,
                        -0.36394739151000977,
                        -0.12051935493946075,
                        -0.2467908412218094,
                        -0.10761220008134842,
                        -0.5059632658958435,
                        0.0236943531781435,
                        -0.4817102253437042,
                        -0.07772461324930191,
                        0.22715263068675995,
                        0.15409500896930695,
                        0.00040240163798443973,
                        -0.06158081442117691,
                        -0.08241765946149826,
                        0.05389799922704697,
                        0.04925999790430069,
                        -0.1328849196434021,
                        0.17876113951206207,
                        -0.11139607429504395,
                        -0.0782695934176445,
                        -0.10177495330572128,
                        -0.08505406230688095,
                        0.01577436365187168,
                        0.02230921760201454,
                        0.10192665457725525,
                        0.15114937722682953,
                        0.02814601920545101,
                        -0.07788555324077606,
                        0.017873136326670647,
                        -0.08720073103904724,
                        -0.21193957328796387,
                        0.03966555371880531,
                        -0.4105311632156372,
                        0.17245911061763763,
                        -0.2222805768251419,
                        -0.048661746084690094,
                        -0.25648069381713867,
                        -0.03308587893843651,
                        0.0866222009062767,
                        -0.24887026846408844,
                        -0.46694138646125793,
                        -0.401139497756958,
                        -0.22732415795326233,
                        -0.41911807656288147,
                        -0.20338140428066254,
                        -0.4086821675300598,
                        -0.17144854366779327,
                        0.04648282006382942,
                        -0.5325382351875305
                    ],
                    [
                        0.2485744208097458,
                        -0.36824551224708557,
                        -0.18538197875022888,
                        0.45420050621032715,
                        0.12717817723751068,
                        0.4314136505126953,
                        0.16789115965366364,
                        -0.706899881362915,
                        0.11545976996421814,
                        0.06452908366918564,
                        -0.8804712295532227,
                        0.17478302121162415,
                        0.08121629804372787,
                        0.22030393779277802,
                        0.37174591422080994,
                        0.21772903203964233,
                        -0.266968309879303,
                        0.24667169153690338,
                        -0.11104404926300049,
                        0.4578295946121216,
                        -0.11513534188270569,
                        0.8687219619750977,
                        0.369098424911499,
                        -0.01219905260950327,
                        0.09704595804214478,
                        -0.02638373151421547,
                        0.10836359113454819,
                        0.9512810111045837,
                        0.03978167101740837,
                        0.06368602067232132,
                        0.794506311416626,
                        0.1013258770108223,
                        0.25407013297080994,
                        0.09886398911476135,
                        -0.02394914999604225,
                        0.07533867657184601,
                        0.6935980319976807,
                        -0.053748719394207,
                        0.3011384904384613,
                        -0.01722845435142517,
                        -0.30577725172042847,
                        0.27506518363952637,
                        -0.24093487858772278,
                        -0.10984522849321365,
                        -0.10663165897130966,
                        0.40908271074295044,
                        -0.04366711899638176,
                        -0.17839783430099487,
                        0.13822881877422333,
                        0.2406100481748581,
                        0.0020301409531384706,
                        0.04216757044196129,
                        0.15496839582920074,
                        0.17257697880268097,
                        -0.02427678182721138,
                        0.16076867282390594,
                        -0.23643483221530914,
                        -0.034685321152210236,
                        0.2226818948984146,
                        0.22449029982089996,
                        0.2985384166240692,
                        0.2741476893424988,
                        -0.021778753027319908,
                        0.4724544584751129,
                        -0.0517096221446991,
                        -0.2013961225748062,
                        0.1838882565498352,
                        -0.08496128767728806,
                        0.1524035632610321,
                        0.13032090663909912,
                        0.13373440504074097,
                        0.40140876173973083,
                        0.33230310678482056,
                        0.30125823616981506,
                        0.38710036873817444,
                        0.3632381856441498,
                        0.29917946457862854,
                        0.2595987617969513,
                        -0.04323118180036545,
                        0.459168940782547
                    ],
                    [
                        -0.03261195123195648,
                        0.021002639085054398,
                        -0.09775751084089279,
                        -0.004726442042738199,
                        0.03791487216949463,
                        -0.01235983893275261,
                        -0.044901058077812195,
                        -0.013874352909624577,
                        0.05539610609412193,
                        -0.0438971146941185,
                        0.06705198436975479,
                        0.005269105080515146,
                        -0.0626097321510315,
                        -0.060541972517967224,
                        0.025406336411833763,
                        0.024769295006990433,
                        -0.0027059661224484444,
                        -0.030039044097065926,
                        0.04503487050533295,
                        0.009338595904409885,
                        -0.04126552864909172,
                        0.05679827556014061,
                        -0.1290135234594345,
                        0.008527337573468685,
                        0.12462124228477478,
                        0.16338147222995758,
                        -0.009387641213834286,
                        -0.08491778373718262,
                        0.03357764706015587,
                        -0.08727029711008072,
                        -0.184072345495224,
                        0.16952002048492432,
                        -0.10949163883924484,
                        -0.010641406290233135,
                        0.15499424934387207,
                        0.12509216368198395,
                        -0.07385959476232529,
                        0.015294081531465054,
                        -0.0028893982525914907,
                        0.033482588827610016,
                        -0.3048488199710846,
                        0.07352375239133835,
                        0.01381310448050499,
                        0.3445110321044922,
                        0.06432201713323593,
                        -0.9706703424453735,
                        0.4186006188392639,
                        0.7718696594238281,
                        0.07594224810600281,
                        0.08355941623449326,
                        -0.4145117402076721,
                        -0.11197736114263535,
                        -0.09960278123617172,
                        0.006539318710565567,
                        -0.027393944561481476,
                        0.27752116322517395,
                        0.17636531591415405,
                        -0.3068101704120636,
                        0.2259206920862198,
                        -0.4464981257915497,
                        -0.04270901530981064,
                        -0.03299317508935928,
                        -0.007826270535588264,
                        -0.023361075669527054,
                        0.216458261013031,
                        0.02453673630952835,
                        -0.03855060413479805,
                        0.016618188470602036,
                        0.05018329620361328,
                        -0.035549916326999664,
                        -0.006679458077996969,
                        -0.008123807609081268,
                        -0.14252625405788422,
                        -0.10168424248695374,
                        0.04040610045194626,
                        0.04741160199046135,
                        -0.008255432359874249,
                        -0.03824177011847496,
                        0.017760852351784706,
                        -0.014075489714741707
                    ],
                    [
                        0.03919902816414833,
                        -0.20690898597240448,
                        -0.14360660314559937,
                        0.0763973742723465,
                        -0.0028510885313153267,
                        0.015028387308120728,
                        0.01732548139989376,
                        -0.16896703839302063,
                        -0.03162951394915581,
                        -0.0017175899120047688,
                        -0.2755183279514313,
                        -0.05138188600540161,
                        0.042164430022239685,
                        0.09756819903850555,
                        -0.06711310893297195,
                        0.020857851952314377,
                        -0.16594809293746948,
                        0.018735582008957863,
                        -0.23426933586597443,
                        0.04357491061091423,
                        0.06428711861371994,
                        0.09562993794679642,
                        -0.02110014669597149,
                        -0.06016091629862785,
                        -0.004919929895550013,
                        -0.04916815459728241,
                        -0.06767375767230988,
                        0.1711668223142624,
                        -0.05967147275805473,
                        -0.0021770165767520666,
                        0.1198294535279274,
                        -0.12007655203342438,
                        0.058926261961460114,
                        0.13784587383270264,
                        -0.09622099250555038,
                        0.0004450409032870084,
                        0.07997067272663116,
                        -0.05518968030810356,
                        -0.02839416079223156,
                        -0.24302567541599274,
                        0.043756674975156784,
                        -0.2646733522415161,
                        0.2565799355506897,
                        1.3441909551620483,
                        0.28985175490379333,
                        -0.2771727740764618,
                        0.002155756577849388,
                        -0.3953559398651123,
                        0.5238102674484253,
                        0.10275660455226898,
                        0.02273574285209179,
                        0.09985796362161636,
                        0.0636202022433281,
                        -0.4624432623386383,
                        -0.06160684674978256,
                        -0.06507313251495361,
                        -0.5273198485374451,
                        -0.44744062423706055,
                        -0.43470194935798645,
                        0.9852935671806335,
                        0.03512127324938774,
                        0.14511863887310028,
                        -0.002997963922098279,
                        0.060994986444711685,
                        -0.0022745057940483093,
                        -0.021306416019797325,
                        0.026347756385803223,
                        0.29434478282928467,
                        -0.007133438717573881,
                        0.0025790054351091385,
                        -0.029141653329133987,
                        0.025621753185987473,
                        0.1655764877796173,
                        0.11193851381540298,
                        -0.026881985366344452,
                        0.01475612260401249,
                        0.03924230858683586,
                        0.015011661686003208,
                        -0.053620897233486176,
                        -0.02257794886827469
                    ],
                    [
                        0.16923408210277557,
                        -0.4912431240081787,
                        -0.38019898533821106,
                        0.4363499581813812,
                        0.17410899698734283,
                        0.4068867862224579,
                        0.1520071178674698,
                        -0.5866267681121826,
                        0.10599777102470398,
                        0.07808227837085724,
                        -0.502115786075592,
                        0.14439836144447327,
                        -0.02812943235039711,
                        0.23443685472011566,
                        0.35426515340805054,
                        0.16922231018543243,
                        -0.36344215273857117,
                        0.2495739758014679,
                        -0.35538527369499207,
                        0.43808549642562866,
                        -0.05120587348937988,
                        0.7573806643486023,
                        0.5141792893409729,
                        -0.06704827398061752,
                        0.3621653616428375,
                        0.06638910621404648,
                        0.07817679643630981,
                        1.0340656042099,
                        0.051848895847797394,
                        0.08031677454710007,
                        0.6984061598777771,
                        0.14962512254714966,
                        0.24255360662937164,
                        0.11822205036878586,
                        -0.05107322707772255,
                        0.09820321202278137,
                        0.4302862882614136,
                        -0.04269714653491974,
                        0.6278885006904602,
                        -0.0587335079908371,
                        0.1347280591726303,
                        -0.11629281938076019,
                        -0.11870890855789185,
                        0.19287338852882385,
                        -0.19553285837173462,
                        -0.6904518008232117,
                        0.09673603624105453,
                        -0.006793933920562267,
                        -0.0482252761721611,
                        -0.008563302457332611,
                        -0.006020821630954742,
                        -0.34337136149406433,
                        0.0894802138209343,
                        -0.4209766387939453,
                        0.06148654967546463,
                        0.06747474521398544,
                        0.18972530961036682,
                        0.13182447850704193,
                        0.13197264075279236,
                        -0.12726359069347382,
                        0.17330758273601532,
                        0.23748505115509033,
                        0.016863780096173286,
                        0.4532068967819214,
                        0.3373582363128662,
                        0.05814087763428688,
                        0.17015643417835236,
                        0.22901111841201782,
                        0.14519335329532623,
                        0.12942449748516083,
                        0.26035723090171814,
                        0.31361234188079834,
                        0.20994536578655243,
                        0.2984926998615265,
                        0.37116503715515137,
                        0.35281509160995483,
                        0.22931188344955444,
                        0.26149019598960876,
                        0.13447031378746033,
                        0.4356119930744171
                    ],
                    [
                        -0.19489924609661102,
                        0.4627435505390167,
                        0.20878790318965912,
                        -0.21980376541614532,
                        -0.05392284318804741,
                        -0.3244745433330536,
                        -0.04713360220193863,
                        0.3460506796836853,
                        -0.061659835278987885,
                        0.07724787294864655,
                        0.13563276827335358,
                        -0.1660270243883133,
                        -0.007377102039754391,
                        -0.011444428004324436,
                        -0.19497381150722504,
                        -0.06444422155618668,
                        0.13533063232898712,
                        -0.04779855161905289,
                        0.26126548647880554,
                        -0.31600427627563477,
                        -0.13118921220302582,
                        -0.4254331588745117,
                        -0.21413719654083252,
                        -0.31291571259498596,
                        -0.07095125317573547,
                        -0.244614377617836,
                        -0.11360201984643936,
                        -0.361184298992157,
                        0.10078170895576477,
                        0.14946222305297852,
                        -0.35214582085609436,
                        -0.29009154438972473,
                        -0.09375444054603577,
                        0.06521919369697571,
                        -0.12386072427034378,
                        -0.03314903751015663,
                        -0.4627441167831421,
                        -0.013876277022063732,
                        -0.20229685306549072,
                        -0.2709372341632843,
                        0.1869099885225296,
                        -0.034500036388635635,
                        -0.1083700954914093,
                        0.3678450882434845,
                        0.13590577244758606,
                        -0.2875715494155884,
                        -0.13417308032512665,
                        0.13098706305027008,
                        0.12180870026350021,
                        -0.5526950359344482,
                        -0.10773058980703354,
                        0.2107192873954773,
                        -0.03243846073746681,
                        -0.38664549589157104,
                        0.41305750608444214,
                        -0.11305917054414749,
                        0.047922275960445404,
                        0.13159625232219696,
                        -0.0015922236489132047,
                        0.10339746624231339,
                        -0.21642498672008514,
                        -0.02330009639263153,
                        0.2533712089061737,
                        -0.2175435870885849,
                        0.09568909555673599,
                        -0.01741347648203373,
                        -0.0551128163933754,
                        0.04036692529916763,
                        -0.06458378583192825,
                        0.06432659924030304,
                        -0.020495794713497162,
                        -0.26214599609375,
                        -0.19732780754566193,
                        -0.04335562139749527,
                        -0.18329405784606934,
                        -0.1061902865767479,
                        -0.14355351030826569,
                        -0.04963657632470131,
                        0.06074091047048569,
                        -0.3243006467819214
                    ],
                    [
                        0.004420530050992966,
                        0.027461254969239235,
                        0.0793466567993164,
                        -0.01002707052975893,
                        -0.015643246471881866,
                        -0.01374503318220377,
                        -0.009653428569436073,
                        0.2325981706380844,
                        0.06251487135887146,
                        0.014816522598266602,
                        0.01695314049720764,
                        -0.0029465490952134132,
                        0.00837397389113903,
                        -0.02302069216966629,
                        -0.03157081454992294,
                        -0.02264847792685032,
                        0.030315330252051353,
                        -5.7756413298193365e-05,
                        -0.032113440334796906,
                        -0.015236075036227703,
                        0.026572687551379204,
                        -0.016578787937760353,
                        0.11078382283449173,
                        -0.06514561921358109,
                        -0.04345358908176422,
                        -0.013197927735745907,
                        0.014700834639370441,
                        0.021857701241970062,
                        0.05195223167538643,
                        0.044786591082811356,
                        0.08343540132045746,
                        0.06186450272798538,
                        0.011440565809607506,
                        -0.036429643630981445,
                        0.025656042620539665,
                        -0.053248632699251175,
                        0.0702446773648262,
                        0.008056731894612312,
                        0.05033808946609497,
                        -0.09877859801054001,
                        0.07602617889642715,
                        0.157056525349617,
                        -0.047591011971235275,
                        0.6239956617355347,
                        0.06886857002973557,
                        -0.5453969836235046,
                        -0.17204007506370544,
                        -0.17410197854042053,
                        0.22250191867351532,
                        -0.2096482813358307,
                        0.47472503781318665,
                        -0.11982786655426025,
                        0.019546866416931152,
                        -0.26171332597732544,
                        -0.09101853519678116,
                        -0.06551496684551239,
                        0.0772889107465744,
                        -0.19904032349586487,
                        0.0936904326081276,
                        -0.3438129127025604,
                        -0.030685508623719215,
                        0.05807747319340706,
                        -0.043696727603673935,
                        -0.027272623032331467,
                        -0.026300527155399323,
                        -0.00946145597845316,
                        0.005968161392956972,
                        0.031531140208244324,
                        0.062839575111866,
                        0.03131167218089104,
                        0.005501810926944017,
                        -0.014170467853546143,
                        -0.01487260777503252,
                        -0.0032181674614548683,
                        -0.01650039106607437,
                        -0.04429157078266144,
                        -0.0014669859083369374,
                        -0.0035527434665709734,
                        -0.08902104198932648,
                        -0.0079503757879138
                    ],
                    [
                        0.06280035525560379,
                        -0.38261982798576355,
                        -0.25931620597839355,
                        0.14322218298912048,
                        0.017087550833821297,
                        0.13729624450206757,
                        0.03589864820241928,
                        -0.1106308251619339,
                        0.030599182471632957,
                        0.025894779711961746,
                        -0.1286635547876358,
                        0.08132096379995346,
                        0.04459612816572189,
                        0.04062073305249214,
                        0.1546965092420578,
                        0.06384392082691193,
                        -0.24568083882331848,
                        0.0595005564391613,
                        -0.12973329424858093,
                        0.15629959106445312,
                        -0.08677558600902557,
                        0.27271226048469543,
                        -0.02966844104230404,
                        0.0006278676446527243,
                        0.019691942259669304,
                        0.05127999186515808,
                        0.015839088708162308,
                        0.32545924186706543,
                        0.04672766849398613,
                        0.04928448423743248,
                        0.07233604788780212,
                        0.106545090675354,
                        0.09885953366756439,
                        -0.031581681221723557,
                        0.1131918802857399,
                        0.09159135073423386,
                        0.22556838393211365,
                        -0.02156170643866062,
                        0.10851910710334778,
                        0.06772372126579285,
                        -0.27134400606155396,
                        0.10514908283948898,
                        0.009666691534221172,
                        0.39835888147354126,
                        0.035678405314683914,
                        0.10302888602018356,
                        -0.35553625226020813,
                        0.19985398650169373,
                        -0.12482411414384842,
                        -0.07200782746076584,
                        -0.16368724405765533,
                        0.007119995541870594,
                        0.07474648952484131,
                        0.3564482033252716,
                        0.3613191545009613,
                        0.014820583164691925,
                        0.07927771657705307,
                        0.03272280842065811,
                        0.21485784649848938,
                        0.25003498792648315,
                        0.06975352764129639,
                        -0.05822664871811867,
                        -0.18854831159114838,
                        0.14475543797016144,
                        0.01233605295419693,
                        -0.09151128679513931,
                        0.03637353330850601,
                        -0.27788013219833374,
                        0.04236431419849396,
                        0.04928611218929291,
                        0.07390519976615906,
                        0.16323818266391754,
                        0.0747002437710762,
                        0.06270641833543777,
                        0.15626280009746552,
                        0.12779957056045532,
                        0.07943782210350037,
                        0.06432606279850006,
                        -0.12059938162565231,
                        0.1621677726507187
                    ],
                    [
                        -0.03164424002170563,
                        0.028577186167240143,
                        0.08936178684234619,
                        -0.03890031948685646,
                        0.017224378883838654,
                        -0.001725133741274476,
                        0.03556710109114647,
                        -0.01925792172551155,
                        -0.040684111416339874,
                        0.004066995345056057,
                        -0.13083156943321228,
                        0.12267845869064331,
                        0.005670229904353619,
                        0.0532962903380394,
                        -0.08744536340236664,
                        0.037777598947286606,
                        0.02295013703405857,
                        -0.07489410042762756,
                        -0.1264808475971222,
                        -0.04714276269078255,
                        -0.03122813254594803,
                        0.042879655957221985,
                        -0.057736240327358246,
                        -0.0027840351685881615,
                        -0.005356287583708763,
                        0.09196224063634872,
                        0.10872604697942734,
                        0.04132179543375969,
                        -0.14215312898159027,
                        0.0027527818456292152,
                        0.012985337525606155,
                        -0.16069932281970978,
                        0.017054392024874687,
                        0.021340372040867805,
                        0.0021277163177728653,
                        0.04260891303420067,
                        0.1366981416940689,
                        -0.06833336502313614,
                        -0.1570199579000473,
                        0.08018790930509567,
                        -0.008703058585524559,
                        -0.2839895784854889,
                        0.1615263819694519,
                        -0.20774662494659424,
                        0.10075588524341583,
                        2.821598768234253,
                        0.03401488810777664,
                        -0.26192113757133484,
                        0.1150379404425621,
                        -0.13854430615901947,
                        -0.4449058175086975,
                        0.7957828640937805,
                        -0.012013566680252552,
                        -0.0307569932192564,
                        -0.044595807790756226,
                        -0.05663303658366203,
                        -0.03471537306904793,
                        0.1194552332162857,
                        -0.05928749218583107,
                        0.5807824730873108,
                        -0.061702508479356766,
                        -0.07185731083154678,
                        -0.006274254526942968,
                        -0.010279486887156963,
                        -0.016863910481333733,
                        -0.16178755462169647,
                        0.051815371960401535,
                        -0.08271025121212006,
                        -0.17501847445964813,
                        -0.0014702904736623168,
                        0.03261997923254967,
                        -0.006596280261874199,
                        0.08960964530706406,
                        0.06489846855401993,
                        -0.07276450842618942,
                        0.04925508797168732,
                        -0.08552128821611404,
                        -0.07131966948509216,
                        -0.021453848108649254,
                        0.00794687494635582
                    ]
                ],
                [
                    0.4602036476135254,
                    -1.3975144624710083,
                    -0.5138019323348999,
                    1.0412321090698242,
                    0.3619718551635742,
                    0.9932297468185425,
                    0.4008694291114807,
                    -1.533319354057312,
                    0.28813815116882324,
                    0.2879560887813568,
                    -2.878659725189209,
                    0.35295403003692627,
                    0.11131258308887482,
                    0.6270396709442139,
                    0.868598461151123,
                    0.5853835940361023,
                    -0.7283188104629517,
                    0.6208436489105225,
                    -0.869579553604126,
                    1.0429182052612305,
                    0.06775835901498795,
                    1.640535831451416,
                    1.2365002632141113,
                    -0.19266706705093384,
                    0.6861904859542847,
                    0.10088053345680237,
                    0.24464182555675507,
                    2.4979560375213623,
                    0.14959026873111725,
                    0.2361125648021698,
                    3.1238574981689453,
                    0.32809290289878845,
                    0.7876635789871216,
                    0.22651487588882446,
                    -0.16487392783164978,
                    0.40610724687576294,
                    1.4772379398345947,
                    -0.09956122934818268,
                    1.417658805847168,
                    -0.23963570594787598,
                    0.5996687412261963,
                    -0.03704015910625458,
                    0.23164227604866028,
                    -0.17983850836753845,
                    -0.3958449959754944,
                    0.3248577415943146,
                    -0.058085665106773376,
                    -0.22349441051483154,
                    0.09208543598651886,
                    -0.5102198719978333,
                    0.0025280267000198364,
                    -0.5392228960990906,
                    0.548987865447998,
                    -0.23486213386058807,
                    0.12184908241033554,
                    0.7545192837715149,
                    -0.06453387439250946,
                    0.16489896178245544,
                    -0.1945754885673523,
                    -0.13117700815200806,
                    0.5564886927604675,
                    0.6220309734344482,
                    0.28167909383773804,
                    1.0948138236999512,
                    0.13556316494941711,
                    -0.467207670211792,
                    0.44716715812683105,
                    0.17329466342926025,
                    0.3963247835636139,
                    0.4392911195755005,
                    0.6413072347640991,
                    0.9480030536651611,
                    0.8633946180343628,
                    0.7862837314605713,
                    0.9061896800994873,
                    1.0186686515808105,
                    0.5165197253227234,
                    0.648095428943634,
                    0.37430378794670105,
                    1.043687105178833
                ]
            ]
        },
        {
            "type": "dense",
            "activation": "",
            "shape": [
                null,
                null,
                1
            ],
            "weights": [
                [
                    [
                        -0.03202386945486069
                    ],
                    [
                        0.07962474972009659
                    ],
                    [
                        -0.21889522671699524
                    ],
                    [
                        -0.023226823657751083
                    ],
                    [
                        0.06811287254095078
                    ],
                    [
                        -0.31376585364341736
                    ],
                    [
                        -0.0860498920083046
                    ],
                    [
                        0.1997523009777069
                    ],
                    [
                        -0.3440523147583008
                    ],
                    [
                        -0.0018815682269632816
                    ],
                    [
                        -0.7239289879798889
                    ],
                    [
                        -0.10090572386980057
                    ],
                    [
                        -0.007371488492935896
                    ],
                    [
                        -0.8924939632415771
                    ],
                    [
                        0.06877515465021133
                    ],
                    [
                        -0.10284881293773651
                    ],
                    [
                        -0.17105498909950256
                    ],
                    [
                        0.48705345392227173
                    ],
                    [
                        -0.03800803795456886
                    ],
                    [
                        -0.05541780963540077
                    ]
                ],
                [
                    0.04406805709004402
                ]
            ]
        }
    ]
}